tree
version=v4
num_class=1
num_tree_per_iteration=1
label_index=0
max_feature_idx=59
objective=regression
feature_names=Column_0 Column_1 Column_2 Column_3 Column_4 Column_5 Column_6 Column_7 Column_8 Column_9 Column_10 Column_11 Column_12 Column_13 Column_14 Column_15 Column_16 Column_17 Column_18 Column_19 Column_20 Column_21 Column_22 Column_23 Column_24 Column_25 Column_26 Column_27 Column_28 Column_29 Column_30 Column_31 Column_32 Column_33 Column_34 Column_35 Column_36 Column_37 Column_38 Column_39 Column_40 Column_41 Column_42 Column_43 Column_44 Column_45 Column_46 Column_47 Column_48 Column_49 Column_50 Column_51 Column_52 Column_53 Column_54 Column_55 Column_56 Column_57 Column_58 Column_59
feature_infos=[0:6] [0:5] [0:198] [0:10] [0:5] [0:2] [1:1749] [-1:1] [0:3] [1.250066876411438:2.0263426303863525] [1.2378247976303101:2.0617098808288574] [1.2376022338867188:2.0229930877685547] [1.2018756866455078:2.0700778961181641] [1.2523728609085083:2.0519764423370361] [1.2164689302444458:2.146345853805542] [1.2404338121414185:2.0926198959350586] [1.2454766035079956:2.0378186702728271] [1.2565609216690063:2.0267488956451416] [1.2029626369476318:2.1455183029174805] [1.2229450941085815:2.1066365242004395] [1.2791143655776978:1.9986720085144043] [1.2870436906814575:2.0682165622711182] [1.2426298856735229:2.1022436618804932] [1.2526693344116211:2.0997118949890137] [1.2322431802749634:2.1557555198669434] [1.1959550380706787:2.1204080581665039] [1.1927752494812012:2.1218852996826172] [1.1891951560974121:2.0669734477996826] [1.3109246492385864:2.016660213470459] [1.1807041168212891:2.0771667957305908] [1.2232304811477661:2.1232826709747314] [1.3225752115249634:2.0014653205871582] [1.3160591125488281:1.9641255140304565] [1.258259654045105:2.1298348903656006] [1.2814652919769287:2.0502464771270752] [1.2539757490158081:2.001039981842041] [1.2721823453903198:1.9800597429275513] [1.2610287666320801:2.0506389141082764] [1.3294636011123657:2.0122232437133789] [1.2921184301376343:1.9660999774932861] [1.2191058397293091:2.0414164066314697] [1.2463963031768799:1.9607211351394653] [1.2202389240264893:2.0580713748931885] [1.2425923347473145:2.0404753684997559] [1.2090858221054077:1.9779986143112183] [1.2214491367340088:2.0037026405334473] [1.315060019493103:1.9715585708618164] [1.2196609973907471:1.9827278852462769] [1.2925291061401367:1.9517573118209839] [1.1759778261184692:2.0510973930358887] [0:1] [-1:1] [-1:5] [-6:35] [0:7] [0:7] [0:6] [0:6] [-6:1] [-1:1]
tree_sizes=2888 2891 2891 2887 2878 2895 2884 2883 2894 2874 2901 2886 2853 2865 2868 2883 2875 2897 2896 2913 2879 2853 2864 2864 2899 2864 2921 2897 2897 2878 2857 2841

Tree=0
num_leaves=31
num_cat=0
split_feature=9 9 48 9 18 35 11 26 34 18 34 45 46 56 15 48 9 7 37 6 28 45 39 40 46 12 19 46 20 46
split_gain=842.986 261.065 141.951 70.6221 36.23 20.6184 17.0383 16.195 15.3783 13.2958 13.1387 11.8137 13.15 14.8057 11.329 11.2283 10.7209 10.2806 9.9047 9.83425 9.75877 9.71696 11.9326 14.6923 11.5911 10.607 11.088 10.2973 9.5681 8.97905
threshold=1.6059067845344546 1.7151597738265993 1.5088426470756533 1.6632269620895388 1.7808178067207339 1.434210002422333 1.5379760265350344 1.6269794702529909 1.7436625361442568 1.6141660809516909 1.6481311321258547 1.6731422543525698 1.6743617653846743 5.5000000000000009 1.5774711370468142 1.6974845528602602 1.7787953019142153 -0.12940952181816107 1.6846370100975039 63.500000000000007 1.6351861357688906 1.6167797446250918 1.6337969899177553 1.6232379674911501 1.6621613502502444 1.5920455455780032 1.6110088229179385 1.6208272576332095 1.6575294733047488 1.6559787392616274
decision_type=2 2 2 2 2 2 2 2 2 2 2 2 2 2 2 2 2 2 2 2 2 2 2 2 2 2 2 2 2 2
left_child=2 3 5 7 29 -1 -4 21 10 -8 15 12 13 18 -11 -5 19 -13 -9 -6 -19 22 23 25 -23 -2 -27 -24 -14 -3
right_child=1 4 6 8 16 -7 9 11 -10 14 -12 17 28 -15 -16 -17 -18 20 -20 -21 -22 24 27 -25 -26 26 -28 -29 -30 -31
leaf_value=-0.027909095169961408 0.022957349369318376 0.030192569441901858 -0.012067636234379292 0.00029034455806163775 -0.0045861348550801555 -0.01828920320776075 -0.0068004686942780331 0.0012876825313846685 0.027881023958701595 -0.011116752157254635 0.0062941810459689424 -0.009037990575630081 0.019138102564929781 0.025458505361609689 0.010716536230258559 -0.024131355459226074 0.02620417873562772 0.021081922249843291 0.020901599754418274 0.019233196448158716 -0.0014587249001815155 -0.0042944205666524942 -0.019480271001768478 0.016376839718164702 0.0061188615424755885 -0.0071868931935995858 0.0040287534645551074 -0.00081259926517044648 0.00023116623688115606 0.012485572491465903
leaf_weight=678 53 73 1623 295 52 3121 4161 6593 80 84 7409 467 191 65 203 56 793 58 65 260 279 3404 112 189 290 345 610 217 103 3719
leaf_count=678 53 73 1623 295 52 3121 4161 6593 80 84 7409 467 191 65 203 56 793 58 65 260 279 3404 112 189 290 345 610 217 103 3719
internal_value=-1.03572e-09 0.00475769 -0.0124259 0.00232095 0.015148 -0.020006 -0.00768257 6.63655e-05 0.00607122 -0.00608253 0.00584638 0.00150586 0.00216364 0.00171101 0.00432631 -0.003606 0.023115 -0.00423504 0.00147917 0.0152633 0.00242067 -0.00209039 0.00126599 0.00358398 -0.00347692 0.00118532 -2.29723e-05 -0.00716755 0.0125142 0.0128265
internal_weight=0 25778 9870 20881 4897 3799 6071 13041 7840 4448 7760 7821 7017 6723 287 351 1105 804 6658 312 337 5220 1526 1197 3694 1008 955 329 294 3792
internal_count=35648 25778 9870 20881 4897 3799 6071 13041 7840 4448 7760 7821 7017 6723 287 351 1105 804 6658 312 337 5220 1526 1197 3694 1008 955 329 294 3792
is_linear=0
shrinkage=1


Tree=1
num_leaves=31
num_cat=0
split_feature=9 9 48 9 18 18 17 11 39 18 33 21 45 9 28 39 30 49 19 16 27 9 49 6 26 44 53 10 30 41
split_gain=760.795 235.611 128.111 63.7365 32.6976 17.5398 16.5156 15.3771 13.2394 11.9994 14.6265 11.8746 11.3599 10.6018 10.5665 10.3737 11.6854 10.2572 11.0071 9.93024 13.1928 9.67557 9.60835 8.87541 8.85453 10.9776 8.7069 8.62915 8.62681 14.3279
threshold=1.6059067845344546 1.7151597738265993 1.5088426470756533 1.6632269620895388 1.7808178067207339 1.4556767344474795 1.6344498395919802 1.5379760265350344 1.734651565551758 1.6141660809516909 1.6155644655227663 1.6680357456207278 1.6162089109420779 1.6067454218864443 1.6626612544059756 1.6654410958290102 1.6332353353500368 1.6091233491897585 1.6229866147041323 1.5885605216026308 1.6012483835220339 1.7787953019142153 1.718538284301758 63.500000000000007 1.6755213141441347 1.6336762309074404 -4.4999999999999991 1.4728810191154482 1.7002011537551882 1.6838054060935976
decision_type=2 2 2 2 2 2 2 2 2 2 2 2 2 2 2 2 2 2 2 2 2 2 2 2 2 2 2 2 2 2
left_child=2 3 5 6 -3 -1 12 27 22 -9 19 -8 13 -2 -13 26 -17 18 -15 -11 -21 23 24 -6 -5 -26 -14 -4 -27 -30
right_child=1 4 7 8 21 -7 11 9 -10 10 -12 14 15 17 -16 16 -18 -19 -20 20 -22 -23 -24 -25 25 28 -28 -29 29 -31
leaf_value=-0.024951785068341437 0.020259340549508731 0.012185129714355597 -0.023376791672312099 0.0038110779917996927 -0.004356825867524514 -0.017064560087678652 0.0024954499661041111 -0.0064604444841558153 0.020735773487851539 -0.0011265187380240136 -0.01521610062161129 -0.010574975712842145 0.012285254523158075 -0.0077138327948356933 0.0022155776360867829 0.027834053412733373 -0.0012260796290568332 0.0046471575169506297 0.0065525197507764303 0.038959573012477954 0.0052305893041193485 0.024893971182133483 -0.00019835117479077483 0.018271537984793002 -0.01583763647079468 0.0091330430278771836 -0.0036827460679703045 -0.010348457070644896 0.012052965378169914 0.00029051204646782523
leaf_weight=935 75 3792 139 2733 52 2864 6019 4161 145 97 73 347 87 475 302 57 88 847 189 53 64 793 678 260 50 3052 4555 1484 383 799
leaf_count=935 75 3792 139 2733 52 2864 6019 4161 145 97 73 347 87 475 302 57 88 847 189 53 64 793 678 260 50 3052 4555 1484 383 799
internal_value=0 0.00451981 -0.0118046 0.00220491 0.0143906 -0.0190057 6.30477e-05 -0.00729844 0.00576766 -0.0057784 0.00410999 0.00180259 -0.00175702 0.00191043 -0.00462313 -0.0029721 0.0101976 0.000999668 -0.00365308 0.0107025 0.0205095 0.0219592 0.00548561 0.0145001 0.00603481 0.00745345 -0.00338348 -0.0114643 0.0077285 0.00410187
internal_weight=0 25778 9870 20881 4897 3799 13041 6071 7840 4448 287 6668 6373 1586 649 4787 145 1511 664 214 117 1105 7695 312 7017 4284 4642 1623 4234 1182
internal_count=35648 25778 9870 20881 4897 3799 13041 6071 7840 4448 287 6668 6373 1586 649 4787 145 1511 664 214 117 1105 7695 312 7017 4284 4642 1623 4234 1182
is_linear=0
shrinkage=0.05


Tree=2
num_leaves=31
num_cat=0
split_feature=9 9 48 20 18 35 26 12 9 34 45 46 18 33 35 24 15 40 26 21 26 30 48 58 47 11 34 44 36 46
split_gain=686.617 212.639 115.62 57.9487 29.5095 17.531 17.3223 13.9611 13.5485 12.8382 12.682 15.8508 12.2258 12.276 11.7723 11.6864 11.0091 10.7127 11.586 13.124 12.015 16.2756 15.1433 13.6085 12.1993 11.7471 12.5236 15.4853 10.6665 9.41386
threshold=1.6059067845344546 1.7151597738265993 1.5088426470756533 1.6617109179496767 1.7808178067207339 1.434210002422333 1.6269794702529909 1.5554341077804568 1.6502839326858523 1.7436625361442568 1.6731422543525698 1.6677585840225222 1.6141660809516909 1.6155644655227663 1.6939297914505007 1.6775299310684206 1.5774711370468142 1.6452339887619021 1.6422908902168276 1.6534073948860171 1.6665027737617495 1.6618047356605532 1.6525954008102419 -5.4999999999999991 1.6598342657089236 1.6904816627502444 1.6739422082901003 1.7062866091728213 1.7128702998161318 1.6864295005798342
decision_type=2 2 2 2 2 2 2 2 2 2 2 2 2 2 2 2 2 2 2 2 2 2 2 2 2 2 2 2 2 2
left_child=2 3 5 6 -3 -1 8 -4 -2 17 11 14 -9 16 -8 -12 -14 -5 19 -19 23 24 -23 -20 -22 26 27 -24 29 -28
right_child=1 4 7 9 -6 -7 10 12 -10 -11 15 -13 13 -15 -16 -17 -18 18 20 -21 21 22 25 -25 -26 -27 28 -29 -30 -31
leaf_value=-0.025342827591671443 -0.0019352027321229513 0.01157587296751874 -0.010237887808955216 -0.0020121175466635867 0.020861281155191397 -0.016472361300430668 0.001264682267711969 -0.0059682666126908285 -0.022804136944439595 0.025735910333596269 -0.0076088607141384925 0.010539862193776289 -0.0057603823074272699 -0.013489093725968685 0.020332493814753324 0.0065228566841075298 0.018305075259224788 0.035400811883230368 0.023336677225445634 0.010079408621370996 0.007221398352143857 0.016497123352613073 0.0059762172796427818 0.00028936045162348997 -0.010876380194188198 0.0040827571099826395 0.0095225880190691094 -0.021973296831238946 -0.0080542871639842084 0.018320758584702369
leaf_weight=678 5009 3792 2094 481 1105 3121 6301 3689 79 77 636 526 70 70 82 190 148 62 67 293 156 392 763 1454 231 2697 764 53 63 505
leaf_count=678 5009 3792 2094 481 1105 3121 6301 3689 79 77 636 526 70 70 82 190 148 62 67 293 156 392 763 1454 231 2697 764 53 63 505
internal_value=0 0.00429382 -0.0112144 0.00209466 0.0136711 -0.0180555 6.64002e-06 -0.00693352 -0.00225923 0.00541741 0.0014971 0.00219713 -0.00519368 0.00472808 0.00150964 -0.00435822 0.0105776 0.00522138 0.00568529 0.0145017 0.00524724 0.00631352 0.00704471 0.00130459 -0.00358115 0.00627994 0.00903868 0.00416087 0.0120269 0.0130238
internal_weight=0 25778 9870 20881 4897 3799 12823 6071 5088 8058 7735 6909 3977 288 6383 826 218 7981 7500 355 7145 5624 5237 1521 387 4845 2148 816 1332 1269
internal_count=35648 25778 9870 20881 4897 3799 12823 6071 5088 8058 7735 6909 3977 288 6383 826 218 7981 7500 355 7145 5624 5237 1521 387 4845 2148 816 1332 1269
is_linear=0
shrinkage=0.05


Tree=3
num_leaves=31
num_cat=0
split_feature=15 29 48 17 13 28 41 18 11 15 26 44 27 47 44 34 22 10 36 34 23 13 18 20 9 44 48 24 54 26
split_gain=619.937 196.627 103.217 40.394 37.808 14.6037 15.1993 14.5532 13.0938 13.6639 11.0872 13.5143 11.4473 10.5173 10.6706 15.6596 12.9067 10.4494 14.6863 10.142 13.1635 10.1002 10.0811 9.66061 14.1863 12.9177 12.5152 9.64746 9.17922 9.09884
threshold=1.6037390232086184 1.6995517015457156 1.5088426470756533 1.6349919438362124 1.7632287144660952 1.6745159029960635 1.6723977923393252 1.4556767344474795 1.5379760265350344 1.6016989946365359 1.7971659898757937 1.7327790260314944 1.7776926755905154 1.6414545178413393 1.6588252782821657 1.6675907373428347 1.6519528031349184 1.7184011936187746 1.6972790956497195 1.6505067944526675 1.6890264153480532 1.8507319688796999 1.7270032763481142 1.6868807077407839 1.690774738788605 1.6722639203071596 1.6774112582206728 1.6801030039787295 5.5000000000000009 1.6475247144699099
decision_type=2 2 2 2 2 2 2 2 2 2 2 2 2 2 2 2 2 2 2 2 2 2 2 2 2 2 2 2 2 2
left_child=2 3 7 27 10 6 28 -1 -4 -10 12 -12 17 -7 15 -15 -17 19 22 -3 -21 -6 -19 25 -25 -8 -27 -2 -5 -30
right_child=1 4 8 5 21 13 23 -9 9 -11 11 -13 -14 14 -16 16 -18 18 -20 20 -22 -23 -24 24 -26 26 -28 -29 29 -31
leaf_value=-0.022621578414959306 -0.001756080431707987 -0.011925142944923469 -0.010485335274764114 0.0027023746124008557 0.017155888581005013 -0.0074513973896296664 0.0037467392156285612 -0.015434067042718415 -0.0044698068352312988 -0.01583436176233494 0.043243481319111127 0.012608666450549394 -0.0077346114963293081 0.035861922904629917 0.0053059480247730452 -0.013623070278588466 0.013860863098031896 0.032142651333969874 0.010402883728403209 0.026695557258584919 0.0066085745434513289 0.031298780918335746 0.0083556955285144577 0.015128175556367519 -0.014887949964910184 -0.016462680847964824 -0.003591209137139552 0.019461908812324208 0.0058094749585367172 0.030391304927357171
leaf_weight=935 6772 70 1618 6891 1375 147 358 2854 4044 283 52 117 100 68 3491 51 263 137 2399 85 2016 139 66 153 53 271 623 54 104 59
leaf_count=935 6772 70 1618 6891 1375 147 358 2854 4044 283 52 117 100 68 3491 51 263 137 2399 85 2016 139 66 153 53 271 623 54 104 59
internal_value=0 0.00404115 -0.0107584 0.00150652 0.0115252 0.00319218 0.00201921 -0.0172077 -0.00664799 -0.00521309 0.00944451 0.0220348 0.00900786 0.00567586 0.0061741 0.014108 0.00939691 0.00935864 0.0114956 0.00679744 0.00742123 0.0184543 0.024409 -0.00262814 0.00740558 -0.00427906 -0.00749296 -0.00158823 0.00297978 0.0147072
internal_weight=0 25914 9734 19358 6556 12532 8512 3789 5945 4327 5042 169 4873 4020 3873 382 314 4773 2602 2171 2101 1514 203 1458 206 1252 894 6826 7054 163
internal_count=35648 25914 9734 19358 6556 12532 8512 3789 5945 4327 5042 169 4873 4020 3873 382 314 4773 2602 2171 2101 1514 203 1458 206 1252 894 6826 7054 163
is_linear=0
shrinkage=0.05


Tree=4
num_leaves=31
num_cat=0
split_feature=9 29 46 44 13 19 12 35 12 32 31 14 17 35 39 22 16 14 45 47 9 37 13 39 36 44 13 53 38 31
split_gain=561.577 175.574 89.2918 35.788 34.1217 19.0815 15.6251 14.1944 12.083 13.1018 17.1955 13.3542 12.9501 14.5627 14.2657 11.5158 10.8596 10.8407 18.5296 13.0357 17.7412 14.2966 11.1097 10.9813 10.8405 10.8968 10.6085 10.5964 10.5148 10.5037
threshold=1.6059067845344546 1.6995517015457156 1.4994847774505617 1.6460066437721255 1.7632287144660952 1.5405111908912661 1.7208592891693117 1.434210002422333 1.8022881150245669 1.7724059820175173 1.7559697031974795 1.7859126329421999 1.7540300488471987 1.7358633279800417 1.7553266882896426 1.7402316331863406 1.6785767674446108 1.6777096390724184 1.6731422543525698 1.7019850611686709 1.7083689570426943 1.7159705162048342 1.7055195569992068 1.6604278683662417 1.664259731769562 1.6346460580825808 1.8507319688796999 -5.4999999999999991 1.6058266162872317 1.6545814871788027
decision_type=2 2 2 2 2 2 2 2 2 2 2 2 2 2 2 2 2 2 2 2 2 2 2 2 2 2 2 2 2 2
left_child=2 3 7 16 8 -4 -6 -1 9 10 11 29 13 -12 15 -15 -2 18 28 22 -21 -22 23 -19 25 -18 -8 -20 -5 -3
right_child=1 4 5 17 6 -7 26 -9 -10 -11 12 -13 -14 14 -16 -17 24 19 27 20 21 -23 -24 -25 -26 -27 -28 -29 -30 -31
leaf_value=-0.023603837540607433 -0.0011238574762104144 -0.010222307476215066 -0.010531017080694122 -0.016102659318130465 0.045017142727971082 -0.0049602366973278385 0.015214356606861332 -0.015380772621294003 0.025516428753595662 -0.008219123407539013 0.0023204314473428225 0.02929193730121606 0.0061602369436751245 0.026697640990217528 0.016865731439754075 0.057548691283483978 0.0039316052877450295 -4.1986940249641594e-05 0.020042599426074462 -0.0043863653048929821 0.037100495040416723 0.0036876507982444226 -0.0008641608435406078 0.01060673573750336 -0.0034016841135564302 0.029874901154852775 0.029733841989537796 -0.0022079343464070623 0.0042908479634149619 0.0080648679773597156
leaf_weight=668 8754 80 2366 64 50 4388 1325 2448 108 113 57 73 138 60 102 61 79 281 55 524 50 89 322 1749 105 83 139 1972 5095 4250
leaf_count=668 8754 80 2366 64 50 4388 1325 2448 108 113 57 73 138 60 102 61 79 281 55 524 50 89 322 1749 105 83 139 1972 5095 4250
internal_value=0 0.00388321 -0.010142 0.00147333 0.0109489 -0.00691174 0.0175316 -0.0171436 0.00897228 0.00861015 0.00900461 0.00808454 0.0186962 0.0248746 0.0306396 0.0422506 -0.000820886 0.00350216 0.00244637 0.00601854 -0.000173801 0.0157067 0.00776408 0.0091327 0.0091125 0.0172235 0.0165929 -0.0016042 0.00403786 0.007727
internal_weight=0 25778 9870 19222 6556 6754 1514 3116 5042 4934 4821 4403 418 280 223 121 9021 10201 7186 3015 663 139 2352 2030 267 162 1464 2027 5159 4330
internal_count=35648 25778 9870 19222 6556 6754 1514 3116 5042 4934 4821 4403 418 280 223 121 9021 10201 7186 3015 663 139 2352 2030 267 162 1464 2027 5159 4330
is_linear=0
shrinkage=0.05


Tree=5
num_leaves=31
num_cat=0
split_feature=13 13 18 48 26 45 34 45 46 18 36 36 55 18 2 30 44 40 2 33 43 18 45 13 46 11 20 2 25 26
split_gain=500.693 188.34 53.0305 52.9158 27.9147 13.0606 12.8825 10.6266 13.5467 11.5995 10.3269 22.0712 9.69646 9.6693 9.54259 10.5809 9.62327 13.3221 9.34026 9.17134 13.5909 12.3668 9.04627 8.85513 8.74286 8.27791 11.5737 12.8049 11.8898 10.2244
threshold=1.586201071739197 1.6752462983131411 1.7588618993759157 1.5088426470756533 1.6269794702529909 1.4219112992286684 1.6505067944526675 1.6731422543525698 1.6646332144737246 1.6991206407546999 1.6673664450645449 1.6741253137588503 5.5000000000000009 1.7098492980003359 53.500000000000007 1.6605224013328554 1.6722639203071596 1.6794084906578066 2.5000000000000004 1.7477774620056155 1.6461596488952639 1.7270032763481142 1.6167797446250918 1.8507319688796999 1.6652663350105288 1.6904816627502444 1.6886264681816103 126.50000000000001 1.6734868884086611 1.6636723279953005
decision_type=2 2 2 2 2 2 2 2 2 2 2 2 2 2 2 2 2 2 2 2 2 2 2 2 2 2 2 2 2 2
left_child=3 4 6 5 22 -1 -3 8 9 12 18 -12 -6 -11 -9 -16 -17 -18 -8 20 -13 -21 -2 -4 -24 26 29 28 -28 -22
right_child=1 2 23 -5 7 -7 10 14 -10 13 11 19 -14 -15 15 16 17 -19 -20 21 25 -23 24 -25 -26 -27 27 -29 -30 -31
leaf_value=-0.021656191682965637 -0.00011162520795364247 -0.0039244202481122257 0.015249523773604157 -0.0072008401114969957 0.0011577481058352016 -0.014071088730349762 0.032507680182655652 -0.0071634059746379722 0.0077919128165387418 0.028894993101341138 -0.0039045166562904016 -0.019287577174603943 0.023252705909311774 0.0048896762359643652 -0.0060920299623272011 0.015765476105607128 -0.0081568917961198119 0.007506187650930642 0.011545949428472467 0.019683775931462914 -0.0022346380676912226 0.0077955236599695421 -0.0042898717528174922 0.028478848732953529 0.0052886361736685988 0.0058731702643183966 0.030912933414181071 0.03479396929563601 0.0089587169326305043 0.00970586189383877
leaf_weight=695 2675 271 1649 3968 7206 3094 60 584 1009 69 462 50 50 107 371 146 223 347 465 334 230 634 4360 137 252 4886 75 79 347 813
leaf_count=695 2675 271 1649 3968 7206 3094 60 584 1009 69 462 50 50 107 371 146 223 347 465 334 230 634 4360 137 252 4886 75 79 347 813
internal_value=0 0.00312502 0.00841607 -0.0112363 -6.5607e-05 -0.0154624 0.00680604 0.00163451 0.00235569 0.00161764 0.00715079 0.00670007 0.00131 0.0143009 -0.00200847 0.000761064 0.00431204 0.00137835 0.0139416 0.00735787 0.00667974 0.0118975 -0.00242483 0.0162643 -0.0037665 0.00688166 0.010073 0.0163191 0.0128605 0.00707277
internal_weight=0 27891 10492 7757 17399 3789 8706 10112 8441 7432 8435 7910 7256 176 1671 1087 716 570 525 7448 6480 968 7287 1786 4612 6430 1544 501 422 1043
internal_count=35648 27891 10492 7757 17399 3789 8706 10112 8441 7432 8435 7910 7256 176 1671 1087 716 570 525 7448 6480 968 7287 1786 4612 6430 1544 501 422 1043
is_linear=0
shrinkage=0.05


Tree=6
num_leaves=31
num_cat=0
split_feature=15 29 48 17 23 42 12 10 27 35 10 28 41 15 18 32 32 37 27 9 18 12 12 29 49 10 34 49 2 9
split_gain=460.06 145.722 75.9143 30.0562 28.6225 12.5256 14.9659 11.9357 11.4615 11.3824 11.1091 10.9078 13.2693 10.5067 10.9813 10.3333 14.8984 10.7094 9.94393 12.6668 9.873 10.4695 9.71318 9.57195 9.55028 9.16559 9.12963 10.3672 9.94683 10.9248
threshold=1.6037390232086184 1.6995517015457156 1.5088426470756533 1.6349919438362124 1.7715869545936587 1.7255600094795229 1.760741710662842 1.4728810191154482 1.7721571326255801 1.434210002422333 1.7184011936187746 1.6745159029960635 1.6723977923393252 1.6016989946365359 1.5747984051704409 1.6858732104301455 1.6703575253486636 1.7925130128860476 1.7353426218032839 1.7295935153961184 1.7084265947341921 1.736814081668854 1.5604924559593203 1.5590003132820132 1.6346381902694704 1.7511710524559023 1.7487282752990725 1.6990998983383181 111.50000000000001 1.7059096693992617
decision_type=2 2 2 2 2 2 2 2 2 2 2 2 2 2 2 2 2 2 2 2 2 2 2 2 2 2 2 2 2 2
left_child=2 3 9 22 10 8 -7 -4 -6 -1 18 12 -5 14 -9 16 -12 -17 19 20 21 -3 -2 -16 -13 -8 27 -26 -29 -30
right_child=1 4 7 11 5 6 25 13 -10 -11 15 24 -14 -15 23 17 -18 -19 -20 -21 -22 -23 -24 -25 26 -27 -28 28 29 -31
leaf_value=-0.020679710454930215 -0.020458631471476772 0.0082644532190009196 -0.020222147227191241 0.0026370951756127317 0.050087466348822302 -0.0017741965673929824 0.035478521228739714 -0.0069303399984781983 0.019370151290746585 -0.013521791266566434 0.0026286900174199491 -0.011884692293333721 -0.0026026909108642898 -0.014792499906965942 0.011149834547706737 0.0090721115015598586 0.03483766463306761 0.024555238606087094 -0.0046799169001834739 0.025418376819840795 0.0023396871394980017 0.030954794778868006 -0.0011838885779305191 -0.0031570594735150803 0.0063497830710094218 0.016098756708730996 0.025671092144868991 -0.0035627444798492975 0.0023298597451122034 0.025518178839736911
leaf_weight=676 66 868 139 7054 52 113 66 3039 73 3113 57 83 1458 283 123 3001 97 116 210 87 955 54 6760 2361 3021 807 54 585 210 67
leaf_count=676 66 868 139 7054 52 113 66 3039 73 3113 57 83 1458 283 123 3001 97 116 210 87 955 54 6760 2361 3021 807 54 585 210 67
internal_value=0 0.00348127 -0.00926789 0.00129927 0.0099241 0.017238 0.0153477 -0.00574278 0.0321486 -0.0147988 0.00843178 0.00275332 0.00173958 -0.00539614 -0.00491466 0.010273 0.0229162 0.00964832 0.00566151 0.00676726 0.00590277 0.00959339 -0.00137025 -0.00244863 0.00489982 0.0175639 0.00525367 0.00496973 0.000133159 0.00793859
internal_weight=0 25914 9734 19358 6556 1111 986 5945 125 3789 5445 12532 8512 5806 5523 3271 154 3117 2174 1964 1877 922 6826 2484 4020 873 3937 3883 862 277
internal_count=35648 25914 9734 19358 6556 1111 986 5945 125 3789 5445 12532 8512 5806 5523 3271 154 3117 2174 1964 1877 922 6826 2484 4020 873 3937 3883 862 277
is_linear=0
shrinkage=0.05


Tree=7
num_leaves=31
num_cat=0
split_feature=9 13 48 18 17 31 33 44 35 49 18 33 16 27 45 10 21 47 9 16 31 29 25 49 19 3 6 12 48 24
split_gain=416.057 130.674 68.8288 43.6215 13.1476 11.9372 16.5324 12.2272 11.3661 11.0055 10.9608 12.7276 12.3279 11.7113 10.9394 10.5271 9.63962 9.68797 9.59381 9.30809 10.6207 10.6159 10.3646 9.04318 10.482 8.81275 8.72765 8.65038 13.2723 13.4056
threshold=1.6059067845344546 1.6752462983131411 1.5088426470756533 1.7588618993759157 1.6339672207832339 1.6670189499855044 1.6612874269485476 1.6380247473716738 1.434210002422333 1.6843128800392153 1.6141660809516909 1.6201451420783999 1.5885605216026308 1.6012483835220339 1.6162089109420779 1.4728810191154482 1.635648310184479 1.6225163340568545 1.6067454218864443 1.6574359536170962 1.6638243794441225 1.6614696979522707 1.650484621524811 1.6091233491897585 1.6229866147041323 1.5000000000000002 470.00000000000006 1.6765187978744509 1.6997115015983584 1.6792556643486025
decision_type=2 2 2 2 2 2 2 2 2 2 2 2 2 2 2 2 2 2 2 2 2 2 2 2 2 2 2 2 2 2
left_child=2 4 8 5 14 6 7 -3 -1 -8 15 12 -12 -14 18 -4 19 -18 -2 20 21 -6 -21 24 -20 -25 -27 28 -7 -30
right_child=1 3 10 -5 16 27 9 -9 -10 -11 11 -13 13 -15 -16 -17 17 -19 23 22 -22 -23 -24 25 -26 26 -28 -29 29 -31
leaf_value=-0.019875643847394833 0.019692189653714498 -0.012074219591782563 -0.019606420669677486 0.014758771164645208 0.0042744129107897188 0.0050665753012783601 0.0002097701598144449 0.013656823470225352 -0.012733183148144263 -0.015586824640203481 -0.002930427086157877 -0.019161120769102129 0.035395847152297696 0.0051916449182275413 -0.0025829364986502553 -0.0055788396926271556 -0.017774850621387579 0.0010471540158118946 -0.0069619341074128732 0.032342022506054495 -0.012945495803602214 0.027111812624728907 0.0030255851515552457 -0.0013823612070440307 0.0071305592803925762 0.023339399614964021 0.0059816289693117143 0.0074447035684664375 0.0099976857417616357 -0.019239362437000945
leaf_weight=678 75 56 137 1786 1276 958 301 263 3121 174 122 50 60 69 4675 5633 69 7442 473 64 86 53 57 341 183 88 409 6770 58 121
leaf_count=678 75 56 137 1786 1276 958 301 263 3121 174 122 50 60 69 4675 5633 69 7442 473 64 86 53 57 341 183 88 409 6770 58 121
internal_value=0 0.00334243 -0.00872961 0.00764109 0.000394292 0.00618009 0.000335795 0.00913978 -0.0140079 -0.00557677 -0.00542666 0.0038751 0.00846399 0.0192401 -0.00137051 -0.0059119 0.00161231 0.000874245 0.00224205 0.00522143 0.00408323 0.00518516 0.0185318 0.00136604 -0.00303064 0.00480784 0.00905504 0.00676696 0.00273147 -0.00976591
internal_weight=0 25778 9870 10487 15291 8701 794 319 3799 475 6071 301 251 129 6244 5770 9047 7511 1569 1536 1415 1329 121 1494 656 838 497 7907 1137 179
internal_count=35648 25778 9870 10487 15291 8701 794 319 3799 475 6071 301 251 129 6244 5770 9047 7511 1569 1536 1415 1329 121 1494 656 838 497 7907 1137 179
is_linear=0
shrinkage=0.05


Tree=8
num_leaves=31
num_cat=0
split_feature=15 29 48 40 14 36 10 40 14 11 58 39 48 14 10 16 10 15 18 49 41 7 36 39 11 49 12 37 18 18
split_gain=376.519 119.576 61.4204 25.3482 24.4589 16.4512 15.378 11.1042 10.6046 14.1769 13.1355 10.5073 14.401 10.6508 10.3224 9.9929 9.66462 9.67578 9.5725 10.077 9.86756 9.23123 10.0356 9.32096 9.17354 9.0728 11.9398 13.2006 7.67222 7.57055
threshold=1.6037390232086184 1.6995517015457156 1.5088426470756533 1.6426080465316775 1.7935363054275515 1.599732041358948 1.7903018593788149 1.6403344273567202 1.8027439117431643 1.7734060883522036 -2.4999999999999996 1.6654410958290102 1.627341151237488 1.6438379883766177 1.8064211606979372 1.4642689228057864 1.4728810191154482 1.6016989946365359 1.5850570797920229 1.6035483479499819 1.6395325660705569 -0.7865660786628722 1.6586643457412722 1.5938891768455508 1.8580037951469424 1.6357092857360842 1.6226785778999331 1.6631153225898745 1.6518517732620241 1.7880945205688479
decision_type=2 2 2 2 2 2 2 2 2 2 2 2 2 2 2 2 2 2 2 2 2 2 2 2 2 2 2 2 2 2
left_child=2 3 15 7 6 -5 -3 11 -6 -10 24 21 -13 -14 -8 -1 -4 18 -18 -20 -21 -2 23 -23 -11 -9 -27 -28 -15 -16
right_child=1 4 16 5 8 -7 14 25 9 10 -12 12 13 28 29 -17 17 -19 19 20 -22 22 -24 -25 -26 26 27 -29 -30 -31
leaf_value=-0.016642541555695556 -0.0034555507724856002 0.0072606408655295539 -0.018242716338994693 -0.019999661388559433 0.030226612868283292 0.0028988731049029645 0.025853534152058405 0.0011241597274469362 0.031707255616046419 0.0094917516686491218 -0.011679742126060384 -0.015380326423794031 0.029427855188486642 -0.0094443336129188538 0.0028238279590929363 -0.011351121391313525 -0.0060140925936558367 -0.013918730506938651 0.0051390582208080057 -0.005199419621804288 0.005769618900015581 -0.0076755203405239935 -0.010506530882477171 0.0014196282945361932 0.026538470114043002 -0.032000325024127967 -0.0041154640993246666 -0.030202168330811619 0.0141772644628178 0.02434333780054319
leaf_weight=1438 2202 5482 139 79 139 11007 191 222 101 286 56 50 77 50 133 2351 3513 283 426 1342 242 300 202 4617 109 60 325 57 110 59
leaf_count=1438 2202 5482 139 79 139 11007 191 222 101 286 56 50 77 50 133 2351 3513 283 426 1342 242 300 202 4617 109 60 325 57 110 59
internal_value=0 0.00314937 -0.00838431 0.00117279 0.00898564 0.0027357 0.00793737 -0.000921781 0.0178831 0.0147748 0.0109829 -0.000380581 0.00900422 0.0141486 0.0176236 -0.0133593 -0.00521352 -0.00490159 -0.00443955 -0.00168763 -0.00352359 -0.000748487 0.000415989 0.000864708 0.0141958 -0.00712275 -0.0112649 -0.00800798 0.00679552 0.00943659
internal_weight=0 25914 9734 19358 6556 11086 5865 8272 691 552 451 7608 287 237 383 3789 5945 5806 5523 2010 1584 7321 5119 4917 395 664 442 382 160 192
internal_count=35648 25914 9734 19358 6556 11086 5865 8272 691 552 451 7608 287 237 383 3789 5945 5806 5523 2010 1584 7321 5119 4917 395 664 442 382 160 192
is_linear=0
shrinkage=0.05


Tree=9
num_leaves=31
num_cat=0
split_feature=12 13 47 13 26 12 44 12 45 54 12 32 31 19 14 15 22 7 2 48 24 2 41 49 36 31 41 33 19 2
split_gain=340.788 122.908 43.5458 35.8594 15.7141 11.804 10.7254 10.3972 10.1514 17.748 10.0991 11.3792 17.3069 11.7667 11.0543 10.0747 13.8251 14.6436 9.72453 9.41655 13.6044 14.0409 9.24702 13.0758 16.3496 10.7457 10.7538 9.58635 15.9335 9.18517
threshold=1.5908371806144717 1.6752462983131411 1.4975643754005434 1.7632287144660952 1.6281149983406069 1.7208592891693117 1.5274341106414797 1.6733634471893313 1.6731422543525698 5.5000000000000009 1.8022881150245669 1.7724059820175173 1.7559697031974795 1.7700469493865969 1.7859126329421999 1.6891922354698183 1.6822942495346072 -0.12940952181816107 51.500000000000007 1.7393186092376711 1.7168714404106142 35.500000000000007 1.6470906138420107 1.649852514266968 1.6673664450645449 1.6670189499855044 1.6999300718307497 1.700671970844269 1.6850489974021914 94.500000000000014
decision_type=2 2 2 2 2 2 2 2 2 2 2 2 2 2 2 2 2 2 2 2 2 2 2 2 2 2 2 2 2 2
left_child=2 4 -1 10 6 -5 -2 -8 9 -6 11 12 14 19 22 16 17 -10 -18 20 -14 -22 -3 24 -24 26 -25 28 -26 -19
right_child=1 3 -4 5 8 -7 7 -9 15 -11 -12 -13 13 -15 -16 -17 18 29 -20 -21 21 -23 23 25 27 -27 -28 -29 -30 -31
leaf_value=-0.013569185150540451 0.018003869408686809 -0.0046425901500101226 -0.0060815287164979089 0.035212416935061656 0.0017473542289238434 0.01311002378846831 -0.0017609646243253519 -0.021701195271629278 -0.0082171622972827454 0.019106220083932084 0.020658830639773182 -0.010075674646574518 0.0047246049368573776 -0.0027967209751541553 0.024612317632322443 -0.014445547464918468 -0.0051989503731631271 -0.0031344679908229495 0.013459787877740237 0.0081021235382650048 0.015078980720614735 0.043629967392910099 0.038735528136529619 0.0017130225376220224 0.017364505212754011 0.00553919731599423 -0.015739509904826129 0.025278715093930565 -0.019897245121403381 0.010704104792854014
leaf_weight=3087 68 238 5234 63 8023 1468 6874 66 690 150 112 115 62 74 73 153 99 265 237 128 73 105 63 483 64 7142 108 60 52 219
leaf_count=3087 68 238 5234 63 8023 1468 6874 66 690 150 112 115 62 74 73 153 99 265 237 128 73 105 63 483 64 7142 108 60 52 219
internal_value=0 0.00269765 -0.00885937 0.00694819 5.22974e-05 0.0140195 -0.00175698 -0.0019506 0.00134138 0.00206594 0.00573883 0.0055498 0.00575575 0.0153958 0.00524133 -0.00221959 -0.000980797 -0.00354027 0.00796212 0.0190541 0.0248952 0.0319209 0.00506909 0.00535903 0.0168775 0.00500304 -0.00147627 0.00905338 0.000660962 0.0031272
internal_weight=0 27327 8321 10483 16844 1531 7008 6940 9836 8173 8952 8840 8725 442 8283 1663 1510 1174 336 368 240 178 8210 7972 239 7733 591 176 116 484
internal_count=35648 27327 8321 10483 16844 1531 7008 6940 9836 8173 8952 8840 8725 442 8283 1663 1510 1174 336 368 240 178 8210 7972 239 7733 591 176 116 484
is_linear=0
shrinkage=0.05


Tree=10
num_leaves=31
num_cat=0
split_feature=15 9 15 22 14 14 44 34 15 12 22 10 49 12 14 11 58 49 27 28 10 42 14 13 30 44 18 18 15 9
split_gain=308.984 98.6152 51.8458 27.8423 16.2238 12.7051 11.9951 11.6024 11.2454 10.9745 11.7763 9.95491 10.1653 13.988 9.65485 11.7059 12.046 9.25319 8.36669 14.4533 8.17811 8.17313 8.36659 8.34411 10.515 10.2075 10.2794 13.13 9.81009 8.95682
threshold=1.6037390232086184 1.7151597738265993 1.4979634881019595 1.6525120139122011 1.7935363054275515 1.5329453945159914 1.6240640282630923 1.7374812364578249 1.6016989946365359 1.5604924559593203 1.5452680587768557 1.7903018593788149 1.7935977578163149 1.7947745919227602 1.8027439117431643 1.7734060883522036 -2.4999999999999996 1.718538284301758 1.7776926755905154 1.7880840301513674 1.5784018635749819 1.7228343486785891 1.6489172577857973 1.6752462983131411 1.7002011537551882 1.6722639203071596 1.7023109197616579 1.7124752402305605 1.7330431938171389 1.681321978569031
decision_type=2 2 2 2 2 2 2 2 2 2 2 2 2 2 2 2 2 2 2 2 2 2 2 2 2 2 2 2 2 2
left_child=2 3 -1 9 11 -4 -5 17 -7 -2 -11 18 13 -13 -6 -16 -17 21 -3 -20 -12 22 -8 25 -25 26 -24 -28 -26 -27
right_child=1 4 5 6 14 8 7 -9 -10 10 20 12 -14 -15 15 16 -18 -19 19 -21 -22 -23 23 24 28 29 27 -29 -30 -31
leaf_value=-0.013112804162565049 -0.019539292453083439 0.007926874426876715 -0.00868966175725862 -0.010926928098173175 0.028170500682207986 -0.0032521352271613155 0.010847903995620689 0.01923031420928651 -0.013519855224742972 0.023518464905030741 -0.013480716531013704 0.019602304052399554 0.03673425804078579 -0.0020761088891462845 0.02868939029308511 0.013006474994913196 -0.011768820655665228 -0.0022046354994644806 -0.0075303486488722815 0.021575137338152639 -0.00019084430070605057 0.018345055572296442 0.0025272568263484774 0.0061839964317321056 0.0017367847158263128 -0.00045574004145012615 0.033597055341928236 0.0038275069030730621 -0.018279917601209419 -0.012654577433473646
leaf_weight=2962 74 3558 1869 146 138 4620 381 116 283 52 117 230 50 110 102 396 56 702 203 54 10905 95 2669 3310 1050 1004 62 92 65 177
leaf_count=2962 74 3558 1869 146 138 4620 381 116 283 52 117 230 50 110 102 396 56 702 203 54 10905 95 2669 3310 1050 1004 62 92 65 177
internal_value=0 0.00285298 -0.00759524 0.00136412 0.00924289 -0.00518192 0.00329831 0.00351191 -0.00384479 -0.000348165 -0.000219924 0.00807541 0.0156843 0.0125887 0.0163372 0.0133896 0.00993697 0.00332212 0.00729757 -0.0014148 -0.000331918 0.00375781 0.00360051 0.00327292 0.00476937 0.00161912 0.003252 0.0158126 0.000569892 -0.00228402
internal_weight=0 25914 9734 21017 4897 6772 9869 9723 4903 11148 11074 4205 390 340 692 554 452 9607 3815 257 11022 8905 8810 8429 4425 4004 2823 154 1115 1181
internal_count=35648 25914 9734 21017 4897 6772 9869 9723 4903 11148 11074 4205 390 340 692 554 452 9607 3815 257 11022 8905 8810 8429 4425 4004 2823 154 1115 1181
is_linear=0
shrinkage=0.05


Tree=11
num_leaves=31
num_cat=0
split_feature=15 29 15 40 18 36 14 19 40 15 44 49 24 26 7 17 19 45 49 22 6 7 34 22 28 19 32 40 43 53
split_gain=278.858 89.8261 46.7909 19.4067 19.0348 14.2962 11.4664 10.8278 10.4191 10.149 9.53466 13.6561 10.0536 9.81939 9.05028 8.90301 9.28895 8.89594 14.3191 12.2261 9.4449 9.22889 8.61804 10.3604 14.9653 8.26301 13.6352 14.5093 10.514 10.3609
threshold=1.6037390232086184 1.6995517015457156 1.4979634881019595 1.6426080465316775 1.7955543994903567 1.599732041358948 1.5329453945159914 1.7393880486488345 1.6403344273567202 1.6016989946365359 1.7548146247863772 1.7853076457977297 1.8241714835166933 1.8061569333076479 0.91597560048103344 1.6344498395919802 1.5722308158874514 1.6167797446250918 1.6091233491897585 1.6254333853721621 309.50000000000006 -0.7865660786628722 1.6505067944526675 1.6752502322196963 1.6923481822013857 1.71499639749527 1.7076355814933779 1.6871461868286135 1.6903114914894106 -1.4999999999999998
decision_type=2 2 2 2 2 2 2 2 2 2 2 2 2 2 2 2 2 2 2 2 2 2 2 2 2 2 2 2 2 2
left_child=2 3 -1 8 22 -5 -4 -6 15 -8 13 -12 -13 -9 -14 16 -2 18 -18 20 -20 -21 -3 24 -24 -25 -27 29 -29 -28
right_child=1 4 6 5 7 -7 9 10 -10 -11 11 12 14 -15 -16 -17 17 -19 19 21 -22 -23 23 25 -26 26 27 28 -30 -31
leaf_value=-0.012457163907822718 -0.019536284092759742 -0.0081124854506924755 -0.0082551787527768393 -0.018829367682337762 -0.0020680435133330964 0.0025168233831298274 -0.0030895285748304508 0.016674087819727984 -0.0068421711888534565 -0.012843862809109183 0.0015468818046862171 0.031012299154763636 0.018488967724612372 0.039613907163341844 -0.0028977207094430923 0.0026408870170617701 -0.002935469752305062 -0.0025230417502075516 0.026562807800817406 -0.021349003935619348 0.0074497449661227819 0.0013981381000360985 0.041334544979738742 0.0041598330273829066 0.0047281347846580765 0.015679713144030386 0.0041687493054371957 0.030262770846486094 0.007131616812701626 -0.027245234397168347
leaf_weight=2962 69 96 1869 79 85 11007 4620 110 664 283 168 115 207 81 65 1912 906 3683 72 53 632 281 53 2036 59 515 53 50 2811 52
leaf_count=2962 69 96 1869 79 85 11007 4620 110 664 283 168 115 207 81 65 1912 906 3683 72 53 632 281 53 2036 59 515 53 50 2811 52
internal_value=0 0.00271033 -0.00721548 0.000997188 0.00776875 0.00236471 -0.00492282 0.0148402 -0.00083554 -0.00365255 0.0167668 0.0134507 0.0186183 0.0264025 0.0133782 -0.000311302 -0.00130228 -0.00107868 0.00165772 0.0056668 0.00940449 -0.00221144 0.0067423 0.00699564 0.0220508 0.00669001 0.00816988 0.00686592 0.00753587 -0.0113887
internal_weight=0 25914 9734 19358 6556 11086 6772 831 8272 4903 746 555 387 191 272 7608 5696 5627 1944 1038 704 334 5725 5629 112 5517 3481 2966 2861 105
internal_count=35648 25914 9734 19358 6556 11086 6772 831 8272 4903 746 555 387 191 272 7608 5696 5627 1944 1038 704 334 5725 5629 112 5517 3481 2966 2861 105
is_linear=0
shrinkage=0.05


Tree=12
num_leaves=31
num_cat=0
split_feature=15 14 15 13 17 19 44 21 47 30 24 31 47 37 4 16 19 17 14 17 15 24 42 49 48 46 36 36 15 44
split_gain=251.669 82.2958 42.2658 23.3885 12.0283 10.5091 11.6069 10.1936 9.87545 9.46287 11.4798 9.27651 13.7351 10.3002 10.048 9.63262 14.1008 9.8756 9.80584 8.7645 8.4239 10.9441 14.1859 14.1461 10.1904 9.62314 11.3539 8.7367 9.75163 8.29849
threshold=1.6037390232086184 1.6828309297561648 1.5074558854103091 1.7632287144660952 1.6349919438362124 1.784045994281769 1.7295137643814089 1.635648310184479 1.6228076815605166 1.6294732093811037 1.6315110325813296 1.6670189499855044 1.7052019238471987 1.6660189032554629 3.5000000000000004 1.6668959856033327 1.6741959452629092 1.6895300745964053 1.6838279962539675 1.7183923125267031 1.6254571080207827 1.6649985909461977 1.6346075534820559 1.6414110064506533 1.6299724578857424 1.6300748586654665 1.632138788700104 1.646563768386841 1.6406217217445376 1.6831593513488772
decision_type=2 2 2 2 2 2 2 2 2 2 2 2 2 2 2 2 2 2 2 2 2 2 2 2 2 2 2 2 2 2
left_child=2 4 -1 5 -2 11 -7 20 -9 -4 -11 12 14 29 -3 16 -15 -18 -17 -5 24 22 25 -24 -6 -22 -27 -25 -29 -13
right_child=1 3 9 19 7 6 -8 8 -10 10 -12 13 -14 15 -16 18 17 -19 -20 -21 21 -23 23 27 -26 26 -28 28 -30 -31
leaf_value=-0.011226439832271803 -0.0010747148719819041 -0.0011771051475225982 -0.0046932250721189658 0.027020274711552491 0.017377888790348121 0.032903298125084905 0.0050638773693488202 -0.015825521275617701 0.0011990448279031131 0.021889623555044334 -0.0046646222241976286 0.0098586653391348911 -0.020764027613324007 0.0065471006886047471 0.018663302617833801 0.022507356624392905 -0.030785376145955057 -0.0013908237289145307 0.0054058023348751453 0.011179251248046933 0.0024425307045812194 0.024013648682739586 -0.0081539060495215473 0.013982557515806422 -0.0061401576090914511 0.039066991932117025 0.01315804583998012 0.015115781846855367 -0.0093205377716442644 0.033022007442496976
leaf_weight=3526 6801 398 6044 93 57 72 78 86 8949 75 89 116 77 136 76 85 62 53 6044 1429 92 96 219 232 240 65 121 63 116 58
leaf_count=3526 6801 398 6044 93 57 72 78 86 8949 75 89 116 77 136 76 85 62 53 6044 1429 92 96 219 232 240 65 121 63 116 58
internal_value=0 0.00257481 -0.00685471 0.006512 0.000558317 0.00532981 0.0184268 0.00163284 0.001037 -0.00437166 0.00747909 0.00505331 -0.00117769 0.00557716 0.00200406 0.00524981 -0.0043506 -0.0172383 0.00564298 0.0121472 0.00577076 0.00795902 0.00626162 0.00211009 -0.00162659 0.0156698 0.0222122 0.00757923 -0.000720045 0.0175798
internal_weight=0 25914 9734 8777 17137 7255 150 10336 9035 6208 164 7105 551 6554 474 6380 251 115 6129 1522 1301 1004 908 630 297 278 186 411 179 174
internal_count=35648 25914 9734 8777 17137 7255 150 10336 9035 6208 164 7105 551 6554 474 6380 251 115 6129 1522 1301 1004 908 630 297 278 186 411 179 174
is_linear=0
shrinkage=0.05


Tree=13
num_leaves=31
num_cat=0
split_feature=9 9 46 44 14 39 42 19 13 14 11 58 35 9 15 28 11 49 14 44 39 47 19 35 32 24 30 38 44 49
split_gain=228.256 73.3625 39.469 22.0362 12.8851 9.63131 10.7326 8.89435 10.7515 8.8193 10.9218 10.8728 8.64014 8.47509 12.0673 7.97533 7.97046 7.29509 12.2046 7.36869 11.764 9.46185 12.2843 8.64708 15.4037 11.0503 10.0946 10.0047 16.4258 12.3803
threshold=1.6059067845344546 1.7151597738265993 1.4994847774505617 1.6460066437721255 1.7935363054275515 1.734651565551758 1.7029044628143313 1.5405111908912661 1.5744729638099673 1.8027439117431643 1.7734060883522036 -2.4999999999999996 1.434210002422333 1.6067454218864443 1.610148072242737 1.7199146151542666 1.8580037951469424 1.806661903858185 1.7649036049842837 1.7548146247863772 1.7215236425399782 1.7414203286170962 1.7352949976921084 1.6949906945228579 1.7049166560173037 1.713012218475342 1.7344392538070681 1.7424142360687258 1.7149962782859804 1.7068624496459963
decision_type=2 2 2 2 2 2 2 2 2 2 2 2 2 2 2 2 2 2 2 2 2 2 2 2 2 2 2 2 2 2
left_child=2 3 12 13 17 15 -7 8 -4 -6 -11 16 -1 14 -2 -5 -12 19 -19 23 -21 -22 -23 -3 25 -25 -27 -26 29 -29
right_child=1 4 7 5 9 6 -8 -9 -10 10 11 -13 -14 -15 -16 -17 -18 18 -20 20 21 22 -24 24 27 26 -28 28 -30 -31
leaf_value=-0.016161142822778869 -0.00021013433550610955 -0.0020785530777396384 -0.0061669666895649393 0.0026333806211100842 0.02561569350056242 -0.0011638925250234276 0.026667806176945221 -0.0029859348372987655 -0.025044125868962742 0.026267359774632782 0.0066985061671260343 -0.012467904881175076 -0.009745572961629461 -0.00085824338499929922 0.030654134665830779 -0.0067305381923657044 0.022580499094355545 0.0022471738452056671 0.035439748625303136 -0.019169668288480851 0.013783029970346077 -0.023669570893049243 0.0030141602122005385 0.032976533172895083 0.0048747404598722573 0.0066913447464289873 0.029484440025055049 0.0077011944443890548 0.0080364633977045245 0.035046831055267437
leaf_weight=668 81 222 2288 11446 138 58 86 4388 78 102 287 56 2448 8926 52 232 109 53 58 62 165 50 314 92 1952 184 66 66 810 111
leaf_count=668 81 222 2288 11446 138 58 86 4388 78 102 287 56 2448 8926 52 232 109 53 58 62 165 50 314 92 1952 184 66 66 810 111
internal_value=0 0.0024757 -0.00646591 0.00118397 0.00798369 0.00260583 0.0154578 -0.00431829 -0.00678929 0.014306 0.0114888 0.00815386 -0.0111209 -0.000671563 0.0118571 0.00244735 0.0110701 0.00694324 0.019591 0.00660033 0.00143595 0.00385098 -0.000651187 0.00747162 0.00811781 0.0181609 0.0127087 0.00694913 0.0110517 0.0248502
internal_weight=0 25778 9870 20881 4897 11822 144 6754 2366 692 554 452 3116 9059 133 11678 396 4205 111 4094 591 529 364 3503 3281 342 250 2939 987 177
internal_count=35648 25778 9870 20881 4897 11822 144 6754 2366 692 554 452 3116 9059 133 11678 396 4205 111 4094 591 529 364 3503 3281 342 250 2939 987 177
is_linear=0
shrinkage=0.05


Tree=14
num_leaves=31
num_cat=0
split_feature=26 14 9 39 18 18 6 34 29 20 2 7 45 40 15 40 34 34 44 26 32 27 42 37 55 27 42 28 37 13
split_gain=209.024 63.9811 47.9325 11.9148 11.571 10.058 9.12404 9.06376 12.1216 11.9246 9.98691 9.0227 12.2305 8.75857 8.49772 8.73177 11.832 8.41099 8.14105 8.07979 8.38959 7.57231 7.69496 7.5413 7.37087 7.22941 17.7932 7.64846 7.88278 11.8694
threshold=1.6269794702529909 1.5329453945159914 1.7163341045379641 1.7364128232002261 1.7955543994903567 1.4732021093368532 221.50000000000003 1.6591052412986758 1.6445919871330263 1.6503278613090517 133.50000000000003 1.0000000180025095e-35 1.6627683639526369 1.7115638256073 1.4932364821434023 1.5549196004867556 1.5009167194366457 1.6597253680229189 1.7135279774665835 1.7407714128494265 1.7017744779586794 1.6674267649650576 1.6654271483421328 1.6784399747848513 2.5000000000000004 1.7776926755905154 1.7849106788635256 1.7880840301513674 1.7288326025009157 1.7796764969825747
decision_type=2 2 2 2 2 2 2 2 2 2 2 2 2 2 2 2 2 2 2 2 2 2 2 2 2 2 2 2 2 2
left_child=1 5 3 7 25 6 -1 13 10 23 11 12 -9 -2 15 16 -3 -11 -5 -19 -21 22 -16 -10 -12 26 -4 28 -27 -30
right_child=2 14 4 18 -6 -7 -8 8 9 17 24 -13 -14 -15 21 -17 -18 19 -20 20 -22 -23 -24 -25 -26 27 -28 -29 29 -31
leaf_value=-0.00074492944873494208 0.00062515727698181345 -0.021452171054848455 0.0067293637453348506 0.007493378459773165 0.013037102861457676 -0.0078305619956446446 -0.014242185940360872 0.02047277123772151 -0.0067663006440335117 0.018089512350795034 0.037793457806110382 -0.003697758523954286 -0.0060553612767672935 -0.019778965188647218 -0.0022530113254566457 -0.028471936138926963 0.010358920892079673 0.00302198779243733 0.032304434799680523 0.0015902706608176232 -0.023027008448223599 -0.02152643953636289 0.0060941774142302682 0.0085192307674636439 0.012731905375987713 0.013215537413954734 0.033130194412974212 0.012650456421953791 -0.019783077312208582 0.0040788620904398465
leaf_weight=139 6868 57 3516 94 831 3231 1262 151 506 91 50 135 61 53 9925 61 60 7454 51 80 61 50 284 96 71 50 65 85 114 96
leaf_count=139 6868 57 3516 94 831 3231 1262 151 506 91 50 135 61 53 9925 61 60 7454 51 80 61 50 284 96 71 50 65 85 114 96
internal_value=0 -0.00447425 0.00327628 0.00195313 0.00767713 -0.00936479 -0.0129031 0.00182117 0.00289004 0.00244796 0.0107189 0.0064058 0.0128397 0.000468906 -0.0023038 -0.013135 -0.00513879 0.00297874 0.01622 0.00279769 -0.00905976 -0.00211587 -0.0020208 -0.00432874 0.0230879 0.00654261 0.00720857 -0.000369955 -0.00462663 -0.00887476
internal_weight=0 15069 20579 15822 4757 4632 1401 15677 8756 8288 468 347 212 6921 10437 178 117 7686 145 7595 141 10259 10209 602 121 3926 3581 345 260 210
internal_count=35648 15069 20579 15822 4757 4632 1401 15677 8756 8288 468 347 212 6921 10437 178 117 7686 145 7595 141 10259 10209 602 121 3926 3581 345 260 210
is_linear=0
shrinkage=0.05


Tree=15
num_leaves=31
num_cat=0
split_feature=12 13 47 18 44 26 45 54 12 15 34 20 7 23 33 47 27 21 16 24 2 37 25 5 37 34 36 44 24 15
split_gain=190.394 69.5463 25.0127 21.8608 9.19464 9.96486 9.60331 15.2371 9.54612 8.81974 11.6939 19.6167 9.07998 11.2045 14.4044 8.48826 8.27582 8.27447 7.85122 7.55262 7.25043 7.19988 10.0502 9.35134 7.02586 10.6323 9.22099 15.3678 10.8696 9.2144
threshold=1.5908371806144717 1.6752462983131411 1.4975643754005434 1.7588618993759157 1.5274341106414797 1.6281149983406069 1.6731422543525698 5.5000000000000009 1.6733634471893313 1.6924480199813845 1.6926506757736208 1.6722877621650698 0.60355338454246532 1.6519087553024294 1.6739318370819094 1.6789091825485232 1.6618797183036806 1.6583508253097536 1.6560574769973757 1.7117754817008974 95.500000000000014 1.4281679391860964 1.4456799626350405 1.5000000000000002 1.6672767996788027 1.6505067944526675 1.6741253137588503 1.6694419980049136 1.6792556643486025 1.6845918893814089
decision_type=2 2 2 2 2 2 2 2 2 2 2 2 2 2 2 2 2 2 2 2 2 2 2 2 2 2 2 2 2 2
left_child=2 4 21 18 -2 8 7 15 -6 10 12 -12 -8 -14 -15 19 -17 -9 -3 -7 -21 22 23 -1 25 -20 27 -26 -29 -30
right_child=1 3 -4 -5 5 6 9 17 -10 -11 11 -13 13 14 -16 16 -18 -19 24 20 -22 -23 -24 -25 26 -27 -28 28 29 -31
leaf_value=-0.017644651434742486 0.017732977862023328 -0.0099664377413459654 -0.0045166723701855474 0.010252259142148286 -0.0013194826166699637 0.00090688667267401532 -0.0048699553002349667 0.006823335390216039 -0.020426212448739645 -0.015374171976151506 -0.012030465084199722 0.026704533335710452 -0.016084020687084571 0.018865180780228818 -0.0072402508699415643 0.018408779453829672 -0.0007441878318786622 0.030574837154639302 -0.0025608792993711848 0.0030498553706066953 0.027836085176643207 -0.0092491659559323387 -0.029624851286973591 0.0013580302529512568 0.0061038165778986055 0.012384998922773303 0.0043881663057653902 -0.020904839106581429 0.011209731906652452 -0.0131848759111017
leaf_weight=208 73 97 5234 1786 6874 7664 1116 81 66 123 52 88 51 152 81 141 94 67 152 70 51 2679 106 94 280 548 7333 132 75 80
leaf_count=208 73 97 5234 1786 6874 7664 1116 81 66 123 52 88 51 152 81 141 94 67 152 70 51 2679 106 94 280 548 7333 132 75 80
internal_value=0 0.00201637 -0.00662197 0.00521373 2.64744e-05 -5.05976e-05 0.000973419 0.00167855 -0.00150119 -0.00248991 -0.00146084 0.0123172 -0.00283865 0.00514353 0.0097899 0.00138519 0.0107476 0.0175757 0.00417902 0.00110257 0.0134969 -0.0101915 -0.0163791 -0.0117299 0.00433857 0.00913961 0.00391316 -0.00223004 -0.0103606 -0.00138103
internal_weight=0 27327 8321 10483 16844 16771 9831 8168 6940 1663 1540 140 1400 284 233 8020 235 148 8697 7785 121 3087 408 302 8600 700 7900 567 287 155
internal_count=35648 27327 8321 10483 16844 16771 9831 8168 6940 1663 1540 140 1400 284 233 8020 235 148 8697 7785 121 3087 408 302 8600 700 7900 567 287 155
is_linear=0
shrinkage=0.05


Tree=16
num_leaves=31
num_cat=0
split_feature=16 32 33 15 40 44 24 45 44 11 42 42 46 34 30 13 7 17 17 27 31 47 40 34 21 37 24 29 30 53
split_gain=170.99 67.3483 17.7718 16.4486 11.6405 12.0285 12.7826 12.7224 12.4429 12.1839 12.0989 11.2174 9.77613 11.6852 8.98115 7.63078 7.5956 7.51826 7.48257 13.3448 7.33242 7.28327 8.4798 6.80225 14.493 7.97045 9.11783 7.25587 10.1568 10.8433
threshold=1.5730480551719668 1.6783248186111452 1.7690474390983584 1.4979634881019595 1.6452339887619021 1.6727814078330996 1.6766281723976137 1.6731422543525698 1.6857068538665774 1.7144321203231814 1.6715994477272036 1.6881499290466311 1.6977811455726626 1.6615291237831118 1.6173689961433413 1.6800173521041872 -0.6035533845424651 1.6496079564094546 1.6961038708686831 1.6887980699539187 1.6603138446807864 1.6744644045829775 1.6852009892463686 1.6657947301864626 1.6258605122566225 1.6625468730926516 1.6386492252349856 1.6692206263542178 1.6411240696907046 -1.0000000180025095e-35
decision_type=2 2 2 2 2 2 2 2 2 2 2 2 2 2 2 2 2 2 2 2 2 2 2 2 2 2 2 2 2 2
left_child=3 4 20 -1 23 9 8 -8 10 11 -7 -6 17 -14 -5 21 -12 -10 19 -17 -3 -9 -23 25 -25 -2 -27 28 -26 -30
right_child=1 2 -4 14 5 6 7 15 12 -11 16 -13 13 -15 -16 18 -18 -19 -20 -21 -22 22 -24 24 27 26 -28 -29 29 -31
leaf_value=-0.0097504418256319121 -0.0010252216945791776 -0.01125539928674698 0.010694091891875111 -0.0051711450106339081 0.002234419084140619 0.0018607592324833924 0.020955999585037882 -0.021039801862623012 -0.0083768276231629517 0.027251616343855856 -0.019195475912660607 0.02472536218618708 -0.026375306683846494 0.00593036932119152 0.013999630205874001 0.00027146809646543468 -0.0076340067194948019 0.012373212555592712 -0.0023576555469262059 0.026297730098114064 0.004448622523672824 0.0060923216398805387 -0.011356681887029617 0.029367520091208545 -0.0083090300266833415 0.0035085418241118994 -0.015706332870953098 -0.015729369811129337 0.000698402162048627 0.026763610822493084
leaf_weight=2955 10589 75 1252 4177 5536 199 88 56 56 50 242 56 55 57 62 106 344 198 153 92 8323 164 121 55 92 91 192 51 88 73
leaf_count=2955 10589 75 1252 4177 5536 199 88 56 56 50 242 56 55 57 62 106 344 198 153 92 8323 164 121 55 92 91 192 51 88 73
internal_value=0 0.00174121 0.00513686 -0.00688691 -1.39761e-06 0.00151358 -0.0018926 0.00304914 -0.00524147 0.00267936 -0.00879123 0.00245965 0.00237208 -0.00993403 -0.00489075 0.000771964 -0.0124085 0.0077984 0.00594714 0.0123645 0.00430837 -0.00455498 -0.00131585 -0.00102294 0.00574871 -0.00124654 -0.0095277 0.00147557 0.00494376 0.0125168
internal_weight=0 28454 9650 7194 18804 7573 1931 780 1151 5642 785 5592 366 112 4239 692 586 254 351 198 8398 341 285 11231 359 10872 283 304 253 161
internal_count=35648 28454 9650 7194 18804 7573 1931 780 1151 5642 785 5592 366 112 4239 692 586 254 351 198 8398 341 285 11231 359 10872 283 304 253 161
is_linear=0
shrinkage=0.05


Tree=17
num_leaves=31
num_cat=0
split_feature=26 14 25 22 17 47 31 38 30 45 45 10 31 34 2 18 6 40 25 26 31 44 37 54 26 20 45 24 24 13
split_gain=155.288 48.2275 36.2957 10.8053 12.2081 10.6992 17.3884 8.20665 7.98575 12.1946 9.9421 8.77325 10.5464 13.5032 8.56376 7.94753 8.00933 7.94198 7.81126 10.637 8.83068 7.7026 7.63754 7.54053 7.27222 8.15894 13.3454 12.2545 10.9406 10.8478
threshold=1.6269794702529909 1.5329453945159914 1.711567282676697 1.7649282813072207 1.7199908494949343 1.6662940382957461 1.6724195480346682 1.7479165196418764 1.7514627575874331 1.7412552237510683 1.7728187441825869 1.6926857233047488 1.6850654482841494 1.6955685615539553 101.50000000000001 1.4732021093368532 221.50000000000003 1.7385321259498598 1.7413640618324282 1.7900820970535281 1.7423889040946963 1.7460105419158938 1.7853927016258242 2.5000000000000004 1.7454122900962832 1.6729834675788882 1.6731422543525698 1.7117754817008974 1.6759076714515688 1.6982951164245608
decision_type=2 2 2 2 2 2 2 2 2 2 2 2 2 2 2 2 2 2 2 2 2 2 2 2 2 2 2 2 2 2
left_child=1 15 7 5 -5 23 -7 24 11 -10 17 -8 -13 14 -14 16 -1 -11 -6 22 -21 -19 -20 -4 25 26 27 -2 -28 -27
right_child=2 -3 3 4 18 6 8 -9 9 10 -12 12 13 -15 -16 -17 -18 21 19 20 -22 -23 -24 -25 -26 29 28 -29 -30 -31
leaf_value=0.00014355983987128992 0.0013641065778889861 -0.0019720886347239976 0.0081684033799430591 0.030609093100896906 0.023378928876999355 -0.018888622636978443 -0.0048976327336969832 0.021249867807019433 -0.0063894481517565568 0.00076007106074012156 -0.0066029572676794199 0.027971886355301429 -0.012671305431977854 0.0075107380366441368 0.0081895388265450803 -0.0067386619640610532 -0.012502351225532369 0.034943533301353455 -0.0023285430667388863 0.026606343263252216 0.0097578664066744012 0.011373612571474727 0.011913333503460443 0.028013272447193545 -0.011328034950505703 0.0047952344087555249 -0.0066973310006013644 0.02140321330010117 0.0024012604594230652 6.1397957567180559e-05
leaf_weight=139 8297 10437 115 70 90 78 168 53 351 101 102 58 143 2364 75 3231 1262 50 311 88 669 113 135 82 109 3577 974 77 500 1829
leaf_count=139 8297 10437 115 70 90 78 168 53 351 101 102 58 143 2364 75 3231 1262 50 311 88 669 113 135 82 109 3577 974 77 500 1829
internal_value=0 -0.00385648 0.00282391 0.00645236 0.0102716 0.00508244 0.00446207 0.00160871 0.00497876 0.000269127 0.00665481 0.00618133 0.00688635 0.0064127 -0.00549441 -0.00810247 -0.0112477 0.0117771 0.00917061 0.00810764 0.0117165 0.0186036 0.00198234 0.0164287 0.00154095 0.0016329 0.000776144 0.00154837 -0.00361097 0.00319365
internal_weight=0 15069 20579 5163 1363 3800 3603 15416 3525 717 366 2808 2640 2582 218 4632 1401 264 1293 1203 757 163 446 197 15363 15254 9848 8374 1474 5406
internal_count=35648 15069 20579 5163 1363 3800 3603 15416 3525 717 366 2808 2640 2582 218 4632 1401 264 1293 1203 757 163 446 197 15363 15254 9848 8374 1474 5406
is_linear=0
shrinkage=0.05


Tree=18
num_leaves=31
num_cat=0
split_feature=15 26 48 13 24 17 34 34 48 11 15 32 18 49 42 2 42 22 22 18 2 24 36 38 30 36 32 53 49 13
split_gain=141.111 47.2151 24.3697 16.5173 8.54393 8.06807 7.88202 10.5514 8.96946 7.77443 7.74021 7.49155 6.95698 9.92656 8.63048 8.34136 10.3937 7.09774 8.02918 8.05507 7.38622 7.04058 10.1409 8.75867 6.97229 6.68466 10.7392 7.57642 7.2594 9.08852
threshold=1.6037390232086184 1.6755213141441347 1.5088426470756533 1.7632287144660952 1.5761732459068301 1.7183923125267031 1.6475130915641787 1.6328106522560122 1.6594772934913637 1.7377312183380129 1.6016989946365359 1.6484282016754153 1.5850570797920229 1.6083357930183413 1.6410162448883059 170.50000000000003 1.6035121679306032 1.6091883182525637 1.6147143244743349 1.610081732273102 22.500000000000004 1.6057101488113406 1.611085116863251 1.6015298962593081 1.5908243060112002 1.599732041358948 1.6124073266983034 -5.4999999999999991 1.6936571002006533 1.6432049274444582
decision_type=2 2 2 2 2 2 2 2 2 2 2 2 2 2 2 2 2 2 2 2 2 2 2 2 2 2 2 2 2 2
left_child=2 9 4 6 -1 -5 7 8 -3 25 12 -8 15 -14 17 -4 -17 21 19 -19 -20 24 23 -23 -15 26 -2 -27 -29 -30
right_child=1 3 10 5 -6 -7 11 -9 -10 -11 -12 -13 13 14 -16 16 -18 18 20 -21 -22 22 -24 -25 -26 27 -28 28 29 -31
leaf_value=-0.0079919746707039878 -0.0026145011471313448 0.017395935012471109 -0.003590090879866629 0.024084659272127534 -0.028798446327447894 0.008486216287275165 0.016894542452480114 -0.010949642620072133 -0.006744783780944179 0.019894420906901359 -0.011205321495740448 0.0038751003514703218 0.0051125516776496975 0.0022780820853035666 0.0060740875338493776 -0.0038832144510439212 -0.033265326008269633 -0.030619625182589517 0.0087797384944897673 -0.0081821087892684687 -0.0089709568087684415 0.011863969825959254 0.021559684201819848 -0.014120296827133963 -0.0093930085731070423 0.011849912893499287 -0.023556022194848546 0.00046655005780458445 0.011485213408587686 -0.0076223803746942728
leaf_weight=3739 543 84 3525 88 50 1430 112 205 71 50 283 8201 585 226 238 68 54 72 79 90 227 62 73 68 295 142 69 14344 71 504
leaf_count=3739 543 84 3525 88 50 1430 112 205 71 50 283 8201 585 226 238 68 54 72 79 90 227 62 73 68 295 142 69 14344 71 504
internal_value=0 0.00192802 -0.0051328 0.00457897 -0.00826654 0.00939047 0.00373684 -0.00350638 0.00633793 0.000209778 -0.00313553 0.00405051 -0.00273219 -0.000374284 -0.0026189 -0.00403495 -0.0168884 -0.00435458 -0.00915344 -0.0181543 -0.00438826 -0.00125255 0.00664652 -0.0017278 -0.00433031 0.00014698 -0.00497555 0.000355133 0.000245725 -0.00526301
internal_weight=0 25914 9734 10191 3789 1518 8673 360 155 15723 5945 8313 5662 2015 1430 3647 122 1192 468 162 306 724 203 130 521 15673 612 15061 14919 575
internal_count=35648 25914 9734 10191 3789 1518 8673 360 155 15723 5945 8313 5662 2015 1430 3647 122 1192 468 162 306 724 203 130 521 15673 612 15061 14919 575
is_linear=0
shrinkage=0.05


Tree=19
num_leaves=31
num_cat=0
split_feature=12 13 49 18 44 43 31 16 37 31 41 22 34 40 6 10 25 18 40 40 25 45 2 47 38 53 30 44 48 13
split_gain=129.45 47.3813 18.6625 15.8679 8.75307 8.6732 7.46429 6.6778 7.09713 10.4973 9.86686 12.6905 9.0787 8.19678 6.65199 6.44032 11.6282 9.50266 9.12028 10.3312 8.4044 8.26504 9.20017 9.21675 8.62533 12.8082 15.5712 8.60882 8.02449 11.4872
threshold=1.5908371806144717 1.6752462983131411 1.4829370975494387 1.7588618993759157 1.5274341106414797 1.5477861762046816 1.5449278950691225 1.6560574769973757 1.6672767996788027 1.6746394634246828 1.706990718841553 1.662712097167969 1.6505067944526675 1.6563993096351626 953.00000000000011 1.6360913515090945 1.6421874761581423 1.6943355202674868 1.6490617394447329 1.6377014517784121 1.6288751363754275 1.6167797446250918 92.500000000000014 1.6149225234985354 1.647711515426636 -3.4999999999999996 1.6393111944198611 1.6105512976646426 1.6964403986930849 1.6721789240837099
decision_type=2 2 2 2 2 2 2 2 2 2 2 2 2 2 2 2 2 2 2 2 2 2 2 2 2 2 2 2 2 2
left_child=2 4 -1 7 -2 -6 -7 -3 12 10 11 13 -9 -10 -5 17 18 21 19 -17 -20 22 -8 27 -23 26 -26 -24 -18 -30
right_child=1 3 -4 14 5 6 15 8 9 -11 -12 -13 -14 -15 -16 16 28 -19 20 -21 -22 24 23 -25 25 -27 -28 -29 29 -31
leaf_value=-0.0090631737948888812 0.0172962576737755 -0.0096254374486269417 -0.0039040038688613176 0.0092061521818908795 -0.016583053956303415 0.014546816626733001 0.0067385233692684263 -0.0024192178108741677 0.0049484179884779697 0.0037481715488648509 -0.01970412179424956 0.0033162245360725874 0.011391584478644995 -0.018729745553329933 -0.0066273501858223173 0.0051461843412695376 0.00020529399158983569 0.020651795968413354 -0.0015550388460573944 -0.002776014731915773 0.01400855622826825 -0.0029881690828524534 -0.0013826769873152435 0.0012395970725222064 0.030832076088991019 -0.0010972517547883222 0.0016114537938023516 -0.017952497057955374 -0.0036039801897867676 -0.028713989406824115
leaf_weight=2510 73 97 5811 1717 79 88 583 152 51 7108 74 538 548 129 69 1166 6033 50 115 636 353 4923 193 1391 80 523 106 132 265 55
leaf_count=2510 73 97 5811 1717 79 88 583 152 51 7108 74 538 548 129 69 1166 6033 50 115 636 353 4923 193 1391 80 523 106 132 265 55
internal_value=0 0.00166263 -0.00546025 0.00430174 2.01615e-05 -5.50371e-05 2.31868e-05 0.0034202 0.00356734 0.00313978 -0.00232038 -0.000528745 0.00839267 -0.0120209 0.00859444 -5.37874e-05 0.000893577 -0.00107736 0.00396524 0.00235011 0.0101842 -0.00121435 0.00131198 -0.000531647 -0.0022456 0.00291046 0.0141795 -0.00811257 -0.000203964 -0.00791976
internal_weight=0 27327 8321 10483 16844 16771 16692 8697 8600 7900 792 718 700 180 1786 16604 8623 7981 2270 1802 468 7931 2299 1716 5632 709 186 325 6353 320
internal_count=35648 27327 8321 10483 16844 16771 16692 8697 8600 7900 792 718 700 180 1786 16604 8623 7981 2270 1802 468 7931 2299 1716 5632 709 186 325 6353 320
is_linear=0
shrinkage=0.05


Tree=20
num_leaves=31
num_cat=0
split_feature=12 49 9 39 42 44 45 14 10 21 35 31 38 10 24 10 31 2 34 2 28 21 15 12 18 45 2 47 4 30
split_gain=117.205 32.422 30.1601 9.16845 8.39075 9.34476 14.0848 11.9593 8.65685 17.2699 9.59291 8.77764 12.3873 10.8372 8.29065 8.05478 11.0151 8.61293 8.00974 7.84111 7.83171 7.76268 11.8869 9.07569 8.76929 9.78641 9.24522 9.14212 8.55979 11.3426
threshold=1.6221212148666384 1.532288193702698 1.7163341045379641 1.7364128232002261 1.7849106788635256 1.716382682323456 1.7247453927993777 1.7358744144439699 1.7565203905105593 1.7627137303352358 1.6911724209785464 1.7108405828475954 1.745088577270508 1.7305999994277956 1.5860629677772524 1.770092844963074 1.8018769025802615 111.50000000000001 1.7167078852653506 74.500000000000014 1.7228557467460635 1.6374091506004336 1.6525738239288332 1.6090387701988222 1.5850570797920229 1.6529415845870974 178.50000000000003 1.6221151947975161 3.5000000000000004 1.6405444145202639
decision_type=2 2 2 2 2 2 2 2 2 2 2 2 2 2 2 2 2 2 2 2 2 2 2 2 2 2 2 2 2 2
left_child=1 14 3 -2 5 6 8 -8 9 10 -4 18 13 -13 -1 -6 17 -17 -12 20 -10 24 23 -23 26 27 -3 -26 29 -29
right_child=2 21 4 -5 15 -7 7 -9 19 -11 11 12 -14 -15 -16 16 -18 -19 -20 -21 -22 22 -24 -25 25 -27 -28 28 -30 -31
leaf_value=-0.0067944490717221631 0.0011808381790916209 -0.0032399882298830168 -0.010082271784903056 0.013764011330443294 0.024314455556518892 0.0033315213665178092 0.035075635423555095 0.0084734215911123015 0.020411611672328869 -0.019755614046817242 0.02056525996764293 0.0083600764640439779 0.026100016683340072 -0.0057066539308193651 -0.025057594951183079 0.0061095396083848891 0.016297296414931977 -0.017700686905533076 -0.0007922619973358355 0.025240888023892273 -0.0018209573463536799 -0.00098917548749463788 0.0062694230709563611 -0.016394086710494075 0.0018801247688417279 0.010521305792626754 -0.022156668143967786 -0.0025571906191865844 0.008893239006118955 -0.023835029534529897
leaf_weight=4557 17076 3024 83 146 102 2768 85 84 69 69 191 312 60 244 63 158 228 50 57 104 93 141 121 297 2046 201 66 2930 159 64
leaf_count=4557 17076 3024 83 146 102 2768 85 84 69 69 191 312 60 244 63 158 228 50 57 104 93 141 121 297 2046 201 66 2930 159 64
internal_value=0 -0.00363548 0.00226095 0.00128751 0.00578513 0.00503525 0.00828536 0.0218532 0.00649678 0.00439445 0.00615406 0.0077138 0.00451611 0.00218691 -0.00704349 0.0116657 0.00870655 0.000385927 0.0156565 0.0145267 0.00764847 -0.00189551 -0.00760271 -0.011435 -0.00151973 -0.000304161 -0.00364403 -0.000722687 -0.00241167 -0.00301203
internal_weight=0 13669 21979 17222 4757 4219 1451 169 1282 1016 947 864 616 556 4620 538 436 208 248 266 162 9049 559 438 8490 5400 3090 5199 3153 2994
internal_count=35648 13669 21979 17222 4757 4219 1451 169 1282 1016 947 864 616 556 4620 538 436 208 248 266 162 9049 559 438 8490 5400 3090 5199 3153 2994
is_linear=0
shrinkage=0.05


Tree=21
num_leaves=31
num_cat=0
split_feature=26 19 25 13 40 46 49 44 22 32 37 31 25 34 45 0 14 31 38 14 49 7 31 27 3 12 47 44 22 7
split_gain=106.649 33.4808 25.0271 9.99777 8.55956 14.2506 13.7374 9.8783 11.9388 11.7493 10.5568 9.66263 8.64689 8.51855 8.27411 7.7834 10.946 7.97721 10.8213 7.63711 9.5236 15.7785 10.2426 8.10125 12.6733 9.9955 9.95847 10.4541 16.7995 14.4959
threshold=1.6269794702529909 1.5405111908912661 1.711567282676697 1.5744729638099673 1.7704078555107119 1.7450338006019595 1.758616626262665 1.7548146247863772 1.8036829829216006 1.7207762598991396 1.7584719657897951 1.7423889040946963 1.7772441506385805 1.4837440848350527 1.5591920018196108 3.5000000000000004 1.750401556491852 1.77505499124527 1.7595704197883608 1.6820119023323061 1.6582552790641787 -0.37940952181816096 1.6724195480346682 1.7182995080947878 5.5000000000000009 1.7042661905288699 1.6925839781761172 1.7135279774665835 1.744687080383301 1.0000000180025095e-35
decision_type=2 2 2 2 2 2 2 2 2 2 2 2 2 2 2 2 2 2 2 2 2 2 2 2 2 2 2 2 2 2
left_child=1 3 -2 13 7 -6 -7 8 19 -9 -10 -11 -8 14 -1 -13 -17 18 -18 -4 21 -21 -22 24 25 -24 -25 28 29 -28
right_child=2 -3 4 -5 5 6 12 9 10 11 -12 15 -14 -15 -16 16 17 -19 -20 20 22 -23 23 26 -26 -27 27 -29 -30 -31
leaf_value=-0.0088117796244256263 0.0013311590979776028 -0.0014463412811447096 -0.0080011042410677146 -0.023695298293378297 0.02772976894076299 -0.017241382799750449 0.023765888335483692 -0.023955760506104748 0.03686052300202261 0.015661615985963079 0.0070241388478150067 -0.015432951884965102 0.0069341559361885581 -0.0043167221280929402 0.011552262832136716 0.017983322978019713 -0.030265022086787899 0.0033596253664070516 0.001255283202044666 0.040214905230438011 -0.014152596199858017 0.002089272734933886 0.00087838255261120054 -0.0034768582147234038 0.0019620198008906482 0.019160406490750719 -0.0027276539031019066 0.0035221256737293493 0.029423876573287308 0.016242825614234197
leaf_weight=2273 15416 9715 110 82 103 51 93 53 56 90 63 90 425 2948 51 75 53 165 56 51 69 58 95 379 299 351 197 1870 105 206
leaf_count=2273 15416 9715 110 82 103 51 93 53 56 90 63 90 425 2948 51 75 53 165 56 51 69 58 95 379 299 351 197 1870 105 206
internal_value=0 -0.00319596 0.00234025 -0.0063707 0.00535324 0.0106162 0.00751834 0.00456573 0.00547056 -0.00151158 0.0210648 0.000737083 0.00995607 -0.00610123 -0.00836489 -0.00232262 0.00105827 -0.0035745 -0.0140711 0.00498093 0.00536898 0.0199279 0.00492458 0.00530046 0.0099267 0.0152663 0.00405035 0.00525002 0.0116106 0.00696942
internal_weight=0 15069 20579 5354 5163 672 569 4491 3909 582 119 529 518 5272 2324 439 349 274 109 3790 3680 109 3571 3502 745 446 2757 2378 508 403
internal_count=35648 15069 20579 5354 5163 672 569 4491 3909 582 119 529 518 5272 2324 439 349 274 109 3790 3680 109 3571 3502 745 446 2757 2378 508 403
is_linear=0
shrinkage=0.05


Tree=22
num_leaves=31
num_cat=0
split_feature=12 25 48 26 36 35 48 26 43 33 16 2 7 14 14 12 18 48 31 7 44 27 20 25 44 20 27 6 7 19
split_gain=96.7552 26.9859 24.5655 8.03225 8.95518 14.3311 12.3534 11.7771 10.1213 8.63486 9.16424 8.45005 7.98254 7.93723 9.06127 8.25187 7.89538 7.73744 11.4801 9.17666 8.56192 13.7312 12.299 14.0847 9.02905 9.62127 8.12436 9.93847 7.70048 7.67155
threshold=1.617512106895447 1.711567282676697 1.5088426470756533 1.6671962141990664 1.7168242335319521 1.7322441935539248 1.7040756940841677 1.70200651884079 1.7285720705986025 1.7202389836311343 1.7342054247856142 107.50000000000001 0.60355338454246532 1.7935363054275515 1.8027439117431643 1.7797728180885317 1.6472401022911074 1.6620102524757387 1.6724195480346682 0.60355338454246532 1.716382682323456 1.7089048027992251 1.7011131644248965 1.7282575368881228 1.73461389541626 1.7228511571884157 1.7524845004081728 621.00000000000011 -0.6035533845424651 1.7210537195205691
decision_type=2 2 2 2 2 2 2 2 2 2 2 2 2 2 2 2 2 2 2 2 2 2 2 2 2 2 2 2 2 2
left_child=2 3 -1 -2 8 6 -6 -7 9 10 16 -8 -11 17 -15 -16 -5 28 -19 -20 21 -21 -23 29 25 -22 27 -27 -3 -24
right_child=1 13 -4 4 5 7 11 -9 -10 12 -12 -13 -14 14 15 -17 -18 18 19 20 24 22 23 -25 -26 26 -28 -29 -30 -31
leaf_value=-0.0068699233230005265 0.00018596574083826098 0.025780412703525369 -0.0020660303559133534 -0.0050628998754513139 -0.019307749762827921 0.022737641135851541 0.008384731646489214 -0.0022503918968141078 -0.016253463000826099 0.01885784614972676 -0.01014781627637237 -0.01283135729202305 -0.0020735673606395721 0.021799807032959456 0.02282341972522035 0.0048706537792174232 0.0035026664795234394 -0.014611356650910727 0.0019856259408976488 -0.0088176543591544036 0.0083904698220166295 -0.00083868083588424188 0.021048819525715183 0.011437868256395483 0.0078270244382962467 -0.016729798782290074 0.0064769564254159948 0.0034404270821496059 0.0054574572584695294 0.044887740292878293
leaf_weight=3798 11076 82 8891 283 172 75 108 127 68 158 134 83 64 134 74 474 5450 82 2142 64 220 84 68 177 1006 171 113 95 108 67
leaf_count=3798 11076 82 8891 283 172 75 108 127 68 158 134 83 64 134 74 474 5450 82 2142 64 220 84 68 177 1006 171 113 95 108 67
internal_value=0 0.00193654 -0.0035039 0.00101345 0.00237692 -0.00364754 -0.00958784 0.00702734 0.00292976 0.00314399 0.00277773 -0.000834825 0.0128236 0.00511987 0.0101449 0.00729493 0.00307984 0.00435473 0.00391733 0.00427848 0.00665683 0.0126707 0.0161436 0.0207157 0.00493323 7.3196e-05 -0.00475477 -0.00952615 0.0142284 0.03288
internal_weight=0 22959 12689 17798 6722 565 363 202 6157 6089 5867 191 222 5161 682 548 5733 4479 4289 4207 2065 460 396 312 1605 599 379 266 190 135
internal_count=35648 22959 12689 17798 6722 565 363 202 6157 6089 5867 191 222 5161 682 548 5733 4479 4289 4207 2065 460 396 312 1605 599 379 266 190 135
is_linear=0
shrinkage=0.05


Tree=23
num_leaves=31
num_cat=0
split_feature=12 13 49 13 12 37 47 12 32 36 34 49 40 30 12 14 40 36 36 22 18 42 29 40 39 48 38 29 30 34
split_gain=88.2333 33.1094 13.3469 11.5319 10.1696 8.06711 8.66833 6.59858 12.8739 6.68666 8.8524 7.92019 12.764 10.1774 9.9177 8.06434 8.00103 8.10088 10.3691 9.70308 10.2586 9.56561 8.66387 8.58122 8.35373 18.7412 7.82327 7.42961 7.94044 7.01422
threshold=1.5908371806144717 1.6752462983131411 1.4829370975494387 1.7632287144660952 1.7208592891693117 1.5482863187789919 1.5765655040740969 1.8022881150245669 1.7724059820175173 1.7538111805915835 1.7796003222465517 1.683191239833832 1.693076550960541 1.6618047356605532 1.7237504720687868 1.773860812187195 1.6452339887619021 1.665493965148926 1.6741253137588503 1.6594004034996035 1.6636615395545962 1.6672176718711855 1.6658573746681216 1.6587025523185732 1.6686004400253298 1.6684549450874331 1.6775850653648379 1.671785354614258 1.6802808046340945 1.662109971046448
decision_type=2 2 2 2 2 2 2 2 2 2 2 2 2 2 2 2 2 2 2 2 2 2 2 2 2 2 2 2 2 2
left_child=2 5 -1 7 -5 6 -2 8 9 11 -11 12 16 -13 -14 29 -3 19 21 23 -21 22 -19 -18 25 26 -20 -22 -29 -15
right_child=1 3 -4 4 -6 -7 -8 -9 -10 10 -12 13 14 15 -16 -17 17 18 24 20 27 -23 -24 -25 -26 -27 -28 28 -30 -31
leaf_value=-0.0075548499834490017 0.0021650052142389324 -0.0059595913700168099 -0.0031918412540007796 0.027259847257168048 0.0067446379193900705 -0.00011181389819700071 0.025347363925538959 0.014953100859254068 -0.013879927999299504 0.01194740438567557 -0.0099318436715962761 -0.0118265572077722 0.027146587845076016 -0.0088692853022967616 0.0007384039039881724 0.015872353451132849 0.01318896631095207 0.018741260860430993 0.01590216484602908 0.036802013105941271 -0.0026147467270493507 -0.014310261150690871 -0.0039184492912042786 -0.015541201890742991 0.0039582634795762087 0.039631174369291831 -0.0088501461685217674 0.032353225196230004 0.0071701237712712852 0.0019292235918552737
leaf_weight=2510 109 189 5811 63 1468 16671 64 112 115 362 53 139 108 155 53 101 53 59 71 53 60 142 148 51 1643 55 58 58 68 5046
leaf_count=2510 109 189 5811 63 1468 16671 64 112 115 362 53 139 108 155 53 101 53 59 71 53 60 142 148 51 1643 55 58 58 68 5046
internal_value=0 0.00137265 -0.00450793 0.00357877 0.00758883 -3.46274e-07 0.0107411 0.00289296 0.00274016 0.00295923 0.00915319 0.0026499 0.00477565 0.00152901 0.0184532 0.00187915 0.00396247 0.00470692 0.00358117 0.0118487 0.0173961 -0.00431591 0.00254012 -0.000899866 0.0050897 0.0151927 0.00477322 0.0118665 0.0187623 0.00160741
internal_weight=0 27327 8321 10483 1531 16844 173 8952 8840 8725 415 8310 2869 5441 161 5302 2708 2519 2176 343 239 349 207 104 1827 184 129 186 126 5201
internal_count=35648 27327 8321 10483 1531 16844 173 8952 8840 8725 415 8310 2869 5441 161 5302 2708 2519 2176 343 239 349 207 104 1827 184 129 186 126 5201
is_linear=0
shrinkage=0.05


Tree=24
num_leaves=31
num_cat=0
split_feature=40 19 18 40 18 17 2 20 14 6 31 36 39 12 35 45 37 15 25 46 42 47 33 18 34 38 38 18 14 6
split_gain=80.9547 29.7045 16.5185 11.3483 10.6765 9.63715 12.4241 11.2168 10.1215 8.61657 8.22048 19.2407 8.184 7.64005 7.63345 7.36906 7.20701 11.1733 8.20126 10.17 8.88866 9.21752 8.47796 7.05571 6.67105 6.62207 6.52463 6.32312 6.37878 8.62706
threshold=1.6426080465316775 1.5508382320404055 1.7588618993759157 1.6377014517784121 1.6709373593330386 1.6344498395919802 15.500000000000002 1.6474382281303408 1.6550002098083498 116.00000000000001 1.5632808804512026 1.599732041358948 1.6094363927841189 1.6593501567840578 1.434210002422333 1.6316277384757998 1.6113765239715578 1.6242926120758059 1.6221338510513308 1.6284090280532839 1.6341415643692019 1.6419773697853091 1.6434348225593569 1.6282563805580141 1.6615291237831118 1.6489284038543703 1.6158968806266787 1.4978661537170412 1.6404046416282656 295.00000000000006
decision_type=2 2 2 2 2 2 2 2 2 2 2 2 2 2 2 2 2 2 2 2 2 2 2 2 2 2 2 2 2 2
left_child=1 12 10 5 9 7 -7 13 16 -5 -2 -12 14 24 -1 -9 -8 23 -19 -20 22 -22 -21 -18 27 -24 -11 -3 -29 -30
right_child=2 3 -4 4 -6 6 8 15 -10 26 11 -13 -14 -15 -16 -17 17 18 19 20 21 -23 25 -25 -26 -27 -28 28 29 -31
leaf_value=-0.010001471839642081 0.020824583881256874 -0.017180264554917814 0.0069399349641969393 -0.024354321470544227 0.010111631733288461 0.011158704633514087 0.015606702226075795 -0.0063273182975770465 -0.0088778786218582512 0.0084673197204132144 -0.016854857823328816 0.0019636165035209182 -0.022292224110237194 0.017040847536797323 -0.0044233288565984604 -0.027793986110363978 -0.0024589219162690231 0.022409913296412148 -0.0097484859286083112 0.020018694539305191 -0.011071099639241773 0.010415610163250849 -0.0071082320771639861 -0.025338270877572622 0.012754416961767032 0.01283384248698977 -0.0061655557644189687 -0.00055528338753505911 0.0042189431574835038 -0.010760603945921449
leaf_weight=697 57 60 1785 62 109 378 101 124 222 81 137 15891 70 60 5108 59 87 56 135 142 123 84 79 55 89 88 1280 7955 134 340
leaf_count=697 57 60 1785 62 109 378 101 124 222 81 137 15891 70 60 5108 59 87 56 135 142 123 84 79 55 89 88 1280 7955 134 340
internal_value=0 -0.00238888 0.00237658 -0.000953008 -0.00496988 -0.000359637 0.00327639 -0.000998549 0.000734142 -0.00612511 0.00187017 0.00180276 -0.00529802 -0.000739033 -0.00509309 -0.0132483 0.00298032 0.00147824 0.00404888 0.00246944 0.00566599 -0.00235186 0.0110372 -0.0113206 -0.000863397 0.00340017 -0.00529468 -0.00100617 -0.000891036 -0.00652588
internal_weight=0 17778 17870 11903 1532 10371 1550 8821 1172 1423 16085 16028 5875 8638 5805 183 950 849 707 651 516 207 309 142 8578 167 1361 8489 8429 474
internal_count=35648 17778 17870 11903 1532 10371 1550 8821 1172 1423 16085 16028 5875 8638 5805 183 950 849 707 651 516 207 309 142 8578 167 1361 8489 8429 474
is_linear=0
shrinkage=0.05


Tree=25
num_leaves=31
num_cat=0
split_feature=26 19 39 15 33 32 19 33 2 14 22 29 46 21 36 19 20 39 26 49 44 10 23 14 26 36 35 37 29 6
split_gain=73.5551 22.825 18.1472 9.60982 14.5552 10.5105 13.811 13.684 13.2529 11.9699 10.5573 11.1704 8.83924 8.91672 8.55982 8.55663 11.2466 8.10505 7.90587 8.39039 18.7898 11.0081 9.75897 7.90414 8.87374 7.66631 8.62066 8.04833 7.55384 7.43791
threshold=1.6269794702529909 1.5379784107208254 1.7066262364387514 1.6934055089950564 1.6864225268363955 1.7076355814933779 1.748352110385895 1.7158417105674746 31.500000000000004 1.6929373145103457 1.7277818918228152 1.7099524140357973 1.6764212250709536 1.73556524515152 1.6962234377861025 1.6968030333518984 1.7374269366264345 1.6087158322334292 1.7794950008392336 1.683191239833832 1.6857068538665774 1.7323384284973147 1.7010471820831301 1.6346285343170168 1.6435349583625796 1.6993145942687991 1.6981033682823183 1.6808495521545412 1.7040985226631167 38.500000000000007
decision_type=2 2 2 2 2 2 2 2 2 2 2 2 2 2 2 2 2 2 2 2 2 2 2 2 2 2 2 2 2 2
left_child=1 17 18 -4 14 6 9 8 10 -6 11 -7 13 -9 -5 -10 28 -1 19 20 21 -2 -23 -21 -25 26 27 -22 -17 -26
right_child=2 -3 3 4 5 7 -8 12 15 -11 -12 -13 -14 -15 -16 16 -18 -19 -20 23 25 22 -24 24 29 -27 -28 -29 -30 -31
leaf_value=-0.005135867971030059 0.0010873837423451367 -0.0012389422512719811 0.011303360291339201 0.0014794827804115475 -0.0070593999432665968 -0.0026515485919438877 0.036603611947328321 0.0018460127039124138 0.007437077468969453 0.014130771193039944 -0.011370044103744677 0.024191079234393936 0.0051199472277609331 -0.024057472282304215 -0.025978975016187178 -0.0018847772246831423 0.0094142676641543709 -0.025363994494080545 0.017468659955631842 -0.014469038012127081 0.020238614114730255 0.00028180172139743591 0.028995378874242306 0.012031336731583108 -0.017131635055152906 0.00063761973059644887 0.034804487354912851 0.0014440823845642131 -0.020059498464940369 -0.00088367502697451041
leaf_weight=5163 11007 9856 464 51 91 65 50 92 71 249 59 96 3679 52 64 77 54 50 73 108 138 53 67 131 72 102 53 97 222 3242
leaf_count=5163 11007 9856 464 51 91 65 50 92 71 249 59 96 3679 52 64 77 54 50 73 108 138 53 67 131 72 102 53 97 222 3242
internal_value=0 -0.00265417 0.00194352 0.00442168 0.00377946 0.00419574 0.0120675 0.00350847 -0.00323412 0.00845928 0.00672346 0.013354 0.00464429 -0.00750802 -0.0138017 -0.00840079 -0.0115863 -0.00532988 0.00105392 0.000974402 0.00162969 0.00125159 0.0163135 -0.00114971 -0.000732147 0.0124171 0.016589 0.0124809 -0.0153791 -0.00123668
internal_weight=0 15069 20579 5436 4972 4857 390 4467 644 340 220 161 3823 144 115 424 353 5213 15143 15070 11517 11127 120 3553 3445 390 288 235 299 3314
internal_count=35648 15069 20579 5436 4972 4857 390 4467 644 340 220 161 3823 144 115 424 353 5213 15143 15070 11517 11127 120 3553 3445 390 288 235 299 3314
is_linear=0
shrinkage=0.05


Tree=26
num_leaves=31
num_cat=0
split_feature=40 14 15 0 6 21 40 12 43 53 34 22 7 48 0 16 49 39 0 39 36 43 11 27 10 44 25 28 26 54
split_gain=67.0405 24.1723 14.0232 9.64763 10.243 8.94653 8.82895 10.7762 10.4161 9.84614 8.5102 8.49675 10.645 11.461 8.48408 8.33394 11.2565 9.55201 7.95055 7.83257 14.2705 7.71967 7.55778 7.44626 7.32843 6.96269 9.35296 11.4182 11.0169 12.9584
threshold=1.6426080465316775 1.5161015391349795 1.7481657266616824 5.5000000000000009 207.00000000000003 1.7811112999916079 1.6377014517784121 1.617512106895447 1.6369673013687136 13.500000000000002 1.6114035844802859 1.6713125109672549 -0.7865660786628722 1.6144317984580996 3.5000000000000004 1.6621220111846926 1.6315757632255556 1.6471412777900698 5.5000000000000009 1.5611740350723269 1.599732041358948 1.6300601959228518 1.6360833048820498 1.6579787135124209 1.4655535221099856 1.6350895762443545 1.6421874761581423 1.6278240680694582 1.6665027737617495 5.5000000000000009
decision_type=2 2 2 2 2 2 2 2 2 2 2 2 2 2 2 2 2 2 2 2 2 2 2 2 2 2 2 2 2 2
left_child=1 -1 5 -4 -5 19 7 8 24 11 -10 12 13 -9 21 -8 -17 -18 23 -2 -21 -15 -11 -14 -3 -22 -27 -28 29 -29
right_child=2 6 3 4 -6 -7 15 9 10 22 -12 -13 18 14 -16 16 17 -19 -20 20 25 -23 -24 -25 -26 26 27 28 -30 -31
leaf_value=-0.0056370434241670162 0.021097598297923223 -0.015743924023376571 0.0049629856679833662 0.0040025939529931007 0.030927191530109241 0.018404333684239774 -0.0063091333453285025 0.019047323904103703 0.0025590692858465693 0.0024496624129159111 -0.021100993325358364 -0.011793649300877285 0.0043006412560036488 -0.011283035190509898 0.0048746665277615044 0.023736696148460565 0.016058452668435433 -0.0096179219514131546 -0.0032656545034842571 -0.014363222536201595 -0.0059253158591066803 -0.0012061171983731188 0.017611057770348364 -0.012031997778427063 -0.0013935215998775417 0.0056634995746362958 0.015572452361562423 -0.0016040615797186055 0.0021996532917682452 0.0094302951505309662
leaf_weight=3926 51 90 2183 66 76 79 1308 54 55 175 123 134 2269 441 189 55 51 125 480 141 300 334 155 72 7742 1397 140 4006 9146 285
leaf_count=3926 51 90 2183 66 76 79 1308 54 55 175 123 134 2269 441 189 55 51 125 480 141 300 334 155 72 7742 1397 140 4006 9146 285
internal_value=0 -0.00217391 0.00216272 0.00578445 0.0184129 0.00162103 -0.00119237 -0.000746095 -0.00183025 0.00127204 -0.0137903 0.000582732 0.00101473 -0.00336817 -0.00462381 -0.00476289 0.00399246 -0.00217761 0.00259636 0.0015353 0.00147058 -0.00694021 0.00957092 0.00379831 -0.00155843 0.00161675 0.00176785 0.00136701 0.00121901 -0.000871181
internal_weight=0 17778 17870 2325 142 15545 13852 12313 8010 4303 178 3973 3839 1018 964 1539 231 176 2821 15466 15415 775 330 2341 7832 15274 14974 13577 13437 4291
internal_count=35648 17778 17870 2325 142 15545 13852 12313 8010 4303 178 3973 3839 1018 964 1539 231 176 2821 15466 15415 775 330 2341 7832 15274 14974 13577 13437 4291
is_linear=0
shrinkage=0.05


Tree=27
num_leaves=31
num_cat=0
split_feature=15 28 15 42 46 41 46 38 23 20 21 33 12 47 40 27 24 24 41 22 15 7 40 49 15 39 13 11 17 35
split_gain=61.0099 21.0904 11.65 9.33367 10.8438 8.24264 10.6947 10.4179 9.69426 9.44618 12.8946 12.0977 9.21921 9.15139 12.3892 12.8665 10.0297 9.05351 12.9879 8.36261 8.11095 7.74633 7.22313 7.96798 7.202 7.19384 7.56009 11.8434 8.0638 7.1498
threshold=1.6037390232086184 1.673868000507355 1.4979634881019595 1.7849106788635256 1.7450338006019595 1.6723977923393252 1.6621613502502444 1.6754146814346316 1.6606553196907046 1.6886264681816103 1.6924592256546023 1.6746265888214114 1.5604924559593203 1.6468605995178225 1.662287771701813 1.6772844791412356 1.6742486953735354 1.6775299310684206 1.6875272989273074 1.5546239614486697 1.6016989946365359 -0.7865660786628722 1.5659143328666689 1.528222441673279 1.6692022085189822 1.5938891768455508 1.6083611249923708 1.6043763160705569 1.6177439093589785 1.6939297914505007
decision_type=2 2 2 2 2 2 2 2 2 2 2 2 2 2 2 2 2 2 2 2 2 2 2 2 2 2 2 2 2 2
left_child=2 5 22 -3 -5 6 12 13 -9 11 -11 17 -2 -8 -15 16 -16 -7 24 -14 -4 -21 23 -1 -19 -23 27 -27 -29 -28
right_child=1 3 20 4 -6 9 7 8 -10 10 -12 -13 19 14 15 -17 -18 18 -20 21 -22 25 -24 -25 -26 26 29 28 -30 -31
leaf_value=-0.0061414057229878562 -0.018483822119992173 0.0026509250660345985 -0.0018689807299547064 0.028547588531644297 0.0067782656994474517 -0.0053218437912466617 -0.011156979861528908 -0.024405023211782631 0.0011903459980952002 0.018124334324608773 -0.0046370368722799052 -0.014683513555894881 0.018892821451743782 0.01223489299991587 0.0020983528426142691 -0.018030036278069022 0.021855059331534685 0.02247113759196041 -0.0066312472865307079 -0.0019069120492340827 -0.010501743949503756 -0.0070942357695405042 -0.018503951355143711 0.0054462097490289409 0.0014224618563757224 0.00015750111985503686 0.00054941146742637601 0.020846106271600613 0.0020945961208104396 0.016272080215076878
leaf_weight=2694 67 9932 6488 65 477 846 73 55 113 114 137 255 59 596 487 70 74 101 139 3644 284 276 111 157 68 316 7619 172 86 73
leaf_count=2694 67 9932 6488 65 477 846 73 55 113 114 137 255 59 596 487 70 74 101 139 3644 284 276 111 157 68 316 7619 172 86 73
internal_value=0 0.00126774 -0.003375 0.0029996 0.00938898 9.29054e-05 0.000493873 0.00452782 -0.00718909 -0.00323561 0.0057008 -0.00482754 1.28921e-05 0.006042 0.00706525 0.00218236 0.00470441 -0.00264966 0.00469016 0.000114099 -0.00223102 2.31796e-05 -0.00599049 -0.00550329 0.0140018 0.000846553 0.00111169 0.0066471 0.0145956 0.000698626
internal_weight=0 25914 9734 10474 542 15440 13780 1468 168 1660 251 1409 12312 1300 1227 631 561 1154 308 12245 6772 12186 2962 2851 169 8542 8266 574 258 7692
internal_count=35648 25914 9734 10474 542 15440 13780 1468 168 1660 251 1409 12312 1300 1227 631 561 1154 308 12245 6772 12186 2962 2851 169 8542 8266 574 258 7692
is_linear=0
shrinkage=0.05


Tree=28
num_leaves=31
num_cat=0
split_feature=16 34 34 13 12 41 46 27 10 44 23 49 20 16 36 30 37 30 22 37 18 36 30 49 49 7 46 16 43 44
split_gain=55.6842 23.6379 12.9321 11.1707 17.36 9.80959 9.30516 9.63631 13.2511 8.98392 9.28571 8.61477 9.84191 8.25045 10.7972 7.80967 7.78424 7.75417 7.75032 7.54481 7.04549 6.98188 8.97843 9.14337 13.8488 11.9635 10.5053 11.4621 8.8682 8.39396
threshold=1.5730480551719668 1.6663836240768435 1.6675907373428347 1.7632287144660952 1.7208592891693117 1.6875272989273074 1.6626413464546206 1.6614282131195071 1.6784568428993227 1.6460066437721255 1.5925819277763369 1.6629775166511538 1.6557291150093081 1.6081691980361941 1.6385118365287783 1.6734901666641238 1.6829389929771426 1.6173689961433413 1.6851081848144533 1.6512168049812319 1.4556767344474795 1.6530507206916811 1.6623329520225527 1.6709333062171938 1.6492132544517519 -0.7865660786628722 1.6390824317932131 1.6601049900054934 1.6461596488952639 1.6497305035591128
decision_type=2 2 2 2 2 2 2 2 2 2 2 2 2 2 2 2 2 2 2 2 2 2 2 2 2 2 2 2 2 2
left_child=17 5 11 13 -5 9 -7 -8 19 15 -11 12 -3 -4 -15 -2 -10 20 -12 -9 -1 29 23 24 26 -25 -23 -28 -24 -16
right_child=1 2 3 4 -6 6 7 8 16 10 18 -13 -14 14 21 -17 -18 -19 -20 -21 -22 22 28 25 -26 -27 27 -29 -30 -31
leaf_value=-0.0080206137439426117 -0.00067049884626671019 0.0075611780789019414 0.021688254951284486 0.035096180165076957 0.0054187800942540124 0.011737046593251373 -0.023675235938660954 0.017185960890668813 -0.02682364852871837 0.020729214139282706 0.0010131493854983089 0.0037788427725899965 0.033258522154740344 -0.016349522429859129 0.024983537910033909 -0.01281459163596381 -0.0040341354096713276 0.013675953844381916 0.0095891456374918443 -0.0046831443905830383 -0.0034559365667878698 0.010230357562760254 -0.011053941493493416 -0.021770741126189631 0.0071935885444172013 -0.0029012665052765181 -0.001230516826781707 -0.021012644367157551 0.0024103470802163043 0.0031194281756230027
leaf_weight=980 10992 69 52 51 1458 56 98 66 82 64 4217 128 81 82 71 134 69 62 281 98 6152 77 124 120 401 280 156 138 8894 115
leaf_count=980 10992 69 52 51 1458 56 98 66 82 64 4217 128 81 82 71 134 69 62 281 98 6152 77 124 120 401 280 156 138 8894 115
internal_value=0 0.000993646 0.00264555 0.00239895 0.00642179 -0.000263606 -0.00738906 -0.00998243 -0.00572244 -5.05869e-05 0.00181799 0.013307 0.0214377 0.00182136 0.00172257 -0.000816761 -0.0164099 -0.00393011 0.00154891 0.00411784 -0.00408316 0.00186539 0.00169016 -0.00242678 0.000752152 -0.00856211 -0.00621016 -0.010516 0.00222521 0.0114654
internal_weight=0 28454 12297 12019 1509 16157 469 413 315 15688 4562 278 150 10510 10458 11126 151 7194 4498 164 7132 10376 10190 1172 772 400 371 294 9018 186
internal_count=35648 28454 12297 12019 1509 16157 469 413 315 15688 4562 278 150 10510 10458 11126 151 7194 4498 164 7132 10376 10190 1172 772 400 371 294 9018 186
is_linear=0
shrinkage=0.05


Tree=29
num_leaves=31
num_cat=0
split_feature=13 34 33 41 15 13 38 40 41 35 42 35 12 35 38 20 15 3 18 6 15 10 17 39 28 41 29 39 34 33
split_gain=50.3838 20.5236 8.26835 7.73417 12.4818 10.0323 11.2922 9.77125 12.9686 9.73144 8.50168 7.56555 8.92789 7.37496 11.0872 8.29315 12.8517 8.24597 7.18046 9.08138 7.16244 8.35482 7.51358 9.46933 7.95627 7.33114 6.81485 6.56272 8.11007 8.49375
threshold=1.586201071739197 1.6739422082901003 1.7690474390983584 1.6875272989273074 1.6914510130882265 1.7022508382797243 1.6680796146392824 1.6614392995834353 1.6765439510345461 1.669736444950104 1.6942733526229861 1.6884581446647646 1.6826292872428896 1.6675885915756228 1.6843399405479433 1.6735826730728152 1.6578227877616885 2.5000000000000004 1.4732021093368532 221.50000000000003 1.6785606741905215 1.6769036054611208 1.6707964539527895 1.666669547557831 1.6478039622306826 1.653089225292206 1.4729138612747195 1.7523221969604494 1.7374812364578249 1.7840883135795595
decision_type=2 2 2 2 2 2 2 2 2 2 2 2 2 2 2 2 2 2 2 2 2 2 2 2 2 2 2 2 2 2
left_child=18 3 -3 4 10 6 9 -8 -9 -6 20 13 -13 15 17 16 -5 -15 19 -1 21 -2 24 -24 -23 -26 -21 28 -4 -30
right_child=1 2 27 11 5 -7 7 8 -10 -11 -12 12 -14 14 -16 -17 -18 -19 -20 26 -22 22 23 -25 25 -27 -28 -29 29 -31
leaf_value=0.0052750248408743317 -0.00019744092340705525 0.0022111606814991316 0.0014020379709468768 -0.010702267439013586 0.0094093436528164057 -0.0067870458092619771 0.033672873129447299 -3.4773398886670121e-05 0.031077991566568056 -0.016074272130544371 0.018530057511124454 -0.031968275994922107 -0.0063367040352705802 -0.016830632436488354 0.025279614037158445 -0.017650152406639467 0.014560989562973935 0.0078236236042061522 -0.0028504714945239507 -0.0063508741652836612 -0.0058214770392875613 0.018512804313961947 0.022700955100978415 0.0018680293634533883 -0.013144458677353605 0.0038675644211262961 -0.015670957646252197 0.0046564274365560833 0.028798860512296895 0.0063137436578316348
leaf_weight=140 14935 9377 91 133 134 94 75 91 53 52 61 52 98 56 51 118 81 86 6357 1017 542 56 120 100 98 179 243 983 105 70
leaf_count=140 14935 9377 91 133 134 94 75 91 53 52 61 52 98 56 51 118 81 86 6357 1017 542 56 120 100 98 179 243 983 105 70
internal_value=0 0.000991317 0.00272019 -7.27439e-05 0.000140719 0.00792874 0.0113443 0.0190385 0.0114165 0.00228489 -0.000100796 -0.00531919 -0.0152223 -0.00248972 0.00528278 -0.00700807 -0.00114001 -0.00189918 -0.00356437 -0.00680598 -0.000171694 2.60196e-05 0.00606107 0.0132314 0.00132389 -0.00215113 -0.00814832 0.00654179 0.0135091 0.0198048
internal_weight=0 27891 10626 17265 16590 499 405 219 144 186 16091 675 150 525 193 332 214 142 7757 1400 16030 15488 553 220 333 277 1260 1249 266 175
internal_count=35648 27891 10626 17265 16590 499 405 219 144 186 16091 675 150 525 193 332 214 142 7757 1400 16030 15488 553 220 333 277 1260 1249 266 175
is_linear=0
shrinkage=0.05


Tree=30
num_leaves=31
num_cat=0
split_feature=42 13 34 9 13 37 25 5 42 20 41 44 2 45 46 46 44 9 41 24 12 44 31 10 38 48 2 43 14 24
split_gain=45.9188 19.9604 8.29294 8.44288 7.8225 6.41883 6.86346 8.29475 6.33283 6.08649 5.94534 9.75111 6.02776 6.09714 5.53227 5.74057 12.3167 7.13985 8.83986 6.46237 6.5252 6.40094 10.8081 9.85496 9.59509 8.43792 12.2982 13.1289 9.30829 11.1124
threshold=1.5912477374076845 1.6752462983131411 1.5028936862945559 1.5280227661132815 1.8507319688796999 1.4281679391860964 1.4456799626350405 1.5000000000000002 1.5950428247451784 1.4481171965599062 1.6470906138420107 1.6465503573417666 111.50000000000001 1.6461348533630373 1.8044868111610415 1.7689874768257143 1.7902011275291445 1.8230996727943423 1.7627179026603701 1.7876407504081728 1.8022881150245669 1.7548146247863772 1.7525395154953005 1.7225654125213625 1.7636636495590212 1.7416015863418581 58.500000000000007 1.739484488964081 1.7323741912841799 1.7519336938858034
decision_type=2 2 2 2 2 2 2 2 2 2 2 2 2 2 2 2 2 2 2 2 2 2 2 2 2 2 2 2 2 2
left_child=5 2 -2 -4 10 6 7 -1 -5 -8 12 -12 13 -3 15 16 21 18 -17 -20 -21 22 24 -23 -13 26 -24 28 -28 -30
right_child=1 4 3 8 -6 -7 9 -9 -10 -11 11 14 -14 -15 -16 17 -18 -19 19 20 -22 23 25 -25 -26 -27 27 -29 29 -31
leaf_value=-0.011274951604150591 0.02000667780053382 0.003791249744113415 -0.018908893813689553 0.010667196379767525 0.014384946429083568 -0.0033492111749803006 -0.030566999493610292 0.0065954703045018178 -0.00020201550685858502 -0.0078033088621768084 0.020478809144543975 0.0020396804532227496 -0.02024728356717298 -0.01585415264345565 0.016215257048415505 -0.013529762841382444 0.017460268542703671 -0.019424124697956152 0.017382697060599295 -0.014038614554559454 0.008605650092552727 -0.022744115045802163 0.0045665692556404363 -0.0005443454859396595 0.022450570529326797 0.0006495536565708723 -0.0014838122508742592 0.035774172118763971 0.036958653426596093 0.0059892375984539588
leaf_weight=210 51 155 60 135 139 6206 63 94 18300 55 76 7935 52 53 73 91 138 61 71 57 72 55 304 549 58 259 77 83 56 60
leaf_count=210 51 155 60 135 139 6206 63 94 18300 55 76 7935 52 53 73 91 138 61 71 57 72 55 304 549 58 259 77 83 56 60
internal_value=0 0.000857611 -0.000127845 -0.000183366 0.00260253 -0.00375496 -0.00972196 -0.00574923 -0.00012242 -0.0199568 0.00244406 0.00263671 -0.0050211 -0.00121455 0.0025011 0.00240024 0.0026308 -0.00387075 -0.000610416 0.00526789 -0.00139996 0.00241392 0.00275447 -0.00256585 0.00218779 0.00815317 0.0115039 0.0191451 0.0119937 0.02094
internal_weight=0 29020 18546 18495 10474 6628 422 304 18435 118 10335 10075 260 208 9999 9926 9574 352 291 200 129 9436 8832 604 7993 839 580 276 193 116
internal_count=35648 29020 18546 18495 10474 6628 422 304 18435 118 10335 10075 260 208 9999 9926 9574 352 291 200 129 9436 8832 604 7993 839 580 276 193 116
is_linear=0
shrinkage=0.05


Tree=31
num_leaves=31
num_cat=0
split_feature=26 46 34 26 31 43 34 34 18 39 25 25 26 13 18 27 35 36 43 9 2 38 48 31 47 37 30 32 44 45
split_gain=42.7535 13.5035 10.819 11.0291 13.6357 9.00875 8.60008 16.5567 8.07148 12.6819 8.64669 11.3531 9.34299 8.53637 11.1759 12.8948 11.6393 8.85942 9.01955 11.6041 9.38814 8.31936 8.1473 7.49843 7.07175 6.69266 8.3664 8.3541 9.82295 7.76043
threshold=1.6269794702529909 1.4994847774505617 1.7374812364578249 1.7794950008392336 1.705915689468384 1.7614982128143313 1.7241259813308718 1.7304211258888247 1.7176447510719302 1.7329804897308352 1.711567282676697 1.7194260358810427 1.7130308151245119 1.7126713991165163 1.7588618993759157 1.738847076892853 1.7305148839950564 1.7301385998725893 1.7213749885559084 1.7408608198165896 133.50000000000003 1.7271699309349062 1.7209773659706118 1.4515452384948733 1.7371165752410891 1.7618898153305056 1.7514627575874331 1.7724059820175173 1.7384181022644045 1.7345332503318789
decision_type=2 2 2 2 2 2 2 2 2 2 2 2 2 2 2 2 2 2 2 2 2 2 2 2 2 2 2 2 2 2
left_child=1 -1 3 5 -5 -2 -6 -8 9 21 -10 -12 -13 -14 16 -16 -15 -18 -19 -20 25 -4 -11 -3 -24 26 29 28 -27 -21
right_child=2 23 8 4 6 -7 7 -9 10 22 11 12 13 14 15 -17 17 18 19 20 -22 -23 24 -25 -26 27 -28 -29 -30 -31
leaf_value=-0.0049556277613387253 0.00095403761219883549 0.016083762109760317 -0.0092298181219534446 0.034631000406108801 -0.0042814006474095508 -0.018294095843419678 0.035017740394581449 -0.0034367638117257966 -0.012849022070818309 0.031741168821252976 0.025624282250843816 -0.01714240069742556 0.02412704793261547 -0.015928455153885097 0.026308552086304289 0.0050661914747726997 0.020319614905331816 -0.016118538989685478 0.021687556757376745 0.014913593051401344 -0.021103407588659549 0.01599546313070907 -0.00029825405367920477 -0.0013498901979435119 0.024451430062590929 0.00052516752233107888 -0.015070360973477366 -0.0065896072262336333 0.027832534363212653 -0.009067593998606167
leaf_weight=3115 17599 62 88 50 109 61 55 57 79 83 59 54 51 115 76 1191 56 80 65 74 51 52 62 11892 54 60 100 63 73 62
leaf_count=3115 17599 62 88 50 109 61 55 57 79 83 59 54 51 115 76 1191 56 80 65 74 51 52 62 11892 54 60 100 63 73 62
internal_value=0 -0.00202352 0.00148173 0.00104116 0.0110515 0.000887552 0.00571678 0.0154471 0.00446501 0.0116694 0.00340728 0.00398318 0.00339505 0.00391891 0.00342007 0.0063404 -0.00121079 0.00126367 -0.000435584 0.0018539 -0.000815228 0.000139572 0.0197809 -0.00125947 0.0112232 0.0015799 -0.00409161 0.00840888 0.0155134 0.00398099
internal_weight=0 15069 20579 17931 271 17660 221 112 2648 339 2309 2230 2171 2117 2066 1267 799 684 628 548 483 140 199 11954 116 432 236 196 133 136
internal_count=35648 15069 20579 17931 271 17660 221 112 2648 339 2309 2230 2171 2117 2066 1267 799 684 628 548 483 140 199 11954 116 432 236 196 133 136
is_linear=0
shrinkage=0.05


end of trees

feature_importances:
Column_18=42
Column_44=39
Column_15=38
Column_34=35
Column_12=33
Column_13=32
Column_14=30
Column_49=30
Column_9=29
Column_26=28
Column_40=27
Column_36=25
Column_48=25
Column_45=24
Column_31=23
Column_2=22
Column_46=22
Column_10=21
Column_24=21
Column_39=21
Column_37=20
Column_19=19
Column_30=19
Column_47=19
Column_22=18
Column_35=18
Column_27=17
Column_42=17
Column_7=16
Column_17=16
Column_25=16
Column_20=15
Column_33=15
Column_38=15
Column_41=15
Column_11=14
Column_16=14
Column_29=14
Column_32=14
Column_6=13
Column_28=12
Column_21=11
Column_43=10
Column_53=7
Column_23=6
Column_54=5
Column_0=4
Column_58=4
Column_3=3
Column_4=2
Column_5=2
Column_55=2
Column_56=1

parameters:
[boosting: gbdt]
[objective: regression]
[metric: rmse]
[tree_learner: serial]
[device_type: cpu]
[data: ]
[valid: ]
[num_iterations: 10000]
[learning_rate: 0.05]
[num_leaves: 31]
[num_threads: 0]
[deterministic: 0]
[force_col_wise: 0]
[force_row_wise: 0]
[histogram_pool_size: -1]
[max_depth: -1]
[min_data_in_leaf: 50]
[min_sum_hessian_in_leaf: 0.001]
[bagging_fraction: 0.5]
[pos_bagging_fraction: 1]
[neg_bagging_fraction: 1]
[bagging_freq: 0]
[bagging_seed: 10961]
[feature_fraction: 0.8]
[feature_fraction_bynode: 1]
[feature_fraction_seed: 53]
[extra_trees: 0]
[extra_seed: 11644]
[early_stopping_round: 0]
[first_metric_only: 0]
[max_delta_step: 0]
[lambda_l1: 0]
[lambda_l2: 0]
[linear_lambda: 0]
[min_gain_to_split: 0]
[drop_rate: 0.1]
[max_drop: 50]
[skip_drop: 0.5]
[xgboost_dart_mode: 0]
[uniform_drop: 0]
[drop_seed: 30626]
[top_rate: 0.2]
[other_rate: 0.1]
[min_data_per_group: 100]
[max_cat_threshold: 32]
[cat_l2: 10]
[cat_smooth: 10]
[max_cat_to_onehot: 4]
[top_k: 20]
[monotone_constraints: ]
[monotone_constraints_method: basic]
[monotone_penalty: 0]
[feature_contri: ]
[forcedsplits_filename: ]
[refit_decay_rate: 0.9]
[cegb_tradeoff: 1]
[cegb_penalty_split: 0]
[cegb_penalty_feature_lazy: ]
[cegb_penalty_feature_coupled: ]
[path_smooth: 0]
[interaction_constraints: ]
[verbosity: -1]
[saved_feature_importance_type: 0]
[linear_tree: 0]
[max_bin: 255]
[max_bin_by_feature: ]
[min_data_in_bin: 3]
[bin_construct_sample_cnt: 200000]
[data_random_seed: 4071]
[is_enable_sparse: 1]
[enable_bundle: 1]
[use_missing: 1]
[zero_as_missing: 0]
[feature_pre_filter: 1]
[pre_partition: 0]
[two_round: 0]
[header: 0]
[label_column: ]
[weight_column: ]
[group_column: ]
[ignore_column: ]
[categorical_feature: ]
[forcedbins_filename: ]
[precise_float_parser: 0]
[parser_config_file: ]
[objective_seed: 602]
[num_class: 1]
[is_unbalance: 0]
[scale_pos_weight: 1]
[sigmoid: 1]
[boost_from_average: 1]
[reg_sqrt: 0]
[alpha: 0.9]
[fair_c: 1]
[poisson_max_delta_step: 0.7]
[tweedie_variance_power: 1.5]
[lambdarank_truncation_level: 30]
[lambdarank_norm: 1]
[label_gain: ]
[lambdarank_position_bias_regularization: 0]
[eval_at: ]
[multi_error_top_k: 1]
[auc_mu_weights: ]
[num_machines: 1]
[local_listen_port: 12400]
[time_out: 120]
[machine_list_filename: ]
[machines: ]
[gpu_platform_id: -1]
[gpu_device_id: -1]
[gpu_use_dp: 0]
[num_gpu: 1]

end of parameters

pandas_categorical:null
