tree
version=v4
num_class=1
num_tree_per_iteration=1
label_index=0
max_feature_idx=26
objective=regression
feature_names=Column_0 Column_1 Column_2 Column_3 Column_4 Column_5 Column_6 Column_7 Column_8 Column_9 Column_10 Column_11 Column_12 Column_13 Column_14 Column_15 Column_16 Column_17 Column_18 Column_19 Column_20 Column_21 Column_22 Column_23 Column_24 Column_25 Column_26
feature_infos=[0:6] [0:5] [0:198] [0:10] [0:5] [0:2] [0:28] [0:35] [0:7] [0:24] [0:5377] [0:49] [0:60] [0:195] [0:1] [0:1] [0:1] [0:1] [0:1] [0:1] [0:1] [0:1] [1:1749] [0:6] [0:1] [-1:1] [0:3]
tree_sizes=8617 8657 8722 8726 8724 8645 8701 8737 8663 8693 8646 8705 8763 8726 8644 8697 8739 8720 8755 8749 8710 8634 8761 8679 8822 8761 8673 8710 8789 8843 8787 8829 8692

Tree=0
num_leaves=95
num_cat=0
split_feature=5 5 25 24 3 22 11 2 3 13 24 22 22 23 10 0 8 3 16 9 4 2 26 18 6 22 3 2 25 26 12 3 13 6 2 23 26 3 7 2 0 13 11 2 6 22 22 22 13 2 13 3 3 6 23 22 2 3 13 25 26 6 3 2 22 3 18 25 22 0 26 19 13 2 22 23 2 22 6 9 2 10 22 10 0 11 9 13 11 9 22 22 18 25
split_gain=544.493 177.629 112.486 80.8734 45.508 39.075 38.3033 24.4937 19.5448 19.2227 21.5137 14.9235 14.6674 14.6496 12.5231 12.3089 12.0039 11.8616 11.467 11.0192 10.9636 12.4669 10.8861 9.68052 9.61114 9.57465 9.27472 9.09052 15.0574 9.4677 9.08019 8.92958 14.355 8.73772 8.766 8.67118 8.59405 8.58852 8.57845 11.476 14.0631 8.35271 8.19559 8.071 8.03273 7.83292 7.36405 11.9422 8.87963 8.33689 7.34437 10.5133 8.15527 7.28737 7.22887 7.14526 7.06744 7.04737 6.89678 6.79987 7.53276 13.0561 7.86188 6.67281 6.6274 9.24693 8.98455 6.56077 7.57855 6.72832 6.70786 6.54789 7.3379 6.65352 6.47884 8.60679 6.61106 6.34804 6.32633 6.99604 6.8515 6.32216 6.29535 6.24223 7.3101 6.2397 6.23294 6.2014 6.15986 6.14791 6.08829 6.08009 6.05717 6.04008
threshold=1.0000000180025095e-35 1.5000000000000002 0.60355338454246532 1.0000000180025095e-35 2.5000000000000004 116.00000000000001 4.5000000000000009 166.50000000000003 1.5000000000000002 37.500000000000007 1.0000000180025095e-35 923.00000000000011 289.00000000000006 5.5000000000000009 212.50000000000003 4.5000000000000009 3.5000000000000004 3.5000000000000004 1.0000000180025095e-35 11.500000000000002 1.0000000180025095e-35 163.50000000000003 1.5000000000000002 1.0000000180025095e-35 5.5000000000000009 309.50000000000006 4.5000000000000009 56.500000000000007 0.12940952181816107 1.0000000180025095e-35 7.5000000000000009 1.5000000000000002 98.500000000000014 6.5000000000000009 170.50000000000003 1.0000000180025095e-35 1.0000000180025095e-35 1.5000000000000002 4.5000000000000009 132.50000000000003 3.5000000000000004 62.500000000000007 1.0000000180025095e-35 159.50000000000003 2.5000000000000004 57.500000000000007 168.50000000000003 152.00000000000003 84.500000000000014 124.50000000000001 149.50000000000003 2.5000000000000004 4.5000000000000009 1.5000000000000002 2.5000000000000004 82.500000000000014 172.50000000000003 6.5000000000000009 174.50000000000003 0.91597560048103344 1.5000000000000002 1.0000000180025095e-35 1.0000000180025095e-35 34.500000000000007 624.50000000000011 3.5000000000000004 1.0000000180025095e-35 -0.98296290636062611 600.50000000000011 4.5000000000000009 1.5000000000000002 1.0000000180025095e-35 144.50000000000003 19.500000000000004 571.50000000000011 3.5000000000000004 138.50000000000003 99.500000000000014 1.0000000180025095e-35 3.5000000000000004 164.50000000000003 114.00000000000001 63.500000000000007 505.50000000000006 5.5000000000000009 1.5000000000000002 1.0000000180025095e-35 159.50000000000003 19.000000000000004 1.5000000000000002 348.50000000000006 628.00000000000011 1.0000000180025095e-35 0.37940952181816107
decision_type=2 2 2 2 2 2 2 2 2 2 2 2 2 2 2 2 2 2 2 2 2 2 2 2 2 2 2 2 2 2 2 2 2 2 2 2 2 2 2 2 2 2 2 2 2 2 2 2 2 2 2 2 2 2 2 2 2 2 2 2 2 2 2 2 2 2 2 2 2 2 2 2 2 2 2 2 2 2 2 2 2 2 2 2 2 2 2 2 2 2 2 2 2 2
left_child=4 2 3 6 82 7 12 27 13 10 25 20 24 23 -15 41 43 -10 44 33 21 45 90 59 -2 -3 -19 28 -5 55 81 32 -14 34 36 -27 50 -21 39 46 -41 -7 -42 58 88 -6 47 48 -28 -48 52 -52 -8 -34 -43 -29 -9 -47 67 71 85 74 -63 -20 -56 -66 -67 -11 -69 70 91 72 -4 -74 75 76 -62 -44 80 -80 87 -25 -1 84 -40 -61 -77 -31 -17 -64 -12 -70 -60 -38
right_child=1 9 8 5 11 15 19 56 17 16 22 -13 31 14 -16 18 -18 26 63 37 -22 -23 -24 30 -26 35 38 29 -30 78 -32 -33 53 -35 -36 -37 93 -39 83 40 42 54 77 -45 -46 57 49 -49 -50 -51 51 -53 -54 -55 64 -57 -58 -59 92 60 61 62 89 -65 65 66 -68 68 69 -71 -72 -73 73 -75 -76 86 -78 -79 79 -81 -82 -83 -84 -85 -86 -87 -88 -89 -90 -91 -92 -93 -94 -95
leaf_value=0.0074169900929991085 0.0038878775605506377 -0.0012144890643355675 0.0072984678401235101 0.027411209326413388 -0.00079784187144610569 0.0027252168543558139 0.00095559350218110152 -0.028397158758369519 -0.0031635881773516058 -0.0023757525176082406 0.072532114892253738 -0.022854409380647926 0.0085543515963533781 0.037485791730640608 0.016386410955340013 0.0064710139119740218 0.015898862218829558 0.044386223375107746 0.01869556620979233 0.0071653771136925264 -0.004607666612360976 -0.027717247094342486 0.0018321703731741161 -0.0058802779955571824 0.012320472907879078 0.00368289819456395 0.0063080314340842238 0.039988386287445214 0.079323981384160677 0.0054135089949224205 -0.0047597751153931065 -0.0011247781266230368 -0.0063454051934100399 -0.0068987828493651112 -0.016638710205956204 -0.045949783429440387 -0.001226663436469048 -0.0015132164920603338 0.016969527764325053 -0.0078374023344301626 -0.010602906651183543 -0.0014012234273052785 0.041842024332257678 -0.058484724808139044 1.1348813052737682e-05 -0.015029702247397575 0.0092086294331553426 0.062971337426799098 0.030283379439431202 0.022846418249248698 -0.020487465179386384 -0.0020163022760183607 -0.0074266703637747228 0.0021068832824336237 0.013284247447599609 0.017079278745194059 0.0027761243541762877 -0.029396325879639005 -0.017706547530022695 -5.3895208113977086e-05 0.06206324661142118 0.0055198553081209148 0.056678163593980244 -0.0022858576305483133 0.0022008639827444639 0.0096332007237704877 0.03103696355765594 -0.020266179061515475 -0.045865978448909078 -0.043735415301894731 -0.036777481558283934 0.023282115056908227 0.038606735201107571 0.014184106388164128 0.067010813540193004 0.038318164831372653 0.025671887576304443 0.013141269011768267 0.031951411441934675 -0.0035736691156126937 0.043868354615967609 0.017188045272510638 -0.0077504766566821436 -0.0006542609018983141 -0.0158471571296726 0.016293228015970034 -0.013366059412302296 0.036833719497891833 -0.0048949002760650343 0.020871824892050875 0.020638974940749573 -0.013345614038322899 0.011316292768689559 0.0059982606378524983
leaf_weight=71 4262 52 662 110 94 538 571 24 236 32 13.000000000000002 746 776 112 189 1230 20 18 180 516 234 206 24 38 367 11.999999999999998 82 77 15.999999999999998 206 146 2940 336 1145 102 33 3817 637 112 176 28 135 25 15.999999999999998 1438 2846 1013 15.999999999999998 73 126 167 143 590 1058 1012 61 75 88 64 78 26 93 12.999999999999998 48 430 317 58 313 17 81 90 102 33 180 17 10.000000000000002 24 84 75 17 13.999999999999998 136 1877 373 20 232 13.999999999999998 17 132 154 9.9999999999999982 93 25 313
leaf_count=71 4262 52 662 110 94 538 571 24 236 32 13 746 776 112 189 1230 20 18 180 516 234 206 24 38 367 12 82 77 16 206 146 2940 336 1145 102 33 3817 637 112 176 28 135 25 16 1438 2846 1013 16 73 126 167 143 590 1058 1012 61 75 88 64 78 26 93 13 48 430 317 58 313 17 81 90 102 33 180 17 10 24 84 75 17 14 136 1877 373 20 232 14 17 132 154 10 93 25 313
internal_value=-9.352e-09 0.00282488 0.0035115 0.00213093 -0.0135175 0.00704172 0.000411878 0.0182415 0.010636 -0.0191093 -0.00237515 -0.016439 0.00251772 0.0139679 0.0242373 0.00563717 -0.022318 0.0074761 0.00349571 -0.0021514 -0.0150589 -0.0158151 0.0253889 0.0123892 0.00455644 -0.0158279 0.00864617 0.0220851 0.0340033 0.0188695 0.00443499 0.000670911 0.00310378 -0.00291279 -0.00211252 -0.0327144 -0.00184798 0.0023707 0.00834386 0.0101147 0.00151327 0.00824133 0.0135258 -0.0233636 0.00261769 -0.0150054 0.0121698 0.021845 0.0175996 0.0107173 -0.00512973 -0.0119669 -0.00330413 6.96028e-05 0.00976165 0.0298619 -0.00478104 -0.0154606 -0.0225777 0.0139431 0.0178597 0.0228759 0.0171709 0.0142784 0.010591 0.00720527 0.0129436 -0.0244293 -0.0256174 -0.031578 -0.0266542 0.0112933 0.00989571 0.0179679 0.0391759 0.0327814 0.0445954 0.019724 0.0142587 0.025387 0.00993887 0.0121501 -0.00719766 0.00265268 0.0119973 0.0121801 0.00816903 0.00780877 0.00536947 0.0236591 0.0499699 -0.0183715 -0.00955406 -0.000679109
internal_weight=0 29486 28591 23950 6162 6210 17740 692 4641 895 144 4214 9739 2259 301 5518 751 2382 3028 8001 3468 3234 47 1958 4629 97 2146 593 126 467 320 5110 2170 6848 5703 45 5601 1153 2128 1623 313 2490 137 731 2800 3028 1310 171 155 1139 1471 310 1161 1394 1952 138 99 2934 715 1638 661 351 260 228 1817 805 375 626 594 281 200 977 875 213 91 74 50 109 329 92 237 174 1948 505 132 310 24 223 1362 167 23 110 89 4130
internal_count=35648 29486 28591 23950 6162 6210 17740 692 4641 895 144 4214 9739 2259 301 5518 751 2382 3028 8001 3468 3234 47 1958 4629 97 2146 593 126 467 320 5110 2170 6848 5703 45 5601 1153 2128 1623 313 2490 137 731 2800 3028 1310 171 155 1139 1471 310 1161 1394 1952 138 99 2934 715 1638 661 351 260 228 1817 805 375 626 594 281 200 977 875 213 91 74 50 109 329 92 237 174 1948 505 132 310 24 223 1362 167 23 110 89 4130
is_linear=0
shrinkage=1


Tree=1
num_leaves=95
num_cat=0
split_feature=5 5 25 24 3 22 11 2 3 13 23 13 22 23 10 0 8 3 16 9 4 10 13 18 6 7 3 2 25 26 12 3 13 6 2 26 3 3 7 2 0 13 1 11 2 6 22 22 10 10 13 22 22 13 2 6 6 23 3 2 13 23 10 25 22 9 26 8 2 9 11 0 2 10 10 22 6 9 2 6 2 22 3 18 25 25 10 13 2 10 23 2 26 10
split_gain=491.405 160.31 101.519 72.9883 41.0709 35.2652 34.5687 22.1056 17.6392 17.3485 19.584 13.6712 13.2373 13.2213 11.3021 11.1087 10.8335 10.7051 10.3489 9.94485 9.14847 8.93386 9.31388 8.73667 8.67405 8.39838 8.37044 8.24956 14.6722 9.94638 8.19487 8.05894 12.9554 7.8858 7.91131 7.75613 7.75114 7.74469 7.74205 10.3571 12.692 7.53832 7.48783 7.39652 7.28408 7.24954 7.20259 7.19292 7.09736 13.8575 6.75587 6.64605 10.7779 8.01387 7.52405 6.57685 6.56675 6.52405 6.45162 6.37837 6.22434 6.21368 6.35723 6.13688 6.95095 13.0623 12.4685 7.89651 6.22588 7.48252 9.73821 7.65389 6.86117 13.6133 6.12755 6.92137 6.10517 6.2256 6.21203 6.03453 6.02221 5.98122 8.34535 8.10855 5.94253 5.9211 7.0902 6.66256 7.781 7.06336 7.7505 10.5981 7.82076 11.6926
threshold=1.0000000180025095e-35 1.5000000000000002 0.60355338454246532 1.0000000180025095e-35 2.5000000000000004 116.00000000000001 4.5000000000000009 166.50000000000003 1.5000000000000002 37.500000000000007 3.5000000000000004 128.50000000000003 289.00000000000006 5.5000000000000009 212.50000000000003 4.5000000000000009 3.5000000000000004 3.5000000000000004 1.0000000180025095e-35 11.500000000000002 1.0000000180025095e-35 1081.0000000000002 29.500000000000004 1.0000000180025095e-35 5.5000000000000009 1.5000000000000002 4.5000000000000009 48.500000000000007 0.12940952181816107 1.0000000180025095e-35 7.5000000000000009 1.5000000000000002 98.500000000000014 6.5000000000000009 170.50000000000003 1.0000000180025095e-35 1.5000000000000002 7.5000000000000009 4.5000000000000009 132.50000000000003 3.5000000000000004 62.500000000000007 2.5000000000000004 1.0000000180025095e-35 159.50000000000003 2.5000000000000004 85.500000000000014 57.500000000000007 88.000000000000014 122.00000000000001 181.50000000000003 168.50000000000003 152.00000000000003 84.500000000000014 124.50000000000001 1.5000000000000002 1.0000000180025095e-35 2.5000000000000004 2.5000000000000004 172.50000000000003 174.50000000000003 4.5000000000000009 48.000000000000007 0.91597560048103344 801.50000000000011 8.0000000000000018 1.5000000000000002 2.5000000000000004 147.50000000000003 1.5000000000000002 7.5000000000000009 5.5000000000000009 119.50000000000001 209.00000000000003 109.50000000000001 801.50000000000011 1.0000000180025095e-35 3.5000000000000004 164.50000000000003 1.0000000180025095e-35 34.500000000000007 624.50000000000011 3.5000000000000004 1.0000000180025095e-35 -0.6035533845424651 -0.98296290636062611 825.00000000000011 168.50000000000003 104.50000000000001 545.00000000000011 1.0000000180025095e-35 123.50000000000001 2.5000000000000004 132.50000000000003
decision_type=2 2 2 2 2 2 2 2 2 2 2 2 2 2 2 2 2 2 2 2 2 2 2 2 2 2 2 2 2 2 2 2 2 2 2 2 2 2 2 2 2 2 2 2 2 2 2 2 2 2 2 2 2 2 2 2 2 2 2 2 2 2 2 2 2 2 2 2 2 2 2 2 2 2 2 2 2 2 2 2 2 2 2 2 2 2 2 2 2 2 2 2 2 2
left_child=4 2 3 6 -1 7 12 27 13 10 56 20 24 23 -15 41 44 -10 45 33 25 22 -12 63 -2 37 -19 28 -5 42 -25 32 -14 34 35 50 -21 47 39 51 -41 -7 46 -42 60 -17 48 61 -29 -50 -8 52 53 -28 -53 -34 -3 -43 -52 -9 85 62 -6 68 65 66 -65 -67 69 72 71 -71 73 -4 -27 -76 78 -78 -31 -16 -20 -59 -83 -84 -51 -11 87 89 -89 90 91 92 93 -87
right_child=1 9 8 5 11 15 19 59 17 16 21 -13 31 14 79 18 -18 26 80 36 -22 -23 -24 30 -26 74 38 29 -30 76 -32 -33 55 -35 -36 -37 -38 -39 -40 40 43 57 -44 -45 -46 -47 -48 -49 49 84 58 54 -54 -55 -56 -57 -58 81 -60 -61 -62 -63 -64 64 -66 67 -68 -69 -70 70 -72 -73 -74 -75 75 -77 77 -79 -80 -81 -82 82 83 -85 -86 86 -88 88 -90 -91 -92 -93 -94 -95
leaf_value=-0.0068377664064112643 0.0036934923435242763 0.008390492366419899 0.070196016132831579 0.026365707702534175 -0.022722750343382361 0.0025889650153404723 -0.0039929504603612494 -0.026977292487087353 -0.0030054000190506552 -0.0022569542750716211 -0.002363124881920062 -0.011583708613292554 0.0081266434488760451 0.035611510848892587 0.036552729586075097 0.005101007123022353 0.015103928446769716 0.042166921827528216 0.017760796298583348 0.0068071173374042952 -0.0071221817805977071 0.05981714982878078 0.046666311186093552 0.011542637393563643 0.01170445852773391 -0.030579529032111169 0.0059926389557559316 0.019131151526360898 0.081269626532282147 0.0073702480935532114 -0.0045217763555988879 -0.001068529049884908 -0.006028125721162984 -0.0065538345875958692 -0.015806765273651657 -0.0006451439227430786 -0.0014375452127664392 -0.040919705530007684 0.002520058049571396 -0.007445523062382233 -0.010072751981871469 -0.0013311525806784632 0.070973929762840268 0.018737820245393919 -0.05556047737190966 1.0791108898186386e-05 0.01156561580271675 -0.016092320869015599 0.089979990145989841 0.049912129474036837 -0.028862987594171004 0.0087482069919634208 0.059822779125533999 0.028769219340118647 0.021704106535466894 0.002001547581729231 -0.02579375901259482 0.012620044546753993 -0.0020729851565862959 0.0026373267099261289 -0.0090763509357243439 0.025533341864744825 0.011739709714184636 0.0075459894192757577 0.0095819045672583033 0.056518803667780518 0.025446290921212901 0.014478612784296276 -0.0053067777142451521 0.0092687634622615703 0.019281301348352098 -0.0062651303775132982 0.0039706978201866153 0.020421293149862824 -0.016620831098407507 -0.024864929016322309 0.029886802419284243 -0.0033949769595090079 0.041674947100026269 0.011763454554602504 -0.0021715553632626933 0.0020908309571271719 0.0091515500039708354 0.029485125390106233 0.0059227278189999712 0.061220208307107275 -0.03333335141069256 -0.079100246578454977 -0.027202036575629165 0.0019656107243564394 -0.024185828367869061 -0.043945132320125896 -0.025583086366003212 -0.0049970923860867822
leaf_weight=1948 4262 18 18 93 32 538 1378 24 236 32 38 1402 776 112 29 1362 20 18 180 516 193 10.999999999999998 12.999999999999998 174 367 160 82 37 13.999999999999998 230 146 2940 336 1145 102 4130 637 30 505 176 28 135 9.9999999999999982 109 15.999999999999998 1438 52 1310 13.999999999999998 17 55 1013 15.999999999999998 73 126 1058 64 1012 38 75 89 18 23 177 215 37 216 15.999999999999998 57 507 213 94 30 58 608 438 81 17 13.999999999999998 160 48 430 317 58 14.000000000000002 12.000000000000002 160 9.9999999999999982 26 36 312 11.999999999999998 10.999999999999998 14.999999999999998
leaf_count=1948 4262 18 18 93 32 538 1378 24 236 32 38 1402 776 112 29 1362 20 18 180 516 193 11 13 174 367 160 82 37 14 230 146 2940 336 1145 102 4130 637 30 505 176 28 135 10 109 16 1438 52 1310 14 17 55 1013 16 73 126 1058 64 1012 38 75 89 18 23 177 215 37 216 16 57 507 213 94 30 58 608 438 81 17 14 160 48 430 317 58 14 12 160 10 26 36 312 12 11 15
internal_value=0 0.00268365 0.00333593 0.00202439 -0.0128416 0.00668964 0.000391293 0.0173295 0.0101042 -0.0181539 -0.00225639 -0.015617 0.00239185 0.0132695 0.0230255 0.00535532 -0.0212021 0.00710231 0.00332094 -0.00204382 -0.0176279 0.0189492 0.0101346 0.0117697 0.00432862 -0.0184021 0.00821387 0.0209809 0.0335494 0.0182137 0.00421325 0.000637375 0.0029486 -0.00276714 -0.00200688 -0.00175557 0.00225217 -0.0157863 0.00792668 0.00960896 0.00143761 0.00782927 0.0292371 0.0128495 -0.0221954 0.00248682 0.0261225 -0.0152411 0.0353536 0.0486921 -0.00487323 0.0115613 0.0207527 0.0167197 0.0101814 6.61313e-05 -0.0182899 0.00927357 -0.0179165 -0.00454197 -0.0214488 3.40475e-05 -0.00831118 0.0132459 0.0169667 0.0205267 0.0173843 0.0438274 0.0107286 0.0117221 0.0100949 0.00683917 0.0242178 0.03221 -0.0214669 -0.0200729 0.0135723 0.0241134 0.00933855 0.0155671 0.0135645 0.0100615 0.00684501 0.0122965 0.0300459 -0.0232078 -0.0243365 -0.0210197 -0.0416182 -0.0191565 -0.021257 -0.00298139 0.00995453 0.0244328
internal_weight=0 29486 28591 23950 6162 6210 17740 692 4641 895 144 4214 9739 2259 301 5518 751 2382 3028 8001 2812 62 51 1958 4629 2619 2146 593 107 486 320 5110 2170 6848 5703 5601 1153 1413 2128 1623 313 2490 144 137 731 2800 134 1383 82 45 1471 1310 171 155 1139 1394 82 1952 93 99 715 73 55 1638 661 446 393 53 977 920 814 601 106 76 1206 1046 342 98 244 189 228 1817 805 375 31 626 594 434 36 398 362 50 38 27
internal_count=35648 29486 28591 23950 6162 6210 17740 692 4641 895 144 4214 9739 2259 301 5518 751 2382 3028 8001 2812 62 51 1958 4629 2619 2146 593 107 486 320 5110 2170 6848 5703 5601 1153 1413 2128 1623 313 2490 144 137 731 2800 134 1383 82 45 1471 1310 171 155 1139 1394 82 1952 93 99 715 73 55 1638 661 446 393 53 977 920 814 601 106 76 1206 1046 342 98 244 189 228 1817 805 375 31 626 594 434 36 398 362 50 38 27
is_linear=0
shrinkage=0.05


Tree=2
num_leaves=95
num_cat=0
split_feature=5 5 25 24 3 22 11 2 3 13 24 22 2 15 23 22 13 2 10 22 8 3 26 4 2 9 13 23 13 10 22 3 23 18 0 3 2 25 26 12 6 2 25 0 3 7 2 0 13 0 22 25 19 2 11 8 2 23 3 2 3 3 4 22 25 2 22 22 13 2 22 6 1 3 25 10 0 2 22 16 2 22 13 10 25 25 13 25 13 10 0 13 3 26
split_gain=443.493 144.68 91.6208 65.8719 37.0665 31.8268 31.1983 19.9503 15.9194 15.657 17.7983 12.5482 12.4427 12.0936 11.9322 10.3094 13.1447 12.1486 10.2002 10.1884 9.77727 9.66132 9.62051 9.32593 10.3408 8.97522 8.62519 8.48536 9.49025 8.41237 8.20765 8.01091 7.92805 7.88485 7.71351 7.55432 7.44523 13.2416 8.9766 7.39587 7.11694 7.13996 7.26004 7.03256 6.9954 6.9872 9.34729 11.4545 6.97871 6.87858 6.78385 6.72616 6.70433 9.012 6.67536 6.65481 6.57388 6.54035 6.45396 6.3595 6.30529 17.0814 7.96132 6.15318 8.22398 6.15136 5.99806 9.72702 7.23251 6.79045 5.97723 5.93689 5.80398 8.6727 12.2256 10.8115 8.66074 5.75648 5.75201 6.02239 5.74465 5.7291 5.72087 5.70575 5.705 5.67214 7.77226 5.63718 5.6348 5.63361 6.59737 5.61747 5.57316 5.55465
threshold=1.0000000180025095e-35 1.5000000000000002 0.60355338454246532 1.0000000180025095e-35 2.5000000000000004 116.00000000000001 4.5000000000000009 166.50000000000003 1.5000000000000002 37.500000000000007 1.0000000180025095e-35 923.00000000000011 141.50000000000003 1.0000000180025095e-35 5.5000000000000009 24.000000000000004 25.500000000000004 69.500000000000014 212.50000000000003 801.50000000000011 3.5000000000000004 3.5000000000000004 1.5000000000000002 1.0000000180025095e-35 163.50000000000003 11.500000000000002 31.500000000000004 5.5000000000000009 150.50000000000003 600.50000000000011 309.50000000000006 8.5000000000000018 1.0000000180025095e-35 1.0000000180025095e-35 1.0000000180025095e-35 4.5000000000000009 48.500000000000007 0.12940952181816107 1.0000000180025095e-35 7.5000000000000009 6.5000000000000009 170.50000000000003 -0.91597560048103321 5.5000000000000009 1.5000000000000002 4.5000000000000009 132.50000000000003 3.5000000000000004 163.50000000000003 1.5000000000000002 340.00000000000006 -0.6035533845424651 1.0000000180025095e-35 117.50000000000001 1.0000000180025095e-35 1.0000000180025095e-35 159.50000000000003 3.5000000000000004 5.5000000000000009 17.500000000000004 1.5000000000000002 3.5000000000000004 1.5000000000000002 87.500000000000014 -0.91597560048103321 4.5000000000000009 168.50000000000003 152.00000000000003 84.500000000000014 124.50000000000001 218.50000000000003 1.0000000180025095e-35 2.5000000000000004 5.5000000000000009 -0.37940952181816096 88.000000000000014 4.5000000000000009 172.50000000000003 186.50000000000003 1.0000000180025095e-35 192.50000000000003 99.500000000000014 3.5000000000000004 114.00000000000001 -0.7865660786628722 -0.98296290636062611 63.500000000000007 0.91597560048103344 129.50000000000003 505.50000000000006 5.5000000000000009 174.50000000000003 6.5000000000000009 1.0000000180025095e-35
decision_type=2 2 2 2 2 2 2 2 2 2 2 2 2 2 2 2 2 2 2 2 2 2 2 2 2 2 2 2 2 2 2 2 2 2 2 2 2 2 2 2 2 2 2 2 2 2 2 2 2 2 2 2 2 2 2 2 2 2 2 2 2 2 2 2 2 2 2 2 2 2 2 2 2 2 2 2 2 2 2 2 2 2 2 2 2 2 2 2 2 2 2 2 2 2
left_child=4 2 3 6 78 7 12 36 14 10 30 23 13 15 33 16 -2 58 -16 26 56 -10 -12 24 50 40 57 28 43 31 -3 55 -32 82 -30 -23 37 -5 48 83 41 42 -8 59 -27 46 66 -48 72 71 51 -6 65 -54 87 60 91 -7 -18 -28 63 70 -63 64 -17 -29 67 68 -37 -68 -62 84 73 75 76 -38 -75 -9 -1 -80 -43 -56 -4 -35 -14 86 -65 -49 -84 90 -47 -11 -52 -44
right_child=1 9 8 5 11 19 25 77 21 20 22 -13 49 -15 18 29 17 -19 -20 -21 -22 35 -24 -25 -26 44 27 52 34 -31 32 -33 -34 39 -36 45 38 -39 -40 -41 -42 80 93 -45 -46 89 47 54 -50 -51 92 -53 53 -55 81 -57 -58 -59 -60 -61 61 62 -64 85 -66 -67 69 -69 -70 -71 -72 -73 -74 74 -76 -77 -78 -79 79 -81 -82 -83 88 -85 -86 -87 -88 -89 -90 -91 -92 -93 -94 -95
leaf_value=-0.00043546613934307014 -0.033036262691020966 -0.00084958254144741933 0.042335204780101776 0.025047422921465293 -0.015366231733177966 0.022467854605228814 -0.0054309476284829907 -0.025628427492726286 -0.002855130032462589 -0.022047437564841808 0.0462174856144449 -0.020718936925758945 -0.01162959979160836 0.00031004748504796618 0.033830935973674058 0.022348587060796805 0.031449011746527894 0.05666642053425313 0.014788745454064124 0.0017387756974783057 0.014348731338977815 0.040058576398425638 0.00096437198420365662 -0.0039315531651178993 -0.025107973233290306 0.0064667607116144768 0.0024953955365960294 -0.0074898145794868483 0.03077959269285202 0.00063668648746250734 0.0047884506483872741 -0.034112464923125051 -0.042669816089398932 -0.00616338739759828 6.6627686222394308e-05 0.005693006406470043 0.018801608681678773 0.077206148366842961 0.012893674675135587 -0.0042956873085604952 -0.0062261439514993064 -0.019943485415444294 -0.0037314920451993134 0.039697201856795483 -0.0013656684956286731 0.015995058593606309 -0.0070732472718439314 -0.037459209832278149 -0.012517641186714175 -0.0063727755559028574 -0.014779859623249392 -0.0071863948598594801 0.05940998960286379 0.0063416401389986277 0.038813041418790821 0.0096412528781193788 -0.052782456844579433 -0.0031802863602678234 -0.0028122669775728828 0.0097234196646112797 -0.018916626284303874 0.0030398897936893877 0.015705937990890956 0.030776958282177264 -0.0067698250373674418 0.010381626461752098 0.0083107970765288943 0.056831640237942342 0.027330758795142174 0.020618901407671354 -0.00098571459738872004 0.012122927802718349 0.06742523461580277 0.055876101816401763 -0.02604225150176457 0.06207937473250974 0.012375958753483636 0.0025054600164294244 -0.0085154886397391296 0.0038665560313633513 0.013560510637859506 0.011547324017045044 0.010211122457698223 0.015751520998995096 0.003486516547727061 0.0087734629271745586 -0.011321100518107415 0.0084774180370218617 0.016467544250881407 -0.00074754180461567791 -0.015180791765451432 -0.0086225341356704743 -0.029669097914145542 0.00023497641940036724
leaf_weight=326 9.9999999999999982 52 15.999999999999998 93 407 27 1043 24 236 626 23 746 95 3016 112 29 28 25 189 1609 20 18 24 234 206 516 454 50 21 1428 11.999999999999998 12.999999999999998 33 38 771 82 27 13.999999999999998 342 146 1145 87 1197 17 637 112 176 11.000000000000002 9.9999999999999982 604 1899 657 15.999999999999998 15.999999999999998 25 702 15.999999999999998 313 27 923 115 1673 134 12.999999999999998 148 1301 1013 15.999999999999998 73 126 78 108 9.9999999999999982 17 13.999999999999998 31 35 75 1517 105 14.999999999999998 84 1083 136 182 1241 70 17 539 373 20 89 65 3361
leaf_count=326 10 52 16 93 407 27 1043 24 236 626 23 746 95 3016 112 29 28 25 189 1609 20 18 24 234 206 516 454 50 21 1428 12 13 33 38 771 82 27 14 342 146 1145 87 1197 17 637 112 176 11 10 604 1899 657 16 16 25 702 16 313 27 923 115 1673 134 13 148 1301 1013 16 73 126 78 108 10 17 14 31 35 75 1517 105 15 84 1083 136 182 1241 70 17 539 373 20 89 65 3361
internal_value=0 0.00254946 0.00316914 0.00192317 -0.0121995 0.00635516 0.000371729 0.016463 0.00959896 -0.0172462 -0.00214357 -0.0148361 0.00227225 0.0028731 0.012606 0.00422123 0.0210104 0.0277663 0.0218742 0.00508756 -0.020142 0.00674719 0.0231095 -0.0135707 -0.0142682 -0.00194163 0.00646596 0.00719088 0.0052517 0.00395351 -0.0143796 0.00507694 -0.0300143 0.0111812 0.000880987 0.00780318 0.0199318 0.0318719 0.017303 0.00400259 -0.00262879 -0.00190654 -0.00166779 0.00773492 0.00213956 0.00753034 0.00912851 0.00136573 0.0277753 -0.00304363 -0.0135307 -0.0103153 0.010256 0.0328758 0.0122071 0.00519816 -0.0210857 -0.00114352 0.0146298 0.00734032 0.00430725 0.00246902 0.00397915 0.00675661 -0.00199901 0.00972021 0.0109833 0.0197151 0.0158837 0.00967236 -0.0116699 0.00217925 0.0307822 0.0278271 0.0154312 0.0419328 0.0265972 -0.00431488 -0.00649588 -0.00771394 -0.0150164 0.0178009 0.0125836 0.0109655 -0.00169771 0.00792711 -0.00472743 -0.00956911 0.0122902 0.00239405 0.0112714 -0.0203764 -0.0152726 -0.000806678
internal_weight=0 29486 28591 23950 6162 6210 17740 692 4641 895 144 4214 9739 8750 2259 5734 90 80 301 5518 751 2382 47 3468 3234 8001 3909 3569 2186 5644 97 4216 45 1958 792 2146 593 107 486 320 6848 5703 5601 1394 1153 2128 1623 313 144 989 3028 1064 1383 32 137 4203 731 340 55 1377 3501 2000 1807 1501 177 1351 1310 171 155 1139 193 385 134 124 66 58 52 99 1948 1622 102 109 1638 174 277 1324 83 28 1622 505 132 715 1964 4558
internal_count=35648 29486 28591 23950 6162 6210 17740 692 4641 895 144 4214 9739 8750 2259 5734 90 80 301 5518 751 2382 47 3468 3234 8001 3909 3569 2186 5644 97 4216 45 1958 792 2146 593 107 486 320 6848 5703 5601 1394 1153 2128 1623 313 144 989 3028 1064 1383 32 137 4203 731 340 55 1377 3501 2000 1807 1501 177 1351 1310 171 155 1139 193 385 134 124 66 58 52 99 1948 1622 102 109 1638 174 277 1324 83 28 1622 505 132 715 1964 4558
is_linear=0
shrinkage=0.05


Tree=3
num_leaves=95
num_cat=0
split_feature=5 5 25 24 3 22 11 2 3 13 23 13 22 23 0 10 16 8 3 9 10 13 4 25 13 13 6 7 13 3 11 3 3 2 25 26 13 22 23 0 10 6 2 25 3 7 2 0 13 6 11 26 0 10 12 10 10 10 9 2 2 13 6 13 23 10 25 2 26 18 23 13 2 2 22 10 6 9 2 13 26 6 22 26 22 22 22 13 2 11 25 2 10 22
split_gain=400.253 130.574 82.6878 59.4494 33.4525 28.7237 28.1565 18.0051 14.3673 14.1305 16.5437 11.9181 11.3389 10.7688 9.24967 9.20565 9.15427 8.82398 8.71934 8.10014 7.84844 8.09402 7.6915 7.3377 9.23228 9.06768 7.33534 7.26368 7.11676 8.04899 7.98286 6.81777 6.74482 6.71932 11.9506 8.10139 6.71676 6.59026 7.58197 6.54206 11.5645 6.42303 6.44382 6.55219 6.31335 6.30595 8.43593 10.3377 6.29829 6.28697 6.02452 5.97964 8.82829 11.2541 10.5714 8.00396 13.4562 7.49704 7.28517 6.77348 5.93293 5.85788 5.60557 5.55216 6.5038 5.52628 9.90406 8.94646 7.06908 7.09812 7.43224 6.7489 6.68334 6.59336 7.84137 5.57806 5.50992 5.6186 5.60635 5.60223 5.46537 5.44617 5.43625 5.43273 6.53774 5.41325 8.77864 6.52734 6.12838 5.35691 5.34562 5.31777 5.30306 5.84432
threshold=1.0000000180025095e-35 1.5000000000000002 0.60355338454246532 1.0000000180025095e-35 2.5000000000000004 116.00000000000001 4.5000000000000009 166.50000000000003 1.5000000000000002 37.500000000000007 3.5000000000000004 128.50000000000003 289.00000000000006 5.5000000000000009 4.5000000000000009 212.50000000000003 1.0000000180025095e-35 3.5000000000000004 3.5000000000000004 11.500000000000002 1081.0000000000002 29.500000000000004 1.0000000180025095e-35 0.78656607866287243 3.5000000000000004 185.50000000000003 5.5000000000000009 1.5000000000000002 150.50000000000003 1.5000000000000002 1.0000000180025095e-35 4.5000000000000009 7.5000000000000009 48.500000000000007 0.12940952181816107 1.0000000180025095e-35 76.500000000000014 40.500000000000007 3.5000000000000004 2.5000000000000004 928.50000000000011 6.5000000000000009 170.50000000000003 -0.91597560048103321 1.5000000000000002 4.5000000000000009 132.50000000000003 3.5000000000000004 163.50000000000003 2.5000000000000004 1.0000000180025095e-35 1.5000000000000002 1.0000000180025095e-35 380.00000000000006 7.5000000000000009 1003.5000000000001 1228.0000000000002 731.00000000000011 1.5000000000000002 154.50000000000003 159.50000000000003 98.500000000000014 1.0000000180025095e-35 172.50000000000003 1.0000000180025095e-35 413.50000000000006 -0.98296290636062611 130.50000000000003 1.0000000180025095e-35 1.0000000180025095e-35 1.0000000180025095e-35 194.50000000000003 125.50000000000001 126.50000000000001 146.50000000000003 286.00000000000006 1.0000000180025095e-35 3.5000000000000004 164.50000000000003 159.50000000000003 2.5000000000000004 1.0000000180025095e-35 63.500000000000007 1.0000000180025095e-35 105.50000000000001 168.50000000000003 152.00000000000003 84.500000000000014 124.50000000000001 19.000000000000004 0.37940952181816107 29.500000000000004 109.50000000000001 801.50000000000011
decision_type=2 2 2 2 2 2 2 2 2 2 2 2 2 2 2 2 2 2 2 2 2 2 2 2 2 2 2 2 2 2 2 2 2 2 2 2 2 2 2 2 2 2 2 2 2 2 2 2 2 2 2 2 2 2 2 2 2 2 2 2 2 2 2 2 2 2 2 2 2 2 2 2 2 2 2 2 2 2 2 2 2 2 2 2 2 2 2 2 2 2 2 2 2 2
left_child=4 2 3 6 82 7 12 33 13 10 62 22 26 23 36 -15 49 60 -10 41 21 -12 27 -4 -25 51 90 32 29 61 -30 -20 37 34 -5 48 -7 38 -6 40 -27 42 43 63 -21 46 85 83 -35 89 -49 55 53 -53 57 -26 -57 -55 59 -54 65 -14 -3 -8 -65 68 -67 71 69 70 -11 -68 75 -70 -75 -72 78 -78 79 -37 -61 -17 -1 -48 -85 86 87 -33 -87 -16 -2 -39 -29 -94
right_child=1 9 8 5 11 14 19 -9 18 17 20 -13 28 15 16 81 -18 -19 31 44 -22 -23 -24 24 25 39 -28 92 30 -31 -32 45 -34 35 -36 76 -38 91 -40 -41 -42 -43 -44 -45 -46 -47 47 50 -50 -51 -52 52 58 54 -56 56 -58 -59 -60 80 -62 -63 -64 64 -66 66 67 -69 73 -71 72 -73 -74 74 -76 -77 77 -79 -80 -81 -82 -83 -84 84 -86 88 -88 -89 -90 -91 -92 -93 93 -95
leaf_value=0.0074098111248352156 0.0028984395684704782 0.0078776659237013921 0.0061625352598714865 0.023795052737958969 -0.010071726750444484 0.0033057845558695392 -0.0036876329555152322 -0.0040991308581497937 -0.0027123718901332153 0.023606584049188174 -0.0024586012488917301 -0.010328507793604925 0.007574121528017075 0.032139388870980057 0.0056540154147802328 0.033985655369429754 0.012611010948424801 0.013631295710802079 0.038055647247367437 0.0061434235120582034 0.055758725919506771 0.043247451805151431 -0.0063389946373633155 0.058339925787665628 0.0046127954990633074 0.03585257966209341 0.010733987762001457 -0.028009437071159483 0.0033997996050990028 -0.00027025358438842782 -0.0045124039573435836 0.0054083563569115433 -0.037704056700070702 0.029243106650772378 0.073345841600426606 0.0041524960331513856 0.0088724091542335716 0.0031594259043534602 0.034264454841613771 0.042115922307684309 -0.015063421898766569 -0.0059148348275751012 -0.014265606243662108 -0.00076634573491519888 -0.0012973854069713523 0.0022743524522474494 0.0087299106296065253 -0.0090906585965837752 -0.011891759298741818 -0.00011348331512906622 0.016910882314684194 -0.015912240147590639 0.035903335486073044 0.057449766527861358 -0.018096343477567039 0.059010229094160926 0.012013157092110077 0.012019405336607071 0.014271847678955353 0.026491913801202405 -0.050143332267180089 0.0013278384517463235 -0.02370584465097636 0.006995145257177024 -0.019455613952894243 0.01382050383836031 -0.030861321423114752 0.0040469670837575741 -0.015619403174582949 0.019972664506539055 -0.03273053843567663 0.0075111682604377464 0.012415363887945813 -0.066719688794442594 -0.024562447145581246 0.0054637239625056587 0.027747779146388724 -0.0038699100999271168 0.038946515321731573 0.033978847019812644 -0.022674877345561978 0.010435844538733363 -0.006684799373177658 0.0068351737862186778 -0.0183394295306002 0.0078952571276027384 0.053990059252828362 0.025964221633868675 0.01958795547012299 -0.0049452576504060717 0.010057706576788726 -0.014917304211982983 -0.015063070837334781 -0.022638617585238802
leaf_weight=71 3983 18 627 93 27 797 897 99 236 12.999999999999998 38 1402 776 112 1230 29 228 20 18 516 10.999999999999998 12.999999999999998 193 10.999999999999998 465 27 367 160 445 2038 1124 82 30 134 13.999999999999998 213 1693 42 14.999999999999998 42 19 1145 102 4558 637 505 43 28 9.9999999999999982 1438 109 50 80 15.999999999999998 14.999999999999998 18 99 21 445 13 15.999999999999998 727 64 29 117 15.999999999999998 254 22 235 23 47 11.999999999999998 14.999999999999998 13.999999999999998 52 11.999999999999998 81 17 13.999999999999998 17 10 160 1877 35 98 1013 15.999999999999998 73 126 132 279 1299 608 438
leaf_count=71 3983 18 627 93 27 797 897 99 236 13 38 1402 776 112 1230 29 228 20 18 516 11 13 193 11 465 27 367 160 445 2038 1124 82 30 134 14 213 1693 42 15 42 19 1145 102 4558 637 505 43 28 10 1438 109 50 80 16 15 18 99 21 445 13 16 727 64 29 117 16 254 22 235 23 47 12 15 14 52 12 81 17 14 17 10 160 1877 35 98 1013 16 73 126 132 279 1299 608 438
internal_value=0 0.00242199 0.00301068 0.00182702 -0.0115896 0.0060374 0.000353142 0.0156399 0.00911902 -0.0163839 -0.00203639 -0.0140943 0.00215864 0.0119757 0.00483318 0.0207805 0.00297681 -0.0191349 0.00640983 -0.00184455 0.0174538 0.00919196 -0.0159719 0.0106222 0.012723 0.0123428 0.00395117 -0.0166818 0.000534843 0.00177692 -0.00226834 0.00741302 -0.0142491 0.0189352 0.0302783 0.0164379 0.00709064 -0.0137403 0.00576262 0.0278487 0.0148221 -0.00249735 -0.00181121 -0.00158441 0.00203259 0.00715383 0.00867208 0.00129745 0.0263865 0.00219231 0.0115967 0.0112353 0.0145314 0.00102497 0.0173107 0.00755401 0.0192435 0.031665 0.0170454 0.0290283 -0.0200314 0.0045528 -0.0167729 -0.0051594 -0.0142017 -0.0193575 -0.0244687 -0.0265959 -0.015577 -0.00472985 -0.0112604 -0.0291302 -0.0173857 -0.0195411 -0.0335049 -0.0249622 0.012249 0.0222631 0.00822694 0.00635705 0.00511505 0.0140493 -0.00617108 -0.00671958 -0.0117145 0.0104341 0.0187293 0.0150895 0.00918874 0.00462677 0.0033671 -0.0143511 -0.019532 -0.0182352
internal_weight=0 29486 28591 23950 6162 6210 17740 692 4641 895 144 4214 9739 2259 5518 301 3028 751 2382 8001 62 51 2812 1958 1331 1320 4629 2619 5110 3541 1569 2146 1413 593 107 486 2490 1383 42 88 46 6848 5703 5601 1153 2128 1623 313 144 2800 137 1232 650 102 52 582 117 37 548 103 731 1503 82 1043 146 715 304 288 411 110 87 266 74 301 66 59 342 98 244 230 23 189 1948 176 133 1310 171 155 1139 1362 4262 1341 1206 1046
internal_count=35648 29486 28591 23950 6162 6210 17740 692 4641 895 144 4214 9739 2259 5518 301 3028 751 2382 8001 62 51 2812 1958 1331 1320 4629 2619 5110 3541 1569 2146 1413 593 107 486 2490 1383 42 88 46 6848 5703 5601 1153 2128 1623 313 144 2800 137 1232 650 102 52 582 117 37 548 103 731 1503 82 1043 146 715 304 288 411 110 87 266 74 301 66 59 342 98 244 230 23 189 1948 176 133 1310 171 155 1139 1362 4262 1341 1206 1046
is_linear=0
shrinkage=0.05


Tree=4
num_leaves=95
num_cat=0
split_feature=5 5 25 24 3 22 11 2 3 8 13 23 13 2 22 13 2 23 22 0 15 10 23 3 13 18 11 10 13 3 3 26 22 0 13 11 25 18 3 22 3 19 2 12 12 12 0 0 25 3 26 12 9 0 7 2 0 8 2 3 9 22 10 25 6 4 11 8 11 3 3 4 22 13 22 26 26 23 0 2 22 9 10 26 9 0 10 26 11 10 1 25 25 26
split_gain=361.228 117.843 74.6257 53.6531 30.1909 25.9671 25.4112 17.98 12.9664 12.8336 10.8681 13.6377 10.7561 10.4614 10.7677 11.8594 10.9599 9.71886 9.28311 9.72543 8.8011 8.3081 7.98202 7.86921 7.79027 7.63089 9.3246 7.4535 7.29807 7.23958 7.19348 7.0808 8.873 8.50714 7.0735 7.69548 8.1967 6.94749 6.61914 10.5152 12.0466 6.48531 10.1239 6.95095 7.30372 6.48381 6.38456 6.22046 6.17056 6.15304 6.00122 5.936 5.71981 5.706 5.69112 7.61343 9.32977 5.67853 5.6142 5.60856 5.60221 5.65451 5.47132 9.35964 5.46178 5.43962 6.46284 6.25955 5.43713 5.43015 15.4235 7.16258 5.50159 7.71864 5.49419 5.38639 5.37818 6.28967 5.37332 5.35447 5.33797 5.28738 6.47058 5.27153 6.21974 5.26786 7.2339 5.23828 5.23161 5.22751 6.72311 5.22074 5.18463 5.87408
threshold=1.0000000180025095e-35 1.5000000000000002 0.60355338454246532 1.0000000180025095e-35 2.5000000000000004 95.000000000000014 4.5000000000000009 166.50000000000003 1.5000000000000002 3.5000000000000004 37.500000000000007 3.5000000000000004 128.50000000000003 141.50000000000003 24.000000000000004 25.500000000000004 69.500000000000014 5.5000000000000009 801.50000000000011 5.5000000000000009 1.0000000180025095e-35 212.50000000000003 1.0000000180025095e-35 3.5000000000000004 147.50000000000003 1.0000000180025095e-35 14.500000000000002 600.50000000000011 24.500000000000004 8.5000000000000018 7.5000000000000009 1.0000000180025095e-35 8.5000000000000018 4.5000000000000009 38.500000000000007 14.500000000000002 0.12940952181816107 1.0000000180025095e-35 1.5000000000000002 38.500000000000007 1.0000000180025095e-35 1.0000000180025095e-35 117.50000000000001 10.500000000000002 8.5000000000000018 7.5000000000000009 4.5000000000000009 1.5000000000000002 -0.12940952181816107 4.5000000000000009 1.0000000180025095e-35 1.0000000180025095e-35 1.5000000000000002 2.5000000000000004 4.5000000000000009 132.50000000000003 3.5000000000000004 1.0000000180025095e-35 59.500000000000007 5.5000000000000009 5.5000000000000009 785.00000000000011 85.000000000000014 -0.12940952181816107 1.0000000180025095e-35 1.0000000180025095e-35 5.5000000000000009 3.5000000000000004 1.0000000180025095e-35 1.5000000000000002 3.5000000000000004 1.5000000000000002 87.500000000000014 142.50000000000003 218.50000000000003 1.5000000000000002 1.5000000000000002 1.0000000180025095e-35 4.5000000000000009 159.50000000000003 58.500000000000007 1.0000000180025095e-35 54.000000000000007 2.5000000000000004 1.0000000180025095e-35 5.5000000000000009 505.50000000000006 1.5000000000000002 5.5000000000000009 940.50000000000011 2.5000000000000004 -0.91597560048103321 0.91597560048103344 1.5000000000000002
decision_type=2 2 2 2 2 2 2 2 2 2 2 2 2 2 2 2 2 2 2 2 2 2 2 2 2 2 2 2 2 2 2 2 2 2 2 2 2 2 2 2 2 2 2 2 2 2 2 2 2 2 2 2 2 2 2 2 2 2 2 2 2 2 2 2 2 2 2 2 2 2 2 2 2 2 2 2 2 2 2 2 2 2 2 2 2 2 2 2 2 2 2 2 2 2
left_child=4 2 3 6 -1 7 13 24 17 10 11 52 28 14 15 -2 50 37 19 41 27 -19 25 -10 31 83 -27 29 -6 57 65 33 -33 51 35 -24 -37 92 39 81 -41 43 78 44 46 -39 -7 64 -21 -25 -17 58 -3 -52 55 -51 -57 69 -5 -35 -13 -62 80 -64 -15 66 -30 -68 -58 72 74 -72 73 91 76 -44 77 -71 -43 -12 -40 82 -34 84 -8 86 -56 -86 -42 -88 -91 -16 -4 -94
right_child=1 9 8 5 12 18 22 -9 23 -11 79 60 -14 47 20 16 -18 21 -20 48 -22 -23 34 49 -26 26 -28 -29 30 -31 -32 32 38 59 -36 36 -38 45 62 40 88 42 75 -45 -46 -47 -48 -49 -50 54 53 -53 -54 -55 85 56 68 -59 -60 -61 61 -63 63 -65 -66 -67 67 -69 -70 70 71 -73 -74 -75 -76 -77 -78 -79 -80 -81 -82 -83 -84 -85 87 -87 89 -89 -90 90 -92 -93 93 -95
leaf_value=-0.0058625294803498311 -0.031529368460178377 0.0068409676614560591 0.0090936844762388013 0.023462517745792867 -0.0077886994741234094 0.0075346660326023017 -0.014284637983183605 -0.0057446343846982578 -0.002576753957260211 0.019049697297696885 -0.018389669758873389 0.002581250895228651 -0.0098120827470230057 -0.0015754575679744411 0.015895562529563905 0.040717656413714096 0.053673858523368839 0.030532418776835712 0.0014978098991570673 0.015090340819387212 0.00024232940707573128 0.013346841615974589 -0.0064774437739354811 0.036152864330344731 0.034155338702650813 -0.015246955495184431 0.00039916046361407543 0.00046596919624682733 -0.013557741984155906 -0.03260946778150705 -0.036326778905336247 0.054550499065468709 0.0098590670661492762 0.031258539020112067 -0.003491135596822625 0.00035971660988991249 0.011322640920323986 0.0098720769087473556 -0.017182828243821859 0.0033384976335442984 0.037128741166701444 0.054643473525842035 0.014847083091735842 0.010619340782925007 -0.0060801471273104349 -0.0044171564370291691 0.0030485041923476834 -0.0059894870023014931 0.05794448245848928 0.0099124103346626274 0.021595651408036553 0.011704273025194806 -0.024575999330301756 -0.016220688555193576 0.015081586921587587 -0.0063836046880830768 -0.0086361268801348548 0.0088650147687972785 0.064565528101391267 0.0035659969034718304 0.062375274151563624 0.011467021703720093 0.0046283976923601295 0.047467907649629257 0.011680644488445035 -0.0068715060872534305 -0.01932421493520205 0.0088832445442676555 0.016065338014736089 0.0032197269526394929 0.0027759562298272518 0.014789838252116494 0.0073176016549937137 0.033559100010565356 -0.0009600056741291132 -0.024789142906665802 -0.0084987618029117584 -0.039471913650631907 0.021480201674919382 -0.047636164771392944 0.0064774410956996986 0.026591206640005111 -0.044373520395972511 -0.0022502868151800201 0.003856006369086261 -0.011244483984773979 -0.0070450586212825947 0.012580179734995554 0.077774604409933099 0.0019206879762705506 0.028846457931730487 -0.0089369350234451504 0.0098119460659161703 0.019257040891764513
leaf_weight=1948 9.9999999999999982 19 977 11.999999999999998 299 1463 37 82 236 26 715 36 1402 277 25 14.999999999999998 25 112 1609 21 3016 189 328 18 77 130 356 1428 1103 12.999999999999998 43 11.999999999999998 11.000000000000002 33 4823 1065 203 174 40 26 38 18 20 558 153 146 1732 604 13.999999999999998 1310 21 11.999999999999998 61 19 112 176 28 702 27 41 10.000000000000002 11.999999999999998 51 17 108 163 1184 20 109 10.999999999999998 1673 134 1324 13.999999999999998 78 14.999999999999998 64 40 38 15.999999999999998 59 9.9999999999999982 10.999999999999998 275 529 64 138 255 9.9999999999999982 164 27 138 310 351
leaf_count=1948 10 19 977 12 299 1463 37 82 236 26 715 36 1402 277 25 15 25 112 1609 21 3016 189 328 18 77 130 356 1428 1103 13 43 12 11 33 4823 1065 203 174 40 26 38 18 20 558 153 146 1732 604 14 1310 21 12 61 19 112 176 28 702 27 41 10 12 51 17 108 163 1184 20 109 11 1673 134 1324 14 78 15 64 40 38 16 59 10 11 275 529 64 138 255 10 164 27 138 310 351
internal_value=0 0.00230089 0.00286015 0.00173566 -0.0110101 0.00573553 0.000335485 0.0159158 0.00866307 -0.0155647 -0.0166003 -0.00373098 -0.0133896 0.00205071 0.00260165 0.019807 0.0262241 0.0113769 0.00470867 0.00598998 0.00242284 0.0197415 -0.00175232 0.00608934 0.0195629 0.00142883 -0.00378601 0.00358804 -0.0151733 0.00464552 -0.0160519 0.0168224 0.0124707 0.0267441 -0.00253634 0.000348993 0.00211482 0.0100911 0.0106211 0.0203933 0.0307492 0.00576019 0.0189553 0.00545278 0.00459169 0.00335261 0.00510273 -0.0028236 0.032232 0.00704237 0.0137469 0.0424563 -0.0171145 0.00363289 0.00679613 0.00823848 0.00123257 0.00476075 0.0519184 0.0159154 0.014729 0.0346071 0.00441832 0.0153383 0.00214314 -0.015699 -0.0163227 -0.0188557 0.0110169 0.00393778 0.00223188 0.00366686 0.00621081 -0.00206825 -0.0112034 -0.00213987 -0.0181511 -0.0302639 0.0321398 -0.0190298 -0.00308226 -0.00355459 -0.0172572 0.00374125 0.00574816 0.00216063 0.00410605 0.00669359 0.0455966 0.000369693 0.00572695 -0.00512827 0.0114075 0.0148274
internal_weight=0 29486 28591 23950 6162 6210 17740 569 4641 895 869 138 4214 9739 8750 90 80 2259 5641 4032 8660 301 8001 2382 487 1582 486 5644 2812 4216 2513 410 285 125 6419 1596 1268 1958 273 106 74 3997 91 3906 3348 320 3195 989 35 2146 55 51 80 40 2128 1623 313 4203 39 74 58 22 167 68 385 2470 2307 1204 137 3501 2000 1807 1501 177 193 35 115 51 56 731 99 32 22 1096 821 505 441 784 48 329 191 163 1638 661
internal_count=35648 29486 28591 23950 6162 6210 17740 569 4641 895 869 138 4214 9739 8750 90 80 2259 5641 4032 8660 301 8001 2382 487 1582 486 5644 2812 4216 2513 410 285 125 6419 1596 1268 1958 273 106 74 3997 91 3906 3348 320 3195 989 35 2146 55 51 80 40 2128 1623 313 4203 39 74 58 22 167 68 385 2470 2307 1204 137 3501 2000 1807 1501 177 193 35 115 51 56 731 99 32 22 1096 821 505 441 784 48 329 191 163 1638 661
is_linear=0
shrinkage=0.05


Tree=5
num_leaves=95
num_cat=0
split_feature=5 5 25 24 3 22 11 2 3 13 24 22 22 23 26 0 16 1 2 10 23 3 8 18 11 22 22 25 13 11 25 12 3 26 6 25 13 13 13 0 10 2 23 3 2 25 2 23 6 6 3 3 2 3 4 3 26 6 3 13 23 12 25 13 3 25 0 10 2 25 6 11 13 2 18 2 10 9 2 11 0 25 7 2 0 26 13 4 26 0 10 12 10 10
split_gain=326.008 106.353 67.3497 48.4219 27.2473 23.5942 22.9336 14.7276 11.7022 11.5848 13.7169 9.84081 9.74273 8.77127 8.25222 7.83781 7.84653 7.6941 7.55543 7.49806 7.20377 7.10196 7.04361 6.88688 8.41545 6.64752 6.44606 6.51459 6.38383 6.94517 7.39752 6.3499 8.53898 6.94155 6.44053 6.31209 8.31371 8.08107 6.28915 5.91332 10.5114 5.91067 6.07971 6.02185 5.87091 9.54421 5.81598 5.90339 6.64301 8.59039 5.77676 20.4252 8.05021 7.09173 6.30615 5.65361 5.62361 5.56963 5.55312 5.53033 5.43089 6.16965 5.71673 5.35127 5.6305 12.7817 12.3328 9.35879 5.32409 5.338 5.28154 5.21096 5.20913 5.51238 5.37899 5.18458 7.47771 5.1526 5.14729 5.14665 5.8248 6.14548 5.13623 6.87112 8.42011 5.10027 7.8329 5.05928 5.03864 7.9711 10.1911 9.4116 7.16036 12.1397
threshold=1.0000000180025095e-35 1.5000000000000002 0.60355338454246532 1.0000000180025095e-35 2.5000000000000004 116.00000000000001 4.5000000000000009 166.50000000000003 1.5000000000000002 37.500000000000007 1.0000000180025095e-35 923.00000000000011 289.00000000000006 5.5000000000000009 1.5000000000000002 4.5000000000000009 1.0000000180025095e-35 2.5000000000000004 163.50000000000003 212.50000000000003 1.0000000180025095e-35 3.5000000000000004 3.5000000000000004 1.0000000180025095e-35 14.500000000000002 348.50000000000006 340.00000000000006 -0.6035533845424651 38.500000000000007 14.500000000000002 0.12940952181816107 6.5000000000000009 1.5000000000000002 2.5000000000000004 7.5000000000000009 0.78656607866287243 3.5000000000000004 185.50000000000003 143.50000000000003 2.5000000000000004 928.50000000000011 4.5000000000000009 3.5000000000000004 9.5000000000000018 56.500000000000007 0.12940952181816107 142.50000000000003 2.5000000000000004 1.0000000180025095e-35 3.5000000000000004 3.5000000000000004 1.5000000000000002 145.50000000000003 8.5000000000000018 1.0000000180025095e-35 1.5000000000000002 1.0000000180025095e-35 2.5000000000000004 4.5000000000000009 98.500000000000014 2.5000000000000004 1.0000000180025095e-35 0.78656607866287243 163.50000000000003 5.5000000000000009 -0.37940952181816096 4.5000000000000009 88.000000000000014 34.500000000000007 1.0000000180025095e-35 5.5000000000000009 1.0000000180025095e-35 174.50000000000003 159.50000000000003 1.0000000180025095e-35 25.500000000000004 13.500000000000002 1.5000000000000002 172.50000000000003 1.0000000180025095e-35 1.5000000000000002 0.37940952181816107 4.5000000000000009 132.50000000000003 3.5000000000000004 1.5000000000000002 77.500000000000014 1.0000000180025095e-35 1.5000000000000002 1.0000000180025095e-35 380.00000000000006 7.5000000000000009 1003.5000000000001 1228.0000000000002
decision_type=2 2 2 2 2 2 2 2 2 2 2 2 2 2 2 2 2 2 2 2 2 2 2 2 2 2 2 2 2 2 2 2 2 2 2 2 2 2 2 2 2 2 2 2 2 2 2 2 2 2 2 2 2 2 2 2 2 2 2 2 2 2 2 2 2 2 2 2 2 2 2 2 2 2 2 2 2 2 2 2 2 2 2 2 2 2 2 2 2 2 2 2 2 2
left_child=4 2 3 6 -1 7 12 44 13 10 25 17 31 35 -12 41 57 18 26 -15 23 -10 72 -8 -25 -3 27 -6 29 -22 -31 50 33 -33 -35 75 -37 88 55 40 -39 42 -7 46 45 -5 47 48 -43 -50 51 -2 53 54 -52 59 63 -17 -23 -14 -20 62 -62 64 67 66 -66 -46 -18 -70 -51 -19 73 -11 -74 -4 -77 -21 -9 -40 -81 -82 83 -60 -85 -13 -87 -59 92 90 -90 -92 -38 -94
right_child=1 9 8 5 11 15 20 78 21 22 14 85 38 19 -16 16 68 71 60 77 28 58 -24 24 -26 -27 -28 -29 -30 30 -32 32 -34 34 -36 36 37 39 79 -41 -42 43 -44 -45 56 -47 -48 -49 49 70 52 -53 -54 -55 -56 -57 -58 87 82 -61 61 -63 -64 -65 65 -67 -68 -69 69 -71 -72 -73 74 -75 -76 76 -78 -79 -80 80 81 -83 -84 84 -86 86 -88 -89 89 -91 91 -93 93 -95
leaf_value=-0.0055694028179618313 0.0029000609716608419 -0.0027028370528451862 0.012398048672587314 0.021461635936390271 -0.013486206798993162 0.021014344292106454 0.0035541896845118896 -0.023854816627378265 -0.0024479175546853727 -0.019010633126662943 0.041775572040806647 -0.013784434470117733 0.0070586570456969673 0.02900579907000065 -0.00013607063641150793 0.0042135770755400131 0.015513620093050932 -0.019844686730605802 -0.0099246606425340504 0.036030065303757075 -0.0061535717493559168 0.034345221933391359 0.0119972462952137 -0.014484607551533444 0.00037920176355021721 -0.029958449133804868 -0.013361292729412902 -0.0054228737171730795 -0.0033165791217983466 0.00034173089101420881 0.010756508552749169 0.010242751981602627 0.0012108685784652587 0.020189947169274094 0.055641001638244182 0.054823124950582336 0.0039675504369761352 0.033477485869769695 0.0030421879201122885 0.039376574896630795 -0.015064808098893418 -0.030963830912814422 -0.0042627657148987062 -0.029697681658647279 0.015868959293283268 0.062791973742423582 -0.0030066245022838511 0.0087372529287393207 0.016274543392161528 -0.024916364204499029 0.0051099240011683892 -0.012924985572276435 -0.0051410124617371159 -0.034367093443870546 0.015862388092847096 6.6372199194208661e-05 0.010994354273138801 0.00057572438824600946 0.0094167899983074836 0.00030740106321242922 -0.040617653053917298 -0.0053718305551088774 -0.016703659060754276 -0.012206318080425264 0.060490843612286786 -0.026798508209841594 0.0093076339101090151 0.054802126098762866 0.0063988850555486143 -0.032107959936062497 0.0021575591245362926 -0.00046984339709830493 -0.014339733543569473 -0.051905722228380351 0.012837596893310547 0.011625253884876903 -0.0021788809102835116 0.0097606791183352474 0.0027487942874431614 0.00066776822479266051 -0.0044604770206539326 -0.020862609193828263 0.0020526027959762235 -0.006064424478443636 0.010466021092703743 -0.029405952479852282 -0.014932192022863187 -0.010925244688264377 -0.015797127395868301 0.015543190673687056 0.029361876724539576 -0.017590418259302777 0.055577099571625391 0.010938226032738734
leaf_weight=1948 1738 62 188 110 406 27 1096 24 236 626 23 372 776 112 24 1362 180 41 67 21 328 18 20 130 356 35 1937 654 4823 1065 203 178 183 52 17 10.999999999999998 465 27 445 42 19 17 200 10.999999999999998 29 15.999999999999998 127 1974 60 31 1884 231 188 10.999999999999998 147 1799 329 1335 1310 498 73 26 38 9.9999999999999982 18 13.999999999999998 34 33 36 11.999999999999998 43 226 67 12.999999999999998 25 148 291 168 75 636 895 61 505 176 137 184 190 103 50 548 37 14.999999999999998 18 99
leaf_count=1948 1738 62 188 110 406 27 1096 24 236 626 23 372 776 112 24 1362 180 41 67 21 328 18 20 130 356 35 1937 654 4823 1065 203 178 183 52 17 11 465 27 445 42 19 17 200 11 29 16 127 1974 60 31 1884 231 188 11 147 1799 329 1335 1310 498 73 26 38 10 18 14 34 33 36 12 43 226 67 13 25 148 291 168 75 636 895 61 505 176 137 184 190 103 50 548 37 15 18 99
internal_value=0 0.00218585 0.00271714 0.00164888 -0.0104596 0.00544876 0.000318711 0.0141517 0.00822991 -0.0147864 -0.00179548 -0.0127201 0.00194817 0.0108081 0.0203739 0.00435734 0.00264851 -0.0115995 -0.0122797 0.0187544 -0.00166471 0.00578487 -0.0172774 0.00135739 -0.00359671 -0.0125373 -0.0116459 -0.00851128 -0.00240952 0.000331543 0.00200908 0.00360975 0.00939668 0.0154615 0.0289243 0.0095865 0.011535 0.0111742 0.000443001 0.0258122 0.0134274 0.00643539 -0.00125624 0.00720693 0.0171321 0.0267099 0.00738719 0.00800837 -0.00152016 0.00221523 0.00301714 0.00104349 0.00475978 0.00567132 0.00588817 0.00187114 0.0145479 0.00192221 0.00669025 0.00441963 -0.0215904 -0.0272956 -0.0324309 0.0230197 0.0257718 0.0156078 0.0270249 0.0365915 0.0115681 -0.00322783 -0.00918422 -0.00344501 -0.0180783 -0.0196799 -0.00695459 0.00545027 0.0024749 0.0126795 -0.00370057 -0.00171147 -0.00304023 -0.00550706 0.00645633 0.00782656 0.00117095 -0.0179298 -0.022053 -0.000248059 0.0101287 0.0131544 0.000320361 0.0158179 0.00674946 0.0178057
internal_weight=0 29486 28591 23950 6162 6210 17740 692 4641 895 144 4214 9739 2259 47 5518 3028 3468 3201 301 8001 2382 751 1582 486 97 2997 1060 6419 1596 1268 4629 430 247 69 1958 1331 1320 5110 88 46 2490 227 2263 593 126 2252 2125 151 134 4199 1969 2230 2042 2031 3073 467 2800 2146 1274 204 137 111 138 128 66 52 62 228 48 74 267 731 639 92 627 439 189 99 2037 1592 956 2128 1623 313 746 374 1438 1232 650 102 52 582 117
internal_count=35648 29486 28591 23950 6162 6210 17740 692 4641 895 144 4214 9739 2259 47 5518 3028 3468 3201 301 8001 2382 751 1582 486 97 2997 1060 6419 1596 1268 4629 430 247 69 1958 1331 1320 5110 88 46 2490 227 2263 593 126 2252 2125 151 134 4199 1969 2230 2042 2031 3073 467 2800 2146 1274 204 137 111 138 128 66 52 62 228 48 74 267 731 639 92 627 439 189 99 2037 1592 956 2128 1623 313 746 374 1438 1232 650 102 52 582 117
is_linear=0
shrinkage=0.05


Tree=6
num_leaves=95
num_cat=0
split_feature=5 5 25 24 3 22 11 2 16 8 3 13 13 25 9 13 3 13 10 22 0 23 0 26 22 22 13 2 6 22 3 4 7 26 22 16 13 9 15 22 0 10 25 26 13 13 13 25 19 2 12 11 22 3 22 3 25 26 6 3 9 17 9 19 2 6 10 10 7 13 22 2 25 25 13 25 18 13 25 23 22 13 25 22 2 9 26 3 3 22 10 0 2 6
split_gain=294.222 95.9836 60.7831 43.7008 24.5907 21.3274 20.8851 14.7339 12.1731 10.6505 10.5612 9.42901 9.17526 9.10066 8.66574 8.24383 10.2301 9.85608 8.38981 7.97006 8.85778 7.91607 7.58919 7.45317 9.39765 7.22528 7.17822 10.5509 6.90924 6.51435 6.40952 6.37157 6.42154 6.3472 8.49216 6.60499 6.03575 8.40323 7.96981 6.03451 8.92605 7.49267 9.16393 7.72133 11.0039 6.02148 8.79717 5.96959 5.87043 9.12509 6.05104 6.67553 5.93509 9.52231 12.1397 5.88319 5.82707 7.1444 9.12269 9.29769 7.4752 7.89497 6.71204 6.57218 7.23974 6.87737 6.60006 6.10623 6.07315 5.98455 5.82586 5.76094 6.49395 7.77884 5.59895 5.56786 5.50648 5.48593 5.40067 5.39895 5.37379 5.35821 5.29561 6.81295 8.47494 5.25091 5.24842 5.07795 5.01169 5.05885 8.49738 5.24771 11.9858 7.1103
threshold=1.0000000180025095e-35 1.5000000000000002 0.60355338454246532 1.0000000180025095e-35 2.5000000000000004 95.000000000000014 1.0000000180025095e-35 166.50000000000003 1.0000000180025095e-35 3.5000000000000004 1.5000000000000002 132.50000000000003 3.5000000000000004 -0.7865660786628722 13.500000000000002 88.500000000000014 1.5000000000000002 81.500000000000014 48.000000000000007 801.50000000000011 5.5000000000000009 5.5000000000000009 1.5000000000000002 1.0000000180025095e-35 49.000000000000007 852.00000000000011 132.50000000000003 109.50000000000001 6.5000000000000009 8.5000000000000018 3.5000000000000004 1.0000000180025095e-35 1.5000000000000002 1.5000000000000002 17.500000000000004 1.0000000180025095e-35 125.50000000000001 6.5000000000000009 1.0000000180025095e-35 57.500000000000007 4.5000000000000009 263.00000000000006 -0.98296290636062611 1.0000000180025095e-35 75.500000000000014 41.500000000000007 18.500000000000004 -0.98296290636062611 1.0000000180025095e-35 117.50000000000001 10.500000000000002 3.5000000000000004 402.50000000000006 3.5000000000000004 168.50000000000003 1.5000000000000002 0.91597560048103344 1.5000000000000002 1.0000000180025095e-35 1.0000000180025095e-35 4.5000000000000009 1.0000000180025095e-35 1.5000000000000002 1.0000000180025095e-35 61.500000000000007 9.5000000000000018 109.50000000000001 6.0000000000000009 12.500000000000002 167.50000000000003 36.500000000000007 7.5000000000000009 0.78656607866287243 0.37940952181816107 24.500000000000004 -0.12940952181816107 1.0000000180025095e-35 79.500000000000014 0.78656607866287243 1.0000000180025095e-35 673.00000000000011 180.50000000000003 1.0000000180025095e-35 190.50000000000003 22.500000000000004 4.5000000000000009 2.5000000000000004 1.0000000180025095e-35 4.5000000000000009 60.000000000000007 85.000000000000014 2.5000000000000004 132.50000000000003 20.500000000000004
decision_type=2 2 2 2 2 2 2 2 2 2 2 2 2 2 2 2 2 2 2 2 2 2 2 2 2 2 2 2 2 2 2 2 2 2 2 2 2 2 2 2 2 2 2 2 2 2 2 2 2 2 2 2 2 2 2 2 2 2 2 2 2 2 2 2 2 2 2 2 2 2 2 2 2 2 2 2 2 2 2 2 2 2 2 2 2 2 2 2 2 2 2 2 2 2
left_child=4 2 3 6 -1 7 -2 26 13 12 21 31 -3 -8 47 16 18 23 -15 20 48 56 -19 24 -18 -17 29 -28 36 -5 -12 32 74 34 -14 -35 37 38 87 41 -41 42 -31 44 -44 46 -36 -10 50 -50 51 -7 53 54 -53 -56 63 60 67 -60 68 79 -61 64 65 66 78 -59 -58 -64 -45 -47 73 77 86 -22 -38 -73 -4 -62 -26 -71 -13 -84 -85 -74 -6 -23 -32 90 -90 92 93 -91
right_child=1 9 10 5 11 19 8 -9 14 -11 30 82 33 15 -16 25 17 22 -20 -21 75 28 -24 -25 80 -27 27 -29 -30 39 88 -33 -34 35 45 -37 76 -39 -40 40 -42 -43 43 70 -46 71 -48 -49 49 -51 -52 52 -54 -55 55 -57 57 58 59 62 61 -63 69 -65 -66 -67 -68 -69 -70 81 -72 72 85 -75 -76 -77 -78 -79 -80 -81 -82 -83 83 84 -86 -87 -88 -89 89 91 -92 -93 -94 -95
leaf_value=-0.0052909328578827908 0.0041347877450091143 0.020335714850160811 0.014924831502139569 0.050276876892894506 0.0030226524059589095 0.0061882194846661562 -0.0028267862371481722 -0.0052055215463042261 0.037244227379560471 0.017486023351263542 -0.0023255203795319395 -0.010619742358314806 0.029962655281027158 0.010739872326960727 0.0012927539549302987 -0.00032664312193074919 0.039350556108084599 0.00069519145777676176 0.0026303506189725347 0.0012705763293727724 0.014194025560503915 0.028540825557250245 0.022340979902073742 0.00039481061807998622 -0.012413900064409905 -0.0047350241384212528 0.039192485318908211 0.0098422635197639476 0.0021434156126097629 0.043047062431772552 0.032627959632211261 -0.0050667193298246345 -0.016968845643850653 -0.02197215158957988 -0.029652620702981948 0.0016713781980797649 0.017159732625536297 0.0076862569070524633 0.016104341298341752 0.031795982687504262 0.010088132679220138 0.039855882099696566 -0.007584197819232941 -0.0015399123576504215 0.047455240786075596 -0.04706589356064797 0.0083379885472822934 0.0091931320226951753 0.030284900031983853 -0.0022598727260317122 0.0097416962293313831 0.023553482331335546 0.0037388852951379145 -0.010093163043419097 -0.0059059532926670766 0.02361535257414768 -0.0021540557580261399 0.052173537621274593 0.0014264438954884546 0.04846257509456741 -0.010742622419543889 0.048492732737213377 0.011332231490825215 0.019060100059883268 0.0021104842638240483 -0.0029140833038382415 0.011131070445560966 0.023197583317756655 0.030035822559148075 0.059525524079799656 -0.029323812497073207 -0.029761151803864374 -0.014157672350196854 0.0097714164853096013 -0.013037523301672772 0.054901540172951561 -0.015511037607987721 -0.010066120168476394 0.056685670316219322 0.015616849255561831 -0.0024364856732162566 0.021094524040818213 0.012584744074514934 0.0072197477820567617 -0.011033966871680784 -0.040619825309998282 -0.020133261801674962 0.056787859702982557 0.0064153597421817872 0.0055977493329797609 0.038414044515229763 0.0078138474988813083 -0.012585236902460956 -0.030367840400763919
leaf_weight=1948 2962 18 15.999999999999998 11.999999999999998 104 1800 4137 82 20 26 236 837 11.999999999999998 426 689 4477 10.999999999999998 82 1269 1609 21 26 80 1507 265 1173 79 50 57 11.999999999999998 18 204 1206 384 20 32 92 36 34 77 123 13.999999999999998 21 54 15.999999999999998 13.999999999999998 64 367 56 35 558 60 1083 235 151 19 174 24 114 18 23 15.999999999999998 137 102 601 82 377 75 15.999999999999998 12.999999999999998 29 45 38 40 1445 13.999999999999998 14.999999999999998 165 15.000000000000002 125 275 30 56 86 244 37 32 41 59 746 32 1165 112 13.999999999999998
leaf_count=1948 2962 18 16 12 104 1800 4137 82 20 26 236 837 12 426 689 4477 11 82 1269 1609 21 26 80 1507 265 1173 79 50 57 12 18 204 1206 384 20 32 92 36 34 77 123 14 21 54 16 14 64 367 56 35 558 60 1083 235 151 19 174 24 114 18 23 16 137 102 601 82 377 75 16 13 29 45 38 40 1445 14 15 165 15 125 275 30 56 86 244 37 32 41 59 746 32 1165 112 14
internal_value=0 0.00207655 0.00258128 0.00156644 -0.00993659 0.00517632 0.000302775 0.0144024 -0.000465287 -0.0140471 0.00781842 -0.0120841 -0.0149906 -0.000867426 0.00465564 -1.9975e-05 0.00174342 -0.000489909 0.0046685 0.0042457 0.00543295 0.0102677 0.0113845 -0.00142463 -0.00640084 -0.00124187 0.0177039 0.0278164 0.0178167 0.01406 0.00549563 -0.0135965 -0.0142209 -0.0157378 -0.011515 -0.0201534 0.0214781 0.0284279 0.0358209 0.0128039 0.0184457 0.00507546 0.00138663 -0.00277942 0.0162166 -0.0126917 -0.000707395 0.0106428 0.00521365 0.0177677 0.00492117 0.00411775 0.00171022 -0.00301461 0.00421783 -0.00260651 0.00910718 0.0125134 0.0169978 0.0128017 0.007307 0.0151275 0.0193511 0.00692294 0.00578821 0.0102991 0.0129546 0.0302221 0.000556671 0.0164399 -0.0112475 -0.0156612 -0.0143084 -0.0104372 -0.0121247 0.030477 0.0125797 -0.0142865 0.0351317 0.0115204 -0.00733281 0.0327132 -0.00838542 -0.00354053 -0.00627694 -0.0272123 -0.0024258 0.0458263 0.00635574 0.00613351 0.0176676 0.00561824 0.00268489 0.00493523
internal_weight=0 29486 28591 23950 6162 6210 17740 569 14778 895 4641 4214 869 13702 1076 9565 3915 2220 1695 5641 4032 2259 162 2058 551 5650 487 129 301 358 2382 2991 2787 851 435 416 244 137 101 346 200 146 132 120 37 423 84 387 3997 91 3906 3348 1548 465 230 170 1958 765 411 312 354 164 198 1193 1091 490 408 99 190 180 83 339 325 250 1581 35 107 210 31 148 540 43 1223 386 330 75 136 67 2146 2128 91 2037 872 760
internal_count=35648 29486 28591 23950 6162 6210 17740 569 14778 895 4641 4214 869 13702 1076 9565 3915 2220 1695 5641 4032 2259 162 2058 551 5650 487 129 301 358 2382 2991 2787 851 435 416 244 137 101 346 200 146 132 120 37 423 84 387 3997 91 3906 3348 1548 465 230 170 1958 765 411 312 354 164 198 1193 1091 490 408 99 190 180 83 339 325 250 1581 35 107 210 31 148 540 43 1223 386 330 75 136 67 2146 2128 91 2037 872 760
is_linear=0
shrinkage=0.05


Tree=7
num_leaves=95
num_cat=0
split_feature=5 5 25 24 3 11 22 2 13 23 23 13 2 22 13 2 10 10 22 3 10 0 3 16 23 9 6 25 22 25 25 10 2 10 26 2 13 10 18 10 13 10 3 4 11 3 13 7 2 0 22 22 3 25 13 10 25 22 26 13 13 8 18 18 6 2 0 13 2 10 0 3 26 7 22 8 22 0 25 26 18 25 12 22 16 22 22 6 25 6 26 22 0 2
split_gain=265.536 86.6252 54.8567 39.44 22.1931 19.5224 19.3157 11.9385 9.69285 12.4915 9.61476 8.50968 8.24741 9.46598 10.6856 9.86432 7.97724 8.48903 7.85572 7.61143 7.37699 7.15716 7.01673 6.69253 6.4824 6.206 6.13664 9.60341 7.48261 7.17297 6.10346 8.06894 6.232 7.14079 9.19655 7.12209 7.30523 6.51218 8.96374 5.93778 6.6134 5.81078 5.77468 6.0699 6.67284 5.75126 5.59741 5.58506 8.23809 5.87239 5.87291 9.80902 5.77065 5.65862 6.94475 5.56176 5.47233 8.04896 10.2552 6.21413 6.0233 8.64405 5.47063 5.41803 6.00437 6.09483 6.14896 5.40775 5.39597 6.35892 5.35928 5.26332 7.86142 5.22053 5.2135 5.17427 5.05837 5.0394 5.014 4.9823 6.23844 5.48638 7.68075 4.96329 5.43521 5.3631 4.95286 4.94963 5.05348 4.88852 4.88521 4.87884 7.58868 4.82692
threshold=1.0000000180025095e-35 1.5000000000000002 0.60355338454246532 1.0000000180025095e-35 2.5000000000000004 4.5000000000000009 116.00000000000001 166.50000000000003 37.500000000000007 3.5000000000000004 5.5000000000000009 132.50000000000003 141.50000000000003 24.000000000000004 25.500000000000004 69.500000000000014 212.50000000000003 286.00000000000006 1055.5000000000002 8.5000000000000018 36.000000000000007 4.5000000000000009 1.5000000000000002 1.0000000180025095e-35 1.0000000180025095e-35 1.0000000180025095e-35 7.5000000000000009 -0.98296290636062611 608.50000000000011 0.37940952181816107 -0.98296290636062611 825.00000000000011 159.50000000000003 413.50000000000006 1.0000000180025095e-35 130.50000000000003 191.50000000000003 235.00000000000003 1.0000000180025095e-35 1081.0000000000002 29.500000000000004 166.00000000000003 7.5000000000000009 1.0000000180025095e-35 5.5000000000000009 5.5000000000000009 76.500000000000014 4.5000000000000009 132.50000000000003 2.5000000000000004 61.500000000000007 30.000000000000004 2.5000000000000004 0.91597560048103344 116.50000000000001 54.000000000000007 -0.7865660786628722 79.000000000000014 1.5000000000000002 88.500000000000014 173.50000000000003 3.5000000000000004 1.0000000180025095e-35 1.0000000180025095e-35 8.5000000000000018 84.500000000000014 1.5000000000000002 150.50000000000003 64.500000000000014 395.00000000000006 1.5000000000000002 2.5000000000000004 1.5000000000000002 3.5000000000000004 8.5000000000000018 3.5000000000000004 633.00000000000011 2.5000000000000004 0.98296290636062633 2.5000000000000004 1.0000000180025095e-35 -0.98296290636062611 10.500000000000002 186.50000000000003 1.0000000180025095e-35 278.50000000000006 57.500000000000007 1.0000000180025095e-35 -0.7865660786628722 2.5000000000000004 1.0000000180025095e-35 218.50000000000003 3.5000000000000004 34.500000000000007
decision_type=2 2 2 2 2 2 2 2 2 2 2 2 2 2 2 2 2 2 2 2 2 2 2 2 2 2 2 2 2 2 2 2 2 2 2 2 2 2 2 2 2 2 2 2 2 2 2 2 2 2 2 2 2 2 2 2 2 2 2 2 2 2 2 2 2 2 2 2 2 2 2 2 2 2 2 2 2 2 2 2 2 2 2 2 2 2 2 2 2 2 2 2 2 2
left_child=4 2 3 5 83 12 7 73 9 -3 22 42 13 14 -2 45 41 -18 68 20 62 46 63 89 25 -7 28 71 29 -22 31 -10 33 34 37 36 -35 38 55 40 -11 -12 43 44 86 -16 -8 48 52 50 51 -50 -24 54 -51 91 60 58 -58 -59 61 -26 -15 -4 65 -65 -67 76 69 -19 87 -28 -73 74 -5 -46 -49 -17 -36 80 -27 82 -82 -1 85 -85 -6 88 -14 -23 -52 -32 -93 -25
right_child=1 8 10 6 11 24 21 -9 30 39 16 -13 70 19 15 77 17 18 -20 -21 26 23 47 93 56 79 27 -29 -30 -31 32 -33 -34 35 78 -37 -38 -39 -40 -41 -42 -43 -44 -45 75 -47 -48 67 49 53 90 -53 -54 -55 -56 -57 57 59 -60 -61 -62 -63 -64 64 -66 66 -68 -69 -70 -71 -72 72 -74 -75 -76 -77 -78 -79 -80 -81 81 -83 -84 84 -86 -87 -88 -89 -90 -91 -92 92 -94 -95
leaf_value=0.00060320604446864026 -0.030317561328411104 -0.01426697802252886 0.0098143455169876631 0.046079871345024843 0.00087084263563156131 -0.011278486239683369 0.002460635931393508 -0.0032812692130906418 -0.0095847847064336154 -0.0022433673864916751 0.018101839484596576 -0.0079661480852226459 -0.010814277241496664 0.0042554488554709452 0.028543381552611082 0.030646524152585432 -0.012192365674431934 0.058766165971755983 -0.0082360231793589065 -0.019926375227096754 0.0012634397689520276 0.0037729705318742912 -0.010284464724015358 0.014291443340480329 -0.0036975171798020318 0.0062086649111956736 0.038542226888239384 0.0038941013132376282 -0.0023249400970645441 0.0091418309113345097 0.026128857650540096 0.042277016490697865 -0.049721808412245348 -0.026614766160216859 -0.01499606332053309 0.002244559249707631 0.003419237414544279 0.022159636958881661 0.033602243040998778 0.048791689324108045 0.039071272542843455 0.047639767287505998 -0.029940200733895209 -0.0042012482956426227 -0.016140118383995768 -0.0037990065636458225 0.0075422952038539069 0.01215032968277994 -0.026878045592457045 0.012270621983112679 0.0044769451343293848 0.035529954994426058 0.0083556970346845578 0.017463632976099597 -0.0157075841693168 -0.032631513165930909 0.0067268022925903413 0.00087759779378002514 -0.047403150938806086 -0.0028549140102192574 -0.010961903871740938 0.028593955224468594 0.016727216736130094 0.02854628794723087 0.022899339641585498 -0.012256792388605268 0.0038094968762662678 -0.012831717623501188 0.0069521004696273155 0.017682578005356553 -0.0054754430139036421 -0.019015119282098914 0.037106230979164434 0.046811173741634078 0.014055128145562173 0.0094830521941184995 -0.00095644927261801676 0.075870543921535666 -0.051036541610956193 -0.0029007605961136941 -0.0008076959673096152 -0.0038664527039585354 0.054416465014219262 -0.015429367161158359 0.0048436123416537337 -0.0058807547352987639 -0.011583181553905418 0.011152599941663168 0.0034125418484129096 -0.00040696706954436446 -0.019088879385246681 0.0095663940740956209 -0.038587148450315002 -0.0035535194755842293
leaf_weight=326 9.9999999999999982 82 1638 12.999999999999998 85 92 797 99 30 38 222 1223 95 1986 28 14.000000000000002 43 9.9999999999999982 45 39 3904 1362 43 180 1579 784 32 827 1443 312 10.999999999999998 9.9999999999999982 13.999999999999998 254 276 28 22 27 11.999999999999998 10.999999999999998 12.999999999999998 18 49 199 1325 27 1693 95 10.000000000000002 42 29 17 1207 59 47 24 14.999999999999998 2092 21 2388 303 21 92 18 33 89 180 72 144 162 604 13 12 12.999999999999998 567 20 327 10.999999999999998 9.9999999999999982 373 17 306 10.000000000000002 165 105 1352 1313 108 182 1438 91 18 14.999999999999998 48
leaf_count=326 10 82 1638 13 85 92 797 99 30 38 222 1223 95 1986 28 14 43 10 45 39 3904 1362 43 180 1579 784 32 827 1443 312 11 10 14 254 276 28 22 27 12 11 13 18 49 199 1325 27 1693 95 10 42 29 17 1207 59 47 24 15 2092 21 2388 303 21 92 18 33 89 180 72 144 162 604 13 12 13 567 20 327 11 10 373 17 306 10 165 105 1352 1313 108 182 1438 91 18 15 48
internal_value=0 0.00197273 0.00245222 0.00148812 -0.00943976 0.000287637 0.0049175 0.0127919 -0.0133448 -0.00146184 0.0074275 -0.0114799 0.00179104 0.00228021 0.0184121 0.0245034 0.0130972 0.00880804 0.0113095 0.00211256 0.00221226 0.00392999 0.00651399 0.00229705 -0.00154234 0.00132446 0.001388 0.00526228 0.000782794 0.00184647 -0.0156232 0.00338067 -0.0166924 -0.0160289 -0.0115778 -0.0217832 -0.0242208 0.000926973 -0.00623905 0.015474 0.00828782 0.0203172 -0.0129167 -0.0126332 -0.0132449 0.0126662 0.00591576 0.00446109 0.0059408 -0.00157479 -0.00865325 0.0124159 0.00771448 0.00545584 -0.00250439 -0.0132699 -0.00224887 -0.00130119 -0.024849 -0.00111196 -0.00449783 -0.00327369 0.00480762 0.00865182 0.00270114 0.000378704 -0.00150612 -0.000166723 0.0140929 0.0200712 -0.00253687 0.0251128 0.00792313 0.0154753 0.0147729 -0.0157591 0.00199413 0.0505451 -0.0162562 0.00210262 0.0037734 -0.00196006 0.0196457 -0.00502639 -0.00615786 -0.00691933 -0.010826 0.00207327 -0.00146669 0.00162627 -0.0133938 -0.00270897 -0.0123216 0.0105346
internal_weight=0 29486 28591 23950 6162 17740 6210 692 895 144 4641 4214 9739 8750 90 80 644 404 361 8660 8621 5518 3997 3028 8001 1582 6543 884 5659 4216 751 40 711 697 393 304 276 107 80 62 51 240 2991 2942 2743 55 2490 2039 1545 295 147 27 1250 148 89 68 6419 4516 36 4480 1903 1600 2078 1958 320 287 269 494 316 172 989 57 25 593 580 1345 422 25 286 1490 1117 333 27 1948 1622 1517 1398 385 277 2800 120 44 33 228
internal_count=35648 29486 28591 23950 6162 17740 6210 692 895 144 4641 4214 9739 8750 90 80 644 404 361 8660 8621 5518 3997 3028 8001 1582 6543 884 5659 4216 751 40 711 697 393 304 276 107 80 62 51 240 2991 2942 2743 55 2490 2039 1545 295 147 27 1250 148 89 68 6419 4516 36 4480 1903 1600 2078 1958 320 287 269 494 316 172 989 57 25 593 580 1345 422 25 286 1490 1117 333 27 1948 1622 1517 1398 385 277 2800 120 44 33 228
is_linear=0
shrinkage=0.05


Tree=8
num_leaves=95
num_cat=0
split_feature=5 5 25 24 3 11 22 2 8 3 22 13 22 22 0 23 3 2 6 11 22 10 26 1 2 2 23 9 3 22 3 13 26 22 16 23 10 19 2 12 12 25 13 13 0 10 25 12 3 26 6 3 3 2 2 4 2 0 13 25 13 11 25 6 3 3 0 11 9 13 6 11 25 11 26 25 3 22 3 25 0 3 7 6 6 23 12 25 0 22 22 26 13 22
split_gain=239.646 78.1793 49.5082 35.5946 20.0293 17.619 17.5062 12.158 8.92738 8.77564 8.02868 7.94904 7.67781 6.87221 8.04458 6.72357 6.60305 11.0552 8.53474 9.37062 7.47049 11.1642 9.43105 6.16773 6.3594 6.1377 5.85037 5.60092 5.49187 5.48982 5.47063 8.29544 5.43282 7.64718 5.79656 5.45022 8.20789 5.30804 8.19468 5.36985 5.99606 5.27125 7.38633 6.96791 5.30458 9.36679 5.25071 5.22337 7.60906 6.24629 5.6843 5.35055 18.3366 7.21231 7.20105 6.8146 5.47179 9.5817 5.28263 5.04295 5.03098 5.96258 6.48604 5.01677 5.17914 4.93255 4.89572 4.8904 4.84545 5.10835 4.8083 5.77665 4.80641 5.57378 4.80591 4.79899 4.78586 4.76268 5.41462 6.17856 4.75617 4.74134 4.73741 13.0248 4.75444 4.71508 5.59631 5.22341 4.6949 7.01294 4.69448 4.67307 6.84838 4.65605
threshold=1.0000000180025095e-35 1.5000000000000002 0.60355338454246532 1.0000000180025095e-35 2.5000000000000004 4.5000000000000009 95.000000000000014 166.50000000000003 3.5000000000000004 1.5000000000000002 923.00000000000011 3.5000000000000004 289.00000000000006 801.50000000000011 5.5000000000000009 5.5000000000000009 1.5000000000000002 37.500000000000007 1.5000000000000002 5.5000000000000009 33.500000000000007 88.000000000000014 1.5000000000000002 2.5000000000000004 163.50000000000003 110.50000000000001 1.0000000180025095e-35 1.0000000180025095e-35 3.5000000000000004 40.500000000000007 1.5000000000000002 98.500000000000014 1.5000000000000002 17.500000000000004 1.0000000180025095e-35 5.5000000000000009 140.50000000000003 1.0000000180025095e-35 117.50000000000001 10.500000000000002 8.5000000000000018 0.78656607866287243 3.5000000000000004 185.50000000000003 2.5000000000000004 928.50000000000011 -0.7865660786628722 6.5000000000000009 1.5000000000000002 2.5000000000000004 7.5000000000000009 3.5000000000000004 1.5000000000000002 113.50000000000001 86.500000000000014 2.5000000000000004 92.500000000000014 2.5000000000000004 14.500000000000002 -0.12940952181816107 38.500000000000007 14.500000000000002 0.12940952181816107 4.5000000000000009 2.5000000000000004 6.5000000000000009 4.5000000000000009 1.5000000000000002 10.500000000000002 125.50000000000001 7.5000000000000009 4.5000000000000009 -0.98296290636062611 2.5000000000000004 1.5000000000000002 -0.91597560048103321 1.0000000180025095e-35 673.00000000000011 5.5000000000000009 -0.98296290636062611 4.5000000000000009 7.5000000000000009 3.5000000000000004 1.5000000000000002 3.5000000000000004 2.5000000000000004 1.0000000180025095e-35 0.78656607866287243 2.5000000000000004 355.00000000000006 63.500000000000007 1.5000000000000002 77.500000000000014 6.5000000000000009
decision_type=2 2 2 2 2 2 2 2 2 2 2 2 2 2 2 2 2 2 2 2 2 2 2 2 2 2 2 2 2 2 2 2 2 2 2 2 2 2 2 2 2 2 2 2 2 2 2 2 2 2 2 2 2 2 2 2 2 2 2 2 2 2 2 2 2 2 2 2 2 2 2 2 2 2 2 2 2 2 2 2 2 2 2 2 2 2 2 2 2 2 2 2 2 2
left_child=4 2 3 5 90 12 7 16 11 15 23 -3 47 14 37 41 17 -5 19 72 21 -18 -23 24 29 -17 27 75 -11 -6 31 -14 33 -13 -34 63 -37 39 80 40 66 -4 -43 -44 45 -45 -21 51 49 -49 -51 52 93 54 58 56 57 -56 -53 -16 61 -28 -63 64 -35 -31 -8 -55 69 -27 71 -25 -19 -74 -40 -7 -29 -32 -79 -80 -39 -81 84 -84 -66 -26 87 -87 89 -65 -1 -12 -93 -2
right_child=1 8 9 6 10 26 13 -9 -10 28 91 32 30 -15 59 25 20 18 -20 46 -22 22 -24 70 85 68 60 76 -30 65 77 -33 34 35 -36 36 -38 38 74 -41 -42 42 43 44 -46 -47 -48 48 -50 50 -52 53 -54 67 55 -57 -58 -59 -60 -61 -62 62 -64 88 82 -67 -68 -69 -70 -71 -72 -73 73 -75 -76 -77 -78 78 79 81 -82 -83 83 -85 -86 86 -88 -89 -90 -91 -92 92 -94 -95
leaf_value=0.0078453040668662165 0.030235130687554679 0.019339794272349942 0.0044393690169285361 0.061935647598960822 0.0057298739931800147 -0.033098453865386547 0.0062796075401225495 -0.0047811827690499584 0.016192284104629206 -0.0023008799780223333 -0.011643580707811541 0.029030072068174678 0.0064129804798699541 0.0010658604891089789 0.013301286810920352 0.011247550118898992 -0.00465864006962095 0.038725724013952106 0.052109802638491 0.07161768488585947 0.0072253419022656924 0.067702112429671821 0.022200054543152936 -0.010586800978702753 -0.0081749587083485599 0.042250644764367573 -0.0057119606766053311 0.0082933607351673069 0.0057349402468216681 -0.0098522453969576273 -0.0024916242330042301 -3.6983442735969171e-05 -0.020025792424955096 0.0035788271837590038 0.002123572863638401 -0.023888341337442401 0.017659969050437214 0.049693358110056984 0.013725961223244668 0.0089849246211857348 -0.0059824266002263902 0.050802249258214784 0.0086889142959753612 0.030449206671781012 0.036099467790197758 -0.015374026722029636 0.024843811572839818 0.0091996308437056751 0.00069783312253287591 0.018715367996348785 0.052020181189565098 -0.0053708677024890987 -0.012495465044464384 0.0022719417119797121 0.011924356628548016 0.040168576467443595 0.0077800728065866827 0.061289358777659279 0.0056614017446130023 0.052042455172964512 -0.0029416613484493943 0.00029001276240522318 0.010042082103602405 -0.048287338153882461 -0.012121095358357802 -0.021805368983343745 0.0023511895641047877 -0.0079730119392577865 0.0021505465840592104 0.017019643453615053 0.025930977932044436 0.004726070474903539 0.010328614504800902 -0.027188308943401684 -0.023713643352190655 -0.004888618154425736 0.00072205812280172303 -0.007449635168186565 -0.015494922796885172 0.0046791513548054614 0.018492619810920014 -0.02369053641955058 -0.078442260473966602 -0.010924179315567016 0.023456867784261703 -0.037077099962593757 -0.0034804383149513833 -0.014218200625557648 -0.032645739375480584 -0.0039378227071559177 -0.0052524490391594432 -0.026433633227387201 -0.012900007351448662 0.0022572079779352135
leaf_weight=71 14.999999999999998 18 627 17 55 19 1463 82 26 236 372 11.999999999999998 776 1609 21 202 21 12.999999999999998 18 10.000000000000002 234 18 31 147 67 47 328 251 2146 2853 1934 1394 384 57 32 18 35 18 20 558 153 10.999999999999998 1232 27 42 19 14.999999999999998 178 183 52 17 120 231 547 33 22 213 13.999999999999998 1133 13.999999999999998 4823 1065 203 10.999999999999998 154 89 1732 148 17 35 13.999999999999998 106 99 10.999999999999998 14.999999999999998 73 1239 138 42 811 38 14.999999999999998 9.9999999999999982 25 9.9999999999999982 73 26 38 56 47 1877 184 190 1723
leaf_count=71 15 18 627 17 55 19 1463 82 26 236 372 12 776 1609 21 202 21 13 18 10 234 18 31 147 67 47 328 251 2146 2853 1934 1394 384 57 32 18 35 18 20 558 153 11 1232 27 42 19 15 178 183 52 17 120 231 547 33 22 213 14 1133 14 4823 1065 203 11 154 89 1732 148 17 35 14 106 99 11 15 73 1239 138 42 811 38 15 10 25 10 73 26 38 56 47 1877 184 190 1723
internal_value=0 0.00187409 0.00232961 0.00141371 -0.00896777 0.000273255 0.00467163 0.0130304 -0.0126775 0.00705612 -0.0109059 -0.0135413 0.00170149 0.00382849 0.00493094 0.00928875 0.0160295 0.0235334 0.0196006 0.0156468 0.0115123 0.025843 0.0389151 -0.00989371 -0.0105027 0.016246 -0.00146522 0.00125823 0.00493878 -0.00992125 0.000365306 0.00226955 -0.0142368 -0.01033 -0.018322 -0.0114466 0.00354922 0.00472195 0.0166595 0.00444383 0.00368698 0.00821923 0.00999982 0.0096598 0.0232523 0.0115222 0.0435534 0.00317651 0.00842507 0.0141501 0.0269209 0.00263903 0.000739586 0.00431616 0.0062295 0.0134483 0.0111873 0.0266288 0.00460484 0.0287978 -0.00213643 0.000296919 0.00185127 -0.0135946 -0.00970943 -0.0102138 0.00415002 9.02825e-05 0.0264447 0.0314813 -0.00259274 -0.00417113 0.00997476 0.00657692 -0.00231958 -0.0107146 0.00199749 -0.00104021 0.0017501 0.00321273 0.0285214 0.00416396 -0.0135156 -0.0302151 -0.00995171 -0.0190448 -0.0243607 -0.0292515 -0.0223193 -0.0123489 -0.00477507 -0.0156115 -0.0195583 0.00249867
internal_weight=0 29486 28591 23950 6162 17740 6210 569 895 4641 4214 869 9739 5641 4032 2259 487 183 166 148 304 70 49 3468 3201 301 8001 1582 2382 2997 5110 2170 851 435 416 423 53 3997 91 3906 3348 1958 1331 1320 88 46 25 4629 430 247 69 4199 1969 2230 1535 282 260 47 1253 35 6419 1596 1268 370 256 2942 3195 695 99 82 267 253 123 110 35 92 1490 2940 1006 868 56 826 199 35 164 204 137 111 114 58 1948 746 374 1738
internal_count=35648 29486 28591 23950 6162 17740 6210 569 895 4641 4214 869 9739 5641 4032 2259 487 183 166 148 304 70 49 3468 3201 301 8001 1582 2382 2997 5110 2170 851 435 416 423 53 3997 91 3906 3348 1958 1331 1320 88 46 25 4629 430 247 69 4199 1969 2230 1535 282 260 47 1253 35 6419 1596 1268 370 256 2942 3195 695 99 82 267 253 123 110 35 92 1490 2940 1006 868 56 826 199 35 164 204 137 111 114 58 1948 746 374 1738
is_linear=0
shrinkage=0.05


Tree=9
num_leaves=95
num_cat=0
split_feature=5 5 25 24 3 11 22 2 16 13 23 23 25 13 3 3 25 10 10 22 3 13 3 13 19 0 26 22 10 11 0 3 2 6 3 13 3 16 22 13 6 2 25 10 2 10 26 2 13 10 18 3 11 9 3 13 10 13 10 2 22 25 22 23 3 25 7 2 0 22 22 25 13 25 10 23 3 10 25 26 0 22 11 9 17 7 19 2 9 7 6 2 10 23
split_gain=216.281 70.5568 44.6812 32.1241 18.0764 16.4718 15.8626 9.75508 9.63377 8.26507 11.0087 8.15701 7.54317 7.45409 7.28354 8.43772 7.27335 6.94796 7.64301 7.06756 6.73569 6.63684 8.33278 8.72836 7.41786 6.83553 6.42618 8.13234 6.2753 7.78245 6.06455 5.81615 5.75167 10.2109 6.35788 7.98759 6.25154 5.73032 5.68323 5.5774 5.48112 6.09945 5.47586 7.2509 5.62392 6.4076 7.94816 6.2257 6.1728 5.71461 7.912 5.24405 5.24137 6.50863 5.21414 5.19616 5.12999 5.84489 5.12596 5.84463 5.12452 5.1218 5.07373 5.04123 5.42334 6.6489 5.03515 7.44049 5.29963 5.30368 8.87383 5.10336 6.24846 5.00636 7.24073 7.40517 4.99083 4.98911 4.98605 6.49665 8.63135 8.3636 7.72107 6.73707 7.13748 6.65379 5.90706 6.28792 6.50732 5.48797 5.06406 4.97143 5.72909 4.94947
threshold=1.0000000180025095e-35 1.5000000000000002 0.60355338454246532 1.0000000180025095e-35 2.5000000000000004 1.0000000180025095e-35 116.00000000000001 166.50000000000003 1.0000000180025095e-35 37.500000000000007 3.5000000000000004 5.5000000000000009 -0.7865660786628722 128.50000000000003 1.5000000000000002 5.5000000000000009 -0.98296290636062611 212.50000000000003 286.00000000000006 1055.5000000000002 9.5000000000000018 88.500000000000014 1.5000000000000002 81.500000000000014 1.0000000180025095e-35 1.5000000000000002 1.0000000180025095e-35 49.000000000000007 626.00000000000011 15.500000000000002 4.5000000000000009 1.5000000000000002 144.50000000000003 1.0000000180025095e-35 3.5000000000000004 155.50000000000003 1.5000000000000002 1.0000000180025095e-35 673.00000000000011 37.500000000000007 3.5000000000000004 155.50000000000003 -0.98296290636062611 825.00000000000011 159.50000000000003 413.50000000000006 1.0000000180025095e-35 130.50000000000003 191.50000000000003 235.00000000000003 1.0000000180025095e-35 7.5000000000000009 45.500000000000007 1.0000000180025095e-35 9.5000000000000018 62.500000000000007 1081.0000000000002 29.500000000000004 270.50000000000006 36.500000000000007 274.50000000000006 0.12940952181816107 165.50000000000003 2.5000000000000004 1.0000000180025095e-35 -0.37940952181816096 4.5000000000000009 132.50000000000003 2.5000000000000004 61.500000000000007 30.000000000000004 0.91597560048103344 116.50000000000001 0.37940952181816107 82.500000000000014 1.5000000000000002 2.5000000000000004 54.000000000000007 0.91597560048103344 1.5000000000000002 1.0000000180025095e-35 801.50000000000011 1.5000000000000002 4.5000000000000009 1.0000000180025095e-35 3.5000000000000004 1.0000000180025095e-35 61.500000000000007 1.0000000180025095e-35 12.500000000000002 9.5000000000000018 64.500000000000014 395.00000000000006 1.0000000180025095e-35
decision_type=2 2 2 2 2 2 2 2 2 2 2 2 2 2 2 2 2 2 2 2 2 2 2 2 2 2 2 2 2 2 2 2 2 2 2 2 2 2 2 2 2 2 2 2 2 2 2 2 2 2 2 2 2 2 2 2 2 2 2 2 2 2 2 2 2 2 2 2 2 2 2 2 2 2 2 2 2 2 2 2 2 2 2 2 2 2 2 2 2 2 2 2 2 2
left_child=4 2 3 5 -1 -2 7 -5 12 10 -3 31 -7 39 16 -16 -10 52 -19 91 21 22 24 26 40 -25 27 -24 29 32 54 78 34 -34 36 -36 -23 -32 -29 73 41 -14 43 -11 45 46 49 48 -47 50 77 -41 53 -13 55 58 57 -12 -8 -60 -38 -26 -55 64 -57 -66 67 76 69 70 -69 72 -70 74 75 -6 -33 -44 86 83 82 -82 -81 89 93 -84 87 88 -4 -80 -90 92 -20 -85
right_child=1 9 11 6 13 8 30 -9 14 42 56 17 20 -15 15 -17 -18 18 19 -21 -22 28 23 25 61 -27 -28 38 -30 -31 37 66 33 -35 35 -37 60 -39 -40 51 -42 -43 44 -45 -46 47 -48 -49 -50 -51 -52 -53 -54 62 -56 63 -58 -59 59 -61 -62 -63 -64 -65 65 -67 -68 68 71 -71 -72 -73 -74 -75 -76 -77 -78 -79 79 80 81 -83 85 84 -86 -87 -88 -89 90 -91 -92 -93 -94 -95
leaf_value=-0.0045363134230263303 0.0036627302609716092 -0.0130919187261564 0.036848222240805632 0.01399957959420043 -0.04653174779985262 -0.0025640904385100579 0.0082645053205462546 -0.0029552573977847294 0.028302687188474146 -0.0084379374980926517 -0.001751710258816418 0.0029710120920624053 -0.00079682530707692446 -0.0073824350421214623 -0.013237856972962618 0.002972382579355773 0.0064409636497271792 -0.012003844231367113 0.055403294563293459 -0.0082429179963138376 -0.020231296758099301 0.00081802525402499982 0.036650359359654515 0.00066321138065399197 0.011001940975389021 0.021206108843907716 0.00044065913423592439 -0.011994073842343467 -0.0033177137417733137 -0.004614361422204406 0.0014193195174780808 -0.0096551975538564302 -0.0030270827860386603 -0.041958000428146791 0.0015741036679650378 0.009386283576668028 -0.022163632429308362 0.0096624291583634267 -0.0016675770552794286 -0.012678011005902247 0.006358528589298796 0.015661182401121642 -0.0020044328898868777 0.040724705457687381 -0.046536987540977348 -0.024460569675278477 -0.014662938429550691 0.0024839379957744055 0.0031475861784367059 0.021201466741385285 0.032029641047120097 -0.032185707943780083 -0.008098101747386597 0.043599750945965451 -0.028977116468277848 -0.023129740070838196 0.045796746760606771 0.037088324387486167 0.0018361739398768317 -0.012140814129795348 -0.0036634517810689134 0.036647327184677128 0.021087239712279368 0.0074225587979594061 -0.0092119617259194108 0.015668468713760375 -0.00040121362299511305 -0.025820892411284144 0.01138947628704565 -0.012974031598035557 0.033537615572704987 0.01633775485521656 -0.015149111601900548 0.00071209352067176342 -0.0064692808649764802 -0.014551936861346752 0.0076797934556140715 -0.030344703731437522 -0.0029908837536456942 0.028356220354052154 0.023658731432060296 0.0066616473791117851 -0.02131558205736311 -0.011327147532416426 0.045142933167517191 0.019007197128874914 0.017294419973212131 0.0012845629686722146 0.010113237388240002 0.027608869504183533 -0.0035623325534710074 0.006082136582376229 0.016407339440451731 0.013911215785145759
leaf_weight=1948 2962 82 20 593 23 4137 173 99 41 30 38 42 730 1402 100 407 528 43 9.9999999999999982 45 41 1087 10.999999999999998 82 88 80 1498 264 1945 685 2800 43 262 18 954 498 54 228 269 2194 791 61 44 9.9999999999999982 13.999999999999998 254 286 28 22 27 11.999999999999998 35 17 30 10.999999999999998 26 10.999999999999998 12.999999999999998 260 105 122 25 151 1807 58 50 494 10.000000000000002 42 120 17 59 47 141 334 85 1207 24 174 17 238 104 38 23 15.999999999999998 13.999999999999998 102 601 388 15.999999999999998 82 144 162 125
leaf_count=1948 2962 82 20 593 23 4137 173 99 41 30 38 42 730 1402 100 407 528 43 10 45 41 1087 11 82 88 80 1498 264 1945 685 2800 43 262 18 954 498 54 228 269 2194 791 61 44 10 14 254 286 28 22 27 12 35 17 30 11 26 11 13 260 105 122 25 151 1807 58 50 494 10 42 120 17 59 47 141 334 85 1207 24 174 17 238 104 38 23 16 14 102 601 388 16 82 144 162 125
internal_value=0 0.00178039 0.00221313 0.00134302 -0.00851938 0.000259592 0.00443805 0.011574 -0.000422509 -0.0120436 -0.00107076 0.00670331 -0.000780255 -0.0103606 0.0041331 -0.000224903 0.00801624 0.0119255 0.00792266 0.0102962 -8.72075e-06 7.83357e-05 0.00166369 -0.000363376 0.00429947 0.0108079 -0.00124963 -0.00590415 -0.00102056 0.000193561 0.00354315 0.00586191 0.0012932 -0.00552978 0.00199686 0.00425349 -0.000597454 0.00204 -0.00678239 -0.0118455 0.00341545 0.000472376 -0.0141476 0.00385272 -0.0151603 -0.0145301 -0.0103137 -0.0199809 -0.0222599 0.00131147 -0.0054014 -0.0129843 0.0186637 0.0207038 0.00537106 0.00552348 0.0148282 0.00814869 0.00117543 -0.0021846 -0.00933964 0.0166757 0.0248186 0.00672866 -0.00262868 0.00230676 0.00399287 0.00539784 -0.00174466 -0.00846907 0.011553 0.00493431 -0.00262528 -0.00749139 -0.0101083 -0.0213625 0.00708347 -0.0120069 0.00780827 0.0109591 0.0152354 0.01849 -0.000896168 0.00599433 0.0134187 -0.0104594 0.0057878 0.00471202 0.0089159 -0.000414062 0.00772729 0.0129362 0.0186745 0.00998904
internal_weight=0 29486 28591 23950 6162 17740 6210 692 14778 895 144 4641 13702 4214 1076 507 569 644 404 361 9565 9524 3899 2204 1695 162 2042 544 5625 3680 5518 3997 2995 280 2715 1452 1263 3028 533 2812 1582 791 751 40 711 697 393 304 276 107 80 2229 240 223 2490 2479 62 51 538 365 176 113 181 1941 134 108 2039 1545 295 147 27 148 89 583 442 108 1250 68 1958 765 411 342 69 354 164 52 1193 1091 490 190 470 316 172 148
internal_count=35648 29486 28591 23950 6162 17740 6210 692 14778 895 144 4641 13702 4214 1076 507 569 644 404 361 9565 9524 3899 2204 1695 162 2042 544 5625 3680 5518 3997 2995 280 2715 1452 1263 3028 533 2812 1582 791 751 40 711 697 393 304 276 107 80 2229 240 223 2490 2479 62 51 538 365 176 113 181 1941 134 108 2039 1545 295 147 27 148 89 583 442 108 1250 68 1958 765 411 342 69 354 164 52 1193 1091 490 190 470 316 172 148
is_linear=0
shrinkage=0.05


Tree=10
num_leaves=95
num_cat=0
split_feature=5 5 25 24 3 11 22 2 13 23 23 11 1 2 22 13 25 13 10 13 22 0 3 2 6 2 10 22 25 11 11 26 26 8 6 23 2 22 2 23 18 11 6 25 25 10 26 25 22 10 23 13 25 7 25 25 9 2 10 2 25 3 13 12 26 18 6 2 0 25 11 0 19 2 6 25 22 25 13 13 12 11 22 3 22 26 17 0 25 10 13 23 25 13
split_gain=195.193 63.6775 40.3247 28.992 16.314 14.9577 14.4148 10.0518 7.45923 9.93538 7.3617 6.89717 11.9719 6.63614 8.07366 9.51121 8.89807 9.14607 6.40829 6.3123 6.12981 7.30735 5.95925 9.97728 7.90618 6.92218 6.87427 10.3451 7.73219 9.05333 8.1637 7.34837 6.86911 5.71155 5.45119 7.08715 5.42547 5.89772 5.8466 5.2889 5.37988 7.27141 5.25778 4.96096 4.94196 6.54393 5.26684 6.00588 7.17303 12.3993 6.83675 11.3633 7.46676 6.23559 5.82508 5.67154 7.01065 5.23833 6.24047 4.88955 11.6298 4.88936 5.41512 7.02512 9.07434 5.38536 5.39811 5.49066 5.42725 4.8668 5.33682 4.81072 4.80361 7.42813 4.69855 8.6938 6.32744 6.5073 4.6902 4.89901 4.66567 5.58247 5.05541 8.37033 9.86617 6.33447 7.09393 6.00234 6.42907 5.50145 5.05194 5.7629 5.00754 6.33514
threshold=1.0000000180025095e-35 1.5000000000000002 0.60355338454246532 1.0000000180025095e-35 2.5000000000000004 4.5000000000000009 95.000000000000014 166.50000000000003 37.500000000000007 3.5000000000000004 5.5000000000000009 4.5000000000000009 2.5000000000000004 141.50000000000003 24.000000000000004 25.500000000000004 -0.37940952181816096 50.500000000000007 36.000000000000007 35.500000000000007 801.50000000000011 5.5000000000000009 1.5000000000000002 37.500000000000007 1.0000000180025095e-35 163.50000000000003 85.000000000000014 30.000000000000004 -0.7865660786628722 3.5000000000000004 1.5000000000000002 1.5000000000000002 1.5000000000000002 3.5000000000000004 9.5000000000000018 1.5000000000000002 112.50000000000001 953.00000000000011 61.500000000000007 1.0000000180025095e-35 1.0000000180025095e-35 14.500000000000002 12.000000000000002 -0.12940952181816107 -0.98296290636062611 825.00000000000011 2.5000000000000004 0.91597560048103344 651.50000000000011 99.500000000000014 5.5000000000000009 93.500000000000014 -0.12940952181816107 2.5000000000000004 0.91597560048103344 0.78656607866287243 1.5000000000000002 137.50000000000003 896.50000000000011 36.500000000000007 0.12940952181816107 1.5000000000000002 167.50000000000003 12.500000000000002 1.0000000180025095e-35 1.0000000180025095e-35 8.5000000000000018 84.500000000000014 1.5000000000000002 -0.98296290636062611 2.5000000000000004 1.5000000000000002 1.0000000180025095e-35 117.50000000000001 7.5000000000000009 -0.98296290636062611 608.50000000000011 0.37940952181816107 151.50000000000003 190.50000000000003 10.500000000000002 3.5000000000000004 432.50000000000006 3.5000000000000004 168.50000000000003 1.5000000000000002 1.0000000180025095e-35 3.5000000000000004 0.12940952181816107 328.50000000000006 125.50000000000001 5.5000000000000009 -0.37940952181816096 98.500000000000014
decision_type=2 2 2 2 2 2 2 2 2 2 2 2 2 2 2 2 2 2 2 2 2 2 2 2 2 2 2 2 2 2 2 2 2 2 2 2 2 2 2 2 2 2 2 2 2 2 2 2 2 2 2 2 2 2 2 2 2 2 2 2 2 2 2 2 2 2 2 2 2 2 2 2 2 2 2 2 2 2 2 2 2 2 2 2 2 2 2 2 2 2 2 2 2 2
left_child=4 2 3 5 -1 13 7 22 9 -3 34 -6 33 14 15 -2 17 -17 -16 -12 21 72 23 -5 25 69 32 31 30 -30 -29 -28 43 -13 61 42 37 38 -21 40 -7 -42 -36 -24 45 -10 47 50 49 -49 53 52 -52 55 57 -46 -57 58 -48 60 -11 65 -63 -64 -65 -4 67 -67 -69 -25 -71 -15 80 -74 76 -76 77 -20 -79 -80 81 90 83 84 -83 89 87 -87 -89 -85 92 -92 93 -8
right_child=1 8 10 6 11 39 20 -9 44 59 19 12 -14 71 18 16 -18 -19 74 36 -22 -23 26 24 -26 -27 27 28 29 -31 -32 -33 -34 -35 35 -37 -38 -39 -40 -41 41 -43 -44 -45 46 -47 54 48 -50 -51 51 -53 -54 -55 -56 56 -58 -59 -60 -61 -62 62 63 64 -66 66 -68 68 -70 70 -72 -73 73 -75 75 -77 -78 78 79 -81 -82 82 -84 85 -86 86 -88 88 -90 -91 91 -93 -94 -95
leaf_value=-0.004309498210300384 -0.029074190855026244 -0.012437322544978887 0.0091470778001703189 0.058138884669717616 -0.0078303097024370032 0.0031759037835910973 0.006627171982991252 -0.0043943607748099947 -0.0080160403251647947 0.0049055186702924615 0.025173752326263139 -0.013431428912036282 0.0013132953137721657 0.002048199679642045 0.0042611009155579579 0.063961432172971608 -0.0036045561666074007 0.020181980957277121 0.00097588156329726371 0.01455393994444518 0.00084191919961392045 0.027239180952310562 0.018349198885818027 0.037181989035823128 0.035283592914013152 0.038728661629322335 0.07337458841502667 -0.028464292060761228 0.030107520946434568 -0.012539271847344935 0.015119666673920371 0.025108194869497547 -0.0078817158643352363 0.0026341128767582412 -0.0030304244763794401 -0.0076992203720004822 0.017044733786845911 -0.0077930500971213476 0.0012449721110538699 -0.0019933864971274288 -0.013265165316227538 0.00055141887978096024 0.021313626113090109 -0.017880644581534648 -0.0066082793992266438 0.038688469827175144 -0.016779144517088361 -0.046697520954828514 -0.048337308025878406 0.0042944332000843131 -0.055935090184211715 0.020406325808947995 0.0051662959158420563 -0.023877405718471228 0.0050446617106596628 0.00076788626611232734 -0.04804816951877193 -0.056731300428509712 -0.041494046445145753 0.0017541294571544444 0.072859174609184271 0.0054357099973379409 -0.0062162624018495547 -0.015569781004027887 0.022629824646239013 0.02653898634016514 0.021157347478649835 -0.012085139475176844 0.0030088802168352739 0.0069924956873843556 -0.02767542408635983 -0.0051037466084115852 0.026942762213626077 -0.002420363511357989 0.023345467193346278 0.003163667344465923 -0.0022921313626364202 0.0050911077847665331 0.029205445009977262 0.0021565165943824328 0.008261388859387795 0.021548281311988833 0.003391499555148616 -0.0062565015935445141 -0.0011108562887425985 0.032856881171464923 0.034352031923257385 -0.0018659888956771822 -0.031239768765542821 -0.0251636004447937 -0.00078274704023914522 0.0076498141648565846 0.0030032862403563091 0.017371720611980116
leaf_weight=1948 9.9999999999999982 82 1509 17 2118 1096 376 82 30 17.000000000000004 73 1880 159 385 2086 17 23 40 3913 197 1609 35 67 10.999999999999998 47 19 11.999999999999998 21 56 15.999999999999998 22 23 76 57 42 164 170 62 142 6419 130 356 47 10.999999999999998 279 9.9999999999999982 113 19 23 32 10.000000000000002 42 9.9999999999999982 89 18 12.000000000000002 19 11.999999999999998 33 35 9.9999999999999982 1612 228 22 53 18 33 89 180 76 12.999999999999998 604 56 35 57 836 1456 239 47 26 558 60 949 79 241 9.9999999999999982 12.999999999999998 98 23 75 530 328 350 216
leaf_count=1948 10 82 1509 17 2118 1096 376 82 30 17 73 1880 159 385 2086 17 23 40 3913 197 1609 35 67 11 47 19 12 21 56 16 22 23 76 57 42 164 170 62 142 6419 130 356 47 11 279 10 113 19 23 32 10 42 10 89 18 12 19 12 33 35 10 1612 228 22 53 18 33 89 180 76 13 604 56 35 57 836 1456 239 47 26 558 60 949 79 241 10 13 98 23 75 530 328 350 216
internal_value=0 0.00169137 0.00210247 0.00127587 -0.00809342 0.000246612 0.00421614 0.0118011 -0.0114415 -0.00101722 0.00636815 -0.0098426 -0.011876 0.00156257 0.00200136 0.0168997 0.0226465 0.033239 0.00184653 0.0113292 0.00345106 0.00449226 0.014528 0.0216568 0.0179206 0.011063 0.0102367 0.0178551 0.0106111 0.0206305 -0.00616552 0.0416567 0.00281623 -0.0129587 0.00556881 -0.00153443 0.00955928 0.00638589 0.00897909 -0.0013552 0.00123428 -0.00314438 0.00982542 0.0132399 -0.0134402 0.00366009 -0.0144023 -0.011934 -0.0251566 -0.0147026 -0.00981154 0.00563512 -0.0253844 -0.0122118 -0.0219052 -0.00886261 -0.0291516 -0.0249755 -0.0223654 0.0140868 0.0300735 0.00604881 0.00428298 -0.00184971 0.0114246 0.00789768 0.00200599 -0.000196088 -0.00198505 0.00580651 0.00192864 -0.00231962 0.00429308 0.0156493 0.00108036 0.00445187 0.000550393 0.00152997 0.00847917 0.0195716 0.0040285 0.00332302 0.00112141 -0.00247511 0.00340592 -0.00841534 -0.000876641 -0.00437262 -0.00744943 -0.0154645 0.00521641 0.00244089 0.00774444 0.0105475
internal_weight=0 29486 28591 23950 6162 17740 6210 569 895 144 4641 4214 2096 9739 8750 90 80 57 8660 644 5641 4032 487 183 166 119 304 150 115 72 43 35 154 1937 3997 253 571 401 339 8001 1582 486 89 78 751 40 711 535 74 51 461 62 20 399 176 310 31 158 146 62 27 3744 1915 303 75 1829 320 287 269 100 89 989 3997 91 6574 893 5681 4225 312 73 3906 3348 1548 599 301 298 144 131 121 154 1800 858 942 592
internal_count=35648 29486 28591 23950 6162 17740 6210 569 895 144 4641 4214 2096 9739 8750 90 80 57 8660 644 5641 4032 487 183 166 119 304 150 115 72 43 35 154 1937 3997 253 571 401 339 8001 1582 486 89 78 751 40 711 535 74 51 461 62 20 399 176 310 31 158 146 62 27 3744 1915 303 75 1829 320 287 269 100 89 989 3997 91 6574 893 5681 4225 312 73 3906 3348 1548 599 301 298 144 131 121 154 1800 858 942 592
is_linear=0
shrinkage=0.05


Tree=11
num_leaves=95
num_cat=0
split_feature=5 5 25 24 3 11 22 2 16 8 9 3 25 13 13 3 13 3 13 19 0 11 22 22 0 23 10 11 3 2 6 11 10 22 13 26 26 11 2 25 2 6 3 13 3 0 0 25 11 23 6 2 25 3 13 3 11 1 8 25 22 26 25 0 25 22 2 25 25 25 26 6 3 9 17 9 4 19 0 2 13 0 10 22 13 13 7 13 9 9 23 25 13 3
split_gain=176.162 57.4689 36.3931 26.1653 14.7233 13.7997 13.0094 9.07171 8.22775 7.20256 7.14395 6.80379 6.79493 6.56955 6.54385 6.05747 6.03891 7.52668 7.87817 6.72795 6.14567 6.03883 12.7336 5.53216 6.59488 5.45389 5.40751 6.82245 5.37822 9.0045 7.27565 8.10134 6.20403 9.59963 6.24796 6.19937 5.17499 5.98767 5.07408 5.00124 4.99192 9.2351 5.68393 7.27878 5.66224 4.96268 8.58792 9.2065 5.65179 5.96434 4.89047 5.5244 4.75928 4.68833 4.68352 4.82427 4.74233 5.03949 4.66583 4.66499 4.6591 4.65984 4.62345 4.78719 4.61359 6.15877 7.5331 4.57095 4.52999 4.48353 5.8809 7.67759 8.17725 6.04041 6.41759 5.75949 5.61904 5.23853 6.09981 6.13935 7.21483 8.79059 6.13843 5.83039 5.73633 5.10111 4.91603 4.67274 4.60214 4.53633 4.53499 4.47727 4.47401 4.47067
threshold=1.0000000180025095e-35 1.5000000000000002 0.60355338454246532 1.0000000180025095e-35 2.5000000000000004 1.0000000180025095e-35 95.000000000000014 166.50000000000003 1.0000000180025095e-35 3.5000000000000004 13.500000000000002 1.5000000000000002 -0.7865660786628722 3.5000000000000004 132.50000000000003 9.5000000000000018 88.500000000000014 1.5000000000000002 81.500000000000014 1.0000000180025095e-35 1.5000000000000002 2.5000000000000004 36.500000000000007 801.50000000000011 5.5000000000000009 5.5000000000000009 626.00000000000011 15.500000000000002 1.5000000000000002 37.500000000000007 1.5000000000000002 5.5000000000000009 85.000000000000014 63.500000000000007 59.500000000000007 1.5000000000000002 1.0000000180025095e-35 5.5000000000000009 110.50000000000001 -0.7865660786628722 144.50000000000003 1.0000000180025095e-35 3.5000000000000004 155.50000000000003 1.5000000000000002 1.0000000180025095e-35 1.5000000000000002 -0.37940952181816096 3.5000000000000004 1.0000000180025095e-35 3.5000000000000004 155.50000000000003 -0.6035533845424651 3.5000000000000004 24.500000000000004 7.5000000000000009 6.5000000000000009 2.5000000000000004 3.5000000000000004 -0.7865660786628722 274.50000000000006 1.0000000180025095e-35 0.12940952181816107 1.0000000180025095e-35 1.0000000180025095e-35 190.50000000000003 22.500000000000004 -0.12940952181816107 -0.98296290636062611 0.91597560048103344 1.5000000000000002 1.0000000180025095e-35 1.0000000180025095e-35 4.5000000000000009 1.0000000180025095e-35 1.5000000000000002 2.5000000000000004 1.0000000180025095e-35 5.5000000000000009 27.500000000000004 164.50000000000003 2.5000000000000004 109.50000000000001 289.00000000000006 37.500000000000007 167.50000000000003 12.500000000000002 180.50000000000003 4.5000000000000009 1.5000000000000002 1.0000000180025095e-35 -0.12940952181816107 10.500000000000002 4.5000000000000009
decision_type=2 2 2 2 2 2 2 2 2 2 2 2 2 2 2 2 2 2 2 2 2 2 2 2 2 2 2 2 2 2 2 2 2 2 2 2 2 2 2 2 2 2 2 2 2 2 2 2 2 2 2 2 2 2 2 2 2 2 2 2 2 2 2 2 2 2 2 2 2 2 2 2 2 2 2 2 2 2 2 2 2 2 2 2 2 2 2 2 2 2 2 2 2 2
left_child=4 2 3 5 -1 -2 7 28 12 13 68 25 -7 -3 54 16 17 19 21 50 -20 -19 -23 24 -8 69 27 40 29 -5 31 -31 35 34 -34 91 37 -24 -27 -35 42 -42 44 -44 -18 -45 47 -47 -48 -50 51 -14 -17 -13 -6 56 -56 58 -58 -33 -46 -62 63 -21 -16 -66 -67 -26 -10 77 73 76 -73 86 90 -74 -72 78 79 82 92 83 -4 -82 -80 -77 -71 -87 -83 -86 -75 -30 -81 -55
