tree
version=v4
num_class=1
num_tree_per_iteration=1
label_index=0
max_feature_idx=26
objective=regression
feature_names=Column_0 Column_1 Column_2 Column_3 Column_4 Column_5 Column_6 Column_7 Column_8 Column_9 Column_10 Column_11 Column_12 Column_13 Column_14 Column_15 Column_16 Column_17 Column_18 Column_19 Column_20 Column_21 Column_22 Column_23 Column_24 Column_25 Column_26
feature_infos=[0:6] [0:5] [0:198] [0:10] [0:5] [0:2] [0:28] [0:35] [0:7] [0:24] [0:5377] [0:49] [0:60] [0:195] [0:1] [0:1] [0:1] [0:1] [0:1] [0:1] [0:1] [0:1] [1:1749] [0:6] [0:1] [-1:1] [0:3]
tree_sizes=11304 11347 11344 11388 11314 11341 11291 11383 11344 11324 11344 11386 11418 11297 11316 11348 11304 11310 11282 11343 11345 11218 11319 11202 11411 11351 11328 11258 11382 11219 11303 11257 11260 11276

Tree=0
num_leaves=127
num_cat=0
split_feature=5 5 23 22 22 2 2 2 10 2 13 23 23 22 2 26 22 22 13 9 23 22 16 22 16 13 22 2 22 22 22 4 26 10 26 2 22 23 10 13 13 2 2 10 22 22 13 26 10 10 10 2 2 2 10 2 4 9 10 26 22 13 9 9 22 22 4 2 26 26 13 22 23 9 23 9 2 26 22 10 13 13 10 2 13 13 22 22 2 22 23 26 26 26 10 26 9 22 13 13 23 13 9 23 13 13 22 13 4 23 23 26 26 9 26 2 13 10 2 22 4 2 26 22 2 10
split_gain=553.597 195.114 105.179 32.3329 28.2963 21.3957 18.6298 18.1667 17.759 16.5493 16.4585 15.7254 13.7147 11.2369 11.1179 11.0285 10.4375 9.85751 9.43179 8.90816 8.4383 10.8768 8.1637 8.08326 8.077 7.41161 7.30361 11.4466 7.27289 7.25097 6.97893 6.82085 6.74699 6.6563 6.17163 6.08273 6.87162 5.8713 7.2287 5.83856 5.77245 5.80871 5.45926 5.25425 5.22824 5.2151 8.26739 7.00922 5.87037 5.78316 9.67576 5.09529 5.0944 5.08207 5.0184 11.2478 4.61856 4.40755 4.39673 4.39223 9.7896 5.40954 5.34655 4.28407 4.26177 9.06175 6.64538 5.47078 8.69837 5.57272 4.28996 8.88161 5.75384 5.52021 4.31705 8.63484 7.81567 5.35648 6.21768 4.93006 4.43774 6.9075 5.07743 4.2035 4.16767 4.93729 4.91546 4.61789 19.4169 4.10221 5.44537 4.09005 3.99805 3.97437 3.94885 4.59446 3.73022 3.7038 3.69942 3.57873 3.55586 3.54378 12.0331 4.95605 4.4666 5.88799 5.74222 5.15737 5.12123 4.91224 8.12028 4.21893 6.61365 5.61636 4.12324 3.91382 3.83769 3.50643 4.57109 4.57883 3.91141 3.84746 5.78724 3.50255 3.47319 3.43533
threshold=1.0000000180025095e-35 1.5000000000000002 4.5000000000000009 259.00000000000006 95.000000000000014 148.50000000000003 114.50000000000001 1.0000000180025095e-35 1449.0000000000002 169.50000000000003 37.500000000000007 5.5000000000000009 3.5000000000000004 226.50000000000003 10.500000000000002 2.5000000000000004 32.500000000000007 321.00000000000006 11.500000000000002 5.5000000000000009 1.5000000000000002 61.500000000000007 1.0000000180025095e-35 30.000000000000004 1.0000000180025095e-35 133.50000000000003 79.000000000000014 155.50000000000003 87.500000000000014 32.500000000000007 25.500000000000004 1.0000000180025095e-35 1.0000000180025095e-35 130.00000000000003 1.5000000000000002 69.500000000000014 30.000000000000004 1.0000000180025095e-35 149.50000000000003 59.500000000000007 145.50000000000003 18.500000000000004 7.5000000000000009 71.500000000000014 57.500000000000007 608.50000000000011 64.500000000000014 1.0000000180025095e-35 364.50000000000006 250.00000000000003 235.00000000000003 115.50000000000001 103.50000000000001 149.50000000000003 111.00000000000001 63.500000000000007 3.5000000000000004 1.0000000180025095e-35 318.50000000000006 1.5000000000000002 33.500000000000007 132.50000000000003 1.0000000180025095e-35 1.5000000000000002 274.50000000000006 289.00000000000006 3.5000000000000004 105.50000000000001 1.0000000180025095e-35 2.5000000000000004 77.500000000000014 600.50000000000011 1.0000000180025095e-35 20.000000000000004 1.5000000000000002 4.5000000000000009 97.500000000000014 1.0000000180025095e-35 355.00000000000006 626.00000000000011 149.50000000000003 191.50000000000003 731.00000000000011 8.5000000000000018 174.50000000000003 168.50000000000003 818.00000000000011 128.00000000000003 128.50000000000003 235.50000000000003 1.5000000000000002 1.5000000000000002 2.5000000000000004 1.0000000180025095e-35 176.50000000000003 1.5000000000000002 6.5000000000000009 1055.5000000000002 122.50000000000001 148.50000000000003 2.5000000000000004 12.500000000000002 1.0000000180025095e-35 1.5000000000000002 27.500000000000004 43.500000000000007 165.50000000000003 152.50000000000003 1.5000000000000002 1.5000000000000002 1.0000000180025095e-35 2.5000000000000004 1.5000000000000002 1.0000000180025095e-35 1.5000000000000002 85.500000000000014 99.500000000000014 400.00000000000006 143.50000000000003 330.00000000000006 3.5000000000000004 130.50000000000003 1.5000000000000002 673.00000000000011 126.50000000000001 1158.5000000000002
decision_type=2 2 2 2 2 2 2 2 2 2 2 2 2 2 2 2 2 2 2 2 2 2 2 2 2 2 2 2 2 2 2 2 2 2 2 2 2 2 2 2 2 2 2 2 2 2 2 2 2 2 2 2 2 2 2 2 2 2 2 2 2 2 2 2 2 2 2 2 2 2 2 2 2 2 2 2 2 2 2 2 2 2 2 2 2 2 2 2 2 2 2 2 2 2 2 2 2 2 2 2 2 2 2 2 2 2 2 2 2 2 2 2 2 2 2 2 2 2 2 2 2 2 2 2 2 2
left_child=7 2 3 5 6 16 18 32 11 17 12 22 63 -11 100 42 35 44 -4 -14 21 43 45 -8 89 54 27 -22 59 30 -29 -19 -1 -17 -25 -2 52 -23 -39 -36 -27 -42 -12 -7 -9 48 47 -47 49 50 56 -46 -37 -10 98 97 -6 -41 -35 60 -20 -62 -61 -3 67 66 -66 68 -16 -69 71 92 73 -72 75 93 79 80 -79 96 -77 82 -82 -33 85 86 87 88 -44 101 -91 -55 -67 -74 -31 -96 -76 -56 124 -43 -5 102 103 -18 109 -106 108 111 -107 110 -103 112 -108 -113 -109 -112 -110 -50 119 -119 121 122 -121 -102 -13 -95
right_child=1 10 4 14 8 20 23 9 53 13 15 25 19 -15 64 33 24 31 28 -21 26 37 -24 34 -26 40 -28 29 -30 94 -32 83 -34 58 39 36 -38 38 -40 57 41 99 84 -45 51 46 -48 -49 117 -51 -52 -53 -54 91 55 -57 -58 -59 -60 62 61 -63 -64 -65 65 70 -68 69 -70 -71 72 -73 74 -75 76 77 -78 78 -80 -81 81 -83 -84 -85 -86 -87 -88 -89 -90 90 -92 -93 -94 125 95 -97 -98 -99 -100 -101 123 104 -104 -105 105 106 107 114 116 -111 115 113 -114 -115 -116 -117 -118 118 -120 120 -122 -123 -124 -125 -126 -127
leaf_value=-0.013908824588071113 0.0086375023769007589 0.0011939707668882306 -0.0051087714762796691 0.0050619770773810847 0.004922398261043885 -0.0025447648323013703 -0.0050968153495533266 -0.0004050891546922452 0.00068080370674528578 -0.013295540955078138 -0.03609724881372952 0.011908277474352772 -0.0028984039647868476 -0.035783427425601311 -0.019823210749725973 -0.046985340575735009 0.0018926311097264511 -0.014393504857850365 0.063249729573225055 0.035291351310036356 -0.031437489489079644 0.002688188707834127 0.014781604842472165 0.021766104467862014 0.011009136998239471 0.024062967626180699 -0.012503548185642069 -0.00053086748251301248 0.015151637134681515 0.017983844543783656 -0.033564675744362789 0.010060465802831762 -0.029212884942810505 -0.011913242270466376 0.01714810689772063 0.056175536314418725 0.012333055418731687 0.04238821068576766 0.011513709460955745 0.0069995402858354649 -0.013172234012972997 -0.0057268242790015867 -0.0061897996059531533 -0.028195413671160123 -0.0079661850543623781 0.029006746794729133 0.0023407304738087059 0.0076482243576743644 0.020687674020351324 -0.00087116763525849972 0.027316253154053977 -0.014062371917175777 0.023924865419748736 -0.025827453966214095 0.012818503558413966 0.0010792508239569577 0.02205798317855074 -0.019569484712266282 -0.032766088176449562 0.015594832394467743 0.019190378857353918 0.045461477557900865 0.036702797800272385 -0.025045542200323633 0.0061197151146253036 -0.00024695675713315825 0.0311884470928817 -0.0080526706233719075 0.0084048377960219654 -0.032864561884093403 0.0013782092911436407 0.0038734154168652371 -0.0011996699566220285 0.015792115434871037 0.0023592803378464718 -0.0017776581956816474 -0.0024340331112507173 0.018218787727288695 -4.6158841463713711e-05 -0.00032677998251769337 -0.025019854281380115 0.0059095487529204748 0.0014608981735428255 -0.00875627684500737 -0.0080012796101081429 -0.039679537147200787 -0.028330615960204569 -0.01238367149586782 -0.0641139885734857 0.02664668509993286 0.0052870638841197989 0.00097168681033781403 -0.007600205909057565 -0.013259359324783067 -0.014375206882228712 0.011313660843677546 0.0093085640233923159 0.0016392125783517512 -0.0012286717140578946 0.014746800459272248 0.0040141604916732309 0.0068155460411984999 0.0070401072021802876 -0.015567094653488463 -0.0049055460066333911 0.0065680663570202415 0.0036397047881816351 -0.0049850928719451567 -3.437667083411187e-05 0.0055403058872241185 0.020487464139941645 0.014647216249162695 0.0122537142541195 -0.0026731945146027925 0.0036863950879303083 0.046991811510162719 0.022007291168242179 0.00094733023200564356 0.029663044632450907 0.003170972289740484 -0.0094352667827573306 0.026555188702330427 0.018029146499657232 -0.0016625976011803998 0.021149935809016401 -0.0030135800208558636
leaf_weight=102 90 21 21 1579 617 86 67 154 450 97 46 303 37 130 37 62 62 3614 34 26 27 103 268 136 625 153 254 67 68 73 21 33 245 35 64 24 43 26 70 37 20 22 39 26 991 52 1406 147 92 268 58 524 25 35 628 407 42 27 91 55 43 36 66 60 299 726 29 118 104 28 1780 1693 147 69 885 221 2710 49 949 1820 85 36 23 295 85 30 99 242 23 50 74 24 248 328 28 46 247 84 38 716 579 65 278 118 153 1386 643 284 25 163 30 56 341 285 265 26 94 131 28 124 20 47 139 512 153 109
leaf_count=102 90 21 21 1579 617 86 67 154 450 97 46 303 37 130 37 62 62 3614 34 26 27 103 268 136 625 153 254 67 68 73 21 33 245 35 64 24 43 26 70 37 20 22 39 26 991 52 1406 147 92 268 58 524 25 35 628 407 42 27 91 55 43 36 66 60 299 726 29 118 104 28 1780 1693 147 69 885 221 2710 49 949 1820 85 36 23 295 85 30 99 242 23 50 74 24 248 328 28 46 247 84 38 716 579 65 278 118 153 1386 643 284 25 163 30 56 341 285 265 26 94 131 28 124 20 47 139 512 153 109
internal_value=8.41427e-09 0.00285475 0.00357533 0.00182635 0.00883798 0.0049297 0.0187496 -0.0135994 0.00783641 -0.0129387 -0.0201202 0.00860163 -0.0046342 -0.0261741 0.000611598 -0.0230856 0.00611669 -0.0124033 0.0272923 0.0128624 -0.00254098 0.00396465 0.00640191 0.0104133 0.00569049 0.0115988 -0.00646201 -0.000604944 0.0295454 0.00293752 -0.00841394 -0.0137669 -0.0247143 -0.0335732 0.0143495 0.0178793 0.0269202 0.0109796 0.0198756 0.00646942 0.0152041 0.0134159 -0.0195897 -0.00849938 -0.00918248 0.00569369 0.00369078 0.0132293 0.00774649 0.00539536 0.00773765 -0.0100747 0.0397211 -0.00112825 0.00956257 0.00770953 0.0060145 -0.00420927 -0.0269736 0.0337282 0.0408167 0.031162 0.0271083 -0.0182427 -3.22464e-06 0.000135606 0.00833616 -0.0060271 0.000997478 -0.0128111 -8.6232e-05 0.00168487 -0.000585654 0.0019161 -0.00119358 -0.00322455 -0.000495194 -0.00104497 0.000850617 0.0012847 -0.00622796 -0.0130579 -0.0193804 -0.00686313 -0.0181237 -0.0201108 -0.0186541 -0.0155029 -0.0276778 0.00493466 0.0138998 -0.0149261 -0.00211924 -0.00831148 0.00973295 0.00159355 0.0038756 0.0114996 0.01376 0.0141365 0.00354525 0.00467455 0.000518724 -0.00955319 0.00517334 0.00468827 0.00512268 0.00327554 0.0074227 0.011206 0.0188382 0.00496395 0.00662484 0.000171213 -0.000799402 0.0327931 0.0173767 0.0117325 0.0100477 0.00885627 0.0119959 0.0133785 0.0110238 0.00135009 0.0150091 -0.0107038
internal_weight=0 29464 28568 21442 7126 6032 654 6185 6472 5838 896 5963 144 227 15410 752 5205 5611 323 63 827 311 3439 331 5023 2524 516 262 302 235 88 3942 347 188 264 182 92 199 96 128 911 758 564 112 1669 3171 1605 199 1566 985 717 1515 49 509 1613 1119 659 64 126 234 113 79 121 81 12740 12453 328 287 141 146 12125 2667 9458 1849 7609 1947 5662 1363 998 2952 365 144 108 328 518 433 403 304 62 4398 124 59 974 584 147 74 1132 712 494 738 2670 4274 458 180 3816 3532 3379 1874 1505 284 121 1325 984 341 549 56 119 581 489 461 330 310 263 1091 456 437
internal_count=35649 29464 28568 21442 7126 6032 654 6185 6472 5838 896 5963 144 227 15410 752 5205 5611 323 63 827 311 3439 331 5023 2524 516 262 302 235 88 3942 347 188 264 182 92 199 96 128 911 758 564 112 1669 3171 1605 199 1566 985 717 1515 49 509 1613 1119 659 64 126 234 113 79 121 81 12740 12453 328 287 141 146 12125 2667 9458 1849 7609 1947 5662 1363 998 2952 365 144 108 328 518 433 403 304 62 4398 124 59 974 584 147 74 1132 712 494 738 2670 4274 458 180 3816 3532 3379 1874 1505 284 121 1325 984 341 549 56 119 581 489 461 330 310 263 1091 456 437
is_linear=0
shrinkage=1


Tree=1
num_leaves=127
num_cat=0
split_feature=24 22 11 11 8 22 10 10 11 13 1 10 22 8 23 9 10 23 10 11 26 13 6 9 22 22 6 23 10 15 26 11 26 22 6 6 6 26 23 4 13 13 23 26 11 13 10 9 26 13 22 23 4 26 23 26 23 11 23 6 26 6 26 26 1 26 13 9 26 10 6 22 23 22 13 1 11 22 13 23 10 22 10 1 26 10 23 8 26 22 22 10 22 23 13 11 9 10 23 10 26 10 26 8 6 1 10 22 11 22 10 13 13 23 23 26 22 10 10 6 23 13 9 23 15 26
split_gain=93.9663 36.2312 28.931 28.6544 15.5374 15.3547 14.0098 13.6751 11.7777 10.9444 12.7191 10.3253 12.3113 11.4628 10.0681 11.2107 9.47375 8.93993 7.68653 7.61151 7.87206 7.00615 6.37731 10.0515 10.5659 6.71848 6.16639 5.96548 8.88959 5.5644 5.45664 5.37597 5.27418 5.20962 5.20846 5.16317 5.54733 5.11194 5.09209 4.82602 4.71492 5.79382 5.9831 7.17493 4.70496 5.75923 4.70041 4.64774 4.59433 4.27066 4.25992 4.25754 4.22803 4.44196 4.27871 4.21577 4.18984 3.99386 3.93022 5.58596 4.68311 3.84544 4.57985 3.81772 13.439 7.784 5.29963 7.13624 3.79218 3.74584 7.4156 3.74484 3.71137 3.43946 3.43652 6.82609 6.33321 10.4677 4.88481 4.41558 4.14117 3.96813 3.76104 3.34834 3.9143 3.34687 3.18732 3.16399 5.47633 3.42511 7.15243 4.00658 3.14941 3.14732 3.08131 3.21585 3.62517 3.22889 3.04663 4.39283 4.82398 4.20167 3.0481 3.02941 3.0175 2.97922 4.13906 3.61191 5.04597 3.78524 2.97541 2.97216 6.60969 6.09119 4.05806 3.07693 2.98809 2.97059 4.3916 5.90384 4.06897 6.1975 3.58823 9.15693 4.01584 4.69303
threshold=1.0000000180025095e-35 289.00000000000006 4.5000000000000009 5.5000000000000009 3.5000000000000004 63.500000000000007 85.000000000000014 20.500000000000004 2.5000000000000004 113.50000000000001 2.5000000000000004 88.000000000000014 95.000000000000014 3.5000000000000004 1.5000000000000002 1.0000000180025095e-35 149.50000000000003 5.5000000000000009 212.50000000000003 2.5000000000000004 1.0000000180025095e-35 85.500000000000014 3.5000000000000004 2.5000000000000004 123.50000000000001 608.50000000000011 7.5000000000000009 5.5000000000000009 364.50000000000006 1.0000000180025095e-35 1.0000000180025095e-35 7.5000000000000009 2.5000000000000004 35.000000000000007 7.5000000000000009 12.000000000000002 10.500000000000002 2.5000000000000004 2.5000000000000004 3.5000000000000004 95.500000000000014 57.500000000000007 1.0000000180025095e-35 1.5000000000000002 1.0000000180025095e-35 170.50000000000003 29.500000000000004 1.0000000180025095e-35 1.0000000180025095e-35 115.50000000000001 226.50000000000003 5.5000000000000009 3.5000000000000004 1.5000000000000002 3.5000000000000004 2.5000000000000004 1.0000000180025095e-35 14.500000000000002 5.5000000000000009 2.5000000000000004 1.0000000180025095e-35 2.5000000000000004 1.5000000000000002 2.5000000000000004 2.5000000000000004 1.0000000180025095e-35 76.500000000000014 3.5000000000000004 1.0000000180025095e-35 1398.0000000000002 7.5000000000000009 243.00000000000003 1.5000000000000002 49.000000000000007 71.500000000000014 2.5000000000000004 3.5000000000000004 30.000000000000004 4.5000000000000009 3.5000000000000004 138.50000000000003 284.50000000000006 210.50000000000003 2.5000000000000004 1.5000000000000002 266.50000000000006 2.5000000000000004 1.5000000000000002 1.5000000000000002 152.00000000000003 171.50000000000003 413.50000000000006 651.50000000000011 1.0000000180025095e-35 89.500000000000014 1.5000000000000002 1.0000000180025095e-35 36.000000000000007 1.5000000000000002 80.000000000000014 1.0000000180025095e-35 144.50000000000003 1.5000000000000002 1.5000000000000002 6.5000000000000009 2.5000000000000004 225.00000000000003 186.50000000000003 1.5000000000000002 600.50000000000011 626.00000000000011 15.500000000000002 27.500000000000004 1.5000000000000002 3.5000000000000004 1.5000000000000002 20.500000000000004 505.50000000000006 654.00000000000011 6.5000000000000009 1.5000000000000002 93.500000000000014 5.5000000000000009 3.5000000000000004 1.0000000180025095e-35 2.5000000000000004
decision_type=2 2 2 2 2 2 2 2 2 2 2 2 2 2 2 2 2 2 2 2 2 2 2 2 2 2 2 2 2 2 2 2 2 2 2 2 2 2 2 2 2 2 2 2 2 2 2 2 2 2 2 2 2 2 2 2 2 2 2 2 2 2 2 2 2 2 2 2 2 2 2 2 2 2 2 2 2 2 2 2 2 2 2 2 2 2 2 2 2 2 2 2 2 2 2 2 2 2 2 2 2 2 2 2 2 2 2 2 2 2 2 2 2 2 2 2 2 2 2 2 2 2 2 2 2 2
left_child=1 3 5 34 14 6 7 8 -2 10 11 21 -13 16 40 18 -14 22 30 20 33 58 23 25 -25 87 39 28 83 -17 -16 -29 -19 -8 74 36 44 71 104 72 41 57 43 -43 -3 117 -9 -42 93 63 -12 73 54 -54 -47 -48 -37 -5 59 -4 -61 62 -60 64 65 66 67 -26 -20 -52 -71 -28 -24 -22 78 76 94 -78 79 80 -1 82 -77 84 -11 -49 -82 89 -89 -7 -91 -92 -30 -36 98 -96 97 -97 99 -76 -101 -100 -103 -73 -18 106 -34 -108 109 -109 -56 114 113 115 -80 -113 -115 122 119 -119 121 -120 123 124 125 -46
right_child=2 35 9 4 -6 17 19 46 -10 27 50 12 13 -15 15 29 38 32 68 -21 51 -23 26 24 49 -27 37 31 92 -31 -32 -33 105 -35 48 56 -38 -39 -40 -41 47 42 -44 -45 45 52 55 85 -50 -51 69 -53 53 -55 110 -57 -58 -59 61 60 -62 -63 -64 -65 -66 -67 -68 -69 -70 70 -72 103 -74 -75 75 81 77 -79 111 -81 86 -83 -84 -85 -86 -87 -88 88 -90 90 91 -93 -94 -95 95 96 -98 -99 101 100 -102 102 -104 -105 -106 -107 107 108 -110 -111 -112 112 -114 116 -116 -117 -118 118 120 -121 -122 -123 -124 -125 -126 -127
leaf_value=0.019379894906241035 0.010478799845864121 0.00020608368182237831 0.009494885629152551 -0.0086123177941356387 0.0094251732592071803 -0.0011880678637265761 0.058470916350682578 -0.022446400293245398 0.04514106911036276 -0.0078766827965960091 0.030731726759536698 0.020743508726358415 -0.020853639230546023 0.020783163776451893 -0.0087771154577947329 -0.0076378067346248085 0.017618754796865511 0.010178249506191259 -0.024146060755959264 0.0053117194212973125 0.021435333957726305 -0.0040906657982203694 0.020758175030350684 0.028057926458617051 0.028888478832585475 -0.010125416209351043 -0.013409489753746218 -0.00030004321306478234 0.01051737319114579 0.0086037481235789852 -0.031083086639966659 0.011333432914710208 0.0087189143434876493 0.029004507946471376 0.014206985272467137 0.007411451582447626 -0.0072795404337275401 0.016632464439000773 -0.0048163674240030594 -0.016273799495628249 -0.021891309544444085 -0.021369991898536684 0.027033308226355288 0.018809108287096026 -0.0053318441516529607 -0.0047833529856484555 0.0070640458561041777 0.00019236491896169037 0.0112700417796089 0.004449409662238106 0.0042924964361633925 0.03439112522062801 0.014880878828465938 -0.0032540561094020421 -0.013197210082401732 -0.016947783336043357 -0.00091494597305447837 0.0044108971063770465 -0.0097378161011470697 0.0087595595579062196 -0.0087283232888160662 0.017911068739089292 0.013461972038763073 0.019987477318754474 -0.024834458240204388 0.0061642555655052628 0.037747759085435137 -0.0056934238124925363 -0.0023316015317840009 0.037567884847521785 0.0032592941075563434 0.0032545446747200405 -0.0011161599983717059 -0.0015905993788138681 0.02125518549582921 0.012887850042719107 -0.021146631305073871 0.0098695483690887219 -0.0021017826683059032 0.018607464243347447 0.0046536786514416078 0.030959126424221769 0.0018309660813235864 -0.018810536668581124 0.0030161718095076226 -0.012970028728691499 -0.0086589487758083426 -0.0014574921876192094 0.035100490848223372 0.03284929745385181 0.0089115058197985573 -0.00050426897981241685 0.003008944343929813 -0.0042796285728914571 0.0018885033152100238 -0.0040074679743627023 -0.001106279252679365 -0.029093715645696808 -0.0031923341488287061 0.023071237266636815 -0.0019216239377856258 0.0012996995449066162 0.018672705427104353 0.023212584906390735 -0.0020758850348962321 0.017144512117673188 -0.020340843045193218 0.00085545875902833619 0.0050672472448822885 -0.024477321431040765 -0.0047563803746648462 0.030904203525611337 -0.00061263754513362343 -0.014678493209860541 -0.017243844353490408 0.011137538394994206 0.0057122652589970714 -0.0034441328037985797 0.0010743251126093931 -0.012912921686245896 -0.0040577442747132221 -0.0041223472962591138 -0.00092027165097251392 0.0026793267615289095 -0.002844641350307747 -0.013790708617199951
leaf_weight=36 117 1181 170 105 175 298 30 29 31 162 22 50 90 44 36 581 41 1367 27 42 55 234 20 72 35 98 31 128 238 58 115 443 168 30 30 192 733 92 1550 52 40 20 43 25 671 1695 68 173 306 409 191 42 50 104 297 25 709 134 36 56 121 113 52 103 27 193 39 26 76 28 36 201 637 23 64 195 29 439 245 60 171 21 127 34 168 67 61 20 21 23 229 223 338 99 2269 29 419 23 146 26 75 50 51 21 37 39 23 29 161 30 161 35 1414 22 54 45 98 417 1237 272 3392 1070 3814 498 1064 217
leaf_count=36 117 1181 170 105 175 298 30 29 31 162 22 50 90 44 36 581 41 1367 27 42 55 234 20 72 35 98 31 128 238 58 115 443 168 30 30 192 733 92 1550 52 40 20 43 25 671 1695 68 173 306 409 191 42 50 104 297 25 709 134 36 56 121 113 52 103 27 193 39 26 76 28 36 201 637 23 64 195 29 439 245 60 171 21 127 34 168 67 61 20 21 23 229 223 338 99 2269 29 419 23 146 26 75 50 51 21 37 39 23 29 161 30 161 35 1414 22 54 45 98 417 1237 272 3392 1070 3814 498 1064 217
internal_value=0 -0.00155405 0.00424034 0.0011704 -0.00467353 0.0067703 0.0151733 0.00752262 0.0177391 0.00125024 -0.000562545 -0.00165006 -0.00372241 -0.00441667 -0.00631838 -0.00969566 -0.00506207 0.00588823 -0.0185814 0.0244781 0.0289503 0.00315183 0.00415073 0.00594633 0.00968262 0.00224281 0.00105698 0.00469464 0.00224606 -0.00616361 -0.0257651 0.00872558 0.00863267 0.0437377 0.00264481 -0.00282844 -0.00302536 0.00653948 -0.00418907 -0.00161082 -0.00134982 0.00272791 0.0136961 0.00095173 -0.00283216 -0.00307203 -0.00487119 -0.00611202 0.0079337 0.00809245 0.00962166 0.0215566 -0.00536953 0.00263391 -0.005942 0.000609253 0.000859381 -0.0013106 0.00624444 0.00302173 -0.00319543 0.011808 0.00397115 0.0116149 0.00892 0.0120305 0.0233523 0.0141487 -0.00804995 0.0078004 0.0182693 0.0028693 -0.000450275 0.0146456 0.00227397 0.00315889 0.00252013 0.00794761 0.000709078 0.00634667 0.00360171 0.00990031 0.00852691 -0.00387051 -0.00233123 -0.00348214 0.00115338 0.00373186 0.0172673 0.00301394 0.00565014 0.00426611 0.00611139 1.95839e-05 0.00171427 0.00110807 -0.0026516 -0.0151033 0.00574581 0.0110064 0.00451218 0.00223163 0.0100722 0.00514247 0.00827643 0.00393753 0.00268432 -0.00148775 0.000483252 -0.0120256 -0.01023 -0.000257534 0.000590732 0.00909856 -0.00483647 0.0197855 0.00197396 -0.00265309 -0.00341177 -0.00718217 -0.00295593 -0.00133592 -0.0018794 -0.00337251 -0.00491647 -0.00739893
internal_weight=0 26088 9561 8314 1675 5179 492 270 148 4382 2871 2594 1812 1762 1500 893 1718 4687 254 222 180 782 2870 1816 904 912 1054 1511 940 639 151 571 1817 60 6639 17774 16873 345 1628 709 607 327 88 45 16140 14959 122 280 435 832 277 120 2307 154 2153 93 901 239 548 347 177 201 88 423 320 293 100 61 103 255 64 253 657 78 6204 3963 3620 468 2241 328 268 343 322 364 330 240 232 814 41 773 475 452 576 129 3152 2740 471 52 412 165 101 247 101 222 78 450 411 243 220 59 458 1913 1614 200 299 80 120 12652 6388 689 5699 2307 6264 2450 1952 888
internal_count=35649 26088 9561 8314 1675 5179 492 270 148 4382 2871 2594 1812 1762 1500 893 1718 4687 254 222 180 782 2870 1816 904 912 1054 1511 940 639 151 571 1817 60 6639 17774 16873 345 1628 709 607 327 88 45 16140 14959 122 280 435 832 277 120 2307 154 2153 93 901 239 548 347 177 201 88 423 320 293 100 61 103 255 64 253 657 78 6204 3963 3620 468 2241 328 268 343 322 364 330 240 232 814 41 773 475 452 576 129 3152 2740 471 52 412 165 101 247 101 222 78 450 411 243 220 59 458 1913 1614 200 299 80 120 12652 6388 689 5699 2307 6264 2450 1952 888
is_linear=0
shrinkage=0.05


Tree=2
num_leaves=127
num_cat=0
split_feature=5 5 24 22 22 7 8 11 11 9 7 19 22 9 7 6 12 11 7 6 9 18 23 7 22 12 23 22 22 22 7 23 4 23 11 22 22 22 9 23 23 22 9 6 23 11 6 12 23 4 12 17 4 9 22 22 22 4 4 8 9 23 22 22 4 4 23 23 22 4 23 9 11 17 23 22 4 23 23 22 23 6 23 6 23 4 22 22 11 11 9 4 22 6 7 8 18 6 23 22 9 22 6 23 22 18 22 11 22 22 22 23 23 22 22 23 11 11 18 12 23 9 23 7 11 4
split_gain=494.734 176.614 105.561 27.3997 21.5958 16.1892 15.517 14.9679 12.3143 11.3827 10.7651 9.90603 9.43411 9.32271 11.3712 8.16015 7.35179 6.78817 7.49675 6.58331 6.44154 6.2234 5.78331 5.75631 7.24366 5.93645 5.65509 5.64286 8.35036 8.86175 7.85945 7.73415 5.60923 5.53531 5.42241 5.19911 7.06701 6.5663 4.92611 12.3289 4.88764 6.59667 8.81538 4.83645 4.82619 4.91407 4.78499 4.76889 7.24753 4.74161 4.66209 4.65605 4.64124 4.48928 4.40171 7.13878 4.20775 4.00603 4.00246 10.0073 3.95827 3.88754 5.27983 3.87213 4.49579 3.77322 3.58791 3.58189 5.86384 3.49254 3.36008 3.33433 8.24677 4.34947 5.38933 3.65363 3.32064 3.19489 3.07056 2.97553 2.94551 3.26536 2.93891 5.00616 2.85989 3.20808 5.62589 4.53142 3.62257 2.8412 4.1731 4.20192 5.35497 3.20951 2.84003 5.13288 2.63403 4.23884 3.11671 5.10909 2.59996 2.5871 2.70809 4.22886 2.57918 12.0473 10.6252 4.88864 2.91317 4.3984 5.01773 4.24061 2.52108 2.81807 2.51282 2.50908 2.5053 3.27099 3.77636 5.19021 3.03757 2.40336 2.52581 2.3778 2.36744 2.34845
threshold=1.0000000180025095e-35 1.5000000000000002 1.0000000180025095e-35 95.000000000000014 259.00000000000006 26.500000000000004 3.5000000000000004 4.5000000000000009 5.5000000000000009 1.5000000000000002 14.000000000000002 1.0000000180025095e-35 186.50000000000003 1.0000000180025095e-35 3.5000000000000004 1.0000000180025095e-35 4.5000000000000009 19.000000000000004 4.5000000000000009 4.5000000000000009 3.5000000000000004 1.0000000180025095e-35 5.5000000000000009 2.5000000000000004 818.00000000000011 5.5000000000000009 5.5000000000000009 386.50000000000006 259.00000000000006 218.50000000000003 11.000000000000002 5.5000000000000009 1.0000000180025095e-35 1.5000000000000002 20.500000000000004 41.500000000000007 600.50000000000011 35.000000000000007 5.5000000000000009 3.5000000000000004 4.5000000000000009 168.50000000000003 3.5000000000000004 1.5000000000000002 1.5000000000000002 3.5000000000000004 2.5000000000000004 1.0000000180025095e-35 4.5000000000000009 3.5000000000000004 1.0000000180025095e-35 1.0000000180025095e-35 3.5000000000000004 1.0000000180025095e-35 673.00000000000011 281.00000000000006 852.00000000000011 3.5000000000000004 1.5000000000000002 1.0000000180025095e-35 11.500000000000002 5.5000000000000009 295.00000000000006 278.50000000000006 3.5000000000000004 3.5000000000000004 1.5000000000000002 3.5000000000000004 417.50000000000006 1.0000000180025095e-35 2.5000000000000004 1.0000000180025095e-35 1.5000000000000002 1.0000000180025095e-35 5.5000000000000009 25.500000000000004 3.5000000000000004 1.0000000180025095e-35 5.5000000000000009 70.500000000000014 3.5000000000000004 3.5000000000000004 2.5000000000000004 8.5000000000000018 1.5000000000000002 3.5000000000000004 146.50000000000003 443.50000000000006 1.0000000180025095e-35 13.000000000000002 4.5000000000000009 1.0000000180025095e-35 1158.0000000000002 1.0000000180025095e-35 3.5000000000000004 1.0000000180025095e-35 1.0000000180025095e-35 2.5000000000000004 2.5000000000000004 274.50000000000006 13.500000000000002 923.00000000000011 7.5000000000000009 4.5000000000000009 25.500000000000004 1.0000000180025095e-35 30.000000000000004 1.0000000180025095e-35 33.500000000000007 38.500000000000007 41.500000000000007 1.5000000000000002 3.5000000000000004 684.50000000000011 615.50000000000011 1.5000000000000002 3.5000000000000004 1.0000000180025095e-35 1.0000000180025095e-35 3.5000000000000004 3.5000000000000004 5.5000000000000009 3.5000000000000004 1.5000000000000002 9.5000000000000018 1.5000000000000002
decision_type=2 2 2 2 2 2 2 2 2 2 2 2 2 2 2 2 2 2 2 2 2 2 2 2 2 2 2 2 2 2 2 2 2 2 2 2 2 2 2 2 2 2 2 2 2 2 2 2 2 2 2 2 2 2 2 2 2 2 2 2 2 2 2 2 2 2 2 2 2 2 2 2 2 2 2 2 2 2 2 2 2 2 2 2 2 2 2 2 2 2 2 2 2 2 2 2 2 2 2 2 2 2 2 2 2 2 2 2 2 2 2 2 2 2 2 2 2 2 2 2 2 2 2 2 2 2
left_child=5 2 4 15 8 12 19 11 20 16 17 23 -1 14 66 47 33 18 21 35 104 53 -13 24 84 26 54 28 29 124 31 46 60 -10 -19 37 40 -3 67 49 58 -42 -43 -38 125 -46 57 48 -4 -40 -17 -33 -7 -6 55 -25 -45 -29 59 -37 101 -30 -63 -28 -65 -32 -14 -23 -69 -48 -12 73 78 75 -75 -50 -26 -62 -73 -52 81 -11 -21 112 -5 96 -87 88 -88 90 -55 93 -93 115 95 -34 98 -98 99 -86 123 102 -15 -104 105 107 -106 -2 -108 -110 111 -111 -84 -114 -20 -92 117 120 -119 -120 -112 122 -95 -100 -9 -22
right_child=1 6 3 7 10 52 -8 27 9 80 70 22 13 32 -16 50 -18 34 114 82 44 38 -24 25 76 -27 63 30 61 -31 65 51 94 -35 -36 36 43 -39 39 -41 41 42 -44 56 45 -47 69 -49 71 -51 79 -53 -54 89 -56 -57 -58 -59 -60 -61 77 62 -64 64 -66 -67 -68 68 -70 -71 -72 72 -74 74 -76 -77 -78 -79 -80 -81 -82 -83 83 -85 85 86 87 -89 -90 -91 91 92 -94 121 -96 -97 97 -99 100 -101 -102 -103 103 -105 106 -107 108 -109 109 110 116 -113 113 -115 -116 -117 -118 118 119 -121 -122 -123 -124 -125 -126 -127
leaf_value=-0.007866608597389281 0.011867270456446756 -0.020276352299496217 0.044188373411695167 0.025475842606376961 0.010454645259490867 -0.025061773856792331 0.019678213179111483 0.0077682335318914096 -0.0014952015399121413 0.010689384605114659 0.0063608481973873813 0.018711007513444535 -0.022934323749863185 -0.013326575254281318 -0.032834792091296271 0.034791638528037336 0.0061216694431315208 -0.011903845870660412 -0.0050552887286886283 -0.021339134805073795 0.012419127302653181 -0.0061661396181729973 0.050602808310872029 0.014404951983395918 0.0055524900886257727 -0.013247158966566386 -0.0021053633004750895 0.0079231960472019233 -0.001196340698449091 0.017701107367804839 0.0001294026933187797 0.012290547727924133 -0.012476850603267833 -0.01225326320890706 -0.0018508592034491263 -0.0095860800605553857 -0.03953334179363753 -0.053906299892280789 0.0030485701224213279 -0.011695100188407364 0.013868257991577449 -0.026068244662222476 0.010383935659020037 -0.0098278726293490482 0.003922154020192554 0.019237868518879018 0.0037927101776003835 0.0070254795503296302 -0.0050238402666185396 0.018443447514013812 0.012148945993286069 -0.0030346209148191059 -0.0038304365639175685 0.0032943139326914311 0.01067951302077756 -0.0021124284111839887 -0.026105691008635013 0.026526704382511881 -0.031054327595565059 -0.046723814010620118 0.0067884790662087902 -0.00016503525508004566 -0.023201712132510495 0.011749196456220497 0.033757740557193758 0.013263564681013426 -0.0065028611246658406 0.013423748204813285 -0.005422934889793396 -0.0081062310667180306 0.0016590205575354004 0.0072142302287650896 0.041291969823531616 0.010430529635203512 0.039646494002253924 0.012239687640846958 -0.011545894012576149 -0.0093394513987004758 0.025471103392742778 0.030897310014927029 -0.0030414529098772708 -0.00026253426545544677 -0.053067891796429956 -0.013756172997610911 0.018320832295077191 -0.00633087232708931 0.014640090614557268 0.0093805744920087905 0.036041640888514193 0.004510792698345035 0.0014135268563664827 -0.0024630777938000393 -0.021345718704502692 -0.002569913302179812 -0.0011507493807068954 0.013438142836093903 0.0058724041866219561 0.024964613420299337 0.0095981861763831354 -0.012874688633850643 0.016948552486623171 -0.01642401434729103 -0.011147344798322708 0.0054716372862458236 -0.031450621077203235 0.04150256905704737 0.013969526094694932 -0.0034911980412984166 -0.0063808128952679011 0.0011297412682324647 0.0061562223413802056 0.023668368067592385 -0.023980330694944429 -0.042754762710594557 -0.0010232447671276606 -0.0063030661171069374 0.0073247337966270039 0.0023923371226978515 -0.014813125257690749 0.013575827649661474 0.00072801581082435757 0.0021487711315128196 0.0045673568264409234 0.016106228625341772 -0.0036871385099231332 0.027760200036896599
leaf_weight=1021 124 47 24 37 151 319 25 67 202 240 931 44 52 3103 130 92 116 144 463 110 328 610 21 81 338 38 46 435 174 109 617 764 212 293 1958 195 38 21 552 147 38 43 27 65 412 60 775 149 44 55 59 53 28 1909 166 340 102 31 36 20 38 43 59 323 25 60 92 68 105 67 642 61 39 38 27 101 31 160 37 33 81 95 21 28 21 20 30 46 58 814 179 256 44 589 141 21 46 79 1485 35 157 631 189 48 21 26 75 89 99 32 1245 60 39 41 2336 256 487 1336 69 21 325 2621 157 155 138 27
leaf_count=1021 124 47 24 37 151 319 25 67 202 240 931 44 52 3103 130 92 116 144 463 110 328 610 21 81 338 38 46 435 174 109 617 764 212 293 1958 195 38 21 552 147 38 43 27 65 412 60 775 149 44 55 59 53 28 1909 166 340 102 31 36 20 38 43 59 323 25 60 92 68 105 67 642 61 39 38 27 101 31 160 37 33 81 95 21 28 21 20 30 46 58 814 179 256 44 589 141 21 46 79 1485 35 157 631 189 48 21 26 75 89 99 32 1245 60 39 41 2336 256 487 1336 69 21 325 2621 157 155 138 27
internal_value=0 0.00269871 0.00338428 0.00837981 0.00153509 -0.0128561 -0.0191599 0.00743598 0.00410785 -0.000864624 0.000528616 0.0096712 -0.0122324 -0.0131578 -0.0221145 0.0177832 -0.00520806 6.9728e-05 0.000554585 -0.0202747 0.00516383 0.00129265 0.0290145 0.00931773 0.0105922 0.00614335 0.00689446 0.00504919 0.000604926 0.00618174 0.00598499 0.00747967 -0.0126176 -0.0078631 -0.00253955 -0.0176015 -0.0160269 -0.0306621 -0.00158745 0.00129711 -0.0117975 -0.00290347 -0.0120081 -0.0234335 0.00918162 0.00586907 0.00509568 0.0145811 0.0176156 0.00444349 0.0268328 0.0112964 -0.0233486 0.00192722 0.00378428 0.0010655 -0.01977 0.00916077 -0.0156244 -0.0130408 -0.0131438 -0.00573971 -0.0134902 0.0115281 0.0133303 0.00129343 -0.0124364 -0.00436518 0.00198501 0.00284588 0.00444186 0.0157777 0.0218459 0.0118189 0.0225664 0.0070011 0.00411604 -0.00624419 0.0141071 0.0188739 0.00551479 0.00758362 -0.0273434 -0.0324634 0.011694 0.0114548 0.0184059 0.0220979 0.0287457 0.00173855 0.00136314 0.000464408 -0.00523253 0.00091393 -0.00675173 -0.0101412 0.0109136 0.0179387 0.0104397 -0.00117637 0.0108017 -0.0134878 -0.0129331 -0.00778148 0.00433502 0.00937193 0.0040157 0.00544988 0.00421437 0.00401523 0.00430312 0.0158288 -0.0376495 -0.0336022 -0.00169021 -0.00312773 0.00399868 0.00345803 0.00172451 -0.00818904 0.00503255 0.00143609 -0.00106783 0.0102133 5.68124e-05 0.0135859
internal_weight=0 29464 28568 7718 20850 6185 896 7014 5863 1027 14987 3622 5838 4817 274 704 611 13414 11312 871 4836 8513 65 3557 2538 1019 981 3392 590 314 2802 2125 4543 495 2102 632 564 68 1537 754 359 108 70 205 827 472 1308 520 371 607 184 817 347 6976 587 421 167 466 251 215 4169 276 102 394 348 677 144 783 173 842 1573 347 137 210 65 145 369 198 98 92 416 335 239 129 2169 2132 154 134 88 6825 6011 4102 300 3802 374 233 1978 125 1853 56 1797 3971 3340 237 4009 239 3770 213 3749 3674 3575 92 101 80 2799 435 3483 2996 1426 90 1570 3367 746 1640 205 355
internal_count=35649 29464 28568 7718 20850 6185 896 7014 5863 1027 14987 3622 5838 4817 274 704 611 13414 11312 871 4836 8513 65 3557 2538 1019 981 3392 590 314 2802 2125 4543 495 2102 632 564 68 1537 754 359 108 70 205 827 472 1308 520 371 607 184 817 347 6976 587 421 167 466 251 215 4169 276 102 394 348 677 144 783 173 842 1573 347 137 210 65 145 369 198 98 92 416 335 239 129 2169 2132 154 134 88 6825 6011 4102 300 3802 374 233 1978 125 1853 56 1797 3971 3340 237 4009 239 3770 213 3749 3674 3575 92 101 80 2799 435 3483 2996 1426 90 1570 3367 746 1640 205 355
is_linear=0
shrinkage=0.05


Tree=3
num_leaves=127
num_cat=0
split_feature=3 25 3 24 24 11 11 11 8 7 6 3 11 3 3 15 4 1 13 13 25 16 8 25 8 6 13 25 13 25 13 1 13 15 7 3 25 7 8 13 13 3 11 14 25 13 6 17 13 11 6 11 13 13 1 11 25 6 25 13 13 13 13 6 11 11 25 7 11 11 25 25 24 13 4 24 13 11 25 4 1 7 6 13 6 8 3 7 25 25 13 25 25 6 17 13 3 25 13 6 13 13 11 4 13 6 6 25 25 6 13 7 13 13 13 13 13 17 7 24 13 13 11 25 25 7
split_gain=136.531 54.4927 48.7014 35.7082 28.4509 23.3261 16.7751 15.4065 14.6634 14.1997 12.9467 12.4595 11.573 8.60038 8.54294 8.50032 18.9479 8.19611 8.00846 7.87192 9.47196 6.96367 6.77857 6.72353 6.57916 6.57572 6.51339 6.48936 6.45894 6.41514 6.27389 7.24717 6.18065 6.17009 6.03142 5.84267 5.56555 5.54052 6.55638 7.0954 7.63136 6.09647 5.3751 5.96368 5.34394 5.92491 6.93599 14.8653 7.52996 5.84253 5.30345 9.05715 5.0678 4.98585 4.78612 4.73432 4.70313 4.64014 6.03924 4.61109 5.40934 6.99344 6.5792 4.4936 4.39649 4.34803 4.20823 4.14159 4.78127 11.5259 4.03777 6.62025 4.02533 4.02398 3.99089 3.98692 3.97009 4.93048 5.41435 3.89227 6.70795 5.38415 7.42574 3.7726 3.75178 5.11533 4.83303 6.85183 7.57959 7.36934 4.74808 4.08874 3.9832 4.81859 3.75079 3.69176 3.77538 3.65936 4.01746 6.25924 3.63639 5.07965 5.5839 3.55862 4.6875 4.34181 4.31363 3.63657 5.68864 6.7202 3.54194 9.92136 9.2667 5.00101 3.69109 6.859 4.3321 4.05445 3.52982 4.49969 5.58132 4.22029 3.50762 3.48857 3.45642 3.39601
threshold=1.5000000000000002 0.60355338454246532 3.5000000000000004 1.0000000180025095e-35 1.0000000180025095e-35 3.5000000000000004 5.5000000000000009 4.5000000000000009 1.0000000180025095e-35 1.0000000180025095e-35 1.5000000000000002 1.0000000180025095e-35 1.5000000000000002 8.5000000000000018 5.5000000000000009 1.0000000180025095e-35 3.5000000000000004 4.5000000000000009 176.50000000000003 62.500000000000007 -0.12940952181816107 1.0000000180025095e-35 3.5000000000000004 -0.7865660786628722 1.5000000000000002 1.5000000000000002 175.50000000000003 0.60355338454246532 190.50000000000003 -0.37940952181816096 168.50000000000003 3.5000000000000004 193.50000000000003 1.0000000180025095e-35 16.500000000000004 8.5000000000000018 0.37940952181816107 5.5000000000000009 1.0000000180025095e-35 185.50000000000003 176.50000000000003 4.5000000000000009 16.500000000000004 1.0000000180025095e-35 0.78656607866287243 77.500000000000014 1.0000000180025095e-35 1.0000000180025095e-35 80.500000000000014 3.5000000000000004 8.5000000000000018 19.000000000000004 21.500000000000004 110.50000000000001 2.5000000000000004 3.5000000000000004 0.78656607866287243 9.5000000000000018 -0.12940952181816107 172.50000000000003 155.50000000000003 122.50000000000001 132.50000000000003 5.5000000000000009 1.0000000180025095e-35 27.000000000000004 0.91597560048103344 1.0000000180025095e-35 5.5000000000000009 7.5000000000000009 -0.12940952181816107 0.37940952181816107 1.0000000180025095e-35 31.500000000000004 3.5000000000000004 1.0000000180025095e-35 77.500000000000014 17.500000000000004 0.37940952181816107 3.5000000000000004 2.5000000000000004 14.000000000000002 6.5000000000000009 46.500000000000007 12.000000000000002 1.0000000180025095e-35 1.0000000180025095e-35 1.0000000180025095e-35 -0.98296290636062611 0.37940952181816107 93.500000000000014 -0.7865660786628722 -0.12940952181816107 2.5000000000000004 1.0000000180025095e-35 109.50000000000001 1.0000000180025095e-35 -0.7865660786628722 144.50000000000003 1.0000000180025095e-35 35.500000000000007 62.500000000000007 2.5000000000000004 1.0000000180025095e-35 82.500000000000014 2.5000000000000004 1.5000000000000002 -0.98296290636062611 -0.7865660786628722 3.5000000000000004 12.500000000000002 7.0000000000000009 22.500000000000004 37.500000000000007 97.500000000000014 125.50000000000001 129.50000000000003 1.0000000180025095e-35 1.0000000180025095e-35 1.0000000180025095e-35 116.50000000000001 67.500000000000014 9.5000000000000018 -0.6035533845424651 0.60355338454246532 1.0000000180025095e-35
decision_type=2 2 2 2 2 2 2 2 2 2 2 2 2 2 2 2 2 2 2 2 2 2 2 2 2 2 2 2 2 2 2 2 2 2 2 2 2 2 2 2 2 2 2 2 2 2 2 2 2 2 2 2 2 2 2 2 2 2 2 2 2 2 2 2 2 2 2 2 2 2 2 2 2 2 2 2 2 2 2 2 2 2 2 2 2 2 2 2 2 2 2 2 2 2 2 2 2 2 2 2 2 2 2 2 2 2 2 2 2 2 2 2 2 2 2 2 2 2 2 2 2 2 2 2 2 2
left_child=1 4 42 6 7 28 13 11 14 22 26 33 23 37 27 16 -11 35 24 20 25 52 50 -12 56 -9 67 -8 -5 -10 31 55 -28 125 -17 79 -36 38 39 40 41 -4 43 118 -43 49 47 -47 -48 -46 51 76 -14 -35 -50 103 59 74 -59 60 61 75 -63 -20 -32 -44 124 68 -6 -70 -42 -72 -62 -23 83 95 77 -7 -79 -16 -81 82 122 -40 85 86 87 88 -21 91 -90 -89 -92 -94 -88 96 -3 98 99 -69 -77 -102 -103 104 105 106 -13 -107 -109 -110 111 -58 -112 -114 117 -116 -117 -115 119 -2 121 -121 -82 -67 -31 -1
right_child=2 18 3 5 10 9 8 19 29 15 12 30 21 -15 17 34 -18 -19 63 84 -22 73 -24 -25 -26 -27 32 -29 -30 66 64 -33 -34 53 36 -37 -38 -39 57 -41 70 44 65 -45 45 46 48 -49 54 -51 -52 -53 -54 -55 -56 -57 110 58 -60 -61 72 62 -64 -65 -66 123 -68 97 69 -71 71 -73 -74 -75 -76 100 -78 78 -80 80 81 -83 -84 -85 -86 -87 94 89 90 -91 92 -93 93 -95 -96 -97 -98 -99 -100 -101 101 102 -104 -105 -106 107 -108 108 109 -111 112 -113 113 114 115 116 -118 -119 -120 120 -122 -123 -124 -125 -126 -127
leaf_value=0.0007574268573724808 -0.0108187272505701 0.01196684097193859 0.021959784729727386 0.0066957055036721384 0.0099716261690878036 -0.005728197780114656 0.0011744328225924546 -0.0088242630949337975 -0.0026878680795182092 -0.011728364897028703 0.0033944750820556961 0.0072753764683721779 -0.020918542526662351 -0.015281989564699634 -0.0069410484264111772 -0.0027045410208142644 0.023153253405221872 0.0092537747764187619 0.022014315847034865 -0.02990291871734568 0.008853465395043102 0.028923510117777464 0.016363525107862001 0.018026665046323685 -0.0014941194145254386 0.0018279631277201354 0.039513068136415988 0.031144631343583268 -0.0070702123926596697 0.006652229174696764 0.0055595300006833709 0.027440993487834933 0.010995651212962051 0.0010883166071246652 0.0022107340062835386 -0.025487243629446845 0.029196854295401739 -0.003940120628192878 0.016017345139166205 -0.0066677031678740277 0.0045981266639298869 -0.0015464505230781776 -0.016590598563826272 0.0064567533225441971 -0.0065399774948112031 0.0053774980419915019 0.019790549327929816 0.044638182678156432 -0.0067015684786297025 0.019429522771388291 0.014705545263918672 -0.0050343304388484385 0.0017838542903044902 -0.0092745938313991035 0.019080961034411478 0.010185294297650698 0.045900372498565253 0.026238084460298225 -0.006464341059327125 -0.0082489645419021439 0.031302420091815296 -0.014341498911380769 0.006790922353444976 0.0042363500352515732 -0.0043679683323716743 0.0040991228425277856 -0.01294531604895989 -0.01747315689921379 0.051171454951167109 0.013623354327864946 0.038446585621152607 0.001794229905036363 0.0046752185984091322 0.0085552149930515822 0.017197671075436204 0.030594648627771271 0.0060822999365749107 -2.7628048041532206e-05 0.0224327258956738 0.026851904727518562 -0.013748643279916817 0.0091546096933492731 -0.034401495212858374 0.00018464317586052863 0.0049470725605885195 -0.0083248909485594529 -0.0012344953305289958 0.009414079430557434 -0.0013761533762920988 0.024592955987299644 -0.0066604889308412869 -0.0055846715568810519 -0.026491297860903776 -0.0053997458827992279 0.0081408407507014679 0.022933865987485456 7.8844384783331085e-05 0.000808195927551861 0.026044724364247585 0.018886076992955702 -0.0078271746635437019 0.039404096911576668 0.0075948922819382442 -0.003609491880376672 0.0028589898129871144 0.032279227532091594 -0.0044357582115300814 -0.0015860161485357419 0.029117746979503308 0.0098355356497699734 -0.0070990443145009605 0.0041220881044864658 0.021788301082589657 0.0075140652082988924 0.021404620520954973 -0.003236229019239545 0.012083336412452343 0.029382067021321168 -0.0055119426253233917 -0.0027934474169567067 0.0016768190280898759 -0.017555268012024096 0.00050583883175547698 -0.012070602600773176 0.022682819152489687 0.013726284873302817
leaf_weight=1061 1198 110 29 2001 518 196 73 198 359 533 124 355 25 111 4041 684 42 82 205 37 361 29 83 214 129 540 38 24 89 244 182 38 38 187 56 41 29 1565 41 528 90 4711 315 75 162 73 48 36 126 25 74 431 1470 306 21 433 27 48 20 48 40 69 79 43 288 53 24 20 25 112 28 22 22 148 44 36 614 86 39 20 62 69 22 457 150 410 1328 63 253 31 234 163 68 45 116 31 170 183 36 29 24 22 37 129 1104 21 101 72 59 193 66 30 121 580 202 52 410 22 993 93 184 101 142 90 39 53
leaf_count=1061 1198 110 29 2001 518 196 73 198 359 533 124 355 25 111 4041 684 42 82 205 37 361 29 83 214 129 540 38 24 89 244 182 38 38 187 56 41 29 1565 41 528 90 4711 315 75 162 73 48 36 126 25 74 431 1470 306 21 433 27 48 20 48 40 69 79 43 288 53 24 20 25 112 28 22 22 148 44 36 614 86 39 20 62 69 22 457 150 410 1328 63 253 31 234 163 68 45 116 31 170 183 36 29 24 22 37 129 1104 21 101 72 59 193 66 30 121 580 202 52 410 22 993 93 184 101 142 90 39 53
internal_value=0 0.0038112 -0.00251224 -0.00153441 0.0023492 0.00209231 -0.00287333 0.000881945 -0.00508171 -0.000836165 0.00653252 0.00286093 0.00422034 -0.00145899 -0.00609057 -0.00458198 -0.00918049 -0.0064085 0.0103905 -0.00138668 0.00221656 0.00251451 0.0024694 0.0126586 0.00948016 -0.00102995 0.0111847 0.00858974 0.0061095 0.00185006 0.0047772 0.00577178 0.0252544 -0.000686613 -0.00114356 -0.00670058 0.0114178 -0.00126896 -0.000626711 -0.001137 -0.000593305 -0.000901635 -0.00830735 -0.0074411 -0.00102908 0.00393491 0.0082427 0.0183443 0.00259615 -0.00306812 0.00166856 0.000962305 0.00140422 -0.00534383 -0.00301835 0.005438 0.0101242 0.00430808 0.0166197 0.00669779 0.0078188 0.00631329 -0.00306136 0.0189318 -0.000523703 -0.0133082 0.00715663 0.0100262 0.0121686 0.0204752 0.0109272 0.0223195 0.0218541 0.0118924 0.00276345 0.00953991 0.00372653 -0.000779522 0.00698 -0.00652376 -0.00117052 -0.00307034 -0.00680274 0.00148814 -0.00275313 -0.00317345 -0.00227007 -0.00515924 -0.0079396 0.00173217 -0.0065852 -0.0014036 -0.0103831 -0.018092 -0.000481352 0.00656176 0.00474913 0.00479009 0.0133629 0.00404557 0.0173232 0.0115669 0.019456 0.0044274 0.00497163 0.00788342 0.00468146 0.0121156 0.0108087 0.01435 0.0116854 0.0239118 0.0112058 0.0120768 0.0111486 0.0137193 0.0103591 0.00831323 -0.00784684 -0.009318 -0.00456174 -0.0104787 -0.00382641 -0.00607763 0.00886139 0.00137444
internal_weight=0 14163 21486 18384 11588 4957 13427 8579 5242 2867 3009 4582 2010 8185 4576 1344 575 4479 2575 3997 1099 1672 1523 338 2327 738 999 97 2090 666 2975 2505 76 1607 769 4397 85 8074 6509 5899 5371 5231 3102 2644 5202 491 304 109 195 187 1440 1366 1495 493 147 2467 2198 610 68 688 640 578 148 248 470 458 307 923 655 137 140 50 62 177 542 430 935 321 125 4356 315 295 226 498 2898 2748 2338 894 637 257 600 226 347 113 1444 311 280 268 85 49 119 83 59 2034 1905 801 456 345 324 252 1510 57 1453 1387 1266 664 462 602 2569 1576 378 194 204 143 283 1114
internal_count=35649 14163 21486 18384 11588 4957 13427 8579 5242 2867 3009 4582 2010 8185 4576 1344 575 4479 2575 3997 1099 1672 1523 338 2327 738 999 97 2090 666 2975 2505 76 1607 769 4397 85 8074 6509 5899 5371 5231 3102 2644 5202 491 304 109 195 187 1440 1366 1495 493 147 2467 2198 610 68 688 640 578 148 248 470 458 307 923 655 137 140 50 62 177 542 430 935 321 125 4356 315 295 226 498 2898 2748 2338 894 637 257 600 226 347 113 1444 311 280 268 85 49 119 83 59 2034 1905 801 456 345 324 252 1510 57 1453 1387 1266 664 462 602 2569 1576 378 194 204 143 283 1114
is_linear=0
shrinkage=0.05


Tree=4
num_leaves=127
num_cat=0
split_feature=3 3 24 24 22 2 22 22 2 18 10 2 13 10 13 22 20 3 3 10 10 22 2 3 22 2 0 10 22 22 22 0 10 3 10 0 13 10 0 10 22 3 2 2 3 2 13 2 2 13 22 2 3 0 3 3 22 0 13 13 9 10 0 0 13 10 22 13 9 22 22 22 9 19 2 2 10 3 10 0 0 13 9 22 13 2 2 0 22 22 10 22 2 0 13 2 13 9 13 2 18 22 22 22 2 0 0 0 22 2 0 10 2 0 22 9 9 10 2 22 2 13 10 13 2 9
split_gain=123.219 43.953 32.9815 32.2266 24.6136 32.3665 22.5902 19.523 19.8205 18.2401 17.7459 14.1256 14.6069 13.172 11.3168 13.6975 9.95225 9.79091 8.0535 7.95819 10.4416 7.87384 7.44836 7.33065 7.67796 6.86178 6.84904 6.73762 9.53376 8.60527 6.62776 6.41886 6.37135 6.93073 6.32081 5.92474 8.62399 6.29771 5.73328 5.3866 5.35679 6.95157 7.67099 6.64824 5.62362 5.27672 5.95479 5.27315 5.0613 4.9749 4.81598 4.8151 4.80578 4.77706 7.10155 4.65725 4.6522 4.60859 6.55129 5.36319 5.54952 5.21945 5.02855 7.38347 6.7958 6.34053 4.5859 4.52412 5.36357 7.8475 5.37358 4.45847 9.99986 5.34717 5.08898 4.44519 5.84804 4.43397 5.75248 5.11712 4.77446 7.19924 5.60217 4.39998 4.29241 4.28954 4.2709 4.25634 4.25017 4.24741 4.16075 4.14063 3.99387 3.96628 4.02723 3.93174 3.91527 3.89871 6.74088 3.83364 3.77652 3.86805 3.76496 3.76093 3.78079 5.08895 4.00415 3.74408 6.29762 4.08864 3.72691 7.69549 3.72572 4.04946 3.66198 3.64483 3.60021 3.57576 3.50706 3.49538 3.38485 3.36904 3.31368 3.26751 6.18096 3.26641
threshold=1.5000000000000002 3.5000000000000004 1.0000000180025095e-35 1.0000000180025095e-35 340.00000000000006 115.50000000000001 165.50000000000003 63.500000000000007 147.50000000000003 1.0000000180025095e-35 106.00000000000001 36.500000000000007 179.50000000000003 1158.5000000000002 77.500000000000014 608.50000000000011 1.0000000180025095e-35 1.0000000180025095e-35 4.5000000000000009 133.50000000000003 70.500000000000014 698.00000000000011 73.500000000000014 8.5000000000000018 785.00000000000011 91.500000000000014 1.0000000180025095e-35 62.500000000000007 30.000000000000004 13.500000000000002 171.50000000000003 4.5000000000000009 567.50000000000011 5.5000000000000009 1138.0000000000002 1.0000000180025095e-35 3.5000000000000004 95.500000000000014 1.0000000180025095e-35 37.500000000000007 38.500000000000007 1.0000000180025095e-35 152.50000000000003 82.500000000000014 1.0000000180025095e-35 11.500000000000002 80.500000000000014 115.50000000000001 76.500000000000014 59.500000000000007 87.500000000000014 86.500000000000014 1.0000000180025095e-35 2.5000000000000004 2.5000000000000004 7.5000000000000009 168.50000000000003 4.5000000000000009 67.500000000000014 164.50000000000003 5.5000000000000009 263.00000000000006 3.5000000000000004 1.0000000180025095e-35 149.50000000000003 1003.5000000000001 818.00000000000011 157.50000000000003 1.0000000180025095e-35 181.50000000000003 149.00000000000003 651.50000000000011 8.0000000000000018 1.0000000180025095e-35 124.50000000000001 121.50000000000001 860.00000000000011 1.0000000180025095e-35 626.00000000000011 1.5000000000000002 2.5000000000000004 181.50000000000003 8.0000000000000018 818.00000000000011 28.500000000000004 83.500000000000014 143.50000000000003 1.5000000000000002 76.500000000000014 221.50000000000003 277.50000000000006 1055.5000000000002 82.500000000000014 4.5000000000000009 181.50000000000003 2.5000000000000004 114.50000000000001 9.5000000000000018 88.500000000000014 137.50000000000003 1.0000000180025095e-35 91.000000000000014 173.50000000000003 12.500000000000002 148.50000000000003 4.5000000000000009 4.5000000000000009 1.5000000000000002 61.500000000000007 169.50000000000003 4.5000000000000009 168.00000000000003 12.500000000000002 5.5000000000000009 470.00000000000006 1.0000000180025095e-35 22.500000000000004 176.50000000000003 149.50000000000003 25.500000000000004 149.50000000000003 188.50000000000003 1398.0000000000002 62.500000000000007 84.500000000000014 1.0000000180025095e-35
decision_type=2 2 2 2 2 2 2 2 2 2 2 2 2 2 2 2 2 2 2 2 2 2 2 2 2 2 2 2 2 2 2 2 2 2 2 2 2 2 2 2 2 2 2 2 2 2 2 2 2 2 2 2 2 2 2 2 2 2 2 2 2 2 2 2 2 2 2 2 2 2 2 2 2 2 2 2 2 2 2 2 2 2 2 2 2 2 2 2 2 2 2 2 2 2 2 2 2 2 2 2 2 2 2 2 2 2 2 2 2 2 2 2 2 2 2 2 2 2 2 2 2 2 2 2 2 2
left_child=2 25 9 4 5 27 11 10 13 14 103 12 52 34 35 86 19 85 -6 20 38 30 -12 55 -25 83 66 88 29 -29 -8 -15 33 56 45 36 -1 -37 -7 -40 41 -13 -43 110 -45 46 -9 50 -31 -24 -46 92 -4 -27 -55 99 -30 58 61 67 -61 102 63 -60 -65 71 -17 68 100 70 84 73 -73 -64 -74 76 -38 78 -28 91 81 82 -81 95 -70 -11 -16 -22 -3 -18 -39 -79 -19 94 116 -2 -88 -71 -99 121 101 -59 -47 -5 105 -105 -106 108 -21 -109 111 -42 113 -82 -66 -10 -23 -111 123 -98 -92 -20 -80 124 -32 -49
right_child=1 3 6 7 18 16 21 8 115 17 22 40 -14 31 15 26 89 51 23 107 87 93 49 24 -26 53 77 28 32 48 118 -33 -34 -35 -36 37 75 90 39 -41 43 42 -44 44 47 57 -48 125 -50 -51 -52 -53 -54 54 -56 -57 -58 59 62 60 -62 -63 65 64 114 -67 -68 -69 69 97 -72 72 74 -75 -76 -77 -78 79 122 80 112 -83 -84 -85 -86 -87 96 -89 -90 -91 120 -93 -94 -95 -96 -97 119 98 -100 -101 -102 -103 -104 104 106 -107 -108 109 -110 117 -112 -113 -114 -115 -116 -117 -118 -119 -120 -121 -122 -123 -124 -125 -126 -127
leaf_value=0.027226273790001872 0.0061339153799538811 -0.0039609178816052996 0.0046369454135065493 -0.01235178686105288 0.01507287087305537 0.0051547921236811418 -0.014580657042097302 0.003684574107444564 -0.017400607602515571 -0.027250844053924084 0.048193962832814768 0.026451700519431721 0.069324191303356833 0.00043016469824206402 0.0047647957694830914 0.0087282825715332482 0.0016846331744137099 -0.0072303011110334686 -0.0043506950106204463 0.017898568585515025 -0.029884104149209129 0.0036679558498357231 0.0033539076980489955 -0.0063068141798592273 -0.031964726970359986 -0.014264545139714003 -0.00156308229328028 -0.0023641097545623779 0.00082268581578606053 0.01612967737019062 0.0083653053709415986 -0.0093871732259135764 0.0080353322550061525 0.0004654615441369025 0.026810999374304503 0.011079014258415211 0.011567408374200266 0.00024921183219356904 -0.014053827877565523 0.0053395138663607979 0.036085815798668638 0.0079599573444097474 -0.027101782193550694 0.010038689648111662 0.050164765259251003 0.024639058411121368 -0.0080427678353195888 0.013774192689375565 0.050521599598552874 0.030826410212450556 0.020875741779804231 -0.00098729293513560553 0.03273239642381668 -0.0020976723306439168 -0.012749914708005829 0.016431033224971206 0.023488803427400336 0.01398684856082712 0.018531300309227734 -0.0099719441349965989 0.0014563909122499369 -0.0061624606020290766 0.0063520660352338861 0.0049890594556927688 -0.027650020936050929 -0.014379954338073731 -0.00041252525592291801 0.024231408651058491 0.018764684693171427 0.0045270094474630885 0.025434284959582318 0.025049121734319314 0.001628049240717965 0.02952707037329674 0.022757417285764539 -0.0067521135833936447 -0.0018237505091991261 -0.0033706813468174501 -0.013654801946714385 0.0071154920645470554 0.00078920353696031393 0.032055267035961149 -0.010659037966210887 -0.01182148869802307 -0.0096989245326430714 -0.0065223909551232907 -0.010520201528764352 -0.015130165768961343 0.012871171754058892 -0.0054235473623122565 0.0072970055390235988 -0.019147207447308669 0.012247146638826683 0.00040228476844214161 0.019091373239204568 -0.0055861054386537618 0.022002416383475068 0.0077628716826438904 -0.0088368408055976046 -0.0085862050980528293 -0.022016114940245947 -0.0078724451363086697 0.0027317829430103303 0.023744305665210144 -0.012814494468168253 0.0027010541741869284 0.011493732692906634 -0.0034586059298107336 -0.011628503898178698 -0.0066333664162084461 -0.0071419803380239309 -0.0042710426504965187 0.0006609145085437378 -0.018177597550675273 -0.0039198767008452587 -0.0057804985719872269 0.020692116473660326 0.018690615665653481 -0.0061062327040949972 6.4304471015930184e-05 -0.0019183558992904807 0.00012946753689412321 -0.002546016749032994 0.0095037923704274566 -0.0086379116227229442 0.030367194691842254
leaf_weight=30 75 44 23 26 53 72 32 215 144 26 38 22 23 332 2733 279 513 33 7358 20 90 527 26 72 49 555 487 25 38 20 186 334 377 2226 28 635 126 336 214 43 21 39 26 102 32 25 218 91 23 45 25 965 45 287 344 27 56 28 41 166 295 179 583 72 37 28 270 26 26 838 69 132 124 26 37 179 231 275 218 271 53 25 53 281 27 623 86 107 254 356 1161 49 130 696 53 1560 20 99 160 506 30 73 91 59 36 56 32 187 186 20 41 27 567 60 29 127 33 46 41 197 109 445 97 1635 75 44
leaf_count=30 75 44 23 26 53 72 32 215 144 26 38 22 23 332 2733 279 513 33 7358 20 90 527 26 72 49 555 487 25 38 20 186 334 377 2226 28 635 126 336 214 43 21 39 26 102 32 25 218 91 23 45 25 965 45 287 344 27 56 28 41 166 295 179 583 72 37 28 270 26 26 838 69 132 124 26 37 179 231 275 218 271 53 25 53 281 27 623 86 107 254 356 1161 49 130 696 53 1560 20 99 160 506 30 73 91 59 36 56 32 187 186 20 41 27 567 60 29 127 33 46 41 197 109 445 97 1635 75 44
internal_value=0 -0.00238663 0.00362064 -0.00145769 -0.00272966 8.66648e-05 0.00757742 0.00198769 0.00116614 0.0021493 0.0139725 0.0168488 0.0348798 0.00198021 0.00310759 0.00183529 -0.00512752 -0.00245986 -0.00435691 -0.00856839 -0.0127667 0.00599071 0.0303281 -0.00447867 -0.0166972 -0.00789199 -0.000752815 0.00324275 0.0024729 0.0209631 0.00798876 -0.00449325 0.0020067 0.00102705 0.0031448 0.0057093 0.00113846 0.00686374 -0.00731543 -0.010809 0.0133577 0.00215781 -0.00606474 0.0159018 0.0195263 0.00296443 -0.00221972 0.0245665 0.0345254 0.0207661 0.0373187 0.000355312 0.0232295 -0.010881 -0.00790492 -0.00430132 0.0143259 0.00365704 0.00581372 0.00200871 -0.0026588 -0.000808514 0.00757527 -9.90592e-05 -0.00563417 0.00905237 0.0042328 0.00357247 0.00317459 0.00420774 0.0162375 0.00977976 0.0148477 0.00734148 0.00648387 -0.000321681 0.00290254 -0.00202293 -0.00496874 -0.000276784 0.00144865 0.00620272 0.00420793 -0.00604182 0.00426436 -0.00735281 0.00414037 -0.0218705 0.0103859 -0.00122735 0.00519705 -0.00575664 0.00830386 0.00298524 0.00591794 -0.00504849 -0.00149182 0.00286988 -0.00249178 -0.00436869 -0.00643924 -0.00181244 0.00745318 0.0054426 0.00797077 0.0134972 -0.00137533 -0.00375727 -0.0087618 0.000317556 0.0039288 0.0133851 -0.000991308 -0.00928166 -0.0172231 -0.011955 0.00467117 0.0110167 0.00836162 0.00208625 0.00650608 -0.00409519 -0.010234 0.00867447 0.00347932 0.0191823
internal_weight=0 21486 14163 18384 13427 4917 3839 4957 4639 10324 318 561 91 4368 8547 5740 1854 1777 8510 985 526 3278 109 8457 121 3102 2704 3063 2765 68 1969 666 2697 2320 3702 2807 566 2241 329 257 470 87 65 383 294 3674 433 192 43 71 57 1128 68 1186 631 8336 94 3241 1404 1837 461 295 1109 179 138 930 549 1376 1350 1219 122 902 293 609 161 536 357 2155 802 1353 1029 349 324 1916 53 649 3036 197 298 869 1606 324 163 1309 613 1635 303 1097 259 8309 131 101 116 209 183 115 68 459 206 253 89 48 680 113 66 271 560 66 1937 217 1270 7803 315 1896 261 135
internal_count=35649 21486 14163 18384 13427 4917 3839 4957 4639 10324 318 561 91 4368 8547 5740 1854 1777 8510 985 526 3278 109 8457 121 3102 2704 3063 2765 68 1969 666 2697 2320 3702 2807 566 2241 329 257 470 87 65 383 294 3674 433 192 43 71 57 1128 68 1186 631 8336 94 3241 1404 1837 461 295 1109 179 138 930 549 1376 1350 1219 122 902 293 609 161 536 357 2155 802 1353 1029 349 324 1916 53 649 3036 197 298 869 1606 324 163 1309 613 1635 303 1097 259 8309 131 101 116 209 183 115 68 459 206 253 89 48 680 113 66 271 560 66 1937 217 1270 7803 315 1896 261 135
is_linear=0
shrinkage=0.05


Tree=5
num_leaves=127
num_cat=0
split_feature=5 5 25 23 13 2 7 23 16 25 2 2 26 2 23 26 2 13 2 25 13 6 2 2 23 13 13 18 2 26 23 2 25 13 23 2 2 6 23 2 13 25 26 2 2 25 13 26 2 13 23 6 7 2 7 4 23 26 25 13 13 2 13 2 2 13 13 23 6 13 13 20 25 2 13 2 25 13 2 6 26 25 26 6 13 13 6 2 2 6 23 25 25 6 13 25 25 17 6 2 25 23 26 25 6 23 4 18 25 25 23 2 23 4 2 2 13 26 13 25 7 13 13 13 4 23
split_gain=425.102 158.345 96.3123 49.3006 14.2914 13.7385 11.4831 11.357 10.947 10.9001 10.7916 10.1219 9.78755 9.24251 9.20678 8.01555 7.94274 7.6851 7.06651 6.82548 6.67065 6.62224 7.6727 6.46743 6.45797 9.05863 6.40648 6.38111 9.88596 8.23821 7.2972 13.0496 6.31291 7.94155 6.30969 6.27763 6.21138 10.826 8.46731 6.13534 8.09721 9.34412 6.04283 6.02758 5.97441 8.41077 5.83508 5.79706 9.50898 6.39304 5.98796 5.5711 5.73232 5.8496 7.23192 5.56569 5.55612 5.46169 5.42008 5.29325 5.77018 5.28891 5.26775 5.33033 5.23918 5.2384 6.37201 5.22447 5.08659 8.40954 4.98968 4.97702 4.96112 4.92931 5.57379 4.86795 7.57855 4.81107 4.79614 4.75357 13.9684 5.01936 6.42869 7.7173 7.36542 5.23321 4.72327 4.59236 4.44134 4.41665 4.39738 4.9255 8.63933 7.17336 5.17331 4.39437 6.06789 4.26058 5.93441 4.81438 4.24654 8.79352 4.23639 6.17639 4.22263 4.19879 6.40633 4.16215 5.82536 7.7142 8.16704 4.15731 4.03791 4.03484 4.01601 5.52226 3.93582 4.66868 4.347 3.92524 3.84997 3.77587 7.72414 6.14833 4.55399 3.73063
threshold=1.0000000180025095e-35 1.5000000000000002 0.60355338454246532 4.5000000000000009 37.500000000000007 1.0000000180025095e-35 1.0000000180025095e-35 3.5000000000000004 1.0000000180025095e-35 -0.7865660786628722 169.50000000000003 149.50000000000003 2.5000000000000004 97.500000000000014 5.5000000000000009 1.0000000180025095e-35 174.50000000000003 84.500000000000014 159.50000000000003 0.91597560048103344 3.5000000000000004 1.5000000000000002 34.500000000000007 148.50000000000003 5.5000000000000009 44.500000000000007 35.500000000000007 1.0000000180025095e-35 83.500000000000014 2.5000000000000004 2.5000000000000004 96.500000000000014 0.78656607866287243 186.50000000000003 3.5000000000000004 36.500000000000007 88.500000000000014 6.5000000000000009 1.5000000000000002 44.500000000000007 145.50000000000003 -0.6035533845424651 1.0000000180025095e-35 68.500000000000014 92.500000000000014 -0.91597560048103321 63.500000000000007 2.5000000000000004 91.500000000000014 190.50000000000003 1.0000000180025095e-35 2.5000000000000004 5.5000000000000009 144.50000000000003 1.5000000000000002 1.0000000180025095e-35 2.5000000000000004 1.0000000180025095e-35 -0.37940952181816096 131.50000000000003 60.500000000000007 71.500000000000014 164.50000000000003 98.500000000000014 150.50000000000003 43.500000000000007 164.50000000000003 4.5000000000000009 1.5000000000000002 179.50000000000003 38.500000000000007 1.0000000180025095e-35 -0.98296290636062611 133.50000000000003 39.500000000000007 59.500000000000007 0.12940952181816107 110.50000000000001 95.500000000000014 3.5000000000000004 1.0000000180025095e-35 -0.91597560048103321 1.5000000000000002 2.5000000000000004 42.500000000000007 42.500000000000007 1.5000000000000002 32.500000000000007 153.50000000000003 20.500000000000004 5.5000000000000009 -0.7865660786628722 -0.12940952181816107 3.5000000000000004 143.50000000000003 0.78656607866287243 -0.91597560048103321 1.0000000180025095e-35 7.5000000000000009 22.500000000000004 -0.91597560048103321 5.5000000000000009 1.0000000180025095e-35 -0.12940952181816107 4.5000000000000009 4.5000000000000009 1.0000000180025095e-35 1.0000000180025095e-35 0.37940952181816107 0.12940952181816107 1.5000000000000002 8.5000000000000018 2.5000000000000004 3.5000000000000004 94.500000000000014 91.500000000000014 33.500000000000007 1.5000000000000002 67.500000000000014 0.12940952181816107 14.000000000000002 63.500000000000007 65.500000000000014 33.500000000000007 1.5000000000000002 2.5000000000000004
decision_type=2 2 2 2 2 2 2 2 2 2 2 2 2 2 2 2 2 2 2 2 2 2 2 2 2 2 2 2 2 2 2 2 2 2 2 2 2 2 2 2 2 2 2 2 2 2 2 2 2 2 2 2 2 2 2 2 2 2 2 2 2 2 2 2 2 2 2 2 2 2 2 2 2 2 2 2 2 2 2 2 2 2 2 2 2 2 2 2 2 2 2 2 2 2 2 2 2 2 2 2 2 2 2 2 2 2 2 2 2 2 2 2 2 2 2 2 2 2 2 2 2 2 2 2 2 2
left_child=5 2 3 8 7 42 21 -3 9 13 55 68 32 15 19 46 -12 18 23 20 -4 65 -23 27 79 -26 -16 34 -29 36 31 -31 33 39 -11 -9 37 38 -30 40 41 111 -1 -41 -45 -46 -2 49 50 -21 -49 52 53 107 102 59 -39 -47 88 60 -7 67 63 -15 -65 -5 71 -52 69 -8 -28 75 87 105 -75 76 100 -43 114 81 -81 -24 85 84 -84 -83 -59 -10 -13 -74 -70 104 94 -94 -93 96 -14 98 99 -34 101 -67 103 -55 -92 120 116 -19 109 -109 -111 -6 -38 -76 115 -17 117 -107 -118 -73 121 123 -123 124 -22 -20
right_child=1 4 14 6 12 10 11 35 72 17 16 58 95 62 26 78 -18 51 125 47 73 22 24 -25 25 -27 70 28 29 30 -32 -33 97 -35 -36 -37 112 56 -40 43 -42 77 -44 44 45 57 -48 48 -50 -51 61 -53 -54 54 -56 -57 -58 86 -60 -61 -62 -63 -64 64 -66 66 -68 -69 90 -71 -72 119 89 74 113 -77 -78 -79 -80 80 -82 82 83 -85 -86 -87 -88 -89 -90 -91 91 92 93 -95 -96 -97 -98 -99 -100 -101 -102 -103 -104 -105 -106 106 -108 108 -110 110 -112 -113 -114 -115 -116 -117 118 -119 -120 -121 -122 122 -124 -125 -126 -127
leaf_value=-0.011356775097402872 -0.0022098979595856568 -0.016148807365953186 0.035278789060456416 0.0030183772717348556 -0.019247027859091759 -0.0093077632617186764 0.0071763537259054537 0.031615668803453449 0.024836404541773455 0.0047732143136518194 -0.028146779134213554 -0.030250084761417273 -0.014493494778871536 -0.019632504575631836 0.028838612913311301 -0.0015197089771873317 -0.0077286853728925483 0.003521430991175667 0.019338046485419445 0.0087207552433343043 0.0099666249301088496 0.012922396117990669 -0.001911246138364833 -0.0061017843532714658 -0.0064079278644095074 0.010110629200199764 -0.0040338604367877303 -0.019870173375966263 0.033885081452235843 -0.0077748113633257093 0.0027308641793206338 -0.047695538681000474 0.0049631215631961824 0.010517836028131946 -0.00058511996552283068 -0.00064523106342867812 0.0039569853492273611 -0.013942627784083873 0.0080100386416618249 0.00082234004369148854 -0.05505972683429719 -0.046771785136192075 -0.025840222665241788 -0.038540943518832881 -0.037250503609257357 0.0037939819939700626 0.0081034220703360121 0.031891669167412651 0.024955246674047936 0.025908478421338817 0.015252870088087695 -0.0014601870978033192 -0.0070316420370683617 -0.0025741998904517723 -0.020218843902306011 -0.0056653609370877003 0.011712791258469225 -0.032709817986449646 0.0018185606258813035 -0.0090947036303382009 -0.013812935946152825 -0.011168440672404627 -0.007658623799554419 -0.00088280623805121338 -0.0092283768624427821 -0.018417310598306359 0.0049322085429631402 -0.0053925340855494148 -9.0039334038305815e-05 0.038962806354869498 0.014727360381613781 0.011136967490116756 0.0057627444188208619 0.017890096007084307 -0.0031203449540503927 0.019606862021015681 0.032588518207723446 -0.017902105494781776 0.018627669513225555 0.01159718227344793 -0.0070694631352019839 0.019859778486630498 -0.002213098667562008 0.0026796430476710327 0.024429511772400707 -0.0012242121188199683 -0.0089480596979459124 -0.00026807778825362527 -0.00867292758207335 -0.00079370368261299389 0.0068394791586010644 0.012378411448210669 -0.021496499021505491 0.0055308412003796555 0.032938733304801744 -0.015396126391164758 -0.039613743779087857 -0.045403648855594489 -0.044633252049485844 -0.02330537091513149 0.011920594975747394 0.01851248708036211 -0.0048674799850519333 0.027742547222546172 -0.0083564866215307659 0.037675564653343624 0.033363526314496995 -3.5663689386048343e-05 0.014441744540818036 0.0017037976729242428 -0.028791306336195421 0.011922591082427813 -0.0054779550108389977 0.017183451444186548 -0.017613376686839679 0.020455013626608357 -0.004302935668013313 0.0073670378575722388 0.011312309364055065 -0.0024793016910552978 0.01493752478035512 0.029895682794016762 0.006708355762860563 -0.0069776250501022196 -0.012129639585812887 0.0040283524563731769
leaf_weight=102 194 81 21 220 20 1001 384 25 56 2743 159 33 30 44 77 2021 68 2378 94 1064 171 330 197 220 94 709 38 64 57 113 100 25 20 29 687 38 271 51 71 65 20 31 245 27 31 56 468 27 185 57 131 3308 191 42 60 464 36 29 86 1695 2451 34 688 1410 217 40 293 40 727 22 526 285 997 44 261 376 33 27 30 143 335 34 32 117 137 219 75 27 86 346 89 157 29 160 38 37 121 26 24 61 132 27 187 28 94 27 34 509 56 38 52 23 195 27 38 29 55 24 235 65 135 37 1226 132 27 69
leaf_count=102 194 81 21 220 20 1001 384 25 56 2743 159 33 30 44 77 2021 68 2378 94 1064 171 330 197 220 94 709 38 64 57 113 100 25 20 29 687 38 271 51 71 65 20 31 245 27 31 56 468 27 185 57 131 3308 191 42 60 464 36 29 86 1695 2451 34 688 1410 217 40 293 40 727 22 526 285 997 44 261 376 33 27 30 143 335 34 32 117 137 219 75 27 86 346 89 157 29 160 38 37 121 26 24 61 132 27 187 28 94 27 34 509 56 38 52 23 195 27 38 29 55 24 235 65 135 37 1226 132 27 69
internal_value=0 0.00250159 0.00315074 0.00187313 -0.0181956 -0.0119171 0.00592113 -0.00376514 0.000600933 0.000243598 -0.0113425 0.00275041 -0.0209589 -0.00167449 0.00974771 0.000278801 -0.0220303 0.00109006 0.00262503 0.00885497 0.0072193 0.00750317 0.00585461 0.00226503 0.00469825 0.00817695 0.0153103 0.00268214 -0.000869437 0.000453792 -0.00755402 -0.0150068 -0.0176656 -0.0147559 0.00369999 0.0121567 0.00325241 0.0102826 0.0195325 -0.0165702 -0.0259934 -0.0202377 -0.0215828 -0.0125411 -0.0165257 -0.0134136 0.00508109 0.0114669 0.0165 0.00959471 0.00975764 1.52033e-05 0.00139351 0.00187387 -0.00458888 -0.0109101 -0.00332659 -0.00879516 -0.00774502 -0.011383 -0.0125065 0.00684243 -0.00397638 -0.00246029 -0.00199589 0.0101335 0.0113847 0.0104235 0.00401604 0.00889877 0.0134633 0.0133582 0.00480676 0.00697731 0.00131538 0.0160925 0.0103969 -0.0333325 -0.0012222 0.00239727 -0.00148509 0.00491869 0.00741498 0.0125508 0.0193848 0.00160921 -0.0155739 0.0166699 -0.0146565 0.00407359 0.00248405 0.00578452 0.00900161 0.00138379 0.016385 -0.030839 -0.034623 -0.0272829 -0.0227958 -0.0163255 0.0067169 -0.00353515 -0.000939859 0.0095525 -0.000966099 0.00787115 0.012667 0.00254934 -0.000979876 -0.00242163 -0.0159156 -0.00257491 8.88799e-06 -0.00121686 -0.0015074 -0.00120885 0.0106035 0.0234127 0.0083508 0.00860823 0.00683038 0.00614333 0.00738764 0.00138105 0.0069535 0.0128573
internal_weight=0 29464 28568 23933 896 6185 5723 144 18210 16784 5838 1905 752 5139 4635 2780 227 11645 4796 3994 2456 3818 2347 4633 2017 803 641 4413 983 919 238 138 564 433 3430 63 681 215 128 404 121 101 347 283 218 191 662 1538 417 1121 232 6849 3541 3350 317 5611 87 160 205 5147 3452 205 2359 1671 1627 1471 1251 171 1700 406 564 958 1426 2435 332 608 232 58 2118 1214 478 736 539 286 169 253 104 83 119 1343 1294 567 384 189 195 188 151 131 105 81 199 67 257 70 183 2103 375 3033 655 599 90 43 466 288 2088 2050 341 51 290 350 1728 1593 1263 330 198 163
internal_count=35649 29464 28568 23933 896 6185 5723 144 18210 16784 5838 1905 752 5139 4635 2780 227 11645 4796 3994 2456 3818 2347 4633 2017 803 641 4413 983 919 238 138 564 433 3430 63 681 215 128 404 121 101 347 283 218 191 662 1538 417 1121 232 6849 3541 3350 317 5611 87 160 205 5147 3452 205 2359 1671 1627 1471 1251 171 1700 406 564 958 1426 2435 332 608 232 58 2118 1214 478 736 539 286 169 253 104 83 119 1343 1294 567 384 189 195 188 151 131 105 81 199 67 257 70 183 2103 375 3033 655 599 90 43 466 288 2088 2050 341 51 290 350 1728 1593 1263 330 198 163
is_linear=0
shrinkage=0.05


Tree=6
num_leaves=127
num_cat=0
split_feature=5 5 23 22 22 2 8 2 2 10 0 2 22 2 2 2 22 2 22 4 22 22 10 22 22 0 22 22 22 22 22 0 10 2 0 9 10 2 10 22 10 4 4 10 10 22 10 2 22 2 12 17 2 2 10 10 2 2 22 10 0 2 2 22 2 9 9 10 2 2 4 0 8 2 22 22 10 10 22 0 10 10 8 12 0 9 2 22 10 2 0 10 2 12 23 0 8 22 12 4 2 9 10 2 9 8 2 0 22 10 10 22 2 2 2 17 2 23 9 2 0 0 23 22 2 23
split_gain=383.654 142.906 59.303 19.3855 17.5591 13.9199 12.7751 12.399 11.9605 10.9126 9.97226 9.73945 8.03653 7.50186 7.39419 7.3197 7.22295 7.16833 6.28853 5.5918 5.5078 5.4655 8.31231 5.26871 5.24038 5.21417 8.52979 8.51139 5.44007 5.1941 5.11334 4.83473 6.06529 4.39717 4.34301 4.44437 4.23716 4.06653 4.95498 6.76257 4.04149 4.0365 4.0252 4.01278 10.6214 3.99557 5.48964 3.97392 5.96154 5.71256 7.93049 3.8949 3.80894 3.70223 3.61963 9.05603 3.23151 3.92826 3.18479 3.17813 3.17765 8.11431 4.43433 3.83397 6.23708 3.28296 3.26916 7.95572 3.30511 3.20364 3.54717 3.17451 3.11229 3.85033 3.09049 3.08404 3.00231 3.31583 3.03997 3.76429 4.91165 6.94861 5.31634 4.82402 4.20185 4.85233 3.97105 3.26535 3.2091 2.97129 9.18473 8.41461 6.77254 5.64824 2.88935 2.86615 3.79239 2.86421 4.81085 3.14026 3.13287 2.85949 2.78429 2.7597 2.74977 2.72788 2.71555 2.66903 2.70592 2.58257 11.5356 5.24558 2.49293 3.3373 3.50409 2.98183 2.4841 7.92132 2.48158 2.89509 4.60397 4.15231 2.73587 2.43365 2.40364 4.03188
threshold=1.0000000180025095e-35 1.5000000000000002 4.5000000000000009 259.00000000000006 95.000000000000014 148.50000000000003 3.5000000000000004 1.0000000180025095e-35 115.50000000000001 1449.0000000000002 4.5000000000000009 169.50000000000003 24.000000000000004 10.500000000000002 153.50000000000003 69.500000000000014 57.500000000000007 174.50000000000003 25.500000000000004 1.0000000180025095e-35 235.50000000000003 600.50000000000011 1081.0000000000002 49.000000000000007 66.500000000000014 2.5000000000000004 79.000000000000014 61.500000000000007 32.500000000000007 103.50000000000001 25.500000000000004 5.5000000000000009 149.50000000000003 154.50000000000003 4.5000000000000009 9.5000000000000018 463.50000000000006 20.500000000000004 364.50000000000006 289.00000000000006 71.500000000000014 3.5000000000000004 3.5000000000000004 356.00000000000006 335.50000000000006 309.50000000000006 266.50000000000006 136.50000000000003 140.50000000000003 112.50000000000001 3.5000000000000004 1.0000000180025095e-35 146.50000000000003 149.50000000000003 266.50000000000006 235.00000000000003 141.50000000000003 123.50000000000001 1055.5000000000002 176.50000000000003 5.5000000000000009 11.500000000000002 22.500000000000004 348.50000000000006 105.50000000000001 6.5000000000000009 3.5000000000000004 1158.5000000000002 97.500000000000014 19.500000000000004 3.5000000000000004 2.5000000000000004 1.0000000180025095e-35 8.5000000000000018 87.500000000000014 621.00000000000011 545.00000000000011 356.00000000000006 165.50000000000003 1.5000000000000002 194.50000000000003 150.50000000000003 1.0000000180025095e-35 1.0000000180025095e-35 5.5000000000000009 1.5000000000000002 133.50000000000003 173.50000000000003 120.00000000000001 85.500000000000014 3.5000000000000004 78.500000000000014 68.500000000000014 5.5000000000000009 1.0000000180025095e-35 2.5000000000000004 4.5000000000000009 355.00000000000006 9.5000000000000018 1.0000000180025095e-35 110.50000000000001 3.5000000000000004 406.00000000000006 30.500000000000004 1.5000000000000002 1.0000000180025095e-35 102.50000000000001 1.5000000000000002 673.00000000000011 135.50000000000003 64.000000000000014 284.50000000000006 136.50000000000003 117.50000000000001 118.50000000000001 1.0000000180025095e-35 160.50000000000003 3.5000000000000004 2.5000000000000004 63.500000000000007 1.0000000180025095e-35 5.5000000000000009 1.0000000180025095e-35 76.500000000000014 4.5000000000000009 1.0000000180025095e-35
decision_type=2 2 2 2 2 2 2 2 2 2 2 2 2 2 2 2 2 2 2 2 2 2 2 2 2 2 2 2 2 2 2 2 2 2 2 2 2 2 2 2 2 2 2 2 2 2 2 2 2 2 2 2 2 2 2 2 2 2 2 2 2 2 2 2 2 2 2 2 2 2 2 2 2 2 2 2 2 2 2 2 2 2 2 2 2 2 2 2 2 2 2 2 2 2 2 2 2 2 2 2 2 2 2 2 2 2 2 2 2 2 2 2 2 2 2 2 2 2 2 2 2 2 2 2 2 2
left_child=7 2 3 5 8 12 21 42 23 10 29 16 15 107 -7 -2 116 -13 -10 45 76 22 33 -4 -25 26 28 40 30 -6 -16 -29 -33 89 41 36 -36 58 54 51 -27 75 -1 44 47 46 52 48 -31 97 -51 -40 105 -11 55 112 57 102 -12 -30 62 -62 65 64 -63 69 67 68 -64 -15 71 -71 73 -21 -26 -23 77 78 79 83 81 82 123 -14 85 -84 88 -80 -85 92 91 -91 93 94 -3 -68 -97 98 99 -50 -99 -65 -41 -74 -20 -18 -93 108 -5 110 -96 -111 113 115 -115 -39 117 -9 119 120 -89 -121 -122 -81 125 -109
right_child=1 6 4 13 9 14 -8 11 18 53 37 17 20 60 25 -17 19 -19 104 72 -22 34 -24 24 74 27 -28 31 59 43 -32 32 -34 -35 35 -37 -38 38 39 56 -42 -43 -44 -45 -46 -47 -48 -49 49 50 -52 -53 -54 -55 -56 -57 -58 -59 -60 -61 61 63 66 101 -66 -67 95 -69 -70 70 -72 -73 103 -75 -76 -77 -78 -79 87 80 -82 -83 84 86 -86 -87 -88 118 -90 90 -92 106 -94 -95 109 96 -98 100 -100 -101 -102 -103 -104 -105 -106 -107 -108 124 -110 111 -112 -113 -114 114 -116 -117 -118 -119 -120 121 122 -123 -124 -125 -126 -127
leaf_value=-0.022099147297932439 0.0098497755013597331 0.0053702040829441767 0.027863528822525976 0.0035888892247796784 -0.012670156739100262 -0.022643487300814655 0.017954210042953493 -0.0057117432355880743 -0.0075675109069346007 0.00067261138185858733 0.0033192564087427506 -0.026739440717787111 0.0059859617173354676 0.0010423190772916996 -0.00025611736241783672 0.037649393881506787 -0.011528279654261921 -0.0073422510176897049 0.00903264563768468 0.0073262748393145482 0.010233544829700675 -0.036327745616436001 0.0085941192388002373 -0.0041147901580251495 0.027244818152394146 -0.0020763460670908292 -0.010388772910063002 0.0027782928971664131 0.016116580081312625 0.033976679680676296 -0.028532036695451964 0.038996454507399067 0.010715392231941224 -0.039605406923219566 -0.0054597477694707259 -0.046072217353752686 -0.032303835998992531 0.0071481772439185125 0.021444583166656751 0.017177281786616035 -0.026034812175709271 -0.039043198153376583 -0.0023269782108919965 0.0074175951006854399 0.036766807399690148 -0.012001653182147199 -0.0049276105550932273 0.0025954728352202885 0.0053898557776520997 0.040993070403734844 0.013984239936699916 0.004083958081901074 -0.022172641168038052 -0.012648134618618731 -0.0018720521220392636 0.021690082913025835 -0.0082726221422062211 0.015782502352083026 -0.0053711407733234495 0.0014125273927945543 -0.013752030440140518 0.0097541335552203956 -0.0024431844876564024 -0.0052235631578879263 -0.0039078020589782842 0.0073092186363796011 -7.0399382748958234e-05 0.00572473377317647 -0.0087870265489996043 0.0083966546785579164 0.027173657193779944 -0.0050652864536172466 -0.0054961942136287694 -0.008326101238136395 0.01193653978407383 -0.015816498197376998 0.0078929338571081756 -0.0017100182000328514 -0.0015741734684143267 0.0024112015133340883 0.00055021125873601113 0.020749781946479171 0.02302824277430773 -0.011270857161205065 0.036396175324916839 -0.0060691838679106345 0.0081478791104422684 0.013899165247990328 0.00051665575458453253 -0.034879576733166523 0.00030141461719857888 -0.017215839615373901 -0.035603173047888514 -0.035797659893121038 -0.0027870052847368963 0.0018625206577025377 0.01385021989328274 0.015817462050412991 -0.015492734255699012 0.023528758149880633 0.0063387269711798165 -0.00059177284949607609 0.0051603562074402972 0.02045563246522631 0.023214098401367664 -0.0024382565680303074 0.0043905016894523917 0.010550169075910863 -0.0014007129335368519 -0.00058370801309744517 -0.051446379011585601 -0.026482959656879818 0.0090196749714336229 -0.020104848132247017 0.00082151040222972491 -0.0048988001164177375 -0.010780901775548333 0.021620501614198453 0.0016714515060739746 0.0058287695811789801 0.0087589901133344108 0.017503730231209807 -0.0035150120106111301 0.0081353332226475079 0.0020011569683750468 0.0037206852664203611
leaf_weight=319 78 22 164 579 27 41 25 75 54 450 819 159 470 1787 67 34 629 68 235 44 420 20 35 29 64 75 254 103 73 29 21 26 70 20 21 35 49 449 140 52 23 24 28 1276 40 3664 542 138 290 30 289 42 75 59 212 78 34 121 121 74 125 205 857 413 141 312 4804 261 270 189 20 57 20 367 68 219 506 255 355 292 222 108 38 114 25 23 72 66 117 55 94 33 51 28 29 1505 69 196 26 26 157 1725 660 21 40 95 26 325 512 60 21 29 210 21 422 58 38 41 754 384 58 95 209 510 609 645
leaf_count=319 78 22 164 579 27 41 25 75 54 450 819 159 470 1787 67 34 629 68 235 44 420 20 35 29 64 75 254 103 73 29 21 26 70 20 21 35 49 449 140 52 23 24 28 1276 40 3664 542 138 290 30 289 42 75 59 212 78 34 121 121 74 125 205 857 413 141 312 4804 261 270 189 20 57 20 367 68 219 506 255 355 292 222 108 38 114 25 23 72 66 117 55 94 33 51 28 29 1505 69 196 26 26 157 1725 660 21 40 95 26 325 512 60 21 29 210 21 422 58 38 41 754 384 58 95 209 510 609 645
internal_value=0 0.00237651 0.0029932 0.00167992 0.00694485 0.00408288 -0.0172859 -0.0113212 0.0147526 0.00615586 0.00675571 -0.0107754 0.00504029 0.000739314 -0.00194293 0.0182889 -0.0103646 -0.0209288 0.00803219 -0.010666 0.00474894 -0.0182973 -0.0149096 0.0215558 0.0151306 -0.000863131 -0.0040369 0.00436237 0.00282853 0.00914246 -0.00700378 0.0103023 0.0183748 -0.0166673 -0.0229279 -0.0315245 -0.0242506 0.005004 0.0060585 0.00867611 -0.00769925 -0.0194958 -0.0205037 0.00937832 0.0114274 -0.011147 -0.00881181 0.0105691 0.0116241 0.0109848 0.0165243 0.0174383 -0.0114466 -0.000871444 0.0041648 0.00519857 0.00683676 0.00745347 0.0022006 0.00871454 0.000234277 -0.00132179 0.000635004 -0.000696273 0.0041867 0.00253058 5.77401e-05 -0.00214132 -0.003963 0.00180436 0.00692376 0.00527742 -0.00534 -0.00665042 0.0193587 -0.0175329 0.00425599 0.00381436 0.00417446 0.00554356 0.00727553 0.00877455 0.0073181 0.00281452 0.0191324 0.0120571 -0.00210489 0.00275548 -0.00530056 -0.0156433 -0.0112693 -0.0208101 -0.0194341 -0.015071 -0.0114663 0.000536306 0.00238803 0.0084423 0.00518127 0.0068823 0.0116017 -0.0014865 0.006038 0.0077962 0.0110954 -0.0103355 -0.0076944 0.00314912 0.0012473 -0.0141311 -0.0232239 -0.00902279 0.00408966 0.00299987 -0.000170484 0.00577002 0.000314192 0.00394879 0.00373698 0.00565496 0.00207426 0.00814426 -0.000848749 0.00605124 0.00446317 0.00600891
internal_weight=0 29464 28568 21442 7126 6032 896 6185 654 6472 5963 5838 5205 15410 827 112 5611 227 329 5457 5093 871 503 325 161 786 489 297 235 2524 88 199 96 468 368 105 70 3439 2499 1049 98 263 347 2497 1221 5005 1341 1181 1043 1014 319 182 799 509 1450 1238 867 833 940 147 12740 2609 10131 2484 346 2365 7766 1388 1127 2053 266 246 452 411 132 239 4673 4167 3912 1991 1218 996 888 773 86 61 303 1921 231 448 208 114 240 189 161 6378 1574 695 342 316 353 2138 712 41 275 724 59 2670 1091 139 50 89 1160 950 443 507 154 116 1566 812 333 479 267 802 1579 970
internal_count=35649 29464 28568 21442 7126 6032 896 6185 654 6472 5963 5838 5205 15410 827 112 5611 227 329 5457 5093 871 503 325 161 786 489 297 235 2524 88 199 96 468 368 105 70 3439 2499 1049 98 263 347 2497 1221 5005 1341 1181 1043 1014 319 182 799 509 1450 1238 867 833 940 147 12740 2609 10131 2484 346 2365 7766 1388 1127 2053 266 246 452 411 132 239 4673 4167 3912 1991 1218 996 888 773 86 61 303 1921 231 448 208 114 240 189 161 6378 1574 695 342 316 353 2138 712 41 275 724 59 2670 1091 139 50 89 1160 950 443 507 154 116 1566 812 333 479 267 802 1579 970
is_linear=0
shrinkage=0.05


Tree=7
num_leaves=127
num_cat=0
split_feature=3 3 11 24 24 18 3 8 2 2 2 3 3 11 0 4 18 0 2 3 0 2 0 2 18 26 3 2 2 3 2 2 2 3 4 2 2 11 8 2 2 24 2 2 11 26 2 8 26 11 2 23 2 26 3 0 23 11 26 2 3 11 4 2 26 2 23 2 2 2 26 8 0 2 0 2 2 2 0 0 26 23 2 26 26 2 11 2 2 26 8 23 26 2 26 2 2 0 15 8 26 2 8 11 4 11 8 2 26 8 4 2 2 11 2 2 2 26 2 0 2 18 0 11 26 2
split_gain=100.756 36.2356 25.0545 24.7053 21.4701 15.2917 14.963 16.381 14.4247 10.6633 15.6408 8.5818 8.55822 8.52409 9.17904 7.62806 6.67364 6.50432 6.80269 6.47593 6.06961 6.04647 6.49177 5.94637 5.72916 5.68202 6.88667 5.56234 5.37615 5.26944 9.07679 9.62439 5.10169 4.86347 9.13139 8.13303 6.93466 6.62089 5.69499 4.98656 6.37251 4.72024 5.21429 9.39828 4.98222 4.85698 4.65612 4.62242 4.61191 12.3646 6.00549 4.60334 7.50382 4.52615 8.2021 4.62634 4.51313 4.83946 4.50581 4.37779 4.36437 4.33709 4.22797 4.18159 4.17905 4.14934 4.12998 4.10375 4.06144 4.05964 4.81148 4.66202 5.63405 4.37974 4.38925 4.02487 4.64316 3.94219 3.93723 4.78775 3.9423 3.9188 6.11111 3.82206 3.82019 3.78634 4.15812 3.76565 3.68507 3.65063 3.63847 3.50199 7.38083 4.02865 5.04813 3.47268 3.45247 3.43991 8.8713 4.93428 6.15079 4.17517 3.56639 3.49233 3.70122 3.98794 5.20207 3.43878 3.42708 3.69921 3.41477 4.55068 3.37216 3.37138 3.33363 3.31431 3.24839 4.71527 3.22935 5.82455 3.80833 3.52956 8.84152 3.75356 3.17452 4.40185
threshold=1.5000000000000002 3.5000000000000004 4.5000000000000009 1.0000000180025095e-35 1.0000000180025095e-35 1.0000000180025095e-35 5.5000000000000009 3.5000000000000004 137.50000000000003 170.50000000000003 192.50000000000003 9.5000000000000018 1.0000000180025095e-35 2.5000000000000004 4.5000000000000009 3.5000000000000004 1.0000000180025095e-35 1.0000000180025095e-35 182.50000000000003 7.5000000000000009 2.5000000000000004 44.500000000000007 2.5000000000000004 1.0000000180025095e-35 1.0000000180025095e-35 2.5000000000000004 2.5000000000000004 141.50000000000003 7.5000000000000009 1.0000000180025095e-35 28.500000000000004 24.500000000000004 63.500000000000007 1.0000000180025095e-35 1.0000000180025095e-35 173.50000000000003 184.50000000000003 3.5000000000000004 2.5000000000000004 132.50000000000003 123.50000000000001 1.0000000180025095e-35 106.50000000000001 149.50000000000003 16.500000000000004 2.5000000000000004 99.500000000000014 3.5000000000000004 1.5000000000000002 3.5000000000000004 164.50000000000003 5.5000000000000009 110.50000000000001 1.5000000000000002 6.5000000000000009 1.5000000000000002 2.5000000000000004 3.5000000000000004 2.5000000000000004 65.500000000000014 8.5000000000000018 2.5000000000000004 3.5000000000000004 1.0000000180025095e-35 2.5000000000000004 127.50000000000001 5.5000000000000009 86.500000000000014 152.50000000000003 109.50000000000001 1.0000000180025095e-35 1.0000000180025095e-35 1.5000000000000002 87.500000000000014 5.5000000000000009 79.500000000000014 65.500000000000014 83.500000000000014 1.5000000000000002 2.5000000000000004 2.5000000000000004 5.5000000000000009 147.50000000000003 2.5000000000000004 2.5000000000000004 11.500000000000002 45.500000000000007 97.500000000000014 83.500000000000014 2.5000000000000004 1.5000000000000002 1.0000000180025095e-35 1.0000000180025095e-35 64.500000000000014 1.0000000180025095e-35 154.50000000000003 36.500000000000007 2.5000000000000004 1.0000000180025095e-35 1.5000000000000002 2.5000000000000004 20.500000000000004 1.0000000180025095e-35 13.000000000000002 3.5000000000000004 1.0000000180025095e-35 2.5000000000000004 2.5000000000000004 2.5000000000000004 2.5000000000000004 1.0000000180025095e-35 5.5000000000000009 1.0000000180025095e-35 6.5000000000000009 149.50000000000003 51.500000000000007 82.500000000000014 2.5000000000000004 7.5000000000000009 2.5000000000000004 127.50000000000001 1.0000000180025095e-35 5.5000000000000009 20.500000000000004 1.5000000000000002 135.50000000000003
decision_type=2 2 2 2 2 2 2 2 2 2 2 2 2 2 2 2 2 2 2 2 2 2 2 2 2 2 2 2 2 2 2 2 2 2 2 2 2 2 2 2 2 2 2 2 2 2 2 2 2 2 2 2 2 2 2 2 2 2 2 2 2 2 2 2 2 2 2 2 2 2 2 2 2 2 2 2 2 2 2 2 2 2 2 2 2 2 2 2 2 2 2 2 2 2 2 2 2 2 2 2 2 2 2 2 2 2 2 2 2 2 2 2 2 2 2 2 2 2 2 2 2 2 2 2 2 2
left_child=3 21 4 5 8 33 62 9 16 11 64 15 88 14 -5 19 60 27 -19 23 -20 63 32 89 81 26 124 -10 112 85 31 -31 -23 36 35 38 97 -37 48 40 78 53 44 51 58 -46 87 -40 50 -50 61 83 -53 55 118 114 -32 -58 59 -43 108 91 -4 -2 -11 -54 -45 116 -29 70 73 -72 -73 -18 -75 76 -28 -60 115 80 -80 -6 84 -44 110 -15 -87 -30 -7 -8 -16 93 -93 -35 -95 -57 107 99 -99 102 -101 103 -1 104 105 -100 -107 -65 109 -3 111 -83 -17 -59 -25 -36 -14 -118 119 -55 121 122 -120 -124 125 -24
right_child=1 2 6 13 24 12 7 -9 17 10 -12 -13 67 29 90 28 69 18 20 -21 -22 22 25 41 -26 -27 75 68 46 30 56 -33 -34 34 39 37 -38 -39 47 -41 -42 42 43 66 45 -47 -48 -49 49 -51 -52 52 65 54 -56 95 57 113 77 -61 -62 -63 -64 96 -66 -67 -68 -69 -70 -71 71 72 -74 74 -76 -77 -78 -79 79 -81 -82 82 -84 -85 -86 86 -88 -89 -90 -91 -92 92 -94 94 -96 -97 -98 98 101 100 -102 -103 -104 -105 -106 106 -108 -109 -110 -111 -112 -113 -114 -115 -116 -117 117 -119 120 -121 -122 -123 123 -125 -126 -127
leaf_value=-0.00071457667041303051 -0.012966710914825572 4.2717128310436262e-05 0.014198661156442784 0.014256138984793387 0.0020022335026152506 -0.025237043123119154 -0.0063889609243234866 0.0075025250631495849 0.01643219784145122 -0.0136173045812802 0.028760236836969856 -0.021541780073529304 -0.0062592537114114473 -0.0034527070196852029 0.0052571911136606482 0.0065116361337336339 -4.0468318681967886e-05 -0.0074391966862676039 -0.047965755313634874 0.023700901936917082 -0.011010893903672696 -0.03287456437324484 0.0019102751343910184 -0.0077987402560321497 0.012918942502107135 -0.013001418564664691 -0.011087158588211864 -0.007686230200616752 -0.003543395255063031 0.010415097906083241 0.021617400996825277 0.044891903762306486 -0.011833338376010191 0.00027039700059914125 -0.01721445922280701 0.0028322186001709534 0.029287517341700472 -0.02792231580508607 -0.0058597921865709522 0.011268203053395173 -0.024522554626067481 -0.0034306207127348686 0.0037370733601262592 -0.0046228451927502953 -0.015010395340089286 0.0035048283191154838 0.0040624446356903971 0.0047577743029231755 0.010381381558164733 0.0029397703994681855 -0.022448091180360116 0.029004622458718543 0.0013777346995014412 -0.0030657105632126334 -0.027223739203284771 -0.0036954988503036003 -0.008012724125736885 0.010628366501755027 -0.0036867257309230895 0.0054001436541519406 -0.01212834515321402 0.0057397489705583518 -0.0097456314734050212 0.0060378570035099985 -0.028822929328859988 0.020355512040692407 -0.025036533033424943 -0.00082711422275462312 0.0078415201702078836 -0.011683768711306832 0.00065836399279791736 -0.00072957112871367355 0.029071876129933769 0.025719702802598478 0.00079028658244920807 -0.01135615098799737 0.016064171353355052 -0.020081402246247639 0.0014255654458936893 -0.0042696444236713909 0.02590444140650075 -0.0098986004292964946 -0.0092852351029563823 -0.0084731336315104992 0.0011051865517380135 0.0048293513805246387 -0.011402570172434762 -0.024995586340842042 -0.0060245275330755195 -0.014636632279625961 0.021344448907955275 0.0044128998954316989 -0.0052845023372697451 0.0040093313691751007 0.026781480751103828 -0.019226200971752407 0.01517140217449354 0.0057631125184451487 -0.018254136894979785 0.0026613520799068421 0.025675987491482186 -0.016547816561964843 -0.016013314460332578 -0.019209314525127412 0.01951385032709526 0.0044829713413491847 -0.013920193856271605 -0.0049803405136700759 -0.0024719906122535815 0.0086467274659594827 0.019115105623172392 0.0086405142595167052 0.026384675229589146 0.002658122071310168 -0.01878311480333408 1.419757533332576e-05 0.017086541911489086 -0.0043818304368427822 -0.0032247787143118629 0.024801952143510185 0.0019324848596505555 -0.0010111351079620558 -0.018086464479620729 -0.0038685399340465665 0.010088249690392438 -0.018135313847751328
leaf_weight=1640 145 3954 151 636 1529 26 575 318 46 193 20 67 33 239 702 74 38 776 20 21 25 30 161 874 176 228 31 136 185 561 34 21 725 102 71 35 22 35 224 51 39 340 307 75 154 46 267 189 1143 1091 22 43 130 50 34 1323 89 166 110 239 81 1266 21 75 59 37 37 965 61 33 290 29 35 76 23 265 32 55 38 138 29 35 61 81 209 651 42 23 623 175 37 414 373 53 45 37 23 910 31 123 38 52 39 25 23 192 48 1269 1512 129 72 610 30 661 75 46 95 35 878 30 350 711 169 64 85 33
leaf_count=1640 145 3954 151 636 1529 26 575 318 46 193 20 67 33 239 702 74 38 776 20 21 25 30 161 874 176 228 31 136 185 561 34 21 725 102 71 35 22 35 224 51 39 340 307 75 154 46 267 189 1143 1091 22 43 130 50 34 1323 89 166 110 239 81 1266 21 75 59 37 37 965 61 33 290 29 35 76 23 265 32 55 38 138 29 35 61 81 209 651 42 23 623 175 37 414 373 53 45 37 23 910 31 123 38 52 39 25 23 192 48 1269 1512 129 72 610 30 661 75 46 95 35 878 30 350 711 169 64 85 33
internal_value=0 -0.00215815 -0.00131469 0.00327402 0.000383599 0.0020006 -0.00332089 -0.00362497 -0.0010299 -0.00407075 -0.0137996 -0.00372555 -0.00221964 0.00669856 0.00985251 -0.00356847 -0.00010688 -0.00640838 -0.00853521 -0.00402343 -0.0274353 -0.00715687 -0.00930954 -0.00410661 0.00419773 -0.00627157 -0.00374372 0.000777311 0.00194758 0.00493855 0.00674203 0.0116591 -0.0126694 0.00287802 0.00378762 0.00437809 0.00131408 -0.012545 0.00461877 -0.00336671 -0.00543425 -0.00360171 -0.00131126 0.00192585 -0.00374595 -0.0107519 -0.00030685 -0.00100091 0.0051335 0.00674718 0.00354889 0.00441541 0.0103784 -0.00442618 -0.00284905 -0.00598759 0.00372967 0.00306572 -0.00186263 0.000214548 -0.000605306 0.00380275 0.0112752 -0.00489315 -0.0171774 0.00558239 -0.0113667 0.000412355 -0.00287815 0.00529209 0.00643303 0.00335391 0.0155681 0.0143893 0.019928 -0.00865557 0.00270399 -0.00915162 -0.00312231 0.00105458 0.0120209 0.00358766 0.0060437 0.00118804 0.00705349 0.00197404 0.0038456 -0.00591551 -0.00679421 -0.00831342 0.00606264 0.0013182 -0.000183201 0.00722621 0.0144659 -0.00411803 -0.00403677 0.00111689 0.00310633 -0.000268147 0.00809338 -0.00341029 -0.00106994 -0.00126875 0.000256808 -0.00137755 0.000802338 -0.00436549 -0.000438484 0.000314556 0.00878738 0.00763452 0.0122442 0.00425795 -0.00866684 -0.0104408 0.00775032 0.0113066 -0.00248105 0.00738466 -0.00284443 -0.00376206 -0.00552255 -0.0141811 0.00203079 -0.00149954
internal_weight=0 21486 18384 14163 9956 10324 8428 8256 7264 7938 272 7666 1777 3839 1375 7599 6200 1064 821 7020 45 3102 1590 6999 2692 835 607 243 579 2464 1532 582 755 8547 5404 4992 3143 70 4922 412 361 6249 1654 710 944 200 475 413 4509 2234 2275 598 210 4595 2286 2309 950 916 744 579 5676 2253 172 1512 252 167 112 1128 197 524 491 354 64 137 99 328 63 165 322 205 67 2516 987 388 926 932 693 208 649 750 739 987 787 200 98 1360 1367 3121 1281 1840 161 371 1679 319 294 271 240 1344 5595 4083 717 645 104 827 949 117 163 130 2252 80 2172 1822 1111 233 279 194
internal_count=35649 21486 18384 14163 9956 10324 8428 8256 7264 7938 272 7666 1777 3839 1375 7599 6200 1064 821 7020 45 3102 1590 6999 2692 835 607 243 579 2464 1532 582 755 8547 5404 4992 3143 70 4922 412 361 6249 1654 710 944 200 475 413 4509 2234 2275 598 210 4595 2286 2309 950 916 744 579 5676 2253 172 1512 252 167 112 1128 197 524 491 354 64 137 99 328 63 165 322 205 67 2516 987 388 926 932 693 208 649 750 739 987 787 200 98 1360 1367 3121 1281 1840 161 371 1679 319 294 271 240 1344 5595 4083 717 645 104 827 949 117 163 130 2252 80 2172 1822 1111 233 279 194
is_linear=0
shrinkage=0.05


Tree=8
num_leaves=127
num_cat=0
split_feature=3 25 3 22 2 22 3 0 3 3 22 2 25 22 0 2 13 16 9 2 13 22 25 13 9 2 18 25 12 9 3 25 12 9 7 16 22 8 0 0 9 25 7 25 2 22 22 25 25 9 25 22 2 8 2 0 0 0 7 13 2 25 25 12 22 22 13 25 25 9 22 22 22 22 25 7 22 0 0 2 12 22 2 25 0 22 25 18 2 18 25 12 25 13 13 13 0 13 8 20 8 2 25 13 13 13 0 22 25 13 25 2 18 25 2 22 2 0 25 22 0 13 25 0 3 7
split_gain=90.9321 45.1091 32.7026 22.0457 37.0062 16.4379 16.1339 10.0903 10.0523 9.45624 9.38733 9.5725 8.41459 7.79058 7.71392 12.5588 7.52095 7.3798 7.11595 6.83863 7.24057 6.52729 9.85672 6.42138 6.7455 7.77977 6.30697 8.63519 8.49961 6.16628 6.21888 6.75357 5.97404 7.86219 6.51817 5.94687 5.78277 5.73364 5.5792 5.5585 5.52523 7.53869 6.83851 5.4922 5.45888 5.41527 5.3545 8.74137 5.59723 5.28344 8.90004 5.66302 5.23448 5.19928 5.10018 5.9697 9.90026 8.87047 6.64369 5.47914 6.04148 5.52602 6.19477 6.42014 7.57954 5.26578 5.06852 13.3237 5.05108 8.53047 5.00401 4.96451 5.241 4.85842 4.79972 4.76066 4.72954 4.7263 8.15964 8.81771 8.48591 5.70108 4.69093 8.65214 5.47311 4.62711 4.5318 5.74499 4.51739 5.61554 5.73677 4.44467 4.19327 4.11999 5.23261 4.09294 4.05243 4.04028 4.02761 3.98139 4.20262 4.50684 4.40807 3.96145 5.07602 6.42604 7.14716 3.9361 3.89436 3.86826 3.86284 3.93712 3.83242 4.37538 3.76288 3.9259 6.83351 4.66381 4.1357 3.99483 3.76158 6.31427 3.91577 3.71143 6.1056 3.82728
threshold=1.5000000000000002 0.60355338454246532 3.5000000000000004 340.00000000000006 145.50000000000003 33.500000000000007 1.0000000180025095e-35 2.5000000000000004 8.5000000000000018 4.5000000000000009 417.50000000000006 170.50000000000003 0.78656607866287243 741.50000000000011 2.5000000000000004 30.500000000000004 62.500000000000007 1.0000000180025095e-35 1.0000000180025095e-35 120.50000000000001 194.50000000000003 134.00000000000003 -0.7865660786628722 176.50000000000003 1.5000000000000002 155.50000000000003 1.0000000180025095e-35 0.78656607866287243 7.5000000000000009 9.5000000000000018 5.5000000000000009 0.37940952181816107 7.5000000000000009 10.500000000000002 12.500000000000002 1.0000000180025095e-35 165.50000000000003 1.5000000000000002 1.5000000000000002 2.5000000000000004 4.5000000000000009 0.37940952181816107 1.0000000180025095e-35 -0.12940952181816107 91.500000000000014 402.50000000000006 181.50000000000003 -0.37940952181816096 -0.7865660786628722 1.0000000180025095e-35 0.37940952181816107 128.00000000000003 87.500000000000014 1.5000000000000002 1.0000000180025095e-35 5.5000000000000009 3.5000000000000004 4.5000000000000009 14.000000000000002 62.500000000000007 142.50000000000003 -0.98296290636062611 -0.12940952181816107 6.5000000000000009 432.50000000000006 443.50000000000006 79.500000000000014 -0.98296290636062611 -0.6035533845424651 8.0000000000000018 35.000000000000007 105.50000000000001 221.50000000000003 923.00000000000011 -0.98296290636062611 2.5000000000000004 57.500000000000007 5.5000000000000009 3.5000000000000004 36.500000000000007 1.0000000180025095e-35 40.500000000000007 144.50000000000003 0.91597560048103344 2.5000000000000004 181.50000000000003 0.37940952181816107 1.0000000180025095e-35 7.5000000000000009 1.0000000180025095e-35 -0.6035533845424651 1.0000000180025095e-35 1.0000000180025095e-35 77.500000000000014 150.50000000000003 184.50000000000003 2.5000000000000004 43.500000000000007 1.0000000180025095e-35 1.0000000180025095e-35 1.0000000180025095e-35 31.500000000000004 -0.12940952181816107 8.5000000000000018 72.500000000000014 28.500000000000004 1.5000000000000002 340.00000000000006 0.12940952181816107 120.50000000000001 0.91597560048103344 159.50000000000003 1.0000000180025095e-35 0.37940952181816107 152.50000000000003 32.500000000000007 192.50000000000003 4.5000000000000009 1.0000000180025095e-35 27.000000000000004 1.0000000180025095e-35 74.500000000000014 0.37940952181816107 2.5000000000000004 2.5000000000000004 1.0000000180025095e-35
decision_type=2 2 2 2 2 2 2 2 2 2 2 2 2 2 2 2 2 2 2 2 2 2 2 2 2 2 2 2 2 2 2 2 2 2 2 2 2 2 2 2 2 2 2 2 2 2 2 2 2 2 2 2 2 2 2 2 2 2 2 2 2 2 2 2 2 2 2 2 2 2 2 2 2 2 2 2 2 2 2 2 2 2 2 2 2 2 2 2 2 2 2 2 2 2 2 2 2 2 2 2 2 2 2 2 2 2 2 2 2 2 2 2 2 2 2 2 2 2 2 2 2 2 2 2 2 2
left_child=1 6 44 4 5 52 7 21 9 -5 11 14 17 -10 15 85 -12 54 70 20 35 22 -1 24 25 38 53 -28 -29 30 31 -7 34 73 45 -9 77 98 -3 -35 41 42 71 -39 -2 -14 47 -38 -48 51 -51 114 -4 -26 -11 56 58 59 65 -58 61 -61 63 75 -65 66 67 -56 -66 -70 -17 -21 -73 -34 -42 -63 -40 78 -16 -80 109 -79 84 -84 95 -8 87 -24 -57 108 -91 -32 -67 -64 -95 -25 -52 -78 -23 100 -50 -102 -103 -20 105 -105 -107 -104 -90 -81 111 -98 113 -96 -6 119 117 -117 -119 -116 121 -69 -122 125 -125 -46
right_child=2 23 3 8 49 29 10 19 13 12 16 -13 32 -15 36 18 -18 -19 103 40 -22 37 86 82 26 -27 27 28 -30 -31 91 -33 33 39 -36 -37 46 43 76 -41 74 -43 -44 -45 123 -47 48 -49 99 50 96 -53 -54 -55 55 88 57 -59 -60 60 -62 62 93 64 68 92 -68 120 69 -71 -72 72 -74 -75 -76 -77 97 81 79 80 -82 -83 83 -85 -86 -87 -88 -89 89 90 -92 -93 -94 94 112 -97 110 -99 -100 -101 101 102 107 104 -106 106 -108 -109 -110 -111 -112 -113 -114 -115 115 116 -118 118 -120 -121 122 -123 -124 124 -126 -127
leaf_value=-0.011141335027558465 -0.0051487939022014815 0.0067219661478445216 0.011516924113449123 0.015298309788107874 -0.016882056140736356 0.0059075046716065248 0.019521282330554512 -0.0012678096299461679 -0.0060545604813255771 -0.0073249595179348389 0.0062592399397901457 -0.010716141748201589 0.009296072661122189 -0.028729772809449407 0.0066683709523908761 0.0096713627999027579 0.00061297628575260137 0.0025876356831503861 0.019111613775877393 0.026264564621333891 0.028585304726253858 -0.0047062383151992371 0.012624754843227896 0.020428950309753419 0.0090582222196488333 -0.0026140850944249261 -0.010589332466499997 0.021015071841504643 -0.0011786700747275756 0.010119750339569701 0.0028845306394114875 0.030697599757048822 0.0059026065027767242 -0.011694864968044892 0.011207811364697087 0.0081820120233842119 0.006655736359349196 -0.002518075000261888 0.00032990434103541909 0.0050947473256276292 -0.019900049641728403 0.03845485256363948 -0.0089874299719583158 0.018606346279382704 -0.013404474368688264 -0.0045732716338838953 0.0014508721137251068 -0.021670014038681986 0.005271300016530733 -0.0064150225998502106 -0.0023003191512543709 -0.016038847215711437 0.029020729940384626 -0.0016860545170111737 0.025636522200974551 0.0051914222471948178 -0.0079977176281847539 -0.0021543320516548303 0.003099758797445971 -0.010598129519196444 -0.016127756039301555 -0.0018331158298010729 0.016828534849697634 0.048191857263445853 0.0220638487600919 -0.0042300833016486157 -0.0041404881710565876 0.0090986498072743432 0.027423402489650819 -0.013849742902863411 -0.010601855850858889 -0.0044126870827032967 0.015608882730488072 0.018904605546509322 0.0036024988576054055 0.013225762226280913 0.032450132260859854 -0.020369005966931582 0.041577652287555909 0.014436945534096315 0.027841694403316949 0.008028213618519275 0.01131135808924834 0.055839797109365465 0.020265359523110704 0.0072296479763078294 0.031891153266896372 -0.014311053037332992 -0.006676794690112964 -0.0094761324137334155 0.0068517802694045456 -0.00013346097779987076 -0.00050524366392718423 -0.0046687357038217416 0.019284534438823664 -0.0038364243154463021 0.038749158188700679 0.018354317803955612 -0.015842064916221209 0.018833704073865393 0.0020647404044866562 0.011467835278899382 0.045205211400985719 0.0048629334830540298 0.0040291646078130751 -0.021713793033419491 0.0037338687150284301 0.017418845914877381 -0.01396660456025452 -0.0039719143427080581 -0.00053796654655819851 0.0093822336622646878 0.030008190758526329 -0.010603696286678316 -0.0063688300652966767 -0.0080452776504922417 0.027322224620729686 -0.0015386167437665993 0.023825345106422903 -0.026111338736818118 -0.02034447778610976 -0.017437453626417646 -0.0034706398844718935 -0.0014571539444349162 -0.011334239666216174 0.0055659616099936627
leaf_weight=70 1916 106 180 75 73 116 112 1587 95 740 714 92 79 63 191 36 3390 556 34 52 22 1454 113 25 1461 62 113 68 118 234 2679 36 223 90 90 186 69 80 27 109 24 24 43 50 527 645 321 45 426 424 44 235 56 122 22 84 79 1261 347 43 30 98 42 20 99 3150 442 40 21 31 197 52 88 106 229 113 71 20 41 78 91 152 24 20 122 242 23 24 819 89 136 2240 994 177 24 57 25 179 86 97 50 66 25 94 607 77 43 26 236 45 21 21 20 25 104 154 20 45 25 34 213 51 41 287 344 28
