{"learner":{"attributes":{"best_iteration":"67","best_score":"0.9699218420477431"},"feature_names":[],"feature_types":[],"gradient_booster":{"model":{"gbtree_model_param":{"num_parallel_tree":"1","num_trees":"118"},"iteration_indptr":[0,1,2,3,4,5,6,7,8,9,10,11,12,13,14,15,16,17,18,19,20,21,22,23,24,25,26,27,28,29,30,31,32,33,34,35,36,37,38,39,40,41,42,43,44,45,46,47,48,49,50,51,52,53,54,55,56,57,58,59,60,61,62,63,64,65,66,67,68,69,70,71,72,73,74,75,76,77,78,79,80,81,82,83,84,85,86,87,88,89,90,91,92,93,94,95,96,97,98,99,100,101,102,103,104,105,106,107,108,109,110,111,112,113,114,115,116,117,118],"tree_info":[0,0,0,0,0,0,0,0,0,0,0,0,0,0,0,0,0,0,0,0,0,0,0,0,0,0,0,0,0,0,0,0,0,0,0,0,0,0,0,0,0,0,0,0,0,0,0,0,0,0,0,0,0,0,0,0,0,0,0,0,0,0,0,0,0,0,0,0,0,0,0,0,0,0,0,0,0,0,0,0,0,0,0,0,0,0,0,0,0,0,0,0,0,0,0,0,0,0,0,0,0,0,0,0,0,0,0,0,0,0,0,0,0,0,0,0,0,0],"trees":[{"base_weights":[3.5659703E-3,6.048627E-2,-2.714985E-1,7.430266E-2,-3.905721E-1,-2.9828042E-1,-8.2097895E-2,3.931711E-2,1.8018076E-1,4.88264E-2,-4.867603E-1,-3.9460045E-1,-2.678193E-1,-2.5256509E-2,-2.1820956E-1,1.9445652E-3,1.5046156E-2,3.2427043E-2,1.4608489E-2,-2.038989E-2,4.103708E-2,-4.2269003E-2,-6.466665E-2,-1.2819255E-2,-4.1878123E-2,-2.5193771E-2,-5.453974E-2,-4.7142375E-3,2.4765557E-2,-1.1513622E-2,-4.5480233E-2],"categories":[],"categories_nodes":[],"categories_segments":[],"categories_sizes":[],"default_left":[0,0,0,0,0,0,0,0,0,0,0,0,0,0,0,0,0,0,0,0,0,0,0,0,0,0,0,0,0,0,0],"id":0,"left_children":[1,3,5,7,9,11,13,15,17,19,21,23,25,27,29,-1,-1,-1,-1,-1,-1,-1,-1,-1,-1,-1,-1,-1,-1,-1,-1],"loss_changes":[3.896503E2,1.285328E2,2.1619934E1,7.410661E1,2.5932175E1,1.0861694E1,4.0949802E0,3.321445E1,2.4364624E1,1.0225901E1,4.88002E0,5.718292E0,1.2395584E1,2.251519E0,3.751915E0,0E0,0E0,0E0,0E0,0E0,0E0,0E0,0E0,0E0,0E0,0E0,0E0,0E0,0E0,0E0,0E0],"parents":[2147483647,0,0,1,1,2,2,3,3,4,4,5,5,6,6,7,7,8,8,9,9,10,10,11,11,12,12,13,13,14,14],"right_children":[2,4,6,8,10,12,14,16,18,20,22,24,26,28,30,-1,-1,-1,-1,-1,-1,-1,-1,-1,-1,-1,-1,-1,-1,-1,-1],"split_conditions":[1E0,1E0,1E0,5E0,3.8E1,1.5E1,1.04E2,7.0710677E-1,2E0,4E0,7.0710677E-1,1E0,1.68E2,1E0,4E0,1.9445652E-3,1.5046156E-2,3.2427043E-2,1.4608489E-2,-2.038989E-2,4.103708E-2,-4.2269003E-2,-6.466665E-2,-1.2819255E-2,-4.1878123E-2,-2.5193771E-2,-5.453974E-2,-4.7142375E-3,2.4765557E-2,-1.1513622E-2,-4.5480233E-2],"split_indices":[51,53,36,18,8,0,0,20,4,18,20,45,0,11,18,0,0,0,0,0,0,0,0,0,0,0,0,0,0,0,0],"split_type":[0,0,0,0,0,0,0,0,0,0,0,0,0,0,0,0,0,0,0,0,0,0,0,0,0,0,0,0,0,0,0],"sum_hessian":[2.4885E4,2.0619E4,4.266E3,2.0007E4,6.12E2,3.737E3,5.29E2,1.5039E4,4.968E3,1.1E2,5.02E2,8.95E2,2.842E3,3.74E2,1.55E2,1.2759E4,2.28E3,9.49E2,4.019E3,6.5E1,4.5E1,3.61E2,1.41E2,7.5E1,8.2E2,2.69E3,1.52E2,3.47E2,2.7E1,1.09E2,4.6E1],"tree_param":{"num_deleted":"0","num_feature":"58","num_nodes":"31","size_leaf_vector":"1"}},{"base_weights":[1.233693E-3,-1.3898355E-2,1.3212954E-1,3.4214344E-2,-4.904523E-2,1.5100987E-1,-1.5848407E-1,1.1099555E-1,1.7457116E-2,-1.0006187E-2,-8.951809E-2,5.493269E-1,1.3453372E-1,7.931112E-3,-2.693088E-1,3.8414665E-2,8.605992E-3,2.0616201E-3,-3.9421555E-2,1.7043696E-3,-8.889303E-3,-8.056927E-3,-2.8281277E-2,7.820272E-2,3.5385586E-2,1.6707616E-2,2.260665E-3,-3.391573E-2,-3.5972835E-3],"categories":[],"categories_nodes":[],"categories_segments":[],"categories_sizes":[],"default_left":[0,0,0,0,0,0,0,0,0,0,0,0,0,0,0,0,0,0,0,0,0,0,0,0,0,0,0,0,0],"id":1,"left_children":[1,3,5,7,9,11,13,15,17,19,21,23,25,-1,27,-1,-1,-1,-1,-1,-1,-1,-1,-1,-1,-1,-1,-1,-1],"loss_changes":[4.9353508E1,3.777041E1,1.4191063E1,1.212979E1,2.0392445E1,1.5840729E1,4.1852264E0,1.1471048E1,1.0075357E1,1.4023238E1,1.0938717E1,4.0899467E0,8.482967E0,0E0,1.7480025E0,0E0,0E0,0E0,0E0,0E0,0E0,0E0,0E0,0E0,0E0,0E0,0E0,0E0,0E0],"parents":[2147483647,0,0,1,1,2,2,3,3,4,4,5,5,6,6,7,7,8,8,9,9,10,10,11,11,12,12,14,14],"right_children":[2,4,6,8,10,12,14,16,18,20,22,24,26,-1,28,-1,-1,-1,-1,-1,-1,-1,-1,-1,-1,-1,-1,-1,-1],"split_conditions":[6E0,4E0,1.46E2,1.23E2,1E0,5.9E1,1E0,2.8E1,1E0,1E0,1.59E2,6.7E1,9.41E2,7.931112E-3,1.1E1,3.8414665E-2,8.605992E-3,2.0616201E-3,-3.9421555E-2,1.7043696E-3,-8.889303E-3,-8.056927E-3,-2.8281277E-2,7.820272E-2,3.5385586E-2,1.6707616E-2,2.260665E-3,-3.391573E-2,-3.5972835E-3],"split_indices":[18,6,0,17,40,17,40,0,44,13,0,8,5,0,6,0,0,0,0,0,0,0,0,0,0,0,0,0,0],"split_type":[0,0,0,0,0,0,0,0,0,0,0,0,0,0,0,0,0,0,0,0,0,0,0,0,0,0,0,0,0],"sum_hessian":[2.4915E4,2.2334E4,2.581E3,9.428E3,1.2906E4,2.424E3,1.57E2,1.688E3,7.74E3,6.57E3,6.336E3,9.5E1,2.329E3,5E1,1.07E2,1.4E2,1.548E3,7.682E3,5.8E1,4.893E3,1.677E3,6.057E3,2.79E2,4.2E1,5.3E1,1.804E3,5.25E2,8.2E1,2.5E1],"tree_param":{"num_deleted":"0","num_feature":"58","num_nodes":"29","size_leaf_vector":"1"}},{"base_weights":[5.893607E-3,-2.2770641E-2,8.413315E-2,8.032562E-3,-5.934856E-2,9.778069E-2,-1.15759045E-1,2.0547984E-2,-8.949475E-2,-2.1076344E-2,-1.0019997E-1,5.8187608E-2,1.603435E-1,-2.9279865E-2,-1.9853367E-1,4.0771556E-3,-3.9902055E-3,-7.400472E-4,-1.5879173E-2,-1.622105E-3,-4.5093764E-2,-9.409127E-3,-3.0181795E-2,4.2903903E-3,2.5396213E-2,1.7674102E-2,-2.474626E-2,-9.317718E-3,1.2475208E-2,-1.3493945E-2,-4.2095196E-2],"categories":[],"categories_nodes":[],"categories_segments":[],"categories_sizes":[],"default_left":[0,0,0,0,0,0,0,0,0,0,0,0,0,0,0,0,0,0,0,0,0,0,0,0,0,0,0,0,0,0,0],"id":2,"left_children":[1,3,5,7,9,11,13,15,17,19,21,23,25,27,29,-1,-1,-1,-1,-1,-1,-1,-1,-1,-1,-1,-1,-1,-1,-1,-1],"loss_changes":[5.5822163E1,2.052588E1,1.8218243E1,1.2073528E1,1.3018496E1,1.5467308E1,3.0507736E0,1.0718199E1,6.39882E0,8.969314E0,4.932583E0,1.1443094E1,1.623299E1,2.0784922E0,3.026701E0,0E0,0E0,0E0,0E0,0E0,0E0,0E0,0E0,0E0,0E0,0E0,0E0,0E0,0E0,0E0,0E0],"parents":[2147483647,0,0,1,1,2,2,3,3,4,4,5,5,6,6,7,7,8,8,9,9,10,10,11,11,12,12,13,13,14,14],"right_children":[2,4,6,8,10,12,14,16,18,20,22,24,26,28,30,-1,-1,-1,-1,-1,-1,-1,-1,-1,-1,-1,-1,-1,-1,-1,-1],"split_conditions":[1E0,5E0,2.064E3,1.38E2,1E0,1E0,1E0,6.3E2,1E0,1E0,1.69E2,1E0,1.59E2,1E0,1E0,4.0771556E-3,-3.9902055E-3,-7.400472E-4,-1.5879173E-2,-1.622105E-3,-4.5093764E-2,-9.409127E-3,-3.0181795E-2,4.2903903E-3,2.5396213E-2,1.7674102E-2,-2.474626E-2,-9.317718E-3,1.2475208E-2,-1.3493945E-2,-4.2095196E-2],"split_indices":[19,6,5,0,40,25,40,5,40,44,0,11,0,0,57,0,0,0,0,0,0,0,0,0,0,0,0,0,0,0,0],"split_type":[0,0,0,0,0,0,0,0,0,0,0,0,0,0,0,0,0,0,0,0,0,0,0,0,0,0,0,0,0,0,0],"sum_hessian":[2.4889E4,1.8216E4,6.673E3,9.889E3,8.327E3,6.247E3,4.26E2,8.765E3,1.124E3,4.3E3,4.027E3,3.827E3,2.42E3,2.09E2,2.17E2,6.568E3,2.197E3,5.15E2,6.09E2,4.253E3,4.7E1,3.91E3,1.17E2,3.551E3,2.76E2,2.327E3,9.3E1,1.48E2,6.1E1,1.7E2,4.7E1],"tree_param":{"num_deleted":"0","num_feature":"58","num_nodes":"31","size_leaf_vector":"1"}},{"base_weights":[5.5453544E-3,-2.530915E-1,6.859233E-2,-2.726796E-1,-9.838057E-2,4.4740476E-2,1.9075026E-1,-2.9147595E-1,-1.3762459E-1,-1.4058939E-1,7.496976E-3,1.318329E-1,2.7221547E-2,1.9943993E-1,-2.948151E-1,-2.5885446E-2,-3.594745E-2,-1.605827E-2,1.7385764E-2,-1.7041836E-2,-7.089142E-4,-2.8920851E-3,6.004742E-3,2.6963726E-2,9.7568035E-3,7.556271E-4,7.844267E-3,1.8474095E-2,3.57383E-2,-4.620951E-2,-1.2328392E-2],"categories":[],"categories_nodes":[],"categories_segments":[],"categories_sizes":[],"default_left":[0,0,0,0,0,0,0,0,0,0,0,0,0,0,0,0,0,0,0,0,0,0,0,0,0,0,0,0,0,0,0],"id":3,"left_children":[1,3,5,7,9,11,13,15,17,19,21,23,25,27,29,-1,-1,-1,-1,-1,-1,-1,-1,-1,-1,-1,-1,-1,-1,-1,-1],"loss_changes":[4.0676102E2,1.4789215E1,5.8428505E1,1.097464E1,2.4634538E0,2.5600285E1,1.3881554E1,8.353912E0,3.8322716E0,1.5677686E0,3.041127E-1,1.3242088E1,1.4073091E1,7.4072113E0,1.6072683E0,0E0,0E0,0E0,0E0,0E0,0E0,0E0,0E0,0E0,0E0,0E0,0E0,0E0,0E0,0E0,0E0],"parents":[2147483647,0,0,1,1,2,2,3,3,4,4,5,5,6,6,7,7,8,8,9,9,10,10,11,11,12,12,13,13,14,14],"right_children":[2,4,6,8,10,12,14,16,18,20,22,24,26,28,30,-1,-1,-1,-1,-1,-1,-1,-1,-1,-1,-1,-1,-1,-1,-1,-1],"split_conditions":[1E0,1E0,7.0710677E-1,1E0,7.9E2,1E0,1E0,7.78E2,1.5E1,1E0,6.123234E-17,1.03E2,1E0,1E0,1E0,-2.5885446E-2,-3.594745E-2,-1.605827E-2,1.7385764E-2,-1.7041836E-2,-7.089142E-4,-2.8920851E-3,6.004742E-3,2.6963726E-2,9.7568035E-3,7.556271E-4,7.844267E-3,1.8474095E-2,3.57383E-2,-4.620951E-2,-1.2328392E-2],"split_indices":[52,36,20,35,5,6,36,17,2,27,20,17,35,14,2,0,0,0,0,0,0,0,0,0,0,0,0,0,0,0,0],"split_type":[0,0,0,0,0,0,0,0,0,0,0,0,0,0,0,0,0,0,0,0,0,0,0,0,0,0,0,0,0,0,0],"sum_hessian":[2.4943E4,4.888E3,2.0055E4,4.338E3,5.5E2,1.678E4,3.275E3,3.807E3,5.31E2,3.93E2,1.57E2,2.809E3,1.3971E4,3.218E3,5.7E1,2.576E3,1.231E3,4.95E2,3.6E1,3.21E2,7.2E1,9.3E1,6.4E1,5.58E2,2.251E3,1.0096E4,3.875E3,2.946E3,2.72E2,2.8E1,2.9E1],"tree_param":{"num_deleted":"0","num_feature":"58","num_nodes":"31","size_leaf_vector":"1"}},{"base_weights":[-4.6106055E-3,3.825423E-2,-2.1113555E-1,4.4290904E-2,-2.62541E-1,-8.362691E-2,-2.3610683E-1,2.1119244E-2,1.1304529E-1,-3.1188875E-1,-7.309189E-2,-8.861704E-3,-1.5010576E-1,-2.125492E-1,-3.3242312E-1,4.7657206E-3,-1.1633026E-3,3.266906E-2,9.136945E-3,-1.8058739E-3,-3.5246078E-2,-1.7007308E-2,1.5352209E-2,4.6190936E-3,-1.5238096E-2,-3.3459075E-2,-7.602489E-3,-2.2843366E-2,-6.97879E-3,-3.7713513E-2,-2.0864824E-2],"categories":[],"categories_nodes":[],"categories_segments":[],"categories_sizes":[],"default_left":[0,0,0,0,0,0,0,0,0,0,0,0,0,0,0,0,0,0,0,0,0,0,0,0,0,0,0,0,0,0,0],"id":4,"left_children":[1,3,5,7,9,11,13,15,17,19,21,23,25,27,29,-1,-1,-1,-1,-1,-1,-1,-1,-1,-1,-1,-1,-1,-1,-1,-1],"loss_changes":[2.1997894E2,3.7377205E1,1.3579346E1,3.2137882E1,3.7635021E0,3.482854E0,8.031891E0,1.3116456E1,2.3518494E1,3.8203678E0,1.8941799E0,2.6223073E0,5.0449467E0,6.4968414E0,3.7952652E0,0E0,0E0,0E0,0E0,0E0,0E0,0E0,0E0,0E0,0E0,0E0,0E0,0E0,0E0,0E0,0E0],"parents":[2147483647,0,0,1,1,2,2,3,3,4,4,5,5,6,6,7,7,8,8,9,9,10,10,11,11,12,12,13,13,14,14],"right_children":[2,4,6,8,10,12,14,16,18,20,22,24,26,28,30,-1,-1,-1,-1,-1,-1,-1,-1,-1,-1,-1,-1,-1,-1,-1,-1],"split_conditions":[1E0,1E0,1.88E2,5E0,5E0,3E0,9.38E2,5E0,9.6E1,3E1,1E0,1E0,4E0,1E0,1E0,4.7657206E-3,-1.1633026E-3,3.266906E-2,9.136945E-3,-1.8058739E-3,-3.5246078E-2,-1.7007308E-2,1.5352209E-2,4.6190936E-3,-1.5238096E-2,-3.3459075E-2,-7.602489E-3,-2.2843366E-2,-6.97879E-3,-3.7713513E-2,-2.0864824E-2],"split_indices":[51,36,17,18,18,18,17,6,17,8,56,54,18,3,54,0,0,0,0,0,0,0,0,0,0,0,0,0,0,0,0],"split_type":[0,0,0,0,0,0,0,0,0,0,0,0,0,0,0,0,0,0,0,0,0,0,0,0,0,0,0,0,0,0,0],"sum_hessian":[2.4847E4,2.0577E4,4.27E3,2.0173E4,4.04E2,7E2,3.57E3,1.5089E4,5.084E3,3.2E2,8.4E1,3.3E2,3.7E2,2.871E3,6.99E2,8.335E3,6.754E3,4.67E2,4.617E3,3.9E1,2.81E2,5.9E1,2.5E1,2.39E2,9.1E1,1.05E2,2.65E2,2.583E3,2.88E2,5.12E2,1.87E2],"tree_param":{"num_deleted":"0","num_feature":"58","num_nodes":"31","size_leaf_vector":"1"}},{"base_weights":[1.4596425E-3,4.1462786E-2,-1.9105934E-1,1.2644279E-2,1.1944702E-1,-1.7179342E-1,-2.914015E-1,1.8843273E-2,-2.768004E-1,1.3091509E-1,-1.381932E-1,-1.6247204E-1,-3.6919627E-1,-3.1812066E-1,-5.8757033E-2,2.6388138E-3,-1.4594286E-2,-2.3293974E-2,-3.908835E-2,3.0833125E-2,1.1351658E-2,-8.906822E-3,-5.016951E-2,-1.476156E-2,-2.9696932E-2,-4.4935554E-2,-6.778413E-3,-3.4611013E-2,-7.130341E-3,9.099317E-3,-2.0287191E-2],"categories":[],"categories_nodes":[],"categories_segments":[],"categories_sizes":[],"default_left":[0,0,0,0,0,0,0,0,0,0,0,0,0,0,0,0,0,0,0,0,0,0,0,0,0,0,0,0,0,0,0],"id":5,"left_children":[1,3,5,7,9,11,13,15,17,19,21,23,25,27,29,-1,-1,-1,-1,-1,-1,-1,-1,-1,-1,-1,-1,-1,-1,-1,-1],"loss_changes":[1.913252E2,4.622504E1,8.212372E0,2.6955093E1,1.6416313E1,6.5421677E0,4.2517433E0,1.8287655E1,1.4851341E0,1.6368134E1,4.18743E0,6.8058243E0,3.859459E0,4.2308197E0,1.5723085E0,0E0,0E0,0E0,0E0,0E0,0E0,0E0,0E0,0E0,0E0,0E0,0E0,0E0,0E0,0E0,0E0],"parents":[2147483647,0,0,1,1,2,2,3,3,4,4,5,5,6,6,7,7,8,8,9,9,10,10,11,11,12,12,13,13,14,14],"right_children":[2,4,6,8,10,12,14,16,18,20,22,24,26,28,30,-1,-1,-1,-1,-1,-1,-1,-1,-1,-1,-1,-1,-1,-1,-1,-1],"split_conditions":[1E0,1E0,9.38E2,1E0,1E0,1.68E2,1E0,1E0,1.4E1,9.6E1,8.660254E-1,1E0,1E0,1E0,6E0,2.6388138E-3,-1.4594286E-2,-2.3293974E-2,-3.908835E-2,3.0833125E-2,1.1351658E-2,-8.906822E-3,-5.016951E-2,-1.476156E-2,-2.9696932E-2,-4.4935554E-2,-6.778413E-3,-3.4611013E-2,-7.130341E-3,9.099317E-3,-2.0287191E-2],"split_indices":[51,19,17,36,37,0,36,37,6,17,20,37,7,34,6,0,0,0,0,0,0,0,0,0,0,0,0,0,0,0,0],"split_type":[0,0,0,0,0,0,0,0,0,0,0,0,0,0,0,0,0,0,0,0,0,0,0,0,0,0,0,0,0,0,0],"sum_hessian":[2.4841E4,2.0568E4,4.273E3,1.5019E4,5.549E3,3.587E3,6.86E2,1.4705E4,3.14E2,5.313E3,2.36E2,3.427E3,1.6E2,6.15E2,7.1E1,1.4062E4,6.43E2,2.29E2,8.5E1,4.73E2,4.84E3,2.09E2,2.7E1,3.088E3,3.39E2,1.26E2,3.4E1,5.52E2,6.3E1,3.5E1,3.6E1],"tree_param":{"num_deleted":"0","num_feature":"58","num_nodes":"31","size_leaf_vector":"1"}},{"base_weights":[1.6063348E-3,-1.849212E-1,4.7518864E-2,-1.926353E-1,1.8217732E-1,4.6095677E-2,7.080629E-2,-3.539676E-1,-1.6997209E-1,5.1361438E-2,1.3726852E-3,5.0085858E-2,-1.5723306E-1,-4.0680878E-2,-2.1411506E-2,-1.8888392E-2,-3.472218E-3,3.3303865E-3,-4.161658E-3,4.290997E-3,1.4133873E-2,-2.291928E-2,-2.8230955E-3],"categories":[],"categories_nodes":[],"categories_segments":[],"categories_sizes":[],"default_left":[0,0,0,0,0,0,0,0,0,0,0,0,0,0,0,0,0,0,0,0,0,0,0],"id":6,"left_children":[1,3,5,7,9,11,-1,13,15,-1,17,19,21,-1,-1,-1,-1,-1,-1,-1,-1,-1,-1],"loss_changes":[2.137907E2,1.3998886E1,1.8799915E1,1.7599808E1,6.11168E0,1.6226936E1,0E0,4.302536E0,1.0830933E1,0E0,9.3356766E-2,1.2833E1,3.5674686E0,0E0,0E0,0E0,0E0,0E0,0E0,0E0,0E0,0E0,0E0],"parents":[2147483647,0,0,1,1,2,2,3,3,4,4,5,5,7,7,8,8,10,10,11,11,12,12],"right_children":[2,4,6,8,10,12,-1,14,16,-1,18,20,22,-1,-1,-1,-1,-1,-1,-1,-1,-1,-1],"split_conditions":[1E0,4E0,1E0,1E0,5E0,1E0,7.080629E-2,1E0,1E0,5.1361438E-2,1E0,1E0,6E0,-4.0680878E-2,-2.1411506E-2,-1.8888392E-2,-3.472218E-3,3.3303865E-3,-4.161658E-3,4.290997E-3,1.4133873E-2,-2.291928E-2,-2.8230955E-3],"split_indices":[52,3,42,51,3,36,0,54,36,0,40,11,4,0,0,0,0,0,0,0,0,0,0],"split_type":[0,0,0,0,0,0,0,0,0,0,0,0,0,0,0,0,0,0,0,0,0,0,0],"sum_hessian":[2.4962E4,4.93E3,2.0032E4,4.829E3,1.01E2,1.999E4,4.2E1,5.93E2,4.236E3,3.5E1,6.6E1,1.9606E4,3.84E2,4.29E2,1.64E2,3.716E3,5.2E2,3.8E1,2.8E1,1.8178E4,1.428E3,2.46E2,1.38E2],"tree_param":{"num_deleted":"0","num_feature":"58","num_nodes":"23","size_leaf_vector":"1"}},{"base_weights":[-6.96092E-4,3.2687996E-2,-1.6023812E-1,4.3164365E-2,-2.9317474E-1,-1.1727397E-1,-2.037495E-1,2.2037057E-2,1.5182345E-1,-4.7014728E-1,-2.1434791E-1,-1.0062391E-1,-2.69144E-1,-1.2894757E-1,-2.5494912E-1,2.7356565E-3,-2.2679638E-2,2.2672972E-2,1.0615966E-2,-3.6214728E-2,-7.804244E-2,-7.4553206E-3,-3.6691885E-2,1.3163931E-2,-1.1006824E-2,-1.0050826E-2,-4.306692E-2,-1.7390868E-2,-5.457538E-3,-2.7215887E-2,-5.550246E-4],"categories":[],"categories_nodes":[],"categories_segments":[],"categories_sizes":[],"default_left":[0,0,0,0,0,0,0,0,0,0,0,0,0,0,0,0,0,0,0,0,0,0,0,0,0,0,0,0,0,0,0],"id":7,"left_children":[1,3,5,7,9,11,13,15,17,19,21,23,25,27,29,-1,-1,-1,-1,-1,-1,-1,-1,-1,-1,-1,-1,-1,-1,-1,-1],"loss_changes":[1.3272261E2,7.036202E1,8.037079E0,4.5832085E1,8.855244E0,5.4651337E0,8.166794E0,2.2134007E1,1.1092567E1,6.3188324E0,9.485207E0,4.3116856E0,5.785843E0,2.906351E0,5.4494476E0,0E0,0E0,0E0,0E0,0E0,0E0,0E0,0E0,0E0,0E0,0E0,0E0,0E0,0E0,0E0,0E0],"parents":[2147483647,0,0,1,1,2,2,3,3,4,4,5,5,6,6,7,7,8,8,9,9,10,10,11,11,12,12,13,13,14,14],"right_children":[2,4,6,8,10,12,14,16,18,20,22,24,26,28,30,-1,-1,-1,-1,-1,-1,-1,-1,-1,-1,-1,-1,-1,-1,-1,-1],"split_conditions":[1E0,1E0,5E0,7.0710677E-1,1.21E2,1E0,1E0,1E0,2.33E2,8.660254E-1,6.04E2,5E0,3.8E1,4E0,1E0,2.7356565E-3,-2.2679638E-2,2.2672972E-2,1.0615966E-2,-3.6214728E-2,-7.804244E-2,-7.4553206E-3,-3.6691885E-2,1.3163931E-2,-1.1006824E-2,-1.0050826E-2,-4.306692E-2,-1.7390868E-2,-5.457538E-3,-2.7215887E-2,-5.550246E-4],"split_indices":[51,53,6,20,5,37,40,36,5,20,17,0,0,18,49,0,0,0,0,0,0,0,0,0,0,0,0,0,0,0,0],"split_type":[0,0,0,0,0,0,0,0,0,0,0,0,0,0,0,0,0,0,0,0,0,0,0,0,0,0,0,0,0,0,0],"sum_hessian":[2.4917E4,2.0606E4,4.311E3,1.9965E4,6.41E2,2.171E3,2.14E3,1.6716E4,3.249E3,1.96E2,4.45E2,1.958E3,2.13E2,8.71E2,1.269E3,1.6367E4,3.49E2,1.229E3,2.02E3,1.47E2,4.9E1,2.33E2,2.12E2,7.6E1,1.882E3,1.05E2,1.08E2,5.42E2,3.29E2,1.187E3,8.2E1],"tree_param":{"num_deleted":"0","num_feature":"58","num_nodes":"31","size_leaf_vector":"1"}},{"base_weights":[-8.266902E-3,-1.5937465E-1,2.953129E-2,-1.6585568E-1,1.4360331E-1,7.896042E-3,1.3934655E-1,-1.8148601E-1,-3.656176E-2,4.7174137E-2,-2.348129E-4,1.4159897E-2,-1.3059735E-1,1.4919771E-1,-1.4080864E-1,2.7115433E-2,-1.8489772E-2,-6.213221E-4,-1.3643937E-2,2.4995436E-3,-4.7775097E-3,2.2917155E-3,-8.019482E-3,-5.5532847E-3,-2.0285157E-2,2.6164873E-2,1.2306862E-2,-6.866804E-4,-3.7258923E-2],"categories":[],"categories_nodes":[],"categories_segments":[],"categories_sizes":[],"default_left":[0,0,0,0,0,0,0,0,0,0,0,0,0,0,0,0,0,0,0,0,0,0,0,0,0,0,0,0,0],"id":8,"left_children":[1,3,5,7,9,11,13,15,17,-1,19,21,23,25,27,-1,-1,-1,-1,-1,-1,-1,-1,-1,-1,-1,-1,-1,-1],"loss_changes":[1.4238345E2,9.818283E0,4.7376335E1,9.86348E0,4.9559813E0,1.4454439E1,9.07885E0,6.7785645E0,1.5995941E0,0E0,8.995369E-2,1.3172876E1,3.8992405E0,9.2849655E0,3.4744947E0,0E0,0E0,0E0,0E0,0E0,0E0,0E0,0E0,0E0,0E0,0E0,0E0,0E0,0E0],"parents":[2147483647,0,0,1,1,2,2,3,3,4,4,5,5,6,6,7,7,8,8,10,10,11,11,12,12,13,13,14,14],"right_children":[2,4,6,8,10,12,14,16,18,-1,20,22,24,26,28,-1,-1,-1,-1,-1,-1,-1,-1,-1,-1,-1,-1,-1,-1],"split_conditions":[1E0,4E0,7.0710677E-1,1E0,1.32E2,1E0,1E0,3E0,1E0,4.7174137E-2,-1.8369701E-16,1.4E2,3E0,2E0,9.659258E-1,2.7115433E-2,-1.8489772E-2,-6.213221E-4,-1.3643937E-2,2.4995436E-3,-4.7775097E-3,2.2917155E-3,-8.019482E-3,-5.5532847E-3,-2.0285157E-2,2.6164873E-2,1.2306862E-2,-6.866804E-4,-3.7258923E-2],"split_indices":[52,3,20,36,8,37,37,8,55,0,20,0,7,4,20,0,0,0,0,0,0,0,0,0,0,0,0,0,0],"split_type":[0,0,0,0,0,0,0,0,0,0,0,0,0,0,0,0,0,0,0,0,0,0,0,0,0,0,0,0,0],"sum_hessian":[2.4927E4,4.987E3,1.994E4,4.883E3,1.04E2,1.6659E4,3.281E3,4.356E3,5.27E2,3.1E1,7.3E1,1.5939E4,7.2E2,3.17E3,1.11E2,3.2E1,4.324E3,4.05E2,1.22E2,4.8E1,2.5E1,1.4586E4,1.353E3,3.54E2,3.66E2,5.96E2,2.574E3,7.1E1,4E1],"tree_param":{"num_deleted":"0","num_feature":"58","num_nodes":"29","size_leaf_vector":"1"}},{"base_weights":[-3.198672E-3,-1.451883E-1,3.1431556E-2,-1.6105203E-1,-1.8099487E-2,1.7433489E-2,1.431705E-1,-2.7726674E-1,-1.4380394E-1,1.7015657E-1,-6.828822E-2,-2.9279923E-3,7.557775E-2,9.008328E-2,2.7463388E-1,-4.8367135E-2,-2.1278052E-2,-1.1268201E-2,-1.9302659E-2,4.9982067E-2,-1.232856E-3,-1.3705315E-2,1.1106963E-2,4.303013E-4,-1.7415976E-2,1.8233584E-2,5.048995E-3,4.5376946E-3,2.1110073E-2,3.6095317E-2,1.2015897E-2],"categories":[],"categories_nodes":[],"categories_segments":[],"categories_sizes":[],"default_left":[0,0,0,0,0,0,0,0,0,0,0,0,0,0,0,0,0,0,0,0,0,0,0,0,0,0,0,0,0,0,0],"id":9,"left_children":[1,3,5,7,9,11,13,15,17,19,21,23,25,27,29,-1,-1,-1,-1,-1,-1,-1,-1,-1,-1,-1,-1,-1,-1,-1,-1],"loss_changes":[1.2290831E2,9.877998E0,3.142868E1,8.693649E0,5.1609616E0,2.114355E1,1.55873375E1,7.377449E0,5.793358E0,6.9244227E0,5.3309727E0,1.6379368E1,1.2396801E1,8.619766E0,8.530495E0,0E0,0E0,0E0,0E0,0E0,0E0,0E0,0E0,0E0,0E0,0E0,0E0,0E0,0E0,0E0,0E0],"parents":[2147483647,0,0,1,1,2,2,3,3,4,4,5,5,6,6,7,7,8,8,9,9,10,10,11,11,12,12,13,13,14,14],"right_children":[2,4,6,8,10,12,14,16,18,20,22,24,26,28,30,-1,-1,-1,-1,-1,-1,-1,-1,-1,-1,-1,-1,-1,-1,-1,-1],"split_conditions":[1E0,1E0,8.660254E-1,1E0,4.7E1,1E0,1E0,2.5E1,7E0,3E0,1.2E1,1E0,2E0,1E0,4E0,-4.8367135E-2,-2.1278052E-2,-1.1268201E-2,-1.9302659E-2,4.9982067E-2,-1.232856E-3,-1.3705315E-2,1.1106963E-2,4.303013E-4,-1.7415976E-2,1.8233584E-2,5.048995E-3,4.5376946E-3,2.1110073E-2,3.6095317E-2,1.2015897E-2],"split_indices":[52,35,20,51,8,19,35,0,6,6,6,37,4,34,1,0,0,0,0,0,0,0,0,0,0,0,0,0,0,0,0],"split_type":[0,0,0,0,0,0,0,0,0,0,0,0,0,0,0,0,0,0,0,0,0,0,0,0,0,0,0,0,0,0,0],"sum_hessian":[2.4994E4,4.9E3,2.0094E4,4.356E3,5.44E2,1.7858E4,2.236E3,5.61E2,3.795E3,1.14E2,4.3E2,1.3227E4,4.631E3,1.594E3,6.42E2,1.32E2,4.29E2,2.327E3,1.468E3,4E1,7.4E1,3.11E2,1.19E2,1.2692E4,5.35E2,8.8E2,3.751E3,1.165E3,4.29E2,4.11E2,2.31E2],"tree_param":{"num_deleted":"0","num_feature":"58","num_nodes":"31","size_leaf_vector":"1"}},{"base_weights":[-5.594283E-3,-1.3434476E-1,2.6019987E-2,-1.4598043E-1,5.0648436E-2,2.2488774E-4,9.618069E-2,-2.5987566E-1,-1.2993093E-1,1.6385892E-1,-1.1911638E-1,-5.1636446E-2,1.8142512E-2,1.9871251E-1,7.781818E-2,-1.8264329E-2,-4.9748193E-2,8.836427E-3,-1.3829787E-2,2.3355333E-2,-1.21591715E-2,-4.531026E-2,-8.951025E-4,-2.3625183E-3,-1.3225666E-2,6.1623584E-3,-2.7790383E-4,4.1029062E-2,1.40218055E-2,2.2698117E-2,6.5696808E-3],"categories":[],"categories_nodes":[],"categories_segments":[],"categories_sizes":[],"default_left":[0,0,0,0,0,0,0,0,0,0,0,0,0,0,0,0,0,0,0,0,0,0,0,0,0,0,0,0,0,0,0],"id":10,"left_children":[1,3,5,7,9,11,13,15,17,19,21,23,25,27,29,-1,-1,-1,-1,-1,-1,-1,-1,-1,-1,-1,-1,-1,-1,-1,-1],"loss_changes":[1.0127385E2,1.0565514E1,3.615259E1,8.402283E0,5.612293E0,1.3574225E1,1.009486E1,1.0350792E1,7.403923E0,3.5099044E0,4.300808E0,8.467661E0,9.876692E0,1.0029034E1,8.222609E0,0E0,0E0,0E0,0E0,0E0,0E0,0E0,0E0,0E0,0E0,0E0,0E0,0E0,0E0,0E0,0E0],"parents":[2147483647,0,0,1,1,2,2,3,3,4,4,5,5,6,6,7,7,8,8,9,9,10,10,11,11,12,12,13,13,14,14],"right_children":[2,4,6,8,10,12,14,16,18,20,22,24,26,28,30,-1,-1,-1,-1,-1,-1,-1,-1,-1,-1,-1,-1,-1,-1,-1,-1],"split_conditions":[1E0,1E0,1E0,1E0,3.2E1,-7.0710677E-1,1.64E2,8.25E2,5.8E1,1E0,3.3E1,1.16E2,2.91E2,5.6E1,5E0,-1.8264329E-2,-4.9748193E-2,8.836427E-3,-1.3829787E-2,2.3355333E-2,-1.21591715E-2,-4.531026E-2,-8.951025E-4,-2.3625183E-3,-1.3225666E-2,6.1623584E-3,-2.7790383E-4,4.1029062E-2,1.40218055E-2,2.2698117E-2,6.5696808E-3],"split_indices":[52,11,19,51,0,20,17,17,17,37,0,0,17,0,18,0,0,0,0,0,0,0,0,0,0,0,0,0,0,0,0],"split_type":[0,0,0,0,0,0,0,0,0,0,0,0,0,0,0,0,0,0,0,0,0,0,0,0,0,0,0,0,0,0,0],"sum_hessian":[2.4879E4,4.904E3,1.9975E4,4.614E3,2.9E2,1.4606E4,5.369E3,5.68E2,4.046E3,1.74E2,1.16E2,3.75E3,1.0856E4,8.14E2,4.555E3,4.3E2,1.38E2,1.49E2,3.897E3,1.4E2,3.4E1,2.8E1,8.8E1,2.784E3,9.66E2,3.526E3,7.33E3,1.75E2,6.39E2,3.41E2,4.214E3],"tree_param":{"num_deleted":"0","num_feature":"58","num_nodes":"31","size_leaf_vector":"1"}},{"base_weights":[-7.0746797E-3,-1.1393391E-1,1.9569889E-2,-1.2707071E-1,-8.039674E-3,6.442197E-3,1.3164224E-1,-2.5435108E-1,-1.164434E-1,2.0211877E-1,-6.925591E-2,1.624041E-2,-9.8830335E-2,1.457719E-1,-2.0552774E-1,-2.876547E-2,-3.9197467E-3,-4.75788E-4,-1.2845682E-2,5.6297937E-3,4.1259807E-2,-9.107324E-3,2.7241552E-2,-1.2542568E-4,6.006133E-3,-1.2183657E-2,1.6988551E-2,1.1312654E-2,2.6614482E-2,-9.432117E-3,-4.5425337E-2],"categories":[],"categories_nodes":[],"categories_segments":[],"categories_sizes":[],"default_left":[0,0,0,0,0,0,0,0,0,0,0,0,0,0,0,0,0,0,0,0,0,0,0,0,0,0,0,0,0,0,0],"id":11,"left_children":[1,3,5,7,9,11,13,15,17,19,21,23,25,27,29,-1,-1,-1,-1,-1,-1,-1,-1,-1,-1,-1,-1,-1,-1,-1,-1],"loss_changes":[7.134498E1,6.955925E0,2.950804E1,5.988312E0,7.128404E0,1.8521877E1,1.0048866E1,2.439289E0,5.511196E0,3.8133044E0,3.2227297E0,1.2593546E1,9.473189E0,7.9037895E0,2.3082473E0,0E0,0E0,0E0,0E0,0E0,0E0,0E0,0E0,0E0,0E0,0E0,0E0,0E0,0E0,0E0,0E0],"parents":[2147483647,0,0,1,1,2,2,3,3,4,4,5,5,6,6,7,7,8,8,9,9,10,10,11,11,12,12,13,13,14,14],"right_children":[2,4,6,8,10,12,14,16,18,20,22,24,26,28,30,-1,-1,-1,-1,-1,-1,-1,-1,-1,-1,-1,-1,-1,-1,-1,-1],"split_conditions":[1E0,1E0,6E0,2E0,4.9E1,1.4E2,1E0,1E0,1E0,3.3E1,4.9E1,1E0,9.659258E-1,1.3E1,3E0,-2.876547E-2,-3.9197467E-3,-4.75788E-4,-1.2845682E-2,5.6297937E-3,4.1259807E-2,-9.107324E-3,2.7241552E-2,-1.2542568E-4,6.006133E-3,-1.2183657E-2,1.6988551E-2,1.1312654E-2,2.6614482E-2,-9.432117E-3,-4.5425337E-2],"split_indices":[52,35,18,0,8,0,37,27,30,8,6,35,20,7,2,0,0,0,0,0,0,0,0,0,0,0,0,0,0,0,0],"split_type":[0,0,0,0,0,0,0,0,0,0,0,0,0,0,0,0,0,0,0,0,0,0,0,0,0,0,0,0,0,0,0],"sum_hessian":[2.5056E4,5E3,2.0056E4,4.448E3,5.52E2,1.7954E4,2.102E3,3.41E2,4.107E3,1.24E2,4.28E2,1.6426E4,1.528E3,2.018E3,8.4E1,2.95E2,4.6E1,3.99E2,3.708E3,7.4E1,5E1,4.03E2,2.5E1,1.174E4,4.686E3,1.408E3,1.2E2,1.589E3,4.29E2,5.9E1,2.5E1],"tree_param":{"num_deleted":"0","num_feature":"58","num_nodes":"31","size_leaf_vector":"1"}},{"base_weights":[1.1734081E-3,2.0038323E-2,-9.030074E-2,4.791819E-3,6.586234E-2,-8.20637E-2,-2.9627898E-1,2.7583392E-2,-2.2864886E-2,7.957891E-2,-1.2003566E-1,2.5285634E-1,-8.683393E-2,-4.45101E-3,-3.6178383E-1,2.4173739E-4,9.358703E-3,-8.270702E-3,-2.3990353E-4,1.4567681E-2,6.197472E-3,-4.856301E-3,-2.092953E-2,1.18625555E-2,3.829966E-2,-2.2703059E-2,-7.787652E-3,-4.1375544E-2,-2.2506962E-2],"categories":[],"categories_nodes":[],"categories_segments":[],"categories_sizes":[],"default_left":[0,0,0,0,0,0,0,0,0,0,0,0,0,0,0,0,0,0,0,0,0,0,0,0,0,0,0,0,0],"id":12,"left_children":[1,3,5,7,9,11,13,15,17,19,21,23,25,-1,27,-1,-1,-1,-1,-1,-1,-1,-1,-1,-1,-1,-1,-1,-1],"loss_changes":[4.3148285E1,1.4482127E1,7.228874E0,9.805566E0,1.3205191E1,6.5914803E0,2.6885977E0,1.41652E1,8.607135E0,5.5995255E0,2.260982E0,9.6775913E-1,5.074587E0,0E0,8.305588E-1,0E0,0E0,0E0,0E0,0E0,0E0,0E0,0E0,0E0,0E0,0E0,0E0,0E0,0E0],"parents":[2147483647,0,0,1,1,2,2,3,3,4,4,5,5,6,6,7,7,8,8,9,9,10,10,11,11,12,12,14,14],"right_children":[2,4,6,8,10,12,14,16,18,20,22,24,26,-1,28,-1,-1,-1,-1,-1,-1,-1,-1,-1,-1,-1,-1,-1,-1],"split_conditions":[1E0,5E0,1.66E2,5E0,1.474E3,3.6E1,2E0,1E0,4.39E2,6.4E1,6E0,3E0,1E0,-4.45101E-3,6E0,2.4173739E-4,9.358703E-3,-8.270702E-3,-2.3990353E-4,1.4567681E-2,6.197472E-3,-4.856301E-3,-2.092953E-2,1.18625555E-2,3.829966E-2,-2.2703059E-2,-7.787652E-3,-4.1375544E-2,-2.2506962E-2],"split_indices":[51,18,0,6,5,17,18,35,17,8,18,18,0,0,18,0,0,0,0,0,0,0,0,0,0,0,0,0,0],"split_type":[0,0,0,0,0,0,0,0,0,0,0,0,0,0,0,0,0,0,0,0,0,0,0,0,0,0,0,0,0],"sum_hessian":[2.5002E4,2.0728E4,4.274E3,1.5554E4,5.174E3,4.111E3,1.63E2,8.527E3,7.027E3,4.819E3,3.55E2,5.7E1,4.054E3,3.4E1,1.29E2,6.174E3,2.353E3,1.79E3,5.237E3,1.012E3,3.807E3,1.98E2,1.57E2,2.9E1,2.8E1,2.42E2,3.812E3,9.2E1,3.7E1],"tree_param":{"num_deleted":"0","num_feature":"58","num_nodes":"29","size_leaf_vector":"1"}},{"base_weights":[2.691829E-3,-9.5959716E-2,2.6897153E-2,-1.0695567E-1,-4.346383E-3,1.5404321E-2,1.2602785E-1,-1.0380492E-1,-3.6731938E-1,-3.6946427E-2,8.872635E-2,1.41876945E-2,7.1725436E-2,1.737993E-1,8.611793E-3,-1.8107744E-2,-9.152185E-3,-2.6779553E-2,-4.5654338E-2,-2.1945471E-4,-2.324622E-2,2.215459E-3,2.1994103E-2,7.589084E-4,9.828121E-3,1.5528137E-2,3.2740623E-2,4.48553E-3,-1.1473189E-2],"categories":[],"categories_nodes":[],"categories_segments":[],"categories_sizes":[],"default_left":[0,0,0,0,0,0,0,0,0,0,0,0,0,0,0,0,0,0,0,0,0,0,0,0,0,0,0,0,0],"id":13,"left_children":[1,3,5,7,9,11,13,15,17,19,21,23,-1,25,27,-1,-1,-1,-1,-1,-1,-1,-1,-1,-1,-1,-1,-1,-1],"loss_changes":[5.9484985E1,4.943741E0,2.2787325E1,3.556591E0,1.6022885E0,1.5296649E1,1.1654289E1,4.0941734E0,3.394947E-1,2.6561553E0,1.1918486E0,9.92975E0,0E0,4.150463E0,2.6963315E0,0E0,0E0,0E0,0E0,0E0,0E0,0E0,0E0,0E0,0E0,0E0,0E0,0E0,0E0],"parents":[2147483647,0,0,1,1,2,2,3,3,4,4,5,5,6,6,7,7,8,8,9,9,10,10,11,11,13,13,14,14],"right_children":[2,4,6,8,10,12,14,16,18,20,22,24,-1,26,28,-1,-1,-1,-1,-1,-1,-1,-1,-1,-1,-1,-1,-1,-1],"split_conditions":[1E0,1E0,6E0,1E0,1E0,1E0,8.44E2,1E0,2.82E2,1E0,6.71E2,1E0,7.1725436E-2,1E0,1E0,-1.8107744E-2,-9.152185E-3,-2.6779553E-2,-4.5654338E-2,-2.1945471E-4,-2.324622E-2,2.215459E-3,2.1994103E-2,7.589084E-4,9.828121E-3,1.5528137E-2,3.2740623E-2,4.48553E-3,-1.1473189E-2],"split_indices":[52,36,18,44,56,42,5,51,5,21,5,11,0,12,12,0,0,0,0,0,0,0,0,0,0,0,0,0,0],"split_type":[0,0,0,0,0,0,0,0,0,0,0,0,0,0,0,0,0,0,0,0,0,0,0,0,0,0,0,0,0],"sum_hessian":[2.4909E4,4.907E3,2.0002E4,4.381E3,5.26E2,1.7925E4,2.077E3,4.33E3,5.1E1,3.9E2,1.36E2,1.7895E4,3E1,1.476E3,6.01E2,5.92E2,3.738E3,2.6E1,2.5E1,3.32E2,5.8E1,9.1E1,4.5E1,1.6594E4,1.301E3,1.319E3,1.57E2,4.65E2,1.36E2],"tree_param":{"num_deleted":"0","num_feature":"58","num_nodes":"29","size_leaf_vector":"1"}},{"base_weights":[-1.0829831E-3,-7.7589974E-2,1.7978644E-2,1.1371713E-2,-9.207283E-2,7.4262857E-3,1.0871317E-1,6.984E-2,-1.1915183E-1,-1.2939045E-1,-2.3348266E-2,-2.4674507E-3,9.08251E-2,1.2257021E-1,-1.2900668E-1,3.080015E-3,2.031525E-2,-1.953999E-2,1.5178725E-2,-1.1781426E-2,-2.6509449E-2,4.5273654E-2,-3.5980393E-3,9.72121E-4,-5.3063543E-3,6.870194E-3,2.5157018E-2,1.7302584E-2,7.3208422E-3,-3.1031733E-2,2.7748942E-2],"categories":[],"categories_nodes":[],"categories_segments":[],"categories_sizes":[],"default_left":[0,0,0,0,0,0,0,0,0,0,0,0,0,0,0,0,0,0,0,0,0,0,0,0,0,0,0,0,0,0,0],"id":14,"left_children":[1,3,5,7,9,11,13,15,17,19,21,23,25,27,29,-1,-1,-1,-1,-1,-1,-1,-1,-1,-1,-1,-1,-1,-1,-1,-1],"loss_changes":[3.635363E1,6.40707E0,1.9106327E1,5.3274684E0,1.0963367E1,1.4751825E1,6.864231E0,2.5023117E0,4.491913E0,4.3218307E0,9.073318E0,9.85721E0,6.725251E0,4.881319E0,8.56185E0,0E0,0E0,0E0,0E0,0E0,0E0,0E0,0E0,0E0,0E0,0E0,0E0,0E0,0E0,0E0,0E0],"parents":[2147483647,0,0,1,1,2,2,3,3,4,4,5,5,6,6,7,7,8,8,9,9,10,10,11,11,12,12,13,13,14,14],"right_children":[2,4,6,8,10,12,14,16,18,20,22,24,26,28,30,-1,-1,-1,-1,-1,-1,-1,-1,-1,-1,-1,-1,-1,-1,-1,-1],"split_conditions":[1E0,3.8E1,1E0,9.1E1,1.31E2,8.660254E-1,1.46E2,1E0,9E1,9.659258E-1,1.35E2,1.64E2,1E0,3E0,5E-1,3.080015E-3,2.031525E-2,-1.953999E-2,1.5178725E-2,-1.1781426E-2,-2.6509449E-2,4.5273654E-2,-3.5980393E-3,9.72121E-4,-5.3063543E-3,6.870194E-3,2.5157018E-2,1.7302584E-2,7.3208422E-3,-3.1031733E-2,2.7748942E-2],"split_indices":[52,8,25,0,8,20,0,55,5,20,8,8,12,7,20,0,0,0,0,0,0,0,0,0,0,0,0,0,0,0,0],"split_type":[0,0,0,0,0,0,0,0,0,0,0,0,0,0,0,0,0,0,0,0,0,0,0,0,0,0,0,0,0,0,0],"sum_hessian":[2.4926E4,4.971E3,1.9955E4,6.96E2,4.275E3,1.7877E4,2.078E3,4.81E2,2.15E2,2.77E3,1.505E3,1.5982E4,1.895E3,1.964E3,1.14E2,3.73E2,1.08E2,1.68E2,4.7E1,2.554E3,2.16E2,3.8E1,1.467E3,1.288E4,3.102E3,1.667E3,2.28E2,9.7E2,9.94E2,7.9E1,3.5E1],"tree_param":{"num_deleted":"0","num_feature":"58","num_nodes":"31","size_leaf_vector":"1"}},{"base_weights":[1.4553975E-3,1.671768E-2,-7.144121E-2,2.1572547E-2,-1.3921724E-1,-6.727826E-2,-3.6630583E-1,8.725742E-3,8.747411E-2,-3.1668508E-1,-7.8876495E-2,-2.290631E-2,-8.740791E-2,-5.349961E-2,-2.215722E-2,3.2055385E-3,-2.009622E-3,1.2223773E-2,4.4423416E-3,-4.2168505E-2,1.4537095E-2,-3.5614637E-3,-3.4118544E-2,-1.5190132E-2,-5.6802086E-4,3.920509E-3,-9.849345E-3],"categories":[],"categories_nodes":[],"categories_segments":[],"categories_sizes":[],"default_left":[0,0,0,0,0,0,0,0,0,0,0,0,0,0,0,0,0,0,0,0,0,0,0,0,0,0,0],"id":15,"left_children":[1,3,5,7,9,11,13,15,17,19,21,23,25,-1,-1,-1,-1,-1,-1,-1,-1,-1,-1,-1,-1,-1,-1],"loss_changes":[2.7800947E1,1.5645031E1,5.285551E0,1.6964745E1,6.657151E0,3.8092499E0,1.3463688E0,1.1277567E1,4.8869476E0,7.7268085E0,5.2873516E0,2.9611716E0,4.12335E0,0E0,0E0,0E0,0E0,0E0,0E0,0E0,0E0,0E0,0E0,0E0,0E0,0E0,0E0],"parents":[2147483647,0,0,1,1,2,2,3,3,4,4,5,5,6,6,7,7,8,8,9,9,10,10,11,11,12,12],"right_children":[2,4,6,8,10,12,14,16,18,20,22,24,26,-1,-1,-1,-1,-1,-1,-1,-1,-1,-1,-1,-1,-1,-1],"split_conditions":[1E0,1E0,1E0,7.0710677E-1,2.5E1,3E0,-7.0710677E-1,5E0,1E0,1E0,1E0,1.9E1,1E0,-5.349961E-2,-2.215722E-2,3.2055385E-3,-2.009622E-3,1.2223773E-2,4.4423416E-3,-4.2168505E-2,1.4537095E-2,-3.5614637E-3,-3.4118544E-2,-1.5190132E-2,-5.6802086E-4,3.920509E-3,-9.849345E-3],"split_indices":[51,53,44,20,0,6,20,6,40,55,23,0,45,0,0,0,0,0,0,0,0,0,0,0,0,0,0],"split_type":[0,0,0,0,0,0,0,0,0,0,0,0,0,0,0,0,0,0,0,0,0,0,0,0,0,0,0],"sum_hessian":[2.4986E4,2.0661E4,4.325E3,2.0038E4,6.23E2,4.266E3,5.9E1,1.677E4,3.268E3,1.57E2,4.66E2,1.332E3,2.934E3,2.6E1,3.3E1,9.268E3,7.502E3,1.807E3,1.461E3,1.28E2,2.9E1,4.01E2,6.5E1,1.56E2,1.176E3,2.36E2,2.698E3],"tree_param":{"num_deleted":"0","num_feature":"58","num_nodes":"27","size_leaf_vector":"1"}},{"base_weights":[2.7420116E-3,-6.285849E-2,1.8759467E-2,-4.960718E-2,-1.5468273E-1,6.9099106E-2,-3.3366846E-4,7.420432E-2,-6.107317E-2,1.7966728E-1,-2.1932632E-1,5.489533E-2,2.8024843E-1,-1.677718E-2,8.144706E-2,3.991056E-3,3.771352E-2,-8.520062E-3,-2.2195342E-3,-6.037075E-3,6.991359E-2,-1.803427E-2,-4.0112443E-2,6.2360655E-4,8.381708E-3,3.390906E-2,2.3969324E-4,-4.6132278E-4,-8.311183E-3,9.6753035E-3,-1.0396976E-2],"categories":[],"categories_nodes":[],"categories_segments":[],"categories_sizes":[],"default_left":[0,0,0,0,0,0,0,0,0,0,0,0,0,0,0,0,0,0,0,0,0,0,0,0,0,0,0,0,0,0,0],"id":16,"left_children":[1,3,5,7,9,11,13,15,17,19,21,23,25,27,29,-1,-1,-1,-1,-1,-1,-1,-1,-1,-1,-1,-1,-1,-1,-1,-1],"loss_changes":[2.634251E1,5.978939E0,1.9367027E1,6.110322E0,1.3439829E1,1.6602726E1,1.9648344E1,3.7768013E0,3.691103E0,1.2636122E1,3.6129742E0,7.307642E0,5.705122E0,9.815452E0,6.951769E0,0E0,0E0,0E0,0E0,0E0,0E0,0E0,0E0,0E0,0E0,0E0,0E0,0E0,0E0,0E0,0E0],"parents":[2147483647,0,0,1,1,2,2,3,3,4,4,5,5,6,6,7,7,8,8,9,9,10,10,11,11,12,12,13,13,14,14],"right_children":[2,4,6,8,10,12,14,16,18,20,22,24,26,28,30,-1,-1,-1,-1,-1,-1,-1,-1,-1,-1,-1,-1,-1,-1,-1,-1],"split_conditions":[1E0,1E0,2.6E2,1E0,3.8E1,5E0,7.0710677E-1,1.73E2,1.2E2,1E0,8E0,7.1E1,5E-1,1E0,1E1,3.991056E-3,3.771352E-2,-8.520062E-3,-2.2195342E-3,-6.037075E-3,6.991359E-2,-1.803427E-2,-4.0112443E-2,6.2360655E-4,8.381708E-3,3.390906E-2,2.3969324E-4,-4.6132278E-4,-8.311183E-3,9.6753035E-3,-1.0396976E-2],"split_indices":[52,53,17,45,8,1,20,8,8,19,1,8,20,27,1,0,0,0,0,0,0,0,0,0,0,0,0,0,0,0,0],"split_type":[0,0,0,0,0,0,0,0,0,0,0,0,0,0,0,0,0,0,0,0,0,0,0,0,0,0,0,0,0,0,0],"sum_hessian":[2.5068E4,4.919E3,2.0149E4,4.3E3,6.19E2,5.54E3,1.4609E4,3.64E2,3.936E3,1E2,5.19E2,5.192E3,3.48E2,1.2164E4,2.445E3,3.28E2,3.6E1,2.428E3,1.508E3,6.9E1,3.1E1,4.29E2,9E1,1.936E3,3.256E3,2.87E2,6.1E1,1.028E4,1.884E3,2.259E3,1.86E2],"tree_param":{"num_deleted":"0","num_feature":"58","num_nodes":"31","size_leaf_vector":"1"}},{"base_weights":[1.3271726E-3,3.000759E-2,-3.29693E-2,3.816276E-2,-1.0340896E-1,-7.2091475E-2,-9.689039E-3,2.7791984E-2,1.2725295E-1,-2.1516314E-1,-6.100025E-2,-4.3825734E-2,-6.788154E-2,4.3430917E-2,-3.0513821E-2,3.3743337E-3,-1.887572E-2,1.1692954E-2,6.2303394E-2,-2.7953306E-2,-2.6886546E-4,-7.4277106E-3,1.718134E-2,1.5537562E-3,-8.409447E-3,2.1434983E-3,2.809903E-2,-5.8803814E-3,1.6067127E-3],"categories":[],"categories_nodes":[],"categories_segments":[],"categories_sizes":[],"default_left":[0,0,0,0,0,0,0,0,0,0,0,0,0,0,0,0,0,0,0,0,0,0,0,0,0,0,0,0,0],"id":17,"left_children":[1,3,5,7,9,11,13,15,17,19,21,-1,23,25,27,-1,-1,-1,-1,-1,-1,-1,-1,-1,-1,-1,-1,-1,-1],"loss_changes":[2.4542734E1,1.4788168E1,1.0348431E1,1.1828365E1,3.6977873E0,6.50482E0,7.883082E0,1.4791031E1,6.759878E0,2.9397955E0,1.7715592E0,0E0,5.6708508E0,1.0481237E1,6.746633E0,0E0,0E0,0E0,0E0,0E0,0E0,0E0,0E0,0E0,0E0,0E0,0E0,0E0,0E0],"parents":[2147483647,0,0,1,1,2,2,3,3,4,4,5,5,6,6,7,7,8,8,9,9,10,10,12,12,13,13,14,14],"right_children":[2,4,6,8,10,12,14,16,18,20,22,-1,24,26,28,-1,-1,-1,-1,-1,-1,-1,-1,-1,-1,-1,-1,-1,-1],"split_conditions":[5E0,1E0,6E0,6E0,5E0,3.2E1,3.6E1,1E0,1E0,5.55E2,1E0,-4.3825734E-2,1.64E2,1E0,9.08E2,3.3743337E-3,-1.887572E-2,1.1692954E-2,6.2303394E-2,-2.7953306E-2,-2.6886546E-4,-7.4277106E-3,1.718134E-2,1.5537562E-3,-8.409447E-3,2.1434983E-3,2.809903E-2,-5.8803814E-3,1.6067127E-3],"split_indices":[6,37,7,18,5,17,0,53,14,17,49,0,17,49,17,0,0,0,0,0,0,0,0,0,0,0,0,0,0],"split_type":[0,0,0,0,0,0,0,0,0,0,0,0,0,0,0,0,0,0,0,0,0,0,0,0,0,0,0,0,0],"sum_hessian":[2.4949E4,1.3587E4,1.1362E4,1.2805E4,7.82E2,4.238E3,7.124E3,1.1471E4,1.334E3,2.14E2,5.68E2,4.7E1,4.191E3,2.006E3,5.118E3,1.1165E4,3.06E2,1.308E3,2.6E1,1.64E2,5E1,5.38E2,3E1,6.82E2,3.509E3,1.837E3,1.69E2,3.184E3,1.934E3],"tree_param":{"num_deleted":"0","num_feature":"58","num_nodes":"29","size_leaf_vector":"1"}},{"base_weights":[-4.3319768E-4,-2.031288E-2,5.9666228E-2,-1.1848799E-2,-1.3655204E-1,3.1457946E-1,5.5660456E-2,-7.7479705E-3,-1.3984975E-1,-1.6703714E-1,-6.423178E-2,3.6989704E-2,2.204132E-2,7.188964E-2,1.5008211E-3,8.805818E-3,-1.4067214E-3,-3.9186317E-2,-1.030246E-2,-1.8552052E-2,7.5849755E-5,-3.0364266E-2,-3.197666E-3,4.054775E-3,1.6048474E-2,-2.629078E-2,2.468627E-3],"categories":[],"categories_nodes":[],"categories_segments":[],"categories_sizes":[],"default_left":[0,0,0,0,0,0,0,0,0,0,0,0,0,0,0,0,0,0,0,0,0,0,0,0,0,0,0],"id":18,"left_children":[1,3,5,7,9,11,13,15,17,19,21,-1,-1,23,25,-1,-1,-1,-1,-1,-1,-1,-1,-1,-1,-1,-1],"loss_changes":[2.9892847E1,1.8495888E1,6.332857E0,9.198489E0,2.802456E0,4.1853905E-1,5.3826847E0,1.0283127E1,5.0081854E0,2.7821236E0,2.9247365E0,0E0,0E0,1.3077482E1,8.668793E0,0E0,0E0,0E0,0E0,0E0,0E0,0E0,0E0,0E0,0E0,0E0,0E0],"parents":[2147483647,0,0,1,1,2,2,3,3,4,4,5,5,6,6,7,7,8,8,9,9,10,10,13,13,14,14],"right_children":[2,4,6,8,10,12,14,16,18,20,22,-1,-1,24,26,-1,-1,-1,-1,-1,-1,-1,-1,-1,-1,-1,-1],"split_conditions":[1E0,1E0,4E0,1E0,1E0,3E0,8.25E2,8.5E1,8.9E1,2E0,4.3E1,3.6989704E-2,2.204132E-2,1E0,1E0,8.805818E-3,-1.4067214E-3,-3.9186317E-2,-1.030246E-2,-1.8552052E-2,7.5849755E-5,-3.0364266E-2,-3.197666E-3,4.054775E-3,1.6048474E-2,-2.629078E-2,2.468627E-3],"split_indices":[35,37,8,53,10,8,17,17,17,3,8,0,0,19,45,0,0,0,0,0,0,0,0,0,0,0,0],"split_type":[0,0,0,0,0,0,0,0,0,0,0,0,0,0,0,0,0,0,0,0,0,0,0,0,0,0,0],"sum_hessian":[2.5018E4,1.88E4,6.218E3,1.7525E4,1.275E3,9.5E1,6.123E3,1.6982E4,5.43E2,8.96E2,3.79E2,5.8E1,3.7E1,4.711E3,1.412E3,1.05E3,1.5932E4,6.8E1,4.75E2,8.07E2,8.9E1,4.4E1,3.35E2,3.481E3,1.23E3,1.13E2,1.299E3],"tree_param":{"num_deleted":"0","num_feature":"58","num_nodes":"27","size_leaf_vector":"1"}},{"base_weights":[-8.197346E-4,-6.095735E-2,1.3803771E-2,4.424675E-2,-6.457104E-2,-4.2084398E-4,8.7244734E-2,-7.504347E-2,2.0927513E-2,3.983436E-2,-1.6225617E-2,1.2440229E-1,4.07633E-2,7.9918624E-5,-8.712895E-3,4.6595274E-3,-1.3575372E-2,6.174154E-3,-8.397391E-3,-5.1846085E-3,4.4213357E-5,1.546675E-2,1.3859934E-3,5.106672E-3,-5.2630365E-2],"categories":[],"categories_nodes":[],"categories_segments":[],"categories_sizes":[],"default_left":[0,0,0,0,0,0,0,0,0,0,0,0,0,0,0,0,0,0,0,0,0,0,0,0,0],"id":19,"left_children":[1,3,5,-1,7,9,11,13,15,17,19,21,23,-1,-1,-1,-1,-1,-1,-1,-1,-1,-1,-1,-1],"loss_changes":[2.199872E1,8.930019E0,2.1020874E1,0E0,4.352211E0,1.0726117E1,5.6340294E0,3.96801E0,2.1418247E0,1.2896696E1,7.1875124E0,6.0667515E0,8.510517E0,0E0,0E0,0E0,0E0,0E0,0E0,0E0,0E0,0E0,0E0,0E0,0E0],"parents":[2147483647,0,0,1,1,2,2,4,4,5,5,6,6,7,7,8,8,9,9,10,10,11,11,12,12],"right_children":[2,4,6,-1,8,10,12,14,16,18,20,22,24,-1,-1,-1,-1,-1,-1,-1,-1,-1,-1,-1,-1],"split_conditions":[1E0,3E0,7.0710677E-1,4.424675E-2,1E0,2.6E2,1E0,3.8E1,1.7E1,2E0,-7.0710677E-1,7E0,4.9E1,7.9918624E-5,-8.712895E-3,4.6595274E-3,-1.3575372E-2,6.174154E-3,-8.397391E-3,-5.1846085E-3,4.4213357E-5,1.546675E-2,1.3859934E-3,5.106672E-3,-5.2630365E-2],"split_indices":[52,8,20,0,36,17,40,8,6,2,20,1,6,0,0,0,0,0,0,0,0,0,0,0,0],"split_type":[0,0,0,0,0,0,0,0,0,0,0,0,0,0,0,0,0,0,0,0,0,0,0,0,0],"sum_hessian":[2.5013E4,4.892E3,2.0121E4,3.4E1,4.858E3,1.6857E4,3.264E3,4.328E3,5.3E2,4.752E3,1.2105E4,1.813E3,1.451E3,5.95E2,3.733E3,4.56E2,7.4E1,4.038E3,7.14E2,3.858E3,8.247E3,1.423E3,3.9E2,1.426E3,2.5E1],"tree_param":{"num_deleted":"0","num_feature":"58","num_nodes":"25","size_leaf_vector":"1"}},{"base_weights":[-5.6337626E-3,-3.7575073E-3,-3.2884133E-1,-1.0622031E-2,8.931579E-2,-1.493712E-2,-4.1888994E-1,-1.6409045E-2,3.907389E-2,1.1404392E-1,-5.6829695E-2,-5.636693E-2,-3.1431604E-2,-2.1494003E-3,5.1103276E-3,7.1838284E-3,-1.8298769E-3,2.8598888E-2,8.3503965E-3,1.1856622E-3,-2.9376391E-2],"categories":[],"categories_nodes":[],"categories_segments":[],"categories_sizes":[],"default_left":[0,0,0,0,0,0,0,0,0,0,0,0,0,0,0,0,0,0,0,0,0],"id":20,"left_children":[1,3,5,7,9,-1,11,13,15,17,19,-1,-1,-1,-1,-1,-1,-1,-1,-1,-1],"loss_changes":[1.5235065E1,1.5961407E1,2.2807798E0,6.6917334E0,6.207944E0,0E0,1.2762833E0,7.1554146E0,4.5635405E0,7.684868E0,4.055743E0,0E0,0E0,0E0,0E0,0E0,0E0,0E0,0E0,0E0,0E0],"parents":[2147483647,0,0,1,1,2,2,3,3,4,4,6,6,7,7,8,8,9,9,10,10],"right_children":[2,4,6,8,10,-1,12,14,16,18,20,-1,-1,-1,-1,-1,-1,-1,-1,-1,-1],"split_conditions":[1E0,1E0,3E0,6E0,1E0,-1.493712E-2,6E0,1E0,7E0,7E0,1E0,-5.636693E-2,-3.1431604E-2,-2.1494003E-3,5.1103276E-3,7.1838284E-3,-1.8298769E-3,2.8598888E-2,8.3503965E-3,1.1856622E-3,-2.9376391E-2],"split_indices":[44,11,1,18,23,0,1,9,6,1,56,0,0,0,0,0,0,0,0,0,0],"split_type":[0,0,0,0,0,0,0,0,0,0,0,0,0,0,0,0,0,0,0,0,0],"sum_hessian":[2.5124E4,2.498E4,1.44E2,2.3265E4,1.715E3,4.9E1,9.5E1,2.0839E4,2.426E3,1.467E3,2.48E2,3.8E1,5.7E1,1.938E4,1.459E3,1.544E3,8.82E2,2.2E2,1.247E3,1.93E2,5.5E1],"tree_param":{"num_deleted":"0","num_feature":"58","num_nodes":"21","size_leaf_vector":"1"}},{"base_weights":[3.7521077E-3,5.3370968E-2,-6.170408E-3,6.669001E-2,-1.14535345E-2,-2.0162564E-2,6.2011376E-2,9.299985E-2,-9.863715E-3,1.3559832E-2,-3.7117954E-2,-1.8286565E-2,-3.035257E-1,4.385662E-2,1.5794952E-1,2.6371708E-2,7.088461E-3,-3.1943761E-3,2.3106145E-2,3.5621393E-3,-2.459243E-2,-2.451797E-3,6.592441E-3,-2.2471583E-2,-5.0474156E-2,1.2029154E-3,1.1697571E-2,2.0752579E-2,-1.8163824E-2],"categories":[],"categories_nodes":[],"categories_segments":[],"categories_sizes":[],"default_left":[0,0,0,0,0,0,0,0,0,0,0,0,0,0,0,0,0,0,0,0,0,0,0,0,0,0,0,0,0],"id":21,"left_children":[1,3,5,7,9,11,13,15,17,19,-1,21,23,25,27,-1,-1,-1,-1,-1,-1,-1,-1,-1,-1,-1,-1,-1,-1],"loss_changes":[1.2239998E1,3.5778322E0,1.9766432E1,6.923435E0,6.366589E0,9.1329975E0,6.137909E0,9.638918E0,4.688663E0,3.798462E0,0E0,8.963865E0,1.6785069E0,6.905708E0,9.482405E0,0E0,0E0,0E0,0E0,0E0,0E0,0E0,0E0,0E0,0E0,0E0,0E0,0E0,0E0],"parents":[2147483647,0,0,1,1,2,2,3,3,4,4,5,5,6,6,7,7,8,8,9,9,11,11,12,12,13,13,14,14],"right_children":[2,4,6,8,10,12,14,16,18,20,-1,22,24,26,28,-1,-1,-1,-1,-1,-1,-1,-1,-1,-1,-1,-1,-1,-1],"split_conditions":[1E0,7.0710677E-1,7.0710677E-1,1E0,1E0,1E0,1E0,6.2E1,5E-1,1E0,-3.7117954E-2,1E0,8.11E2,1E0,1E0,2.6371708E-2,7.088461E-3,-3.1943761E-3,2.3106145E-2,3.5621393E-3,-2.459243E-2,-2.451797E-3,6.592441E-3,-2.2471583E-2,-5.0474156E-2,1.2029154E-3,1.1697571E-2,2.0752579E-2,-1.8163824E-2],"split_indices":[6,20,20,57,53,44,34,17,20,13,0,11,17,35,20,0,0,0,0,0,0,0,0,0,0,0,0,0,0],"split_type":[0,0,0,0,0,0,0,0,0,0,0,0,0,0,0,0,0,0,0,0,0,0,0,0,0,0,0,0,0],"sum_hessian":[2.4859E4,4.142E3,2.0717E4,3.436E3,7.06E2,1.719E4,3.527E3,2.557E3,8.79E2,6.61E2,4.5E1,1.7078E4,1.12E2,2.967E3,5.6E2,2.92E2,2.265E3,8.06E2,7.3E1,6.1E2,5.1E1,1.5902E4,1.176E3,8.2E1,3E1,2.068E3,8.99E2,4.89E2,7.1E1],"tree_param":{"num_deleted":"0","num_feature":"58","num_nodes":"29","size_leaf_vector":"1"}},{"base_weights":[5.3897398E-3,9.351108E-3,-1.4677787E-1,1.4355164E-2,-8.781357E-2,-1.7303847E-1,1.3234332E-1,2.313305E-2,-2.9499302E-2,-1.2724063E-1,-2.5764626E-2,-1.4033382E-1,-4.0138465E-1,2.53823E-2,-1.2915696E-3,2.6814295E-3,-1.4457955E-2,-4.094621E-3,6.5029026E-3,-1.8532791E-3,-1.6007265E-2,-6.1942455E-3,2.0980684E-2,-8.461571E-3,-2.9211706E-2,-7.264709E-2,-2.1300964E-2],"categories":[],"categories_nodes":[],"categories_segments":[],"categories_sizes":[],"default_left":[0,0,0,0,0,0,0,0,0,0,0,0,0,0,0,0,0,0,0,0,0,0,0,0,0,0,0],"id":22,"left_children":[1,3,5,7,9,11,13,15,17,19,21,23,25,-1,-1,-1,-1,-1,-1,-1,-1,-1,-1,-1,-1,-1,-1],"loss_changes":[1.5038622E1,1.1823151E1,4.6627226E0,8.902256E0,2.9103928E0,4.2676315E0,9.738094E-1,1.1899772E1,4.176157E0,2.595335E0,3.9674191E0,4.271476E0,4.2543983E0,0E0,0E0,0E0,0E0,0E0,0E0,0E0,0E0,0E0,0E0,0E0,0E0,0E0,0E0],"parents":[2147483647,0,0,1,1,2,2,3,3,4,4,5,5,6,6,7,7,8,8,9,9,10,10,11,11,12,12],"right_children":[2,4,6,8,10,12,14,16,18,20,22,24,26,-1,-1,-1,-1,-1,-1,-1,-1,-1,-1,-1,-1,-1,-1],"split_conditions":[1E0,1E0,1.2E1,1E0,2E0,6E0,1E0,1E0,1E0,1E0,1E0,1E0,1.2E1,2.53823E-2,-1.2915696E-3,2.6814295E-3,-1.4457955E-2,-4.094621E-3,6.5029026E-3,-1.8532791E-3,-1.6007265E-2,-6.1942455E-3,2.0980684E-2,-8.461571E-3,-2.9211706E-2,-7.264709E-2,-2.1300964E-2],"split_indices":[53,37,4,51,2,2,2,36,3,6,23,57,2,0,0,0,0,0,0,0,0,0,0,0,0,0,0],"split_type":[0,0,0,0,0,0,0,0,0,0,0,0,0,0,0,0,0,0,0,0,0,0,0,0,0,0,0],"sum_hessian":[2.4945E4,2.4313E4,6.32E2,2.3123E4,1.19E3,5.78E2,5.4E1,1.9267E4,3.856E3,7.27E2,4.63E2,5.07E2,7.1E1,2.9E1,2.5E1,1.8854E4,4.13E2,3.44E3,4.16E2,1.69E2,5.58E2,4.02E2,6.1E1,3.72E2,1.35E2,2.5E1,4.6E1],"tree_param":{"num_deleted":"0","num_feature":"58","num_nodes":"27","size_leaf_vector":"1"}},{"base_weights":[9.479325E-3,-4.28322E-3,5.166429E-2,-5.2761165E-3,4.7519207E-2,5.9838906E-2,-1.02659814E-1,-6.683636E-3,3.2467723E-1,6.666111E-2,-6.739684E-2,-1.3861528E-1,1.3662397E-2,-1.9747685E-3,2.8646355E-3,1.6846513E-2,3.9261974E-2,7.440157E-3,-3.028498E-3,1.1235806E-2,-1.3163886E-2,-4.8138607E-2,-1.0167383E-2],"categories":[],"categories_nodes":[],"categories_segments":[],"categories_sizes":[],"default_left":[0,0,0,0,0,0,0,0,0,0,0,0,0,0,0,0,0,0,0,0,0,0,0],"id":23,"left_children":[1,3,5,7,-1,9,11,13,15,17,19,21,-1,-1,-1,-1,-1,-1,-1,-1,-1,-1,-1],"loss_changes":[1.4526726E1,8.984509E0,7.7709236E0,8.7466545E0,0E0,5.078985E0,2.6860414E0,8.654678E0,7.829323E-1,4.166258E0,3.4560394E0,3.3699179E0,0E0,0E0,0E0,0E0,0E0,0E0,0E0,0E0,0E0,0E0,0E0],"parents":[2147483647,0,0,1,1,2,2,3,3,5,5,6,6,7,7,8,8,9,9,10,10,11,11],"right_children":[2,4,6,8,-1,10,12,14,16,18,20,22,-1,-1,-1,-1,-1,-1,-1,-1,-1,-1,-1],"split_conditions":[1E0,1E0,4.2E1,1E0,4.7519207E-2,1E0,1E0,1E0,3E0,3E0,3E0,1E0,1.3662397E-2,-1.9747685E-3,2.8646355E-3,1.6846513E-2,3.9261974E-2,7.440157E-3,-3.028498E-3,1.1235806E-2,-1.3163886E-2,-4.8138607E-2,-1.0167383E-2],"split_indices":[35,42,6,38,0,16,24,19,4,3,6,45,0,0,0,0,0,0,0,0,0,0,0],"split_type":[0,0,0,0,0,0,0,0,0,0,0,0,0,0,0,0,0,0,0,0,0,0,0],"sum_hessian":[2.502E4,1.8866E4,6.154E3,1.8828E4,3.8E1,5.845E3,3.09E2,1.8749E4,7.9E1,5.548E3,2.97E2,2.69E2,4E1,1.3688E4,5.061E3,2.5E1,5.4E1,5.138E3,4.1E2,7.8E1,2.19E2,2.5E1,2.44E2],"tree_param":{"num_deleted":"0","num_feature":"58","num_nodes":"23","size_leaf_vector":"1"}},{"base_weights":[-2.8609529E-3,-4.7554698E-2,8.152639E-3,-5.2766282E-2,1.8745981E-1,9.60081E-3,-3.6136562E-1,-1.3852954E-1,-4.0411662E-2,5.8308695E-2,4.5147616E-2,4.1604005E-3,8.20896E-2,-1.905655E-2,-5.032284E-2,-8.551825E-3,-2.8329184E-2,1.3199463E-2,-4.5936E-3,1.7129285E-2,-5.026338E-3,7.710162E-4,-1.1026155E-2,1.0140966E-2,-1.23064965E-2],"categories":[],"categories_nodes":[],"categories_segments":[],"categories_sizes":[],"default_left":[0,0,0,0,0,0,0,0,0,0,0,0,0,0,0,0,0,0,0,0,0,0,0,0,0],"id":24,"left_children":[1,3,5,7,9,11,13,15,17,19,-1,21,23,-1,-1,-1,-1,-1,-1,-1,-1,-1,-1,-1,-1],"loss_changes":[1.2254668E1,6.03835E0,1.0692073E1,5.0973015E0,3.6221614E0,7.8464127E0,1.7940559E0,4.62624E0,4.0167465E0,9.0409535E-1,0E0,7.518662E0,5.5179157E0,0E0,0E0,0E0,0E0,0E0,0E0,0E0,0E0,0E0,0E0,0E0,0E0],"parents":[2147483647,0,0,1,1,2,2,3,3,4,4,5,5,6,6,7,7,8,8,9,9,11,11,12,12],"right_children":[2,4,6,8,10,12,14,16,18,20,-1,22,24,-1,-1,-1,-1,-1,-1,-1,-1,-1,-1,-1,-1],"split_conditions":[1E0,4E0,1E0,1E0,4E0,1E0,2E0,7E0,5.8E1,2E0,4.5147616E-2,1E1,1E0,-1.905655E-2,-5.032284E-2,-8.551825E-3,-2.8329184E-2,1.3199463E-2,-4.5936E-3,1.7129285E-2,-5.026338E-3,7.710162E-4,-1.1026155E-2,1.0140966E-2,-1.23064965E-2],"split_indices":[52,3,44,51,18,11,7,4,17,18,0,1,37,0,0,0,0,0,0,0,0,0,0,0,0],"split_type":[0,0,0,0,0,0,0,0,0,0,0,0,0,0,0,0,0,0,0,0,0,0,0,0,0],"sum_hessian":[2.4894E4,4.921E3,1.9973E4,4.815E3,1.06E2,1.9896E4,7.7E1,6.05E2,4.21E3,7.2E1,3.4E1,1.8508E4,1.388E3,3.6E1,4.1E1,4.44E2,1.61E2,1.3E2,4.08E3,3.5E1,3.7E1,1.7952E4,5.56E2,1.269E3,1.19E2],"tree_param":{"num_deleted":"0","num_feature":"58","num_nodes":"25","size_leaf_vector":"1"}},{"base_weights":[-4.0400084E-3,-1.4317239E-3,-1.5111263E-1,-5.2220534E-5,-2.1736372E-1,2.5883406E-2,-1.889386E-1,-3.4258515E-2,8.096128E-3,-4.3557397E-1,9.337223E-3,-1.5532568E-1,-6.625951E-2,-4.5338096E-3,4.9643214E-3,1.1566287E-3,-1.5472417E-2,-6.1053403E-2,-3.159957E-2,1.2862215E-2,-2.0400504E-2,-1.9734208E-2,2.0848973E-2],"categories":[],"categories_nodes":[],"categories_segments":[],"categories_sizes":[],"default_left":[0,0,0,0,0,0,0,0,0,0,0,0,0,0,0,0,0,0,0,0,0,0,0],"id":25,"left_children":[1,3,5,7,9,-1,11,13,15,17,19,21,-1,-1,-1,-1,-1,-1,-1,-1,-1,-1,-1],"loss_changes":[9.53204E0,7.2732987E0,6.763277E0,6.7629776E0,7.6716785E0,0E0,6.2177114E0,4.3416038E0,1.107377E1,1.4598656E0,1.985775E0,5.7276144E0,0E0,0E0,0E0,0E0,0E0,0E0,0E0,0E0,0E0,0E0,0E0],"parents":[2147483647,0,0,1,1,2,2,3,3,4,4,6,6,7,7,8,8,9,9,10,10,11,11],"right_children":[2,4,6,8,10,-1,12,14,16,18,20,22,-1,-1,-1,-1,-1,-1,-1,-1,-1,-1,-1],"split_conditions":[1.69E2,1E0,1E0,1E0,1.14E2,2.5883406E-2,1.93E2,1E0,1E0,4E0,4.2E2,1.91E2,-6.625951E-2,-4.5338096E-3,4.9643214E-3,1.1566287E-3,-1.5472417E-2,-6.1053403E-2,-3.159957E-2,1.2862215E-2,-2.0400504E-2,-1.9734208E-2,2.0848973E-2],"split_indices":[0,44,45,52,8,0,0,35,36,6,5,0,0,0,0,0,0,0,0,0,0,0,0],"split_type":[0,0,0,0,0,0,0,0,0,0,0,0,0,0,0,0,0,0,0,0,0,0,0],"sum_hessian":[2.4848E4,2.4416E4,4.32E2,2.4262E4,1.54E2,3.6E1,3.96E2,4.667E3,1.9595E4,7.8E1,7.6E1,3.71E2,2.5E1,4.123E3,5.44E2,1.9187E4,4.08E2,3E1,4.8E1,4.9E1,2.7E1,3.33E2,3.8E1],"tree_param":{"num_deleted":"0","num_feature":"58","num_nodes":"23","size_leaf_vector":"1"}},{"base_weights":[1.2196578E-3,6.737124E-3,-1.0151617E-1,-3.9591406E-2,1.7489865E-2,-4.0506944E-2,-1.5650004E-1,-2.8378062E-2,-1.6629206E-1,1.1145051E-2,7.061849E-2,-6.129442E-2,2.3502313E-2,-3.8751356E-2,-1.4402191E-1,-5.885002E-3,3.4549155E-3,-1.0079739E-2,-3.6900245E-2,4.0827077E-3,-6.910255E-4,8.294363E-3,-1.6799746E-2,-7.830919E-3,1.4826511E-2,-5.5109584E-3,-1.8530732E-2],"categories":[],"categories_nodes":[],"categories_segments":[],"categories_sizes":[],"default_left":[0,0,0,0,0,0,0,0,0,0,0,0,0,0,0,0,0,0,0,0,0,0,0,0,0,0,0],"id":26,"left_children":[1,3,5,7,9,11,13,15,17,19,21,23,-1,-1,25,-1,-1,-1,-1,-1,-1,-1,-1,-1,-1,-1,-1],"loss_changes":[1.4279987E1,1.1910671E1,4.30087E0,6.3942842E0,6.540469E0,3.5082264E0,1.8899555E0,7.938631E0,4.821986E0,9.290958E0,6.101753E0,2.0368743E0,0E0,0E0,2.3464289E0,0E0,0E0,0E0,0E0,0E0,0E0,0E0,0E0,0E0,0E0,0E0,0E0],"parents":[2147483647,0,0,1,1,2,2,3,3,4,4,5,5,6,6,7,7,8,8,9,9,10,10,11,11,14,14],"right_children":[2,4,6,8,10,12,14,16,18,20,22,24,-1,-1,26,-1,-1,-1,-1,-1,-1,-1,-1,-1,-1,-1,-1],"split_conditions":[1E0,1E0,1E0,9.659258E-1,1E0,1E0,4E0,6.123234E-17,1E0,3.49E2,1E0,1.5E1,2.3502313E-2,-3.8751356E-2,4.04E2,-5.885002E-3,3.4549155E-3,-1.0079739E-2,-3.6900245E-2,4.0827077E-3,-6.910255E-4,8.294363E-3,-1.6799746E-2,-7.830919E-3,1.4826511E-2,-5.5109584E-3,-1.8530732E-2],"split_indices":[37,52,7,20,25,49,7,20,56,17,16,2,0,0,17,0,0,0,0,0,0,0,0,0,0,0,0],"split_type":[0,0,0,0,0,0,0,0,0,0,0,0,0,0,0,0,0,0,0,0,0,0,0,0,0,0,0],"sum_hessian":[2.519E4,2.3907E4,1.283E3,4.503E3,1.9404E4,6.09E2,6.74E2,4.138E3,3.65E2,1.7335E4,2.069E3,5.67E2,4.2E1,3.3E1,6.41E2,2.788E3,1.35E3,2.77E2,8.8E1,6.556E3,1.0779E4,1.968E3,1.01E2,5.25E2,4.2E1,2.04E2,4.37E2],"tree_param":{"num_deleted":"0","num_feature":"58","num_nodes":"27","size_leaf_vector":"1"}},{"base_weights":[2.2175536E-3,5.6458404E-3,-1.54219E-1,1.4985944E-1,1.3759406E-3,2.7038176E-2,-1.7643903E-1,1.9630933E-1,-1.489973E-1,2.8764259E-3,-2.5310114E-1,-4.1085175E-1,-1.2025242E-1,6.870421E-3,3.3692293E-2,1.627495E-2,-2.688258E-2,3.5405502E-4,-3.8793303E-2,-1.8910218E-2,-4.244199E-2,-1.130955E-2,-5.469316E-2,1.2003849E-2,-1.98675E-2],"categories":[],"categories_nodes":[],"categories_segments":[],"categories_sizes":[],"default_left":[0,0,0,0,0,0,0,0,0,0,0,0,0,0,0,0,0,0,0,0,0,0,0,0,0],"id":27,"left_children":[1,3,5,7,9,-1,11,13,15,17,19,21,23,-1,-1,-1,-1,-1,-1,-1,-1,-1,-1,-1,-1],"loss_changes":[1.3379643E1,1.5032158E1,5.0952406E0,9.774316E0,9.054515E0,0E0,6.65456E0,1.0886204E1,3.592585E0,6.1196527E0,1.4437685E0,3.9089699E0,7.787673E0,0E0,0E0,0E0,0E0,0E0,0E0,0E0,0E0,0E0,0E0,0E0,0E0],"parents":[2147483647,0,0,1,1,2,2,3,3,4,4,6,6,7,7,8,8,9,9,10,10,11,11,12,12],"right_children":[2,4,6,8,10,-1,12,14,16,18,20,22,24,-1,-1,-1,-1,-1,-1,-1,-1,-1,-1,-1,-1],"split_conditions":[1.68E2,5.6E1,1.4E1,1.51E2,1E0,2.7038176E-2,3.8E1,4E0,1.9E1,1E0,8.11E2,2E0,6E0,6.870421E-3,3.3692293E-2,1.627495E-2,-2.688258E-2,3.5405502E-4,-3.8793303E-2,-1.8910218E-2,-4.244199E-2,-1.130955E-2,-5.469316E-2,1.2003849E-2,-1.98675E-2],"split_indices":[0,17,5,0,44,0,5,18,17,46,17,18,6,0,0,0,0,0,0,0,0,0,0,0,0],"split_type":[0,0,0,0,0,0,0,0,0,0,0,0,0,0,0,0,0,0,0,0,0,0,0,0,0],"sum_hessian":[2.4945E4,2.4411E4,5.34E2,7.01E2,2.371E4,2.6E1,5.08E2,6.07E2,9.4E1,2.3572E4,1.38E2,9.7E1,4.11E2,3.19E2,2.88E2,2.6E1,6.8E1,2.3533E4,3.9E1,1.02E2,3.6E1,3.1E1,6.6E1,1.01E2,3.1E2],"tree_param":{"num_deleted":"0","num_feature":"58","num_nodes":"25","size_leaf_vector":"1"}},{"base_weights":[-6.142466E-3,-2.6893688E-3,-1.4038627E-1,1.5367386E-2,-2.3927266E-2,-1.7191815E-1,2.537303E-2,8.439845E-3,8.37977E-2,6.0151755E-3,-4.0995046E-2,-1.3142478E-1,-4.0126628E-1,1.335676E-3,-7.760778E-3,1.7444335E-2,4.9376558E-3,9.421538E-3,-9.09574E-4,-7.3251533E-3,-1.6753204E-3,-6.1457693E-3,-3.607007E-2,-1.5125538E-2,-5.053487E-2],"categories":[],"categories_nodes":[],"categories_segments":[],"categories_sizes":[],"default_left":[0,0,0,0,0,0,0,0,0,0,0,0,0,0,0,0,0,0,0,0,0,0,0,0,0],"id":28,"left_children":[1,3,5,7,9,11,-1,13,15,17,19,21,23,-1,-1,-1,-1,-1,-1,-1,-1,-1,-1,-1,-1],"loss_changes":[1.162702E1,9.378553E0,7.8603554E0,6.265335E0,5.743439E0,5.3616295E0,0E0,5.079794E0,3.782341E0,5.439955E0,5.596018E0,7.950591E0,2.1874552E0,0E0,0E0,0E0,0E0,0E0,0E0,0E0,0E0,0E0,0E0,0E0,0E0],"parents":[2147483647,0,0,1,1,2,2,3,3,4,4,5,5,7,7,8,8,9,9,10,10,11,11,12,12],"right_children":[2,4,6,8,10,12,-1,14,16,18,20,22,24,-1,-1,-1,-1,-1,-1,-1,-1,-1,-1,-1,-1],"split_conditions":[1E0,5E0,3E0,1E0,3.6E1,1E0,2.537303E-2,1E0,1E0,1E0,1.5E1,1E0,5.5E1,1.335676E-3,-7.760778E-3,1.7444335E-2,4.9376558E-3,9.421538E-3,-9.09574E-4,-7.3251533E-3,-1.6753204E-3,-6.1457693E-3,-3.607007E-2,-1.5125538E-2,-5.053487E-2],"split_indices":[53,6,3,3,0,26,0,37,1,18,6,56,0,0,0,0,0,0,0,0,0,0,0,0,0],"split_type":[0,0,0,0,0,0,0,0,0,0,0,0,0,0,0,0,0,0,0,0,0,0,0,0,0],"sum_hessian":[2.5082E4,2.4454E4,6.28E2,1.3217E4,1.1237E4,5.82E2,4.6E1,1.2003E4,1.214E3,4.08E3,7.157E3,4.96E2,8.6E1,1.1355E4,6.48E2,3.33E2,8.81E2,5.96E2,3.484E3,3.07E3,4.087E3,3.81E2,1.15E2,2.6E1,6E1],"tree_param":{"num_deleted":"0","num_feature":"58","num_nodes":"25","size_leaf_vector":"1"}},{"base_weights":[-1.5983151E-3,5.4272823E-3,-6.7759275E-2,3.101618E-1,2.228372E-3,-1.1117236E-2,-1.09004974E-1,4.4112512E-1,9.367621E-3,3.3634953E-2,-1.2685537E-2,-2.4453038E-1,2.307279E-2,1.2063827E-2,-1.1926164E-1,5.666719E-2,2.161586E-2,2.9529465E-2,-1.5866276E-2,1.7421035E-3,9.723316E-3,1.3704536E-3,-2.6538183E-3,-4.1869417E-2,-4.9568E-3,-9.550831E-4,2.050086E-2,-1.7274905E-2,2.505291E-2,-9.584539E-3,-1.7401675E-2],"categories":[],"categories_nodes":[],"categories_segments":[],"categories_sizes":[],"default_left":[0,0,0,0,0,0,0,0,0,0,0,0,0,0,0,0,0,0,0,0,0,0,0,0,0,0,0,0,0,0,0],"id":29,"left_children":[1,3,5,7,9,11,13,15,17,19,21,23,25,27,29,-1,-1,-1,-1,-1,-1,-1,-1,-1,-1,-1,-1,-1,-1,-1,-1],"loss_changes":[1.1582294E1,2.1958069E1,5.5870743E0,9.213831E0,1.0442355E1,8.057867E0,1.7200356E0,4.4812527E0,3.506051E0,7.4000883E0,5.526354E0,4.3594913E0,5.231049E0,4.8470674E0,1.6193581E0,0E0,0E0,0E0,0E0,0E0,0E0,0E0,0E0,0E0,0E0,0E0,0E0,0E0,0E0,0E0,0E0],"parents":[2147483647,0,0,1,1,2,2,3,3,4,4,5,5,6,6,7,7,8,8,9,9,10,10,11,11,12,12,13,13,14,14],"right_children":[2,4,6,8,10,12,14,16,18,20,22,24,26,28,30,-1,-1,-1,-1,-1,-1,-1,-1,-1,-1,-1,-1,-1,-1,-1,-1],"split_conditions":[1.38E2,3.4E1,1E0,1E0,3.48E2,4E1,1E0,1E0,6.7E1,5E-1,7.8E1,-2.5881904E-1,8.660254E-1,5E0,6E0,5.666719E-2,2.161586E-2,2.9529465E-2,-1.5866276E-2,1.7421035E-3,9.723316E-3,1.3704536E-3,-2.6538183E-3,-4.1869417E-2,-4.9568E-3,-9.550831E-4,2.050086E-2,-1.7274905E-2,2.505291E-2,-9.584539E-3,-1.7401675E-2],"split_indices":[0,17,40,56,17,17,45,57,8,20,8,20,20,6,6,0,0,0,0,0,0,0,0,0,0,0,0,0,0,0,0],"split_type":[0,0,0,0,0,0,0,0,0,0,0,0,0,0,0,0,0,0,0,0,0,0,0,0,0,0,0,0,0,0,0],"sum_hessian":[2.4916E4,2.2525E4,2.391E3,2.33E2,2.2292E4,1.008E3,1.383E3,1.62E2,7.1E1,7.177E3,1.5115E4,1.28E2,8.8E2,1.08E2,1.275E3,1.03E2,5.9E1,2.6E1,4.5E1,5.72E3,1.457E3,5.203E3,9.912E3,6.7E1,6.1E1,7.47E2,1.33E2,6.1E1,4.7E1,8.95E2,3.8E2],"tree_param":{"num_deleted":"0","num_feature":"58","num_nodes":"31","size_leaf_vector":"1"}},{"base_weights":[3.135043E-3,7.7913855E-3,-8.516554E-2,1.0641684E-2,-1.059223E-1,-4.6268184E-2,-1.4299011E-1,-2.2814538E-2,1.8323494E-2,-1.3998358E-1,1.0098328E-1,1.0434195E-2,-1.17435515E-1,-1.21004045E-1,-3.9921027E-2,3.9461177E-2,-2.6241154E-3,1.1271369E-3,7.536271E-3,-2.274308E-2,-4.06763E-3,3.465362E-2,-2.3866022E-2,3.2235812E-3,-3.169914E-2,-1.424419E-2,3.24445E-3,-3.8469125E-2,-1.0175739E-2],"categories":[],"categories_nodes":[],"categories_segments":[],"categories_sizes":[],"default_left":[0,0,0,0,0,0,0,0,0,0,0,0,0,0,0,0,0,0,0,0,0,0,0,0,0,0,0,0,0],"id":30,"left_children":[1,3,5,7,9,11,13,15,17,19,21,23,25,27,-1,-1,-1,-1,-1,-1,-1,-1,-1,-1,-1,-1,-1,-1,-1],"loss_changes":[1.0194497E1,7.634751E0,2.7869186E0,5.905607E0,4.073479E0,3.003531E0,2.7626963E0,6.148029E0,7.5159526E0,4.289399E0,6.9215407E0,2.9726574E0,1.2414474E0,2.3004742E0,0E0,0E0,0E0,0E0,0E0,0E0,0E0,0E0,0E0,0E0,0E0,0E0,0E0,0E0,0E0],"parents":[2147483647,0,0,1,1,2,2,3,3,4,4,5,5,6,6,7,7,8,8,9,9,10,10,11,11,12,12,13,13],"right_children":[2,4,6,8,10,12,14,16,18,20,22,24,26,28,-1,-1,-1,-1,-1,-1,-1,-1,-1,-1,-1,-1,-1,-1,-1],"split_conditions":[1E0,1.65E2,7.4E1,1E0,1.91E2,7E0,6E0,3E0,8.660254E-1,1E0,1.93E2,9.659258E-1,1E0,8.2E1,-3.9921027E-2,3.9461177E-2,-2.6241154E-3,1.1271369E-3,7.536271E-3,-2.274308E-2,-4.06763E-3,3.465362E-2,-2.3866022E-2,3.2235812E-3,-3.169914E-2,-1.424419E-2,3.24445E-3,-3.8469125E-2,-1.0175739E-2],"split_indices":[37,0,0,52,0,1,1,8,20,7,0,20,26,0,0,0,0,0,0,0,0,0,0,0,0,0,0,0,0],"split_type":[0,0,0,0,0,0,0,0,0,0,0,0,0,0,0,0,0,0,0,0,0,0,0,0,0,0,0,0,0],"sum_hessian":[2.4792E4,2.3551E4,1.241E3,2.2976E4,5.75E2,7.43E2,4.98E2,4.29E3,1.8686E4,4.94E2,8.1E1,4.14E2,3.29E2,4.6E2,3.8E1,3.4E1,4.256E3,1.6631E4,2.055E3,2.62E2,2.32E2,4.7E1,3.4E1,3.89E2,2.5E1,2.82E2,4.7E1,3E1,4.3E2],"tree_param":{"num_deleted":"0","num_feature":"58","num_nodes":"29","size_leaf_vector":"1"}},{"base_weights":[-5.898017E-3,2.871533E-1,-6.8276534E-3,1.3718852E-1,5.554039E-2,-1.08679095E-2,4.7215886E-2,2.0629674E-2,6.5558814E-3,-8.088092E-3,-9.801709E-2,2.359361E-2,1.1737845E-1,-4.3764072E-3,-1.3019652E-4,-6.0379948E-3,-3.0044971E-2,1.8762063E-2,-3.520002E-4,1.6480042E-3,2.1367837E-2],"categories":[],"categories_nodes":[],"categories_segments":[],"categories_sizes":[],"default_left":[0,0,0,0,0,0,0,0,0,0,0,0,0,0,0,0,0,0,0,0,0],"id":31,"left_children":[1,3,5,7,-1,9,11,-1,-1,13,15,17,19,-1,-1,-1,-1,-1,-1,-1,-1],"loss_changes":[6.8059297E0,3.101828E0,5.436767E0,2.43886E-1,0E0,5.611375E0,2.8678463E0,0E0,0E0,5.4353695E0,5.437052E0,5.7688923E0,4.232876E0,0E0,0E0,0E0,0E0,0E0,0E0,0E0,0E0],"parents":[2147483647,0,0,1,1,2,2,3,3,5,5,6,6,9,9,10,10,11,11,12,12],"right_children":[2,4,6,8,-1,10,12,-1,-1,14,16,18,20,-1,-1,-1,-1,-1,-1,-1,-1],"split_conditions":[9E0,4.6E1,1E0,1.8E1,5.554039E-2,1E1,1E0,2.0629674E-2,6.5558814E-3,-8.660254E-1,1E0,3E0,3.1E1,-4.3764072E-3,-1.3019652E-4,-6.0379948E-3,-3.0044971E-2,1.8762063E-2,-3.520002E-4,1.6480042E-3,2.1367837E-2],"split_indices":[17,5,11,5,0,1,57,0,0,20,27,1,0,0,0,0,0,0,0,0,0],"split_type":[0,0,0,0,0,0,0,0,0,0,0,0,0,0,0,0,0,0,0,0,0],"sum_hessian":[2.4974E4,7.8E1,2.4896E4,5.1E1,2.7E1,2.3165E4,1.731E3,2.5E1,2.6E1,2.245E4,7.15E2,1.296E3,4.35E2,3.587E3,1.8863E4,6.04E2,1.11E2,1.83E2,1.113E3,2.13E2,2.22E2],"tree_param":{"num_deleted":"0","num_feature":"58","num_nodes":"21","size_leaf_vector":"1"}},{"base_weights":[5.3919437E-3,-3.0081484E-2,1.4280904E-2,-4.277517E-2,3.9665785E-2,8.623169E-3,8.3240524E-2,-3.444654E-2,-1.9530939E-1,2.2036491E-2,2.8811783E-2,1.7799152E-2,-4.1276447E-2,9.1899544E-2,-3.339602E-2,-3.9615403E-3,1.8163748E-2,-1.1042393E-2,-4.7276694E-2,1.9899962E-2,1.488932E-4,2.7503308E-3,-1.7079863E-3,-1.4687739E-2,-3.2184178E-3,4.104926E-3,1.567253E-2],"categories":[],"categories_nodes":[],"categories_segments":[],"categories_sizes":[],"default_left":[0,0,0,0,0,0,0,0,0,0,0,0,0,0,0,0,0,0,0,0,0,0,0,0,0,0,0],"id":32,"left_children":[1,3,5,7,9,11,13,15,17,19,-1,21,23,25,-1,-1,-1,-1,-1,-1,-1,-1,-1,-1,-1,-1,-1],"loss_changes":[7.874648E0,4.4319873E0,7.790292E0,5.372149E0,3.3706565E0,8.451331E0,5.5000896E0,4.4927015E0,5.105709E0,2.621375E0,0E0,5.27724E0,2.7480302E0,4.885435E0,0E0,0E0,0E0,0E0,0E0,0E0,0E0,0E0,0E0,0E0,0E0,0E0,0E0],"parents":[2147483647,0,0,1,1,2,2,3,3,4,4,5,5,6,6,7,7,8,8,9,9,11,11,12,12,13,13],"right_children":[2,4,6,8,10,12,14,16,18,20,-1,22,24,26,-1,-1,-1,-1,-1,-1,-1,-1,-1,-1,-1,-1,-1],"split_conditions":[1E0,1E0,1.5E1,1.54E2,1.46E2,5E0,1E0,1.47E2,1E0,1E0,2.8811783E-2,1E0,1E0,1E0,-3.339602E-2,-3.9615403E-3,1.8163748E-2,-1.1042393E-2,-4.7276694E-2,1.9899962E-2,1.488932E-4,2.7503308E-3,-1.7079863E-3,-1.4687739E-2,-3.2184178E-3,4.104926E-3,1.567253E-2],"split_indices":[52,21,2,0,0,2,36,0,26,30,0,13,30,0,0,0,0,0,0,0,0,0,0,0,0,0,0],"split_type":[0,0,0,0,0,0,0,0,0,0,0,0,0,0,0,0,0,0,0,0,0,0,0,0,0,0,0],"sum_hessian":[2.4971E4,5.003E3,1.9968E4,4.233E3,7.7E2,1.8455E4,1.513E3,4.015E3,2.18E2,7.2E2,5E1,1.5589E4,2.866E3,1.483E3,3E1,3.922E3,9.3E1,1.68E2,5E1,7.4E1,6.46E2,1.2196E4,3.393E3,2.26E2,2.64E3,8.32E2,6.51E2],"tree_param":{"num_deleted":"0","num_feature":"58","num_nodes":"27","size_leaf_vector":"1"}},{"base_weights":[2.8210413E-3,-2.89676E-2,1.0726941E-2,-1.7988548E-1,-2.0394592E-2,2.6317625E-3,7.522099E-2,-2.230294E-1,3.6955301E-3,1.2353057E-1,-2.8773976E-2,5.5796434E-3,-1.3887382E-1,2.0583107E-1,5.5722322E-2,-2.8446456E-2,-1.1467102E-2,2.1870466E-2,-9.488548E-3,-3.6355772E-3,1.0791946E-2,1.3277596E-3,-4.3635117E-3,-1.0145337E-2,-4.366365E-2,3.638891E-2,9.397966E-3,9.764745E-3,3.1900386E-4],"categories":[],"categories_nodes":[],"categories_segments":[],"categories_sizes":[],"default_left":[0,0,0,0,0,0,0,0,0,0,0,0,0,0,0,0,0,0,0,0,0,0,0,0,0,0,0,0,0],"id":33,"left_children":[1,3,5,7,9,11,13,15,-1,17,19,21,23,25,27,-1,-1,-1,-1,-1,-1,-1,-1,-1,-1,-1,-1,-1,-1],"loss_changes":[6.247318E0,6.4020367E0,1.03930645E1,2.496768E0,5.65489E0,7.3791757E0,5.642253E0,1.4452381E0,0E0,5.38394E0,4.594058E0,6.5653424E0,3.9781122E0,5.057358E0,4.256971E0,0E0,0E0,0E0,0E0,0E0,0E0,0E0,0E0,0E0,0E0,0E0,0E0,0E0,0E0],"parents":[2147483647,0,0,1,1,2,2,3,3,4,4,5,5,6,6,7,7,9,9,10,10,11,11,12,12,13,13,14,14],"right_children":[2,4,6,8,10,12,14,16,-1,18,20,22,24,26,28,-1,-1,-1,-1,-1,-1,-1,-1,-1,-1,-1,-1,-1,-1],"split_conditions":[1E0,1E0,8.660254E-1,1E0,6.8E1,1E0,1E0,1E0,3.6955301E-3,2.5881904E-1,1.424E3,1.27E2,1.143E3,3.61E2,1E0,-2.8446456E-2,-1.1467102E-2,2.1870466E-2,-9.488548E-3,-3.6355772E-3,1.0791946E-2,1.3277596E-3,-4.3635117E-3,-1.0145337E-2,-4.366365E-2,3.638891E-2,9.397966E-3,9.764745E-3,3.1900386E-4],"split_indices":[52,0,20,55,17,36,30,54,0,20,5,0,17,17,40,0,0,0,0,0,0,0,0,0,0,0,0,0,0],"split_type":[0,0,0,0,0,0,0,0,0,0,0,0,0,0,0,0,0,0,0,0,0,0,0,0,0,0,0,0,0],"sum_hessian":[2.4856E4,4.95E3,1.9906E4,2.65E2,4.685E3,1.7687E4,2.219E3,2.21E2,4.4E1,2.57E2,4.428E3,1.7327E4,3.6E2,2.87E2,1.932E3,1.4E2,8.1E1,1.79E2,7.8E1,4.196E3,2.32E2,1.4984E4,2.343E3,3.21E2,3.9E1,1.18E2,1.69E2,1.074E3,8.58E2],"tree_param":{"num_deleted":"0","num_feature":"58","num_nodes":"29","size_leaf_vector":"1"}},{"base_weights":[-3.220214E-3,-1.2106617E-2,2.3940366E-2,-4.58037E-3,-5.005876E-2,-6.817077E-2,4.2502116E-2,9.0519255E-3,-2.1712907E-2,-5.3874474E-2,3.711852E-2,2.898005E-2,-1.0101258E-1,4.9280457E-2,-9.058493E-2,-5.450388E-4,7.0422515E-3,-5.402696E-3,9.436888E-4,-1.4078841E-2,-4.202019E-3,1.4105029E-2,-2.671634E-2,-2.2533072E-2,-8.169255E-3,6.2004565E-3,-2.1810515E-3,-2.5040751E-2,6.6151298E-3],"categories":[],"categories_nodes":[],"categories_segments":[],"categories_sizes":[],"default_left":[0,0,0,0,0,0,0,0,0,0,0,0,0,0,0,0,0,0,0,0,0,0,0,0,0,0,0,0,0],"id":34,"left_children":[1,3,5,7,9,11,13,15,17,19,-1,21,23,25,27,-1,-1,-1,-1,-1,-1,-1,-1,-1,-1,-1,-1,-1,-1],"loss_changes":[6.010392E0,5.3591814E0,1.0499014E1,3.657447E0,5.01081E0,3.2892551E0,4.6142445E0,7.762209E0,6.985141E0,3.1653547E0,0E0,8.699979E0,1.8310003E0,4.4002724E0,6.228962E0,0E0,0E0,0E0,0E0,0E0,0E0,0E0,0E0,0E0,0E0,0E0,0E0,0E0,0E0],"parents":[2147483647,0,0,1,1,2,2,3,3,4,4,5,5,6,6,7,7,8,8,9,9,11,11,12,12,13,13,14,14],"right_children":[2,4,6,8,10,12,14,16,18,20,-1,22,24,26,28,-1,-1,-1,-1,-1,-1,-1,-1,-1,-1,-1,-1,-1,-1],"split_conditions":[5E0,1.68E2,1.2E1,5E0,1E0,2E0,1E0,4E0,5.56E2,1.71E2,3.711852E-2,1E0,4E0,1.33E2,1.25E2,-5.450388E-4,7.0422515E-3,-5.402696E-3,9.436888E-4,-1.4078841E-2,-4.202019E-3,1.4105029E-2,-2.671634E-2,-2.2533072E-2,-8.169255E-3,6.2004565E-3,-2.1810515E-3,-2.5040751E-2,6.6151298E-3],"split_indices":[18,8,0,6,39,1,37,6,5,8,0,55,2,0,8,0,0,0,0,0,0,0,0,0,0,0,0,0,0],"split_type":[0,0,0,0,0,0,0,0,0,0,0,0,0,0,0,0,0,0,0,0,0,0,0,0,0,0,0,0,0],"sum_hessian":[2.49E4,1.8762E4,6.138E3,1.5658E4,3.104E3,1.029E3,5.109E3,8.72E3,6.938E3,3.077E3,2.7E1,2.6E2,7.69E2,4.862E3,2.47E2,7.054E3,1.666E3,3.405E3,3.533E3,3.68E2,2.709E3,1.89E2,7.1E1,1.02E2,6.67E2,4.124E3,7.38E2,1.22E2,1.25E2],"tree_param":{"num_deleted":"0","num_feature":"58","num_nodes":"29","size_leaf_vector":"1"}},{"base_weights":[-1.390348E-3,2.70881E-1,-2.4773132E-3,8.8010415E-2,7.314453E-2,-3.0796286E-3,4.1188415E-2,-1.5411004E-2,3.4836948E-2,-1.1382363E-2,2.1651648E-2,1.1804034E-2,-1.4403526E-3,1.4632328E-3,3.4801874E-2],"categories":[],"categories_nodes":[],"categories_segments":[],"categories_sizes":[],"default_left":[0,0,0,0,0,0,0,0,0,0,0,0,0,0,0],"id":35,"left_children":[1,3,5,7,-1,9,-1,-1,-1,11,13,-1,-1,-1,-1],"loss_changes":[7.368333E0,8.273769E0,6.190013E0,4.5924416E0,0E0,5.0848064E0,0E0,0E0,0E0,7.250581E0,1.4253312E1,0E0,0E0,0E0,0E0],"parents":[2147483647,0,0,1,1,2,2,3,3,5,5,9,9,10,10],"right_children":[2,4,6,8,-1,10,-1,-1,-1,12,14,-1,-1,-1,-1],"split_conditions":[2E0,1E0,1E0,-5E-1,7.314453E-2,1E0,4.1188415E-2,-1.5411004E-2,3.4836948E-2,3.6E1,1E0,1.1804034E-2,-1.4403526E-3,1.4632328E-3,3.4801874E-2],"split_indices":[8,56,42,20,0,35,0,0,0,17,20,0,0,0,0],"split_type":[0,0,0,0,0,0,0,0,0,0,0,0,0,0,0],"sum_hessian":[2.4894E4,9.8E1,2.4796E4,7.1E1,2.7E1,2.4761E4,3.5E1,3.7E1,3.4E1,1.8538E4,6.223E3,4.22E2,1.8116E4,6.093E3,1.3E2],"tree_param":{"num_deleted":"0","num_feature":"58","num_nodes":"15","size_leaf_vector":"1"}},{"base_weights":[8.439506E-5,-1.0188752E-2,3.095962E-2,9.207251E-2,-1.5397492E-2,1.8910576E-2,1.9146916E-1,-4.4368632E-2,1.4423543E-1,-1.6854582E-2,2.7318034E-1,-1.7903443E-1,2.4318436E-2,2.8011912E-1,-9.1501355E-2,-9.78149E-3,1.5916096E-2,7.954922E-3,3.0383004E-2,-2.9759834E-2,-1.5507708E-3,-1.0665594E-2,4.2091206E-2,-6.983393E-3,-5.9659153E-2,-9.429588E-3,3.4217201E-3,5.04058E-2,2.0133337E-2,-2.9101783E-2,2.029414E-2],"categories":[],"categories_nodes":[],"categories_segments":[],"categories_sizes":[],"default_left":[0,0,0,0,0,0,0,0,0,0,0,0,0,0,0,0,0,0,0,0,0,0,0,0,0,0,0,0,0,0,0],"id":36,"left_children":[1,3,5,7,9,11,13,15,17,19,21,23,25,27,29,-1,-1,-1,-1,-1,-1,-1,-1,-1,-1,-1,-1,-1,-1,-1,-1],"loss_changes":[7.953113E0,1.0022739E1,1.2103132E1,6.4972587E0,7.5325284E0,6.2387056E0,1.0987919E1,2.7676764E0,6.7893867E0,6.731329E0,5.0951414E0,7.0259414E0,6.6605735E0,5.773697E0,6.2274084E0,0E0,0E0,0E0,0E0,0E0,0E0,0E0,0E0,0E0,0E0,0E0,0E0,0E0,0E0,0E0,0E0],"parents":[2147483647,0,0,1,1,2,2,3,3,4,4,5,5,6,6,7,7,8,8,9,9,10,10,11,11,12,12,13,13,14,14],"right_children":[2,4,6,8,10,12,14,16,18,20,22,24,26,28,30,-1,-1,-1,-1,-1,-1,-1,-1,-1,-1,-1,-1,-1,-1,-1,-1],"split_conditions":[1E0,6.5E1,9.659258E-1,2E0,1E0,4E1,1E0,1E0,6.123234E-17,7E1,-7.0710677E-1,4E0,1E0,2E0,7E0,-9.78149E-3,1.5916096E-2,7.954922E-3,3.0383004E-2,-2.9759834E-2,-1.5507708E-3,-1.0665594E-2,4.2091206E-2,-6.983393E-3,-5.9659153E-2,-9.429588E-3,3.4217201E-3,5.04058E-2,2.0133337E-2,-2.9101783E-2,2.029414E-2],"split_indices":[35,17,20,18,38,17,54,51,20,17,20,6,45,18,6,0,0,0,0,0,0,0,0,0,0,0,0,0,0,0,0],"split_type":[0,0,0,0,0,0,0,0,0,0,0,0,0,0,0,0,0,0,0,0,0,0,0,0,0,0,0,0,0,0,0],"sum_hessian":[2.5072E4,1.8813E4,6.259E3,9.11E2,1.7902E4,5.823E3,4.36E2,2.52E2,6.59E2,1.7813E4,8.9E1,1.54E2,5.669E3,3.32E2,1.04E2,2E2,5.2E1,4.7E2,1.89E2,8.4E1,1.7729E4,2.5E1,6.4E1,1.23E2,3.1E1,4.36E2,5.233E3,8.5E1,2.47E2,6.2E1,4.2E1],"tree_param":{"num_deleted":"0","num_feature":"58","num_nodes":"31","size_leaf_vector":"1"}},{"base_weights":[5.7804477E-3,-2.8309118E-2,1.2194876E-2,-2.2531466E-3,-8.6101085E-2,2.2039646E-2,-2.1544902E-2,-2.7924705E-2,7.113366E-2,8.1235275E-2,-1.2999432E-1,1.7851831E-2,8.509971E-2,-1.5246224E-2,-2.7976725E-1,-1.3424966E-3,-1.1407978E-2,2.065315E-2,1.6565556E-3,4.2292576E-2,4.242494E-3,-1.6851103E-2,3.968674E-3,8.726626E-4,4.6500037E-3,1.3932738E-3,1.7663753E-2,-5.626179E-3,3.7774837E-4,-1.8065182E-2,-5.4796483E-2],"categories":[],"categories_nodes":[],"categories_segments":[],"categories_sizes":[],"default_left":[0,0,0,0,0,0,0,0,0,0,0,0,0,0,0,0,0,0,0,0,0,0,0,0,0,0,0,0,0,0,0],"id":37,"left_children":[1,3,5,7,9,11,13,15,17,19,21,23,25,27,29,-1,-1,-1,-1,-1,-1,-1,-1,-1,-1,-1,-1,-1,-1,-1,-1],"loss_changes":[5.460849E0,5.955347E0,6.981822E0,5.139528E0,9.037486E0,4.2953916E0,7.7181635E0,2.5231538E0,5.2201796E0,3.376905E0,6.37232E0,3.9886127E0,6.5966964E0,3.6175356E0,2.9048328E0,0E0,0E0,0E0,0E0,0E0,0E0,0E0,0E0,0E0,0E0,0E0,0E0,0E0,0E0,0E0,0E0],"parents":[2147483647,0,0,1,1,2,2,3,3,4,4,5,5,6,6,7,7,8,8,9,9,10,10,11,11,12,12,13,13,14,14],"right_children":[2,4,6,8,10,12,14,16,18,20,22,24,26,28,30,-1,-1,-1,-1,-1,-1,-1,-1,-1,-1,-1,-1,-1,-1,-1,-1],"split_conditions":[-8.660254E-1,1.1E1,7E0,1E0,2E0,1E0,1E0,9.17E2,1E0,1E0,1E0,1E0,-1.8369701E-16,5E0,7.0710677E-1,-1.3424966E-3,-1.1407978E-2,2.065315E-2,1.6565556E-3,4.2292576E-2,4.242494E-3,-1.6851103E-2,3.968674E-3,8.726626E-4,4.6500037E-3,1.3932738E-3,1.7663753E-2,-5.626179E-3,3.7774837E-4,-1.8065182E-2,-5.4796483E-2],"split_indices":[20,6,1,54,0,3,53,5,5,45,3,56,20,4,20,0,0,0,0,0,0,0,0,0,0,0,0,0,0,0,0],"split_type":[0,0,0,0,0,0,0,0,0,0,0,0,0,0,0,0,0,0,0,0,0,0,0,0,0,0,0,0,0,0,0],"sum_hessian":[2.4971E4,3.954E3,2.1017E4,2.726E3,1.228E3,1.627E4,4.747E3,2.02E3,7.06E2,2.55E2,9.73E2,1.5258E4,1.012E3,4.635E3,1.12E2,1.73E3,2.9E2,2.02E2,5.04E2,2.5E1,2.3E2,7.93E2,1.8E2,1.1573E4,3.685E3,5.7E2,4.42E2,1.468E3,3.167E3,8.3E1,2.9E1],"tree_param":{"num_deleted":"0","num_feature":"58","num_nodes":"31","size_leaf_vector":"1"}},{"base_weights":[-1.825629E-3,-1.1274269E-2,2.406409E-2,-1.0727911E-2,-3.7970904E-2,4.4482503E-2,-2.2350479E-2,-1.7951941E-2,1.5524817E-2,2.3512092E-1,3.1257916E-2,-6.026549E-2,9.7398244E-2,-2.248126E-3,3.9498736E-3,3.7158155E-3,-5.3515653E-3,1.3928396E-2,5.6004584E-2,-4.0624244E-3,4.809735E-3,-8.195752E-3,1.9377632E-2,1.4697725E-2,-3.142191E-3],"categories":[],"categories_nodes":[],"categories_segments":[],"categories_sizes":[],"default_left":[0,0,0,0,0,0,0,0,0,0,0,0,0,0,0,0,0,0,0,0,0,0,0,0,0],"id":38,"left_children":[1,3,5,7,-1,9,11,13,15,17,19,21,23,-1,-1,-1,-1,-1,-1,-1,-1,-1,-1,-1,-1],"loss_changes":[6.0950446E0,3.6704063E0,6.3146496E0,3.4572277E0,0E0,1.1657846E1,9.249868E0,3.7206244E0,5.877716E0,9.263939E0,5.2408E0,8.540909E0,3.1341372E0,0E0,0E0,0E0,0E0,0E0,0E0,0E0,0E0,0E0,0E0,0E0,0E0],"parents":[2147483647,0,0,1,1,2,2,3,3,5,5,6,6,7,7,8,8,9,9,10,10,11,11,12,12],"right_children":[2,4,6,8,-1,10,12,14,16,18,20,22,24,-1,-1,-1,-1,-1,-1,-1,-1,-1,-1,-1,-1],"split_conditions":[1E0,1E0,3E0,5E-1,-3.7970904E-2,3E1,1E0,1E0,1E0,7.0710677E-1,-8.660254E-1,1E0,5E-1,-2.248126E-3,3.9498736E-3,3.7158155E-3,-5.3515653E-3,1.3928396E-2,5.6004584E-2,-4.0624244E-3,4.809735E-3,-8.195752E-3,1.9377632E-2,1.4697725E-2,-3.142191E-3],"split_indices":[19,46,2,20,0,0,35,11,54,20,20,49,20,0,0,0,0,0,0,0,0,0,0,0,0],"split_type":[0,0,0,0,0,0,0,0,0,0,0,0,0,0,0,0,0,0,0,0,0,0,0,0,0],"sum_hessian":[2.4914E4,1.8253E4,6.661E3,1.8227E4,2.6E1,4.626E3,2.035E3,1.4294E4,3.933E3,2.99E2,4.327E3,1.546E3,4.89E2,1.325E4,1.044E3,2.995E3,9.38E2,2.32E2,6.7E1,8.21E2,3.506E3,1.425E3,1.21E2,3.53E2,1.36E2],"tree_param":{"num_deleted":"0","num_feature":"58","num_nodes":"25","size_leaf_vector":"1"}},{"base_weights":[7.369382E-3,4.7455218E-2,3.93416E-4,7.4823424E-2,-3.099272E-2,1.5488041E-3,-2.054049E-1,4.945433E-2,1.3692679E-1,1.171405E-2,-9.9124365E-2,-8.156017E-3,2.3017123E-2,-3.3880726E-1,1.3806594E-2,3.975441E-3,2.9193968E-2,4.1903567E-2,1.1908918E-2,-1.7030981E-3,3.694541E-2,2.7943466E-2,-1.67528E-2,-9.227521E-3,-4.668972E-4,8.490924E-3,5.2308734E-4,-4.2533074E-2,-1.7950736E-2],"categories":[],"categories_nodes":[],"categories_segments":[],"categories_sizes":[],"default_left":[0,0,0,0,0,0,0,0,0,0,0,0,0,0,0,0,0,0,0,0,0,0,0,0,0,0,0,0,0],"id":39,"left_children":[1,3,5,7,9,11,13,15,17,19,21,23,25,27,-1,-1,-1,-1,-1,-1,-1,-1,-1,-1,-1,-1,-1,-1,-1],"loss_changes":[6.9970684E0,7.9654636E0,5.0682955E0,4.3258696E0,2.7944562E0,4.416294E0,5.4993377E0,4.5843763E0,3.9607172E0,6.083692E0,9.627893E0,4.2815638E0,7.2639236E0,1.1090031E0,0E0,0E0,0E0,0E0,0E0,0E0,0E0,0E0,0E0,0E0,0E0,0E0,0E0,0E0,0E0],"parents":[2147483647,0,0,1,1,2,2,3,3,4,4,5,5,6,6,7,7,8,8,9,9,10,10,11,11,12,12,13,13],"right_children":[2,4,6,8,10,12,14,16,18,20,22,24,26,28,-1,-1,-1,-1,-1,-1,-1,-1,-1,-1,-1,-1,-1,-1,-1],"split_conditions":[1E0,1E0,1E0,1.44E2,1.28E2,1E0,1.46E2,4.9E1,1.48E2,1.16E2,1E0,1.3E1,1E0,1E0,1.3806594E-2,3.975441E-3,2.9193968E-2,4.1903567E-2,1.1908918E-2,-1.7030981E-3,3.694541E-2,2.7943466E-2,-1.67528E-2,-9.227521E-3,-4.668972E-4,8.490924E-3,5.2308734E-4,-4.2533074E-2,-1.7950736E-2],"split_indices":[18,57,44,8,8,19,8,6,8,8,6,8,1,10,0,0,0,0,0,0,0,0,0,0,0,0,0,0,0],"split_type":[0,0,0,0,0,0,0,0,0,0,0,0,0,0,0,0,0,0,0,0,0,0,0,0,0,0,0,0,0],"sum_hessian":[2.5021E4,3.708E3,2.1313E4,2.749E3,9.59E2,2.1195E4,1.18E2,1.953E3,7.96E2,5.9E2,3.69E2,1.4597E4,6.598E3,8.5E1,3.3E1,1.879E3,7.4E1,4.6E1,7.5E2,5.47E2,4.3E1,5.6E1,3.13E2,5.8E2,1.4017E4,1.472E3,5.126E3,5.4E1,3.1E1],"tree_param":{"num_deleted":"0","num_feature":"58","num_nodes":"29","size_leaf_vector":"1"}},{"base_weights":[-1.1569021E-2,-1.9710163E-2,1.3067472E-2,-3.259598E-2,-1.3883219E-3,3.815383E-3,1.4084318E-1,-2.6648162E-2,-1.4024967E-1,-1.8482858E-2,4.764513E-2,-6.720223E-3,9.475533E-2,8.3261475E-2,5.0507677E-1,-2.292294E-3,-1.843417E-2,-7.694649E-3,-2.7612126E-2,-2.8838285E-3,6.9645843E-3,8.180501E-3,-2.0389266E-3,-9.041931E-3,1.89127E-4,1.7757311E-2,-4.642268E-3,1.5093649E-2,-1.6193649E-2,7.0177786E-2,2.7628718E-2],"categories":[],"categories_nodes":[],"categories_segments":[],"categories_sizes":[],"default_left":[0,0,0,0,0,0,0,0,0,0,0,0,0,0,0,0,0,0,0,0,0,0,0,0,0,0,0,0,0,0,0],"id":40,"left_children":[1,3,5,7,9,11,13,15,17,19,21,23,25,27,29,-1,-1,-1,-1,-1,-1,-1,-1,-1,-1,-1,-1,-1,-1,-1,-1],"loss_changes":[5.0112777E0,4.4335256E0,7.336148E0,7.055621E0,6.5011535E0,5.5461626E0,8.745715E0,6.1339703E0,4.9415894E0,5.25043E0,4.661381E0,3.7395463E0,7.035166E0,6.0479817E0,2.3712873E0,0E0,0E0,0E0,0E0,0E0,0E0,0E0,0E0,0E0,0E0,0E0,0E0,0E0,0E0,0E0,0E0],"parents":[2147483647,0,0,1,1,2,2,3,3,4,4,5,5,6,6,7,7,8,8,9,9,10,10,11,11,12,12,13,13,14,14],"right_children":[2,4,6,8,10,12,14,16,18,20,22,24,26,28,30,-1,-1,-1,-1,-1,-1,-1,-1,-1,-1,-1,-1,-1,-1,-1,-1],"split_conditions":[1E0,6E0,9.659258E-1,9E0,1E0,1E0,1E0,1E0,2.5881904E-1,1E0,1.1E1,1E0,7E0,1.3E1,5E0,-2.292294E-3,-1.843417E-2,-7.694649E-3,-2.7612126E-2,-2.8838285E-3,6.9645843E-3,8.180501E-3,-2.0389266E-3,-9.041931E-3,1.89127E-4,1.7757311E-2,-4.642268E-3,1.5093649E-2,-1.6193649E-2,7.0177786E-2,2.7628718E-2],"split_indices":[35,4,20,7,19,25,27,20,20,10,4,4,7,7,7,0,0,0,0,0,0,0,0,0,0,0,0,0,0,0,0],"split_type":[0,0,0,0,0,0,0,0,0,0,0,0,0,0,0,0,0,0,0,0,0,0,0,0,0,0,0,0,0,0,0],"sum_hessian":[2.4983E4,1.8778E4,6.205E3,1.1024E4,7.754E3,5.787E3,4.18E2,1.0448E4,5.76E2,5.75E3,2.004E3,5.187E3,6E2,3.62E2,5.6E1,1.0208E4,2.4E2,3.94E2,1.82E2,5.146E3,6.04E2,1.334E3,6.7E2,4.83E2,4.704E3,3.78E2,2.22E2,2.84E2,7.8E1,2.9E1,2.7E1],"tree_param":{"num_deleted":"0","num_feature":"58","num_nodes":"31","size_leaf_vector":"1"}},{"base_weights":[-2.5544276E-3,2.9100354E-3,-3.3105E-2,-5.7565016E-3,2.6244959E-2,-4.1511867E-2,4.0900204E-2,-8.404332E-3,1.1524274E-1,3.9255843E-2,-4.0239934E-2,-4.441983E-2,1.3583544E-1,1.138612E-1,-1.8695588E-1,3.2088723E-2,-9.0382894E-4,1.4691884E-2,-4.580899E-3,5.495337E-3,-3.3810858E-3,2.5225597E-4,-1.6872095E-2,-3.3932303E-3,-9.395701E-3,2.7160222E-2,-2.6042943E-3,6.3957684E-3,2.2752818E-2,-4.9390394E-2,-4.241131E-3],"categories":[],"categories_nodes":[],"categories_segments":[],"categories_sizes":[],"default_left":[0,0,0,0,0,0,0,0,0,0,0,0,0,0,0,0,0,0,0,0,0,0,0,0,0,0,0,0,0,0,0],"id":41,"left_children":[1,3,5,7,9,11,13,15,17,19,21,23,25,27,29,-1,-1,-1,-1,-1,-1,-1,-1,-1,-1,-1,-1,-1,-1,-1,-1],"loss_changes":[4.1579657E0,4.272929E0,2.3528094E0,4.9371486E0,4.9512663E0,1.7563848E0,6.438386E0,3.1505327E0,1.6902218E0,5.4912376E0,5.148461E0,1.7320166E0,1.2158469E0,1.6474552E0,4.1496143E0,0E0,0E0,0E0,0E0,0E0,0E0,0E0,0E0,0E0,0E0,0E0,0E0,0E0,0E0,0E0,0E0],"parents":[2147483647,0,0,1,1,2,2,3,3,4,4,5,5,6,6,7,7,8,8,9,9,10,10,11,11,12,12,13,13,14,14],"right_children":[2,4,6,8,10,12,14,16,18,20,22,24,26,28,30,-1,-1,-1,-1,-1,-1,-1,-1,-1,-1,-1,-1,-1,-1,-1,-1],"split_conditions":[2E1,1E0,6E0,1E0,1E0,1E0,1E0,7E0,4E0,8.11E2,1E0,1E0,3E0,4.2E1,3.9E1,3.2088723E-2,-9.0382894E-4,1.4691884E-2,-4.580899E-3,5.495337E-3,-3.3810858E-3,2.5225597E-4,-1.6872095E-2,-3.3932303E-3,-9.395701E-3,2.7160222E-2,-2.6042943E-3,6.3957684E-3,2.2752818E-2,-4.9390394E-2,-4.241131E-3],"split_indices":[6,19,18,9,51,41,57,17,18,17,57,19,18,6,8,0,0,0,0,0,0,0,0,0,0,0,0,0,0,0,0],"split_type":[0,0,0,0,0,0,0,0,0,0,0,0,0,0,0,0,0,0,0,0,0,0,0,0,0,0,0,0,0,0,0],"sum_hessian":[2.4905E4,2.1127E4,3.778E3,1.5406E4,5.721E3,3.393E3,3.85E2,1.5077E4,3.29E2,4.785E3,9.36E2,3.339E3,5.4E1,2.92E2,9.3E1,2.8E1,1.5049E4,2.75E2,5.4E1,3.939E3,8.46E2,7.03E2,2.33E2,2.757E3,5.82E2,2.9E1,2.5E1,2.04E2,8.8E1,2.9E1,6.4E1],"tree_param":{"num_deleted":"0","num_feature":"58","num_nodes":"31","size_leaf_vector":"1"}},{"base_weights":[1.0948909E-3,7.772287E-2,-1.1620882E-3,1.1768957E-3,1.9721846E-1,-2.7366574E-3,8.377782E-2,3.8832497E-2,-2.4922046E-1,2.8282022E-1,-8.7643035E-2,-3.4435831E-3,2.0374559E-1,4.4246405E-2,3.540603E-1,-1.0819528E-3,1.8531522E-2,-3.5145793E-2,-1.3077959E-2,2.1265682E-2,5.3444624E-2,1.3493048E-2,-4.2669293E-2,-1.5849397E-4,-7.5475066E-3,-4.091269E-3,3.728005E-2,8.283929E-3,-2.8157776E-2,4.6196405E-2,2.4514493E-2],"categories":[],"categories_nodes":[],"categories_segments":[],"categories_sizes":[],"default_left":[0,0,0,0,0,0,0,0,0,0,0,0,0,0,0,0,0,0,0,0,0,0,0,0,0,0,0,0,0,0,0],"id":42,"left_children":[1,3,5,7,9,11,13,15,17,19,21,23,25,27,29,-1,-1,-1,-1,-1,-1,-1,-1,-1,-1,-1,-1,-1,-1,-1,-1],"loss_changes":[4.3038945E0,6.5123653E0,3.2333512E0,4.1112328E0,6.8037205E0,3.4652424E0,4.6855803E0,2.758534E0,6.442549E-1,3.664503E0,4.962703E0,3.1668317E0,3.365468E0,4.8645053E0,5.448847E-1,0E0,0E0,0E0,0E0,0E0,0E0,0E0,0E0,0E0,0E0,0E0,0E0,0E0,0E0,0E0,0E0],"parents":[2147483647,0,0,1,1,2,2,3,3,4,4,5,5,6,6,7,7,8,8,9,9,10,10,11,11,12,12,13,13,14,14],"right_children":[2,4,6,8,10,12,14,16,18,20,22,24,26,28,30,-1,-1,-1,-1,-1,-1,-1,-1,-1,-1,-1,-1,-1,-1,-1,-1],"split_conditions":[5E0,-1.8369701E-16,1E0,1E0,1E0,1E0,1.73E2,1E0,4E0,5E0,4E0,1E0,9.4E1,6E0,3E0,-1.0819528E-3,1.8531522E-2,-3.5145793E-2,-1.3077959E-2,2.1265682E-2,5.3444624E-2,1.3493048E-2,-4.2669293E-2,-1.5849397E-4,-7.5475066E-3,-4.091269E-3,3.728005E-2,8.283929E-3,-2.8157776E-2,4.6196405E-2,2.4514493E-2],"split_indices":[8,20,33,34,56,38,8,56,8,18,18,53,8,18,18,0,0,0,0,0,0,0,0,0,0,0,0,0,0,0,0],"split_type":[0,0,0,0,0,0,0,0,0,0,0,0,0,0,0,0,0,0,0,0,0,0,0,0,0,0,0,0,0,0,0],"sum_hessian":[2.4884E4,7.11E2,2.4173E4,4.34E2,2.77E2,2.3734E4,4.39E2,3.78E2,5.6E1,2.13E2,6.4E1,2.3654E4,8E1,3.84E2,5.5E1,2.83E2,9.5E1,2.9E1,2.7E1,1.68E2,4.5E1,3.9E1,2.5E1,2.306E4,5.94E2,3.3E1,4.7E1,3.44E2,4E1,2.6E1,2.9E1],"tree_param":{"num_deleted":"0","num_feature":"58","num_nodes":"31","size_leaf_vector":"1"}},{"base_weights":[2.6293027E-3,3.4303002E-2,-3.054582E-3,1.7555304E-2,2.2681649E-1,-4.078715E-3,3.1591743E-1,2.7176589E-2,-2.175962E-1,4.27938E-1,1.2808363E-1,4.173873E-2,-1.0944766E-2,1.6582832E-2,4.2327013E-2,-3.308585E-3,6.2079383E-3,1.6868247E-2,-3.7147045E-2,2.8051887E-2,6.4205386E-2,8.1347296E-4,4.0654343E-2,2.3791832E-3,1.4028512E-2,-3.2012535E-3,9.754023E-5],"categories":[],"categories_nodes":[],"categories_segments":[],"categories_sizes":[],"default_left":[0,0,0,0,0,0,0,0,0,0,0,0,0,0,0,0,0,0,0,0,0,0,0,0,0,0,0],"id":43,"left_children":[1,3,5,7,9,11,13,15,17,19,21,23,25,-1,-1,-1,-1,-1,-1,-1,-1,-1,-1,-1,-1,-1,-1],"loss_changes":[4.510568E0,1.2286507E1,6.9407344E0,7.942622E0,6.001666E0,6.662107E0,1.0254579E0,7.0923696E0,8.265152E0,2.9763699E0,6.877288E0,4.878003E0,4.625117E0,0E0,0E0,0E0,0E0,0E0,0E0,0E0,0E0,0E0,0E0,0E0,0E0,0E0,0E0],"parents":[2147483647,0,0,1,1,2,2,3,3,4,4,5,5,6,6,7,7,8,8,9,9,10,10,11,11,12,12],"right_children":[2,4,6,8,10,12,14,16,18,20,22,24,26,-1,-1,-1,-1,-1,-1,-1,-1,-1,-1,-1,-1,-1,-1],"split_conditions":[1.67E2,1.53E2,1E0,1E0,1E0,3.7E1,4E0,5.8E1,4.5E1,4E0,1E0,1E0,4.92E2,1.6582832E-2,4.2327013E-2,-3.308585E-3,6.2079383E-3,1.6868247E-2,-3.7147045E-2,2.8051887E-2,6.4205386E-2,8.1347296E-4,4.0654343E-2,2.3791832E-3,1.4028512E-2,-3.2012535E-3,9.754023E-5],"split_indices":[17,17,38,53,5,8,4,8,8,18,35,22,17,0,0,0,0,0,0,0,0,0,0,0,0,0,0],"split_type":[0,0,0,0,0,0,0,0,0,0,0,0,0,0,0,0,0,0,0,0,0,0,0,0,0,0,0],"sum_hessian":[2.5053E4,3.811E3,2.1242E4,3.507E3,3.04E2,2.1175E4,6.7E1,3.37E3,1.37E2,9.9E1,2.05E2,2.759E3,1.8416E4,2.9E1,3.8E1,1.236E3,2.134E3,3.9E1,9.8E1,6E1,3.9E1,1.44E2,6.1E1,2.335E3,4.24E2,6.654E3,1.1762E4],"tree_param":{"num_deleted":"0","num_feature":"58","num_nodes":"27","size_leaf_vector":"1"}},{"base_weights":[6.178297E-3,4.977123E-3,2.0942885E-1,3.745745E-2,-7.6035695E-4,5.57786E-2,7.398893E-2,-1.5055916E-2,8.011754E-2,-7.038871E-2,3.5473108E-3,2.0076449E-1,-2.9086946E-2,6.9710216E-3,-4.049381E-3,4.0867114E-3,1.769854E-2,-1.0521925E-2,4.518788E-3,-1.1115963E-4,4.6079955E-3,3.0593792E-2,-1.7018057E-3],"categories":[],"categories_nodes":[],"categories_segments":[],"categories_sizes":[],"default_left":[0,0,0,0,0,0,0,0,0,0,0,0,0,0,0,0,0,0,0,0,0,0,0],"id":44,"left_children":[1,3,5,7,9,-1,11,13,15,17,19,21,-1,-1,-1,-1,-1,-1,-1,-1,-1,-1,-1],"loss_changes":[6.1085434E0,4.6363606E0,6.894404E0,8.368446E0,6.342393E0,0E0,5.0076947E0,3.6145778E0,7.828905E0,4.964287E0,3.9461226E0,1.8376017E0,0E0,0E0,0E0,0E0,0E0,0E0,0E0,0E0,0E0,0E0,0E0],"parents":[2147483647,0,0,1,1,2,2,3,3,4,4,6,6,7,7,8,8,9,9,10,10,11,11],"right_children":[2,4,6,8,10,-1,12,14,16,18,20,22,-1,-1,-1,-1,-1,-1,-1,-1,-1,-1,-1],"split_conditions":[1E0,1.67E2,1E0,1E0,2.04E2,5.57786E-2,1E0,3.4E1,2.5881904E-1,1E0,1.5E1,6.04E2,-2.9086946E-2,6.9710216E-3,-4.049381E-3,4.0867114E-3,1.769854E-2,-1.0521925E-2,4.518788E-3,-1.1115963E-4,4.6079955E-3,3.0593792E-2,-1.7018057E-3],"split_indices":[39,17,1,4,17,0,57,17,20,56,2,17,0,0,0,0,0,0,0,0,0,0,0],"split_type":[0,0,0,0,0,0,0,0,0,0,0,0,0,0,0,0,0,0,0,0,0,0,0],"sum_hessian":[2.5024E4,2.4878E4,1.46E2,3.734E3,2.1144E4,4E1,1.06E2,1.674E3,2.06E3,1.231E3,1.9913E4,7.9E1,2.7E1,3.86E2,1.288E3,1.467E3,5.93E2,9.46E2,2.85E2,1.7948E4,1.965E3,5.3E1,2.6E1],"tree_param":{"num_deleted":"0","num_feature":"58","num_nodes":"23","size_leaf_vector":"1"}},{"base_weights":[-5.377947E-3,-5.9823277E-3,3.222869E-2,1.4873626E-2,-1.3584247E-2,6.289222E-3,6.3974224E-2,-3.708075E-2,-5.4882774E-3,3.5339274E-4,2.5545308E-2,1.0008798E-2,-3.689224E-3,-2.5417455E-3,-1.5985623E-2,-1.4758216E-3,2.0317847E-3],"categories":[],"categories_nodes":[],"categories_segments":[],"categories_sizes":[],"default_left":[0,0,0,0,0,0,0,0,0,0,0,0,0,0,0,0,0],"id":45,"left_children":[1,3,-1,5,7,9,11,13,15,-1,-1,-1,-1,-1,-1,-1,-1],"loss_changes":[4.9478326E0,3.9527354E0,0E0,2.8067832E0,3.4754338E0,3.8916647E0,3.613575E0,6.7004056E0,3.2513154E0,0E0,0E0,0E0,0E0,0E0,0E0,0E0,0E0],"parents":[2147483647,0,0,1,1,3,3,4,4,5,5,6,6,7,7,8,8],"right_children":[2,4,-1,6,8,10,12,14,16,-1,-1,-1,-1,-1,-1,-1,-1],"split_conditions":[1E0,7E1,3.222869E-2,1E0,2.82E2,1E0,1E0,2.68E2,1E0,3.5339274E-4,2.5545308E-2,1.0008798E-2,-3.689224E-3,-2.5417455E-3,-1.5985623E-2,-1.4758216E-3,2.0317847E-3],"split_indices":[42,5,0,24,5,12,57,5,54,0,0,0,0,0,0,0,0],"split_type":[0,0,0,0,0,0,0,0,0,0,0,0,0,0,0,0,0],"sum_hessian":[2.4974E4,2.4929E4,4.5E1,6.659E3,1.827E4,5.669E3,9.9E2,4.681E3,1.3589E4,5.608E3,6.1E1,7.29E2,2.61E2,4.276E3,4.05E2,9.998E3,3.591E3],"tree_param":{"num_deleted":"0","num_feature":"58","num_nodes":"17","size_leaf_vector":"1"}},{"base_weights":[7.525666E-3,-4.2196416E-4,3.172105E-2,1.6731535E-4,-3.9575033E-2,3.168412E-1,2.8260421E-2,1.20252995E-2,-1.9191664E-2,-4.3893694E-3,5.373732E-2,4.086337E-2,-9.591709E-3,-1.4197587E-3,3.0175808E-3,-4.3401443E-3,3.0383521E-3,2.9596013E-3,1.4956382E-2,-6.2410004E-2,1.8931639E-4],"categories":[],"categories_nodes":[],"categories_segments":[],"categories_sizes":[],"default_left":[0,0,0,0,0,0,0,0,0,0,0,0,0,0,0,0,0,0,0,0,0],"id":46,"left_children":[1,3,5,7,-1,9,11,13,15,-1,-1,17,19,-1,-1,-1,-1,-1,-1,-1,-1],"loss_changes":[4.8054905E0,4.3824887E0,6.087838E0,4.3124866E0,0E0,5.9105525E0,2.913249E0,5.545347E0,8.565976E0,0E0,0E0,5.606229E0,1.0771003E1,0E0,0E0,0E0,0E0,0E0,0E0,0E0,0E0],"parents":[2147483647,0,0,1,1,2,2,3,3,5,5,6,6,7,7,8,8,11,11,12,12],"right_children":[2,4,6,8,-1,10,12,14,16,-1,-1,18,20,-1,-1,-1,-1,-1,-1,-1,-1],"split_conditions":[1E0,1E0,3E0,5.34E2,-3.9575033E-2,2E0,1.49E2,3E0,6.123234E-17,-4.3893694E-3,5.373732E-2,1.37E2,4.2E1,-1.4197587E-3,3.0175808E-3,-4.3401443E-3,3.0383521E-3,2.9596013E-3,1.4956382E-2,-6.2410004E-2,1.8931639E-4],"split_indices":[35,46,8,5,0,18,8,6,20,0,0,8,17,0,0,0,0,0,0,0,0],"split_type":[0,0,0,0,0,0,0,0,0,0,0,0,0,0,0,0,0,0,0,0,0],"sum_hessian":[2.4989E4,1.8811E4,6.178E3,1.8784E4,2.7E1,7.3E1,6.105E3,1.1649E4,7.135E3,2.8E1,4.5E1,4.58E3,1.525E3,4.765E3,6.884E3,4.794E3,2.341E3,4.151E3,4.29E2,2.7E1,1.498E3],"tree_param":{"num_deleted":"0","num_feature":"58","num_nodes":"21","size_leaf_vector":"1"}},{"base_weights":[2.2110462E-3,5.3040474E-3,-5.706493E-2,1.4044801E-2,-1.5413782E-2,-9.771688E-2,9.115396E-3,-4.8395295E-2,1.783008E-2,-7.8939665E-3,-1.1439619E-1,-4.5151728E-1,-6.813728E-2,-1.1579167E-1,6.59681E-2,1.1913825E-2,-1.12667745E-2,8.318136E-3,1.3831196E-3,-1.1557266E-2,-3.3131914E-4,-1.4851131E-2,1.4638044E-2,-2.1113742E-2,-6.477398E-2,-7.978548E-3,1.6546043E-2,-3.7891709E-3,-2.93254E-2,1.1833249E-2,-9.323238E-3],"categories":[],"categories_nodes":[],"categories_segments":[],"categories_sizes":[],"default_left":[0,0,0,0,0,0,0,0,0,0,0,0,0,0,0,0,0,0,0,0,0,0,0,0,0,0,0,0,0,0,0],"id":47,"left_children":[1,3,5,7,9,11,13,15,17,19,21,23,25,27,29,-1,-1,-1,-1,-1,-1,-1,-1,-1,-1,-1,-1,-1,-1,-1,-1],"loss_changes":[4.5768523E0,4.2965636E0,3.3315563E0,3.9446528E0,5.239176E0,7.9961033E0,3.3594544E0,1.0285896E1,4.1103883E0,3.227457E0,4.443262E0,2.6461449E0,1.9423857E0,2.034886E0,2.7203736E0,0E0,0E0,0E0,0E0,0E0,0E0,0E0,0E0,0E0,0E0,0E0,0E0,0E0,0E0,0E0,0E0],"parents":[2147483647,0,0,1,1,2,2,3,3,4,4,5,5,6,6,7,7,8,8,9,9,10,10,11,11,12,12,13,13,14,14],"right_children":[2,4,6,8,10,12,14,16,18,20,22,24,26,28,30,-1,-1,-1,-1,-1,-1,-1,-1,-1,-1,-1,-1,-1,-1,-1,-1],"split_conditions":[1E0,3E0,2E0,1.8E1,1.57E2,1E0,6.5E1,4E0,2.9E1,9.3E1,1E0,5E0,1.91E2,1E0,1E0,1.1913825E-2,-1.12667745E-2,8.318136E-3,1.3831196E-3,-1.1557266E-2,-3.3131914E-4,-1.4851131E-2,1.4638044E-2,-2.1113742E-2,-6.477398E-2,-7.978548E-3,1.6546043E-2,-3.7891709E-3,-2.93254E-2,1.1833249E-2,-9.323238E-3],"split_indices":[37,2,2,8,8,30,8,8,8,5,25,7,8,56,19,0,0,0,0,0,0,0,0,0,0,0,0,0,0,0,0],"split_type":[0,0,0,0,0,0,0,0,0,0,0,0,0,0,0,0,0,0,0,0,0,0,0,0,0,0,0,0,0,0,0],"sum_hessian":[2.4961E4,2.3724E4,1.237E3,1.6685E4,7.039E3,7.66E2,4.71E2,9.53E2,1.5732E4,6.543E3,4.96E2,5.8E1,7.08E2,1.47E2,3.24E2,2.64E2,6.89E2,9.06E2,1.4826E4,2.66E2,6.277E3,4.39E2,5.7E1,2.7E1,3.1E1,6.75E2,3.3E1,1.03E2,4.4E1,2.44E2,8E1],"tree_param":{"num_deleted":"0","num_feature":"58","num_nodes":"31","size_leaf_vector":"1"}},{"base_weights":[3.6492792E-3,2.4104372E-2,-8.045114E-3,1.8578457E-2,1.562946E-1,-2.4752012E-2,5.317901E-3,2.1994283E-2,-1.1486611E-1,2.4942611E-1,-9.457556E-2,-1.5765073E-2,-7.450797E-2,3.5542727E-2,-1.7057294E-2,3.054454E-3,-2.9002146E-3,-2.5142683E-2,1.6949007E-2,3.129247E-2,-1.1557652E-2,-3.7712686E-2,4.600307E-3,-5.951644E-4,-4.8116087E-3,1.957678E-3,-1.2263496E-2,5.2645425E-3,-1.9484012E-3,-1.4309193E-3,-5.282848E-2],"categories":[],"categories_nodes":[],"categories_segments":[],"categories_sizes":[],"default_left":[0,0,0,0,0,0,0,0,0,0,0,0,0,0,0,0,0,0,0,0,0,0,0,0,0,0,0,0,0,0,0],"id":48,"left_children":[1,3,5,7,9,11,13,15,17,19,21,23,25,27,29,-1,-1,-1,-1,-1,-1,-1,-1,-1,-1,-1,-1,-1,-1,-1,-1],"loss_changes":[5.9514966E0,6.607868E0,3.5342507E0,3.9627223E0,8.504693E0,3.1445522E0,5.9492207E0,3.694953E0,8.469132E0,6.17811E0,3.9496956E0,1.8918607E0,4.8745465E0,3.5226426E0,7.094234E0,0E0,0E0,0E0,0E0,0E0,0E0,0E0,0E0,0E0,0E0,0E0,0E0,0E0,0E0,0E0,0E0],"parents":[2147483647,0,0,1,1,2,2,3,3,4,4,5,5,6,6,7,7,8,8,9,9,10,10,11,11,12,12,13,13,14,14],"right_children":[2,4,6,8,10,12,14,16,18,20,22,24,26,28,30,-1,-1,-1,-1,-1,-1,-1,-1,-1,-1,-1,-1,-1,-1,-1,-1],"split_conditions":[3.48E2,7E0,6E0,1.84E2,1E0,1E0,9E0,1E0,1E0,1E0,1.1E1,1E0,8.2E1,1E0,1E0,3.054454E-3,-2.9002146E-3,-2.5142683E-2,1.6949007E-2,3.129247E-2,-1.1557652E-2,-3.7712686E-2,4.600307E-3,-5.951644E-4,-4.8116087E-3,1.957678E-3,-1.2263496E-2,5.2645425E-3,-1.9484012E-3,-1.4309193E-3,-5.282848E-2],"split_indices":[17,4,4,8,35,27,4,22,35,23,4,55,8,35,44,0,0,0,0,0,0,0,0,0,0,0,0,0,0,0,0],"split_type":[0,0,0,0,0,0,0,0,0,0,0,0,0,0,0,0,0,0,0,0,0,0,0,0,0,0,0,0,0,0,0],"sum_hessian":[2.4878E4,9.049E3,1.5829E4,8.687E3,3.62E2,7.034E3,8.795E3,8.471E3,2.16E2,2.64E2,9.8E1,5.959E3,1.075E3,3.741E3,5.054E3,7.255E3,1.216E3,1.46E2,7E1,2.25E2,3.9E1,3.2E1,6.6E1,4.573E3,1.386E3,3.64E2,7.11E2,2.854E3,8.87E2,5.028E3,2.6E1],"tree_param":{"num_deleted":"0","num_feature":"58","num_nodes":"31","size_leaf_vector":"1"}},{"base_weights":[-1.4322125E-3,1.534303E-3,-5.700224E-2,2.4560774E-3,-1.4415967E-1,-8.0092534E-2,3.3528015E-3,1.2848674E-2,-8.052103E-3,-2.3581074E-1,6.6185365E-3,-9.289995E-2,5.4746114E-2,6.822889E-2,-1.6968504E-1,2.9494913E-4,4.3744263E-3,-9.0144575E-4,4.247616E-2,-3.725982E-2,-1.54710235E-2,-1.8608432E-2,-7.594579E-3,-9.668204E-3,2.0114563E-2,-2.8144216E-4,3.163067E-2,-2.381037E-3,-4.898156E-2],"categories":[],"categories_nodes":[],"categories_segments":[],"categories_sizes":[],"default_left":[0,0,0,0,0,0,0,0,0,0,0,0,0,0,0,0,0,0,0,0,0,0,0,0,0,0,0,0,0],"id":49,"left_children":[1,3,5,7,9,11,13,15,17,19,-1,21,23,25,27,-1,-1,-1,-1,-1,-1,-1,-1,-1,-1,-1,-1,-1,-1],"loss_changes":[4.114892E0,3.1827898E0,1.7631922E0,2.5718257E0,2.888081E0,1.5852308E0,3.9519098E0,3.6210294E0,4.881276E0,1.0960827E0,0E0,1.306633E0,1.7929677E0,4.512703E0,4.4714355E0,0E0,0E0,0E0,0E0,0E0,0E0,0E0,0E0,0E0,0E0,0E0,0E0,0E0,0E0],"parents":[2147483647,0,0,1,1,2,2,3,3,4,4,5,5,6,6,7,7,8,8,9,9,11,11,12,12,13,13,14,14],"right_children":[2,4,6,8,10,12,14,16,18,20,-1,22,24,26,28,-1,-1,-1,-1,-1,-1,-1,-1,-1,-1,-1,-1,-1,-1],"split_conditions":[1E0,1E0,1E0,3E0,1.47E2,1E0,1E0,1E0,1E0,1.79E2,6.6185365E-3,2E0,6E0,9.68E2,9.17E2,2.9494913E-4,4.3744263E-3,-9.0144575E-4,4.247616E-2,-3.725982E-2,-1.54710235E-2,-1.8608432E-2,-7.594579E-3,-9.668204E-3,2.0114563E-2,-2.8144216E-4,3.163067E-2,-2.381037E-3,-4.898156E-2],"split_indices":[37,44,56,1,8,13,19,56,42,5,0,4,4,5,5,0,0,0,0,0,0,0,0,0,0,0,0,0,0],"split_type":[0,0,0,0,0,0,0,0,0,0,0,0,0,0,0,0,0,0,0,0,0,0,0,0,0,0,0,0,0],"sum_hessian":[2.496E4,2.3696E4,1.264E3,2.3548E4,1.48E2,9.14E2,3.5E2,1.1839E4,1.1709E4,1.03E2,4.5E1,8.35E2,7.9E1,2.55E2,9.5E1,8.967E3,2.872E3,1.1684E4,2.5E1,3.7E1,6.6E1,1.27E2,7.08E2,3.9E1,4E1,1.99E2,5.6E1,6.6E1,2.9E1],"tree_param":{"num_deleted":"0","num_feature":"58","num_nodes":"29","size_leaf_vector":"1"}},{"base_weights":[-9.642647E-4,-1.5400265E-3,3.183747E-2,-5.5928984E-5,-6.5960854E-2,4.6893004E-2,-1.983167E-3,-8.5753344E-2,2.7583167E-2,-5.0895764E-3,1.510864E-2,-1.570121E-2,-8.972863E-5,-5.132846E-3,-2.9812185E-2],"categories":[],"categories_nodes":[],"categories_segments":[],"categories_sizes":[],"default_left":[0,0,0,0,0,0,0,0,0,0,0,0,0,0,0],"id":50,"left_children":[1,3,-1,5,7,9,11,13,-1,-1,-1,-1,-1,-1,-1],"loss_changes":[4.597254E0,2.386055E0,0E0,2.2074862E0,3.8255422E0,9.809454E0,3.9449744E0,3.874022E0,0E0,0E0,0E0,0E0,0E0,0E0,0E0],"parents":[2147483647,0,0,1,1,3,3,4,4,5,5,6,6,7,7],"right_children":[2,4,-1,6,8,10,12,14,-1,-1,-1,-1,-1,-1,-1],"split_conditions":[1E0,1.66E2,3.183747E-2,6.5E1,1E0,8.6E1,7.2E1,1E0,2.7583167E-2,-5.0895764E-3,1.510864E-2,-1.570121E-2,-8.972863E-5,-5.132846E-3,-2.9812185E-2],"split_indices":[42,0,0,17,31,5,17,22,0,0,0,0,0,0,0],"split_type":[0,0,0,0,0,0,0,0,0,0,0,0,0,0,0],"sum_hessian":[2.5E4,2.4956E4,4.4E1,2.4395E4,5.61E2,9.61E2,2.3434E4,5.31E2,3E1,4.96E2,4.65E2,1.62E2,2.3272E4,4.58E2,7.3E1],"tree_param":{"num_deleted":"0","num_feature":"58","num_nodes":"15","size_leaf_vector":"1"}},{"base_weights":[-5.7153073E-3,-3.417541E-3,-9.648834E-2,-4.037696E-3,3.7277624E-2,3.8843382E-2,-1.282021E-1,-1.2903831E-2,2.0465154E-2,5.547116E-2,-1.6674352E-1,-1.7355363E-3,3.8072255E-3,1.4995664E-3,3.4746118E-2,-2.4392125E-3,2.2077708E-2,-2.0712579E-2,8.406596E-3],"categories":[],"categories_nodes":[],"categories_segments":[],"categories_sizes":[],"default_left":[0,0,0,0,0,0,0,0,0,0,0,0,0,0,0,0,0,0,0],"id":51,"left_children":[1,3,5,7,-1,-1,9,11,13,15,17,-1,-1,-1,-1,-1,-1,-1,-1],"loss_changes":[5.1956964E0,5.670189E0,9.507701E0,5.2704244E0,0E0,0E0,4.1009274E0,4.043042E0,1.1523472E1,1.3387744E0,4.858718E0,0E0,0E0,0E0,0E0,0E0,0E0,0E0,0E0],"parents":[2147483647,0,0,1,1,2,2,3,3,6,6,7,7,8,8,9,9,10,10],"right_children":[2,4,6,8,-1,-1,10,12,14,16,18,-1,-1,-1,-1,-1,-1,-1,-1],"split_conditions":[1E0,1E0,-9.659258E-1,1E0,3.7277624E-2,3.8843382E-2,3.8E1,1.5E1,1E0,2.7E1,1.74E2,-1.7355363E-3,3.8072255E-3,1.4995664E-3,3.4746118E-2,-2.4392125E-3,2.2077708E-2,-2.0712579E-2,8.406596E-3],"split_indices":[53,42,20,19,0,0,8,2,21,8,8,0,0,0,0,0,0,0,0],"split_type":[0,0,0,0,0,0,0,0,0,0,0,0,0,0,0,0,0,0,0],"sum_hessian":[2.4911E4,2.4297E4,6.14E2,2.4258E4,3.9E1,3.7E1,5.77E2,1.7813E4,6.445E3,1E2,4.77E2,1.6383E4,1.43E3,6.34E3,1.05E2,6.8E1,3.2E1,4.11E2,6.6E1],"tree_param":{"num_deleted":"0","num_feature":"58","num_nodes":"19","size_leaf_vector":"1"}},{"base_weights":[-6.1568148E-3,-6.8891193E-3,1.8662737E-1,2.8290747E-2,-1.0853006E-2,-6.891989E-3,2.9995754E-1,3.9942466E-2,-1.0140726E-1,-1.9027914E-1,-9.58199E-3,4.459886E-2,2.0003645E-2,1.1478683E-3,7.931289E-3,-1.846576E-2,3.037862E-2,-3.070699E-2,1.8661452E-2,-6.9468044E-4,-6.3531944E-3],"categories":[],"categories_nodes":[],"categories_segments":[],"categories_sizes":[],"default_left":[0,0,0,0,0,0,0,0,0,0,0,0,0,0,0,0,0,0,0,0,0],"id":52,"left_children":[1,3,5,7,9,-1,11,13,15,17,19,-1,-1,-1,-1,-1,-1,-1,-1,-1,-1],"loss_changes":[3.5441153E0,3.4866712E0,2.771988E0,3.8304203E0,5.122539E0,0E0,8.738308E-1,2.6034365E0,7.106186E0,7.012099E0,3.1717567E0,0E0,0E0,0E0,0E0,0E0,0E0,0E0,0E0,0E0,0E0],"parents":[2147483647,0,0,1,1,2,2,3,3,4,4,6,6,7,7,8,8,9,9,10,10],"right_children":[2,4,6,8,10,-1,12,14,16,18,20,-1,-1,-1,-1,-1,-1,-1,-1,-1,-1],"split_conditions":[1E0,2.8E1,-5E-1,1E1,3.1E1,-6.891989E-3,5E0,-1.8369701E-16,1E0,1E0,1E0,4.459886E-2,2.0003645E-2,1.1478683E-3,7.931289E-3,-1.846576E-2,3.037862E-2,-3.070699E-2,1.8661452E-2,-6.9468044E-4,-6.3531944E-3],"split_indices":[38,8,20,7,8,0,7,20,21,19,16,0,0,0,0,0,0,0,0,0,0],"split_type":[0,0,0,0,0,0,0,0,0,0,0,0,0,0,0,0,0,0,0,0,0],"sum_hessian":[2.5094E4,2.5E4,9.4E1,2.531E3,2.2469E4,2.9E1,6.5E1,2.323E3,2.08E2,1.57E2,2.2312E4,2.5E1,4E1,1.349E3,9.74E2,1.73E2,3.5E1,1.2E2,3.7E1,2.1274E4,1.038E3],"tree_param":{"num_deleted":"0","num_feature":"58","num_nodes":"21","size_leaf_vector":"1"}},{"base_weights":[1.0245563E-3,6.599555E-3,-3.9958753E-2,4.439232E-3,9.012532E-2,-5.3491328E-2,4.3474376E-2,2.5276985E-2,-4.3934183E-3,5.3394116E-2,2.6664636E-1,-6.405033E-2,3.4070835E-2,2.2930865E-1,-3.505258E-2,4.106656E-3,-7.4384077E-3,-1.3436507E-3,2.21215E-3,2.950942E-3,3.3321958E-2,1.2488953E-2,3.1825196E-2,-7.571357E-3,5.032981E-4,-1.4038641E-3,1.3418761E-2,3.337335E-2,8.776291E-3,-4.055306E-2,3.9303323E-4],"categories":[],"categories_nodes":[],"categories_segments":[],"categories_sizes":[],"default_left":[0,0,0,0,0,0,0,0,0,0,0,0,0,0,0,0,0,0,0,0,0,0,0,0,0,0,0,0,0,0,0],"id":53,"left_children":[1,3,5,7,9,11,13,15,17,19,21,23,25,27,29,-1,-1,-1,-1,-1,-1,-1,-1,-1,-1,-1,-1,-1,-1,-1,-1],"loss_changes":[5.693804E0,3.9577894E0,3.3714557E0,3.9358914E0,3.5713205E0,2.3764758E0,6.0933185E0,1.0020631E1,3.6015046E0,3.0579147E0,6.55221E-1,1.847125E0,1.3360726E0,1.8035402E0,4.2476335E0,0E0,0E0,0E0,0E0,0E0,0E0,0E0,0E0,0E0,0E0,0E0,0E0,0E0,0E0,0E0,0E0],"parents":[2147483647,0,0,1,1,2,2,3,3,4,4,5,5,6,6,7,7,8,8,9,9,10,10,11,11,12,12,13,13,14,14],"right_children":[2,4,6,8,10,12,14,16,18,20,22,24,26,28,30,-1,-1,-1,-1,-1,-1,-1,-1,-1,-1,-1,-1,-1,-1,-1,-1],"split_conditions":[1.33E2,4E0,1E0,2E0,1E0,1E1,1E0,1.7E2,1E0,1E0,1.32E2,1E0,1E0,6E1,1E0,4.106656E-3,-7.4384077E-3,-1.3436507E-3,2.21215E-3,2.950942E-3,3.3321958E-2,1.2488953E-2,3.1825196E-2,-7.571357E-3,5.032981E-4,-1.4038641E-3,1.3418761E-2,3.337335E-2,8.776291E-3,-4.055306E-2,3.9303323E-4],"split_indices":[0,3,34,1,24,7,7,8,35,49,8,27,35,8,30,0,0,0,0,0,0,0,0,0,0,0,0,0,0,0,0],"split_type":[0,0,0,0,0,0,0,0,0,0,0,0,0,0,0,0,0,0,0,0,0,0,0,0,0,0,0,0,0,0,0],"sum_hessian":[2.4918E4,2.1935E4,2.983E3,2.1383E4,5.52E2,2.567E3,4.16E2,6.365E3,1.5018E4,4.58E2,9.4E1,2.291E3,2.76E2,1.23E2,2.93E2,5.495E3,8.7E2,1.1199E4,3.819E3,4.23E2,3.5E1,2.6E1,6.8E1,1.96E3,3.31E2,1.87E2,8.9E1,7E1,5.3E1,2.7E1,2.66E2],"tree_param":{"num_deleted":"0","num_feature":"58","num_nodes":"31","size_leaf_vector":"1"}},{"base_weights":[1.3964047E-3,3.2993709E-3,-8.11118E-2,1.2177519E-2,-1.6628308E-2,1.6777491E-2,-1.0043097E-1,1.0339005E-1,1.0142978E-2,-1.4413743E-2,-4.114796E-2,-1.427226E-1,1.3246195E-2,2.7633884E-3,5.2631952E-2,2.602375E-4,3.6669218E-3,7.440373E-4,-4.1492092E-3,-2.2061346E-2,-2.7226857E-3,-1.1553289E-2,1.5698096E-2],"categories":[],"categories_nodes":[],"categories_segments":[],"categories_sizes":[],"default_left":[0,0,0,0,0,0,0,0,0,0,0,0,0,0,0,0,0,0,0,0,0,0,0],"id":54,"left_children":[1,3,5,7,9,-1,11,13,15,17,-1,19,21,-1,-1,-1,-1,-1,-1,-1,-1,-1,-1],"loss_changes":[3.9280381E0,4.326449E0,2.7287219E0,3.1383333E0,6.5846024E0,0E0,2.521069E0,1.1808037E1,3.3100996E0,4.436242E0,0E0,3.43049E0,2.6650712E0,0E0,0E0,0E0,0E0,0E0,0E0,0E0,0E0,0E0,0E0],"parents":[2147483647,0,0,1,1,2,2,3,3,4,4,6,6,7,7,8,8,9,9,11,11,12,12],"right_children":[2,4,6,8,10,-1,12,14,16,18,-1,20,22,-1,-1,-1,-1,-1,-1,-1,-1,-1,-1],"split_conditions":[1.65E2,7.78E2,1E0,3.6E1,1E0,1.6777491E-2,1E0,1E0,6.18E2,8.9E1,-4.114796E-2,1E0,7E0,2.7633884E-3,5.2631952E-2,2.602375E-4,3.6669218E-3,7.440373E-4,-4.1492092E-3,-2.2061346E-2,-2.7226857E-3,-1.1553289E-2,1.5698096E-2],"split_indices":[0,17,45,17,44,0,56,13,17,8,0,7,6,0,0,0,0,0,0,0,0,0,0],"split_type":[0,0,0,0,0,0,0,0,0,0,0,0,0,0,0,0,0,0,0,0,0,0,0],"sum_hessian":[2.5015E4,2.4452E4,5.63E2,1.6916E4,7.536E3,4E1,5.23E2,3.68E2,1.6548E4,7.495E3,4.1E1,3.81E2,1.42E2,3.13E2,5.5E1,1.2886E4,3.662E3,4.148E3,3.347E3,2.27E2,1.54E2,7.5E1,6.7E1],"tree_param":{"num_deleted":"0","num_feature":"58","num_nodes":"23","size_leaf_vector":"1"}},{"base_weights":[-7.160147E-4,4.186159E-3,-3.0296084E-2,1.6973634E-1,6.5487507E-4,-1.37884505E-2,-9.577555E-2,2.630044E-1,-6.7340694E-2,-1.39991E-1,2.3115778E-3,-2.1787258E-2,1.7214784E-1,-1.2763315E-1,1.18323416E-1,-1.2107405E-2,3.196769E-2,-3.8053643E-2,2.3725426E-2,-2.2307966E-2,9.225436E-3,2.7861822E-4,-2.952059E-2,-1.1397085E-2,-8.337064E-4,-8.117378E-3,2.7689612E-2,-1.8660171E-2,-4.426562E-3,5.0583698E-2,-8.3592E-3],"categories":[],"categories_nodes":[],"categories_segments":[],"categories_sizes":[],"default_left":[0,0,0,0,0,0,0,0,0,0,0,0,0,0,0,0,0,0,0,0,0,0,0,0,0,0,0,0,0,0,0],"id":55,"left_children":[1,3,5,7,9,11,13,15,17,19,21,23,25,27,29,-1,-1,-1,-1,-1,-1,-1,-1,-1,-1,-1,-1,-1,-1,-1,-1],"loss_changes":[3.6178977E0,1.2512182E1,3.8326712E0,9.901649E0,4.883481E0,4.218669E0,4.885067E0,7.0258064E0,1.2205811E1,4.729037E0,2.9257028E0,3.3690634E0,3.1270726E0,3.049531E0,7.319064E0,0E0,0E0,0E0,0E0,0E0,0E0,0E0,0E0,0E0,0E0,0E0,0E0,0E0,0E0,0E0,0E0],"parents":[2147483647,0,0,1,1,2,2,3,3,4,4,5,5,6,6,7,7,8,8,9,9,10,10,11,11,12,12,13,13,14,14],"right_children":[2,4,6,8,10,12,14,16,18,20,22,24,26,28,30,-1,-1,-1,-1,-1,-1,-1,-1,-1,-1,-1,-1,-1,-1,-1,-1],"split_conditions":[1.27E2,5E1,6E0,1E0,7E1,5E0,1E0,2.7E1,1.1E2,1.15E2,1E0,4.2E1,1E0,6.123234E-17,1.21E2,-1.2107405E-2,3.196769E-2,-3.8053643E-2,2.3725426E-2,-2.2307966E-2,9.225436E-3,2.7861822E-4,-2.952059E-2,-1.1397085E-2,-8.337064E-4,-8.117378E-3,2.7689612E-2,-1.8660171E-2,-4.426562E-3,5.0583698E-2,-8.3592E-3],"split_indices":[0,17,6,57,17,6,27,8,5,0,46,17,40,20,5,0,0,0,0,0,0,0,0,0,0,0,0,0,0,0,0],"split_type":[0,0,0,0,0,0,0,0,0,0,0,0,0,0,0,0,0,0,0,0,0,0,0,0,0,0,0,0,0,0,0],"sum_hessian":[2.4948E4,2.1402E4,3.546E3,4.46E2,2.0956E4,2.833E3,7.13E2,3.2E2,1.26E2,2.43E2,2.0713E4,2.717E3,1.16E2,6.21E2,9.2E1,4.1E1,2.79E2,6.2E1,6.4E1,1.79E2,6.4E1,2.0681E4,3.2E1,3.45E2,2.372E3,3.4E1,8.2E1,3.63E2,2.58E2,3.1E1,6.1E1],"tree_param":{"num_deleted":"0","num_feature":"58","num_nodes":"31",