tree
version=v4
num_class=1
num_tree_per_iteration=1
label_index=0
max_feature_idx=26
objective=regression
feature_names=Column_0 Column_1 Column_2 Column_3 Column_4 Column_5 Column_6 Column_7 Column_8 Column_9 Column_10 Column_11 Column_12 Column_13 Column_14 Column_15 Column_16 Column_17 Column_18 Column_19 Column_20 Column_21 Column_22 Column_23 Column_24 Column_25 Column_26
feature_infos=[0:6] [0:5] [0:198] [0:10] [0:5] [0:2] [0:28] [0:35] [0:7] [0:24] [0:5377] [0:49] [0:60] [0:195] [0:1] [0:1] [0:1] [0:1] [0:1] [0:1] [0:1] [0:1] [1:1749] [0:6] [0:1] [-1:1] [0:3]
tree_sizes=5701 5655 5737 5643 5598 5639 5728 5627 5681 5609 5653 5665 5659 5588 5695

Tree=0
num_leaves=63
num_cat=0
split_feature=3 3 24 24 11 11 11 2 2 10 9 13 2 2 11 9 6 2 9 3 3 10 3 6 11 0 9 11 13 10 13 6 13 9 2 6 0 2 13 11 3 2 0 0 2 6 13 19 9 13 10 6 13 11 13 2 0 3 2 11 13 0
split_gain=138.56 56.7732 49.0422 48.1373 27.2027 26.101 25.7 18.5525 18.5352 15.9228 15.4871 14.9824 12.8202 12.8615 11.7295 11.1685 11.0653 10.7726 10.4005 10.3315 9.59303 9.53887 8.6652 8.06955 7.91687 7.4293 7.42161 7.09194 7.00836 6.58507 6.47668 6.45858 6.42885 7.63583 10.376 10.1984 6.19182 6.11298 5.99397 8.97244 5.72718 5.72574 7.83184 5.72352 5.51455 5.33767 5.32443 5.18155 5.54376 5.14231 7.61377 7.18801 7.09789 7.74913 7.20597 5.10965 5.0807 5.04491 5.45304 7.1565 4.92532 6.68894
threshold=1.5000000000000002 3.5000000000000004 1.0000000180025095e-35 1.0000000180025095e-35 3.5000000000000004 5.5000000000000009 4.5000000000000009 141.50000000000003 170.50000000000003 626.00000000000011 11.500000000000002 175.50000000000003 154.50000000000003 13.500000000000002 2.5000000000000004 8.0000000000000018 9.5000000000000018 33.500000000000007 2.5000000000000004 5.5000000000000009 5.5000000000000009 896.50000000000011 1.0000000180025095e-35 6.5000000000000009 16.500000000000004 4.5000000000000009 11.500000000000002 19.000000000000004 38.500000000000007 1769.0000000000002 166.50000000000003 8.5000000000000018 165.50000000000003 1.5000000000000002 166.50000000000003 1.0000000180025095e-35 4.5000000000000009 180.50000000000003 28.500000000000004 14.500000000000002 9.5000000000000018 141.50000000000003 1.0000000180025095e-35 5.5000000000000009 44.500000000000007 1.5000000000000002 35.500000000000007 1.0000000180025095e-35 3.5000000000000004 129.50000000000003 298.00000000000006 6.5000000000000009 88.500000000000014 27.000000000000004 81.500000000000014 39.500000000000007 2.5000000000000004 1.0000000180025095e-35 97.500000000000014 11.500000000000002 122.50000000000001 3.5000000000000004
decision_type=2 2 2 2 2 2 2 2 2 2 2 2 2 2 2 2 2 2 2 2 2 2 2 2 2 2 2 2 2 2 2 2 2 2 2 2 2 2 2 2 2 2 2 2 2 2 2 2 2 2 2 2 2 2 2 2 2 2 2 2 2 2
left_child=3 24 5 6 21 7 22 9 19 16 23 14 13 45 25 32 18 -13 -3 -7 -15 41 -1 38 44 60 27 47 -9 37 40 -29 33 34 -16 -35 -34 -24 39 -8 46 42 -4 -25 -2 -6 -20 -22 -49 51 -51 52 53 54 -21 -44 -46 58 -37 -60 61 -5
right_child=1 2 4 11 12 8 10 28 -10 -11 -12 17 -14 20 15 -17 -18 -19 30 49 26 -23 29 43 -26 -27 -28 31 -30 -31 -32 -33 36 35 -36 57 -38 -39 -40 -41 -42 -43 55 -45 56 -47 -48 48 -50 50 -52 -53 -54 -55 -56 -57 -58 -59 59 -61 -62 -63
leaf_value=0.0067210194441276192 -0.02168979011449151 0.013767671793489667 0.13665426274959613 0.015293829433902265 0.0094071211082147055 0.034989088803197003 -0.035135761079342728 -0.090916217629716578 -0.093387004499809495 -0.016914946687076444 0.02555245085325979 0.16200433061383285 -0.052994694794062644 0.11937481128298001 0.080925262905635009 -0.0022885920726826766 0.083733752141211953 0.059681491716972353 0.044182968332099476 -0.025380475389868776 0.0087845076201590946 -0.007144928318248916 0.025898355697541214 -0.018052545098166679 -0.059181239643257721 0.031776860583023883 0.067018798115153114 -0.02490811280484604 -0.026101718483874485 -0.020982073280231783 0.026366107966778039 0.040198272058924928 0.031689020471588565 0.14329710358751571 -0.027942908980671231 -0.0096779740268982586 -0.029117483949931904 -0.056947696844345107 -0.006235718196802768 0.036449931911252238 -0.077946270594602601 7.0918263464663268e-05 0.020373845571309911 -0.064640913079091714 -0.052823283408066087 -0.029036104173807628 -0.007558377961668832 0.12097899583786981 0.028948374150505558 -0.032350054633337622 -0.0026491821723550334 -0.042624828078702867 -0.034490727105619498 0.023356781251895869 0.012244411397284143 0.043612681888158498 -0.028078644708718979 0.035641585882406901 -0.01456028195514193 0.072743050938509954 0.041877093577698664 0.093251034574895211
leaf_weight=1911 1322 2148 31 53 191 128 91 72 146 1969 677 47 182 32 240 567 69 331 82 1117 1128 266 3431 525 463 631 84 397 912 129 251 72 136 30 41 264 132 36 3030 304 45 186 594 132 637 593 2666 32 144 527 1001 864 1027 203 249 1043 693 690 63 93 238 260
leaf_count=1911 1322 2148 31 53 191 128 91 72 146 1969 677 47 182 32 240 567 69 331 82 1117 1128 266 3431 525 463 631 84 397 912 129 251 72 136 30 41 264 132 36 3030 304 45 186 594 132 637 593 2666 32 144 527 1001 864 1027 203 249 1043 693 690 63 93 238 260
internal_value=6.89797e-09 -0.0100758 -0.00585943 0.0154306 0.0111108 -0.0121244 0.00830142 -0.0050795 -0.0231216 -0.00157293 -0.00246312 0.0346101 -0.00163311 0.00186401 0.0304547 0.0219988 0.00416903 0.0724042 0.00311164 -0.0211163 0.0108016 0.0282731 0.0176038 -0.0071095 -0.0350503 0.0465937 0.00893062 0.00617855 -0.0308442 0.0233872 -0.00440779 -0.0149131 0.0301522 0.0355108 0.0650406 0.028232 0.00173955 0.0250381 -0.00321483 0.019958 -0.00717337 0.0333547 0.0370662 -0.0274128 -0.0308374 -0.0196705 -0.00601442 0.0137644 0.0456812 -0.0225561 -0.0128929 -0.0268236 -0.0215646 -0.0131037 -0.0185221 0.0351803 -0.03993 0.0251221 0.00784005 0.0374859 0.0635619 0.0800506
internal_weight=0 21566 18451 14082 4975 13476 10266 8214 5262 7230 4759 3816 2855 2673 3438 2256 5261 378 5192 5116 1889 2120 5507 4082 3115 1182 1857 1773 984 3596 3044 469 1689 1421 281 1140 268 3467 3425 395 2793 1854 1668 657 2652 784 2748 1304 176 4988 1528 3460 2596 1569 1366 1637 1330 1110 420 156 551 313
internal_count=35648 21566 18451 14082 4975 13476 10266 8214 5262 7230 4759 3816 2855 2673 3438 2256 5261 378 5192 5116 1889 2120 5507 4082 3115 1182 1857 1773 984 3596 3044 469 1689 1421 281 1140 268 3467 3425 395 2793 1854 1668 657 2652 784 2748 1304 176 4988 1528 3460 2596 1569 1366 1637 1330 1110 420 156 551 313
is_linear=0
shrinkage=1


Tree=1
num_leaves=63
num_cat=0
split_feature=5 5 24 3 13 11 11 23 13 3 3 10 23 7 6 6 6 7 23 7 13 13 3 7 13 7 3 0 7 13 0 3 0 23 7 13 13 13 0 23 6 13 10 13 13 3 11 11 23 11 6 10 23 6 11 6 0 10 13 10 3 0
split_gain=501.529 169.351 80.1775 40.1478 22.6977 16.667 16.2052 14.9618 13.982 9.37965 20.312 9.05161 8.68218 9.50162 8.53969 8.29508 7.30901 7.07896 6.70031 6.62406 6.43028 11.3914 10.4813 6.1896 5.98401 5.7066 5.35374 5.21741 5.10007 5.06835 9.51024 5.51339 9.56305 4.91071 4.86969 6.45493 5.40109 4.66988 4.66437 4.6453 9.00807 7.51824 6.49662 8.17032 5.30108 5.16249 11.2687 6.27901 4.56995 4.29456 4.27484 4.24308 5.6109 4.21186 4.16566 4.08101 5.63992 3.98312 7.76255 3.97987 4.26993 9.18214
threshold=1.0000000180025095e-35 1.5000000000000002 1.0000000180025095e-35 2.5000000000000004 37.500000000000007 4.5000000000000009 4.5000000000000009 2.5000000000000004 128.50000000000003 1.5000000000000002 3.5000000000000004 1003.5000000000001 5.5000000000000009 2.5000000000000004 1.0000000180025095e-35 6.5000000000000009 7.5000000000000009 5.5000000000000009 1.0000000180025095e-35 11.000000000000002 164.50000000000003 158.50000000000003 5.5000000000000009 1.0000000180025095e-35 20.500000000000004 7.0000000000000009 1.5000000000000002 1.5000000000000002 5.5000000000000009 28.500000000000004 1.5000000000000002 1.5000000000000002 1.0000000180025095e-35 1.0000000180025095e-35 2.5000000000000004 53.500000000000007 75.500000000000014 24.500000000000004 3.5000000000000004 5.5000000000000009 2.5000000000000004 173.50000000000003 212.50000000000003 31.500000000000004 64.500000000000014 1.5000000000000002 16.500000000000004 14.500000000000002 5.5000000000000009 23.000000000000004 2.5000000000000004 505.50000000000006 3.5000000000000004 6.5000000000000009 1.5000000000000002 20.500000000000004 1.0000000180025095e-35 212.50000000000003 180.50000000000003 1769.0000000000002 1.0000000180025095e-35 1.0000000180025095e-35
decision_type=2 2 2 2 2 2 2 2 2 2 2 2 2 2 2 2 2 2 2 2 2 2 2 2 2 2 2 2 2 2 2 2 2 2 2 2 2 2 2 2 2 2 2 2 2 2 2 2 2 2 2 2 2 2 2 2 2 2 2 2 2 2
left_child=3 2 6 26 7 12 9 -3 15 17 -11 29 13 -4 -15 37 20 59 -13 39 21 22 -12 33 -9 -19 49 -23 -16 31 -31 -8 -33 -24 35 -6 -37 -5 -21 40 44 42 -41 -44 45 46 -7 -47 -38 -1 -36 52 -42 -34 57 56 -18 58 -22 60 61 -2
right_child=1 4 5 8 34 19 11 24 -10 10 16 18 -14 14 28 -17 55 25 -20 38 54 27 23 -25 -26 -27 -28 -29 -30 30 -32 32 53 -35 50 36 48 -39 -40 41 51 -43 43 -45 -46 47 -48 -49 -50 -51 -52 -53 -54 -55 -56 -57 -58 -59 -60 -61 -62 -63
leaf_value=-0.03989334221895751 -0.019363621158419914 -0.072778232079563729 0.038977734525470348 -0.040910784798464654 0.010104658206303914 0.13770646089819116 0.02963170366514899 0.0018787877261638643 -0.046542013071958613 -0.023545469874895017 0.082592804182933854 0.031410832524790551 0.050587899444435175 0.10260589358053709 -0.022092516453088268 -0.092734254577330186 0.087385084387961401 -0.02795451466739178 0.0059487490235196686 0.061005050294539509 0.10478339003192055 0.028836327205811231 -0.0023932484635659432 -0.0017162760044280576 0.11197628791515644 0.0112143565116774 -0.014677336674718676 0.11273722582393222 0.017632610019296408 -0.014795731231619572 0.0015169037849130187 0.049488700005329317 -0.0061505373405958338 0.019350109292855067 -0.17787888018708481 -0.13748954785042916 -0.084738874075772852 -0.068902349428252116 -0.0019098525273934055 0.047996229042791522 -0.070244487126668295 0.06828834350544058 -0.046979979998790306 0.023205309621423382 0.019294412628767771 -0.026992021670172874 0.034939029046865265 0.05290771462903248 -0.023949270961540089 0.0029890352604435943 -0.10168749200649391 0.020733384252713132 -0.0003559925400748335 -0.056376942937177689 -0.01841947901698332 0.004341858585938713 0.030761628147835535 -0.0032608358923877992 0.00095023209694772954 -0.009018763173371554 0.027804283500275806 0.022075116989094465
leaf_weight=1110 265 66 1947 271 30 71 377 40 1409 762 79 516 1670 38 191 560 89 200 2079 51 45 56 523 1390 39 581 738 63 400 2360 3626 108 277 2021 38 69 424 1982 622 348 51 219 78 444 460 57 107 127 56 102 131 373 464 88 504 151 336 350 80 160 2670 1109
leaf_count=1110 265 66 1947 271 30 71 377 40 1409 762 79 516 1670 38 191 560 89 200 2079 51 45 56 523 1390 39 581 738 63 400 2360 3626 108 277 2021 38 69 424 1982 622 348 51 219 78 444 460 57 107 127 56 102 131 373 464 88 504 151 336 350 80 160 2670 1109
internal_value=0 0.0108552 0.0135348 -0.051842 -0.0749112 0.0309512 0.0070924 -0.0024906 -0.0628044 0.0121545 0.00711817 0.00095524 0.0393556 0.0320738 0.0107033 -0.07095 0.0112268 0.0186698 0.0110117 0.0206733 0.00881979 0.0122728 0.0104645 0.00901608 0.0562307 0.00118392 -0.028107 0.0732545 0.0047942 -0.00286228 -0.00491441 0.0115895 -0.00279089 0.0148801 -0.0889499 -0.0802316 -0.085168 -0.0655354 0.00285784 0.0249569 0.0184548 0.0351667 0.0268292 0.0127179 0.0335423 0.0516474 0.0759305 0.0281562 -0.0776468 -0.0362844 -0.118819 0.00448863 -0.00727699 -0.0182599 -0.00575428 0.0325847 0.0426192 0.00768417 0.0383302 0.0219183 0.0231423 0.0140829
internal_weight=0 29476 28583 6172 893 7718 20865 145 4222 11434 6449 9431 4246 2576 629 2813 5687 4985 2595 3472 5111 4132 4013 3934 79 781 1950 119 591 6836 5986 850 473 2544 748 579 549 2253 673 2799 1710 1089 870 522 822 362 178 184 480 1212 169 888 515 365 979 576 425 475 125 4204 4044 1374
internal_count=35648 29476 28583 6172 893 7718 20865 145 4222 11434 6449 9431 4246 2576 629 2813 5687 4985 2595 3472 5111 4132 4013 3934 79 781 1950 119 591 6836 5986 850 473 2544 748 579 549 2253 673 2799 1710 1089 870 522 822 362 178 184 480 1212 169 888 515 365 979 576 425 475 125 4204 4044 1374
is_linear=0
shrinkage=0.2


Tree=2
num_leaves=63
num_cat=0
split_feature=3 3 11 23 18 23 8 3 18 12 19 3 16 6 10 12 6 23 10 10 8 6 11 16 26 12 12 23 6 17 6 3 10 6 23 26 23 12 11 3 26 14 10 26 6 23 6 10 26 10 10 18 6 11 10 10 10 23 10 10 26 11
split_gain=59.4637 29.071 21.1381 19.5498 19.5916 15.6184 13.8694 12.0841 9.89059 9.65306 8.86868 7.73445 7.27342 8.87958 6.48859 6.98945 6.30035 6.33772 6.23391 6.00637 6.56541 7.93409 5.73484 5.67812 5.63192 5.53443 5.36794 5.57464 5.12769 5.0724 4.94161 7.76407 6.3974 4.88537 4.54105 5.10528 4.76127 5.58632 4.51481 4.51033 4.31217 4.20668 4.1063 3.88675 3.84458 3.65349 9.36922 3.91085 3.70306 3.62748 4.10688 3.60292 3.7937 3.53132 4.26374 4.15703 4.30321 3.52644 5.44384 4.47015 4.63123 7.16275
threshold=1.5000000000000002 3.5000000000000004 5.5000000000000009 5.5000000000000009 1.0000000180025095e-35 4.5000000000000009 1.0000000180025095e-35 5.5000000000000009 1.0000000180025095e-35 1.0000000180025095e-35 1.0000000180025095e-35 8.5000000000000018 1.0000000180025095e-35 10.500000000000002 1228.0000000000002 4.5000000000000009 1.0000000180025095e-35 4.5000000000000009 102.00000000000001 715.00000000000011 1.0000000180025095e-35 1.5000000000000002 13.000000000000002 1.0000000180025095e-35 1.0000000180025095e-35 7.5000000000000009 11.500000000000002 3.5000000000000004 10.500000000000002 1.0000000180025095e-35 2.5000000000000004 1.0000000180025095e-35 185.50000000000003 1.0000000180025095e-35 1.5000000000000002 1.0000000180025095e-35 4.5000000000000009 4.5000000000000009 1.0000000180025095e-35 6.5000000000000009 1.0000000180025095e-35 1.0000000180025095e-35 600.50000000000011 2.5000000000000004 12.000000000000002 5.5000000000000009 4.5000000000000009 633.50000000000011 2.5000000000000004 413.50000000000006 395.00000000000006 1.0000000180025095e-35 1.0000000180025095e-35 1.0000000180025095e-35 356.00000000000006 88.000000000000014 198.50000000000003 1.5000000000000002 212.50000000000003 3720.5000000000005 1.5000000000000002 13.000000000000002
decision_type=2 2 2 2 2 2 2 2 2 2 2 2 2 2 2 2 2 2 2 2 2 2 2 2 2 2 2 2 2 2 2 2 2 2 2 2 2 2 2 2 2 2 2 2 2 2 2 2 2 2 2 2 2 2 2 2 2 2 2 2 2 2
left_child=3 22 5 4 12 8 7 -4 11 -10 19 23 13 30 15 28 18 -18 -9 20 45 -22 41 29 -21 -26 27 43 -5 -3 32 57 -1 42 -34 -36 49 -38 -33 -8 -11 -2 53 -25 -17 47 48 51 -47 50 -37 52 -7 54 55 -31 -57 59 -59 60 61 -32
right_child=1 2 6 14 -6 10 39 16 9 40 -12 -13 -14 -15 -16 44 17 -19 -20 24 21 -23 -24 26 25 -27 -28 -29 -30 33 31 38 34 -35 35 36 37 -39 -40 -41 -42 -43 -44 -45 -46 46 -48 -49 -50 -51 -52 -53 -54 -55 -56 56 -58 58 -60 -61 -62 -63
leaf_value=0.022709961665606831 -0.02133054501865447 -0.007673311285332148 0.044534784174439589 0.05565446871718404 -0.0098608272074751663 0.018365914777991522 0.008513377253855205 -0.064728410216509422 0.084386847168207171 0.04264856254825225 0.090862522870302206 -0.055494989184983849 0.027014973917868147 -0.022668187449056056 -0.0027293244221558172 0.016794078905729651 -0.01841894597626376 -0.002846365351676513 -0.021534431186752231 0.029193071295301638 0.10502007285485399 0.019845458252407681 -0.040559585850037966 0.039269176923053373 -0.024200448146227627 0.035015461802482606 -0.0032521431176167613 0.092500873825006324 -0.011520471165374834 -0.022360958158969879 -0.0017228111542843202 0.051346230665139395 0.019748023037404361 -0.0029827507680245478 0.020728134277333974 -0.0065487945130102742 0.0046798495901009393 0.074514975265732836 0.010474279607968548 0.083859905058687387 -0.00056637096741356447 0.02842149168252945 0.063605711216989311 -0.022556411278875255 0.071215881590257615 0.023232214155763684 0.070737052572016818 0.070469736190218679 -0.012021378193719266 -0.019670558893114649 0.04661684717450823 0.04717039179645087 -0.0072524429485201838 -0.010505961973844848 -0.029371009006145157 0.096034638390496932 0.030990283877560587 -0.027784971373597374 0.0010888888431522113 0.051576412855824344 0.019839393356972834 -0.087870200540946464
leaf_weight=2246 2355 5717 132 628 2149 362 859 202 88 130 60 116 1036 334 192 583 4189 1393 395 154 74 107 690 142 399 75 265 57 49 41 182 113 888 1020 439 237 252 56 2496 33 319 70 76 57 57 505 147 38 156 653 77 76 640 161 47 54 165 485 566 79 236 49
leaf_count=2246 2355 5717 132 628 2149 362 859 202 88 130 60 116 1036 334 192 583 4189 1393 395 154 74 107 690 142 399 75 265 57 49 41 182 113 888 1020 439 237 252 56 2496 33 319 70 76 57 57 505 147 38 156 653 77 76 640 161 47 54 165 485 566 79 236 49
internal_value=0 -0.00660064 -0.00358351 0.0101086 0.00752697 0.00183366 -0.0120428 -0.0153422 -0.00244975 0.0238169 0.0148004 -0.00423116 0.0111116 0.00935662 0.0316188 0.0366262 -0.0166213 -0.0145328 -0.0361495 0.0131306 0.0182517 0.0546682 -0.0244719 -0.00346897 -0.00403517 -0.0148308 0.016701 0.0373557 0.0507925 -0.00491225 0.010538 0.00552163 0.0148901 0.00518043 0.00814013 0.00212624 -0.00427865 0.0173771 0.0122445 0.0113009 0.0119457 -0.0198944 0.0204864 0.0215603 0.021641 0.0148259 0.0250684 0.00741012 0.0149122 -0.0111763 0.00648864 0.00518724 0.00200289 0.0134841 0.0260652 0.0360864 0.0470286 -0.00546146 -0.0122354 0.00757773 0.000134701 -0.0199965
internal_weight=0 21566 18451 14082 12573 11248 7203 6311 8455 537 2793 7918 10424 9388 1509 1317 6179 5582 597 2733 2105 181 3115 7802 628 474 521 256 677 7281 9054 4206 4848 1564 2602 1714 1275 308 2609 892 449 2425 544 199 640 1924 808 1116 661 967 314 1078 1002 468 307 260 219 1597 1051 546 467 231
internal_count=35648 21566 18451 14082 12573 11248 7203 6311 8455 537 2793 7918 10424 9388 1509 1317 6179 5582 597 2733 2105 181 3115 7802 628 474 521 256 677 7281 9054 4206 4848 1564 2602 1714 1275 308 2609 892 449 2425 544 199 640 1924 808 1116 661 967 314 1078 1002 468 307 260 219 1597 1051 546 467 231
is_linear=0
shrinkage=0.2


Tree=3
num_leaves=63
num_cat=0
split_feature=5 5 24 22 2 1 13 22 26 22 2 22 22 2 6 2 26 22 0 22 22 22 0 2 26 22 2 6 13 8 26 22 22 24 22 22 22 0 26 13 13 0 2 22 0 22 13 2 26 6 26 8 2 12 13 13 12 26 13 22 13 13
split_gain=296.009 108.141 39.2626 16.9328 16.3067 14.4146 14.2442 13.6098 10.8127 10.5193 11.1589 11.3612 9.42745 8.87481 8.40601 8.10698 7.30541 6.80123 8.93049 7.80531 7.48212 6.40133 9.49991 5.66003 5.46477 5.36551 9.427 5.21734 5.12578 5.10085 5.08092 5.31418 5.05396 4.94084 4.63157 4.46153 4.42511 7.14425 6.42848 4.10885 6.75073 5.67017 5.43599 4.08391 4.04786 3.97606 6.56027 6.32157 6.04917 4.14199 3.94542 6.7331 5.23769 3.96248 3.92471 3.89578 3.87148 3.82951 3.77288 7.61968 3.76549 4.17949
threshold=1.0000000180025095e-35 1.5000000000000002 1.0000000180025095e-35 122.50000000000001 74.500000000000014 2.5000000000000004 48.500000000000007 259.00000000000006 2.5000000000000004 259.00000000000006 148.50000000000003 33.500000000000007 186.50000000000003 173.50000000000003 5.5000000000000009 1.0000000180025095e-35 1.5000000000000002 38.500000000000007 5.5000000000000009 79.000000000000014 79.000000000000014 953.00000000000011 5.5000000000000009 10.500000000000002 1.0000000180025095e-35 25.500000000000004 192.50000000000003 5.5000000000000009 138.50000000000003 1.0000000180025095e-35 1.0000000180025095e-35 16.000000000000004 216.00000000000003 1.0000000180025095e-35 198.50000000000003 16.000000000000004 229.50000000000003 4.5000000000000009 1.0000000180025095e-35 78.500000000000014 88.500000000000014 5.5000000000000009 11.500000000000002 274.50000000000006 1.0000000180025095e-35 32.500000000000007 92.500000000000014 82.500000000000014 1.0000000180025095e-35 1.0000000180025095e-35 1.5000000000000002 3.5000000000000004 137.50000000000003 8.5000000000000018 65.500000000000014 171.50000000000003 20.500000000000004 1.0000000180025095e-35 127.50000000000001 149.00000000000003 174.50000000000003 168.50000000000003
decision_type=2 2 2 2 2 2 2 2 2 2 2 2 2 2 2 2 2 2 2 2 2 2 2 2 2 2 2 2 2 2 2 2 2 2 2 2 2 2 2 2 2 2 2 2 2 2 2 2 2 2 2 2 2 2 2 2 2 2 2 2 2 2
left_child=5 2 9 4 28 12 7 -3 60 10 11 30 -1 15 -13 24 -9 25 20 -20 -19 22 32 44 -14 -12 -27 33 35 45 -2 -32 58 55 -10 -4 37 -34 -39 -25 -41 43 -43 -42 -11 46 -6 -47 -49 -50 51 52 -38 -54 -35 -7 -17 -16 59 -5 61 -8
right_child=1 6 3 21 29 27 8 16 34 23 17 14 13 -15 57 56 -18 18 19 -21 -22 -23 -24 39 -26 26 -28 -29 -30 -31 31 -33 36 54 -36 -37 50 38 -40 40 41 42 -44 -45 -46 47 -48 48 49 -51 -52 -53 53 -55 -56 -57 -58 -59 -60 -61 -62 -63
leaf_value=-0.024576046871061023 0.11841023097244592 0.044761919272079898 0.14505467176437378 -0.031095734983682635 -0.072686296739639375 -0.016310302010417856 -0.061525657205354606 -0.011514706081814235 -0.17164056501958683 -0.0042068188166183851 -0.014742926419636267 0.012346057134045865 -0.03596900645055269 -0.099759068938552353 0.01093639814210209 -0.044141895252663294 -0.11033253800450711 0.023783172438771739 -0.020751149007459967 0.086344160065974729 -0.027514304325870993 0.0037151615653845159 0.10937336446071158 0.007306752208276689 -0.09336719997904519 -0.13932600474875909 0.0047806492044279976 0.024072121734350499 0.14515595615375787 0.082844263981831701 -0.027834618428061089 0.066831273297862245 0.089196780062495526 -0.0007430015071745842 -0.097648588585434487 0.057957198833106863 0.01713470495218012 0.086489925384521493 -0.00923885373359031 -0.036989174473403705 -0.035128865641566503 -0.050011955757462791 -0.0069600517120782497 0.0032038224489763564 0.01568698517816617 -0.037054261498981049 0.034961018518165306 0.076021773454693853 0.015309262325389506 0.068481313784917203 0.027526137923347845 0.079580131723330574 0.0063946637782183562 -0.052989001787806814 -0.086808378127083863 0.052829966512886253 -0.015567946149476208 0.054804676952254439 -0.0085125470360120133 0.034497522490171649 -0.019921644859843785 -0.13893136640389761
leaf_weight=940 52 89 30 92 39 274 399 63 46 511 122 4463 95 122 110 4045 57 173 41 81 332 917 49 3415 220 46 30 142 64 76 31 101 104 31 128 109 2118 40 94 202 113 126 1702 6874 2052 45 54 142 268 75 2468 65 110 76 67 37 199 288 375 308 81 30
leaf_count=940 52 89 30 92 39 274 399 63 46 511 122 4463 95 122 110 4045 57 173 41 81 332 917 49 3415 220 46 30 142 64 76 31 101 104 31 128 109 2118 40 94 202 113 126 1702 6874 2052 45 54 142 268 75 2468 65 110 76 67 37 199 288 375 308 81 30
internal_value=0 0.00833957 0.0104808 0.0226685 0.04842 -0.0398278 -0.0601964 -0.0145003 -0.0741591 0.00597254 0.01315 0.0166762 -0.0428539 -0.0465243 0.0148297 -0.0450998 -0.0584532 -0.00841381 0.00179078 0.0503531 -0.00994111 0.0192607 0.0216772 0.00316284 -0.0760566 -0.0407284 -0.0824418 -0.00895693 0.09832 0.0339284 0.0654588 0.0445991 0.0209427 -0.0204242 -0.11721 0.0767552 0.0232399 0.0498639 0.0193369 0.00139855 -0.000839061 -1.06637e-05 -0.00992752 0.00258387 0.0117206 0.0279611 -0.0101814 0.034654 0.0413074 0.0269358 0.0219299 0.0160997 0.0143088 -0.0178696 -0.0595836 -0.00808461 -0.0428021 0.0426803 0.00589964 0.0194111 -0.0594712 -0.0669386
internal_weight=0 29476 28583 7718 902 6172 893 209 684 20865 5870 5045 5621 4681 4861 4559 120 825 627 122 505 6816 5899 14995 315 198 76 551 203 699 184 132 5850 409 174 139 5075 238 134 12432 9017 8815 1828 6987 2563 623 93 530 485 343 4837 2369 2304 186 98 311 4244 398 775 400 510 429
internal_count=35648 29476 28583 7718 902 6172 893 209 684 20865 5870 5045 5621 4681 4861 4559 120 825 627 122 505 6816 5899 14995 315 198 76 551 203 699 184 132 5850 409 174 139 5075 238 134 12432 9017 8815 1828 6987 2563 623 93 530 485 343 4837 2369 2304 186 98 311 4244 398 775 400 510 429
is_linear=0
shrinkage=0.2


Tree=4
num_leaves=63
num_cat=0
split_feature=5 5 3 22 13 22 13 26 7 22 2 22 2 26 2 3 22 2 3 9 22 22 7 2 9 22 22 6 26 22 22 26 2 13 9 13 13 26 3 7 9 2 2 3 3 3 13 2 2 6 3 26 22 26 22 2 3 26 3 7 19 9
split_gain=189.446 69.2101 22.0145 10.1474 9.11631 8.83904 7.07686 6.92012 6.85639 11.6668 7.45631 7.1083 18.861 7.59471 9.92104 6.44056 6.08365 5.67679 5.58117 5.53462 5.28892 4.98925 4.98674 4.63879 4.49414 4.46696 4.21458 4.44126 3.76784 5.70723 3.88103 3.75802 5.85981 3.73524 11.0485 3.58697 7.113 3.71943 3.51544 3.50451 3.66126 3.4563 3.38866 4.96467 3.32785 10.7674 6.37491 3.13789 3.12154 3.10387 3.02752 2.94946 2.91987 2.87414 2.85394 3.00578 2.61265 3.93643 5.19709 3.37736 2.5292 2.52001
threshold=1.0000000180025095e-35 1.5000000000000002 2.5000000000000004 259.00000000000006 48.500000000000007 348.50000000000006 132.50000000000003 2.5000000000000004 1.5000000000000002 30.000000000000004 35.500000000000007 33.500000000000007 145.50000000000003 1.5000000000000002 57.500000000000007 1.5000000000000002 99.500000000000014 76.500000000000014 7.5000000000000009 5.5000000000000009 57.500000000000007 274.50000000000006 5.5000000000000009 56.500000000000007 5.5000000000000009 278.50000000000006 355.00000000000006 6.5000000000000009 1.0000000180025095e-35 116.00000000000001 651.50000000000011 2.5000000000000004 105.50000000000001 13.500000000000002 1.0000000180025095e-35 27.500000000000004 43.500000000000007 2.5000000000000004 1.5000000000000002 9.0000000000000018 1.0000000180025095e-35 160.50000000000003 141.50000000000003 1.5000000000000002 9.5000000000000018 7.5000000000000009 78.500000000000014 62.500000000000007 184.50000000000003 7.5000000000000009 1.0000000180025095e-35 2.5000000000000004 49.000000000000007 1.5000000000000002 852.00000000000011 126.50000000000001 1.5000000000000002 1.5000000000000002 5.5000000000000009 1.0000000180025095e-35 1.0000000180025095e-35 4.5000000000000009
decision_type=2 2 2 2 2 2 2 2 2 2 2 2 2 2 2 2 2 2 2 2 2 2 2 2 2 2 2 2 2 2 2 2 2 2 2 2 2 2 2 2 2 2 2 2 2 2 2 2 2 2 2 2 2 2 2 2 2 2 2 2 2 2
left_child=2 3 15 8 5 19 18 22 10 -10 56 12 13 14 -12 52 -11 23 20 53 41 31 28 -15 -9 50 60 -28 30 -30 47 -5 -33 34 -13 -35 37 -37 48 40 -22 -4 44 -44 45 -27 -46 -6 -14 -7 -23 -29 -1 -3 55 -31 59 -58 -59 -2 -8 -54
right_child=1 4 6 21 7 49 26 24 9 16 11 33 38 17 -16 -17 -18 -19 -20 -21 39 25 -24 -25 -26 42 27 51 29 54 -32 32 -34 35 -36 36 -38 -39 -40 -41 -42 -43 43 -45 46 -47 -48 -49 -50 -51 -52 -53 61 -55 -56 -57 57 58 -60 -61 -62 -63
leaf_value=0.035420353846116498 0.036375351367273122 -0.041525479290220477 0.033377458651860557 -0.028114127579148381 -0.034389606827781319 -0.1127370122820139 -0.0056304155017739988 -0.11951200455989477 -0.1001510069112886 0.035941137925942161 0.04848555260896683 -0.036863792531750282 -0.0090513916256336063 0.058783735196899493 0.16911250596245131 0.00044331803594824422 -0.0016242376660647742 0.10703782501017177 -0.11150919032096862 0.088220278322696688 -0.060389917375559501 -0.013354248114121267 -0.095581336319446569 -0.027146763370392169 -0.053637001444311709 0.0068025448687820348 -0.044907840052221579 -0.02552634007400937 -0.11865258968538708 -0.041095851890502438 -0.058268087419370812 0.060025926040751604 -0.036312371605764268 0.033254475597658255 0.024084044456481934 -0.0075699112929735971 0.0139434987889108 -0.067216797996508454 -0.028135425908887974 -0.060347247392611394 -0.03881459845491933 -0.041726665025533634 0.011827459944507634 -0.01465460292948215 -0.089780859839988916 0.11480018883138091 0.016611578106880187 0.036412360879682727 0.064749628923288213 -0.031626823933228208 0.04890722400230018 0.025360860003799692 -0.033981170059492187 0.027821547596477997 -0.084885764756101253 0.027125223798136557 0.0036354200753602921 -0.018720491493449492 0.0522624112803627 0.087312804419418868 -0.059165481191415049 -0.015485382110961361
leaf_weight=33 509 45 57 287 42 32 372 106 44 207 50 227 52 54 60 738 1033 41 50 35 376 39 74 47 68 18710 585 180 45 155 54 56 46 346 250 157 4107 57 122 532 1927 43 468 717 41 37 50 62 41 46 157 61 600 51 47 31 246 51 216 58 39 579
leaf_count=33 509 45 57 287 42 32 372 106 44 207 50 227 52 54 60 738 1033 41 50 35 376 39 74 47 68 18710 585 180 45 155 54 56 46 346 250 157 4107 57 122 532 1927 43 468 717 41 37 50 62 41 46 157 61 600 51 47 31 246 51 216 58 39 579
internal_value=0 0.00667166 -0.0318622 0.00838464 -0.0481571 -0.0116003 -0.0399799 -0.0593273 0.0144423 0.00105556 0.0170112 0.0140821 0.0377078 0.0748333 0.114282 -0.0142865 0.00464676 0.0442745 -0.045251 0.0201371 -0.0441223 0.0060404 -0.047577 0.0187963 -0.0937678 0.00647205 -0.0272601 -0.0354949 -0.0394295 -0.0534459 -0.0147676 -0.016395 0.0165792 0.0119372 -0.00492048 0.0136602 0.0120912 -0.0234572 -0.00580679 -0.0457168 -0.0423371 0.00108269 0.00617793 -0.00419586 0.00683049 0.00701569 -0.0313235 0.00781926 0.0234845 -0.0649028 0.0365185 -0.0126462 -0.0232557 -0.00468487 -0.0408524 -0.0297257 0.0322291 0.0218874 0.0387039 0.0415859 -0.0107104 -0.024898
internal_weight=0 29476 6172 28583 893 209 4222 684 7975 1284 6691 5611 467 252 110 1950 1240 142 2985 131 2935 20608 510 101 174 20219 1237 826 436 278 158 389 102 5144 477 4667 4321 214 215 2835 2303 100 20023 1185 18838 18747 91 104 93 78 196 241 1212 96 233 186 1080 513 267 567 411 1179
internal_count=35648 29476 6172 28583 893 209 4222 684 7975 1284 6691 5611 467 252 110 1950 1240 142 2985 131 2935 20608 510 101 174 20219 1237 826 436 278 158 389 102 5144 477 4667 4321 214 215 2835 2303 100 20023 1185 18838 18747 91 104 93 78 196 241 1212 96 233 186 1080 513 267 567 411 1179
is_linear=0
shrinkage=0.2


Tree=5
num_leaves=63
num_cat=0
split_feature=25 23 22 13 9 25 22 22 2 22 25 0 22 2 25 6 13 2 9 7 23 9 13 2 25 4 2 2 26 26 25 2 22 23 13 0 26 26 4 9 26 13 7 4 0 6 26 23 25 0 13 26 22 23 0 25 13 2 4 2 25 13
split_gain=57.2296 13.1088 10.4333 10.2326 9.22219 6.901 7.50075 7.76484 6.72594 8.69284 7.39629 8.55663 6.3791 6.41425 6.14319 5.89613 8.56296 6.13909 7.78023 8.33645 10.8302 7.08141 12.9675 6.94191 6.19805 5.88322 7.16789 6.49932 8.69131 5.88312 5.95153 5.74108 5.25515 6.16468 5.18555 6.11661 5.56276 5.1491 6.70959 4.8205 5.78866 4.78633 6.65744 6.63539 4.78336 4.72381 5.57351 4.62436 6.56128 7.70578 4.91461 4.51759 4.51209 4.45868 4.37351 8.46007 4.88522 4.36764 6.01933 7.79407 4.55037 4.45964
threshold=0.60355338454246532 5.5000000000000009 406.50000000000006 131.50000000000003 9.5000000000000018 0.12940952181816107 25.500000000000004 171.50000000000003 140.50000000000003 24.000000000000004 -0.37940952181816096 2.5000000000000004 69.000000000000014 136.50000000000003 -0.37940952181816096 6.5000000000000009 137.50000000000003 134.50000000000003 1.0000000180025095e-35 1.0000000180025095e-35 4.5000000000000009 1.0000000180025095e-35 84.500000000000014 127.50000000000001 0.98296290636062633 1.5000000000000002 6.5000000000000009 32.500000000000007 1.5000000000000002 1.0000000180025095e-35 0.78656607866287243 25.500000000000004 95.000000000000014 2.5000000000000004 28.500000000000004 3.5000000000000004 1.5000000000000002 2.5000000000000004 1.0000000180025095e-35 5.5000000000000009 2.5000000000000004 77.500000000000014 14.000000000000002 2.5000000000000004 1.0000000180025095e-35 1.0000000180025095e-35 1.5000000000000002 2.5000000000000004 0.91597560048103344 5.5000000000000009 102.50000000000001 1.5000000000000002 673.00000000000011 3.5000000000000004 1.0000000180025095e-35 0.78656607866287243 167.50000000000003 118.50000000000001 1.0000000180025095e-35 106.50000000000001 0.37940952181816107 145.50000000000003
decision_type=2 2 2 2 2 2 2 2 2 2 2 2 2 2 2 2 2 2 2 2 2 2 2 2 2 2 2 2 2 2 2 2 2 2 2 2 2 2 2 2 2 2 2 2 2 2 2 2 2 2 2 2 2 2 2 2 2 2 2 2 2 2
left_child=1 2 4 12 5 8 -7 -8 9 10 11 -1 14 -14 -3 17 47 21 24 54 51 22 -2 34 -19 39 -27 28 -28 -24 -31 -9 33 -29 35 36 -23 -18 -39 -11 -41 44 -43 -44 -4 -46 52 48 49 -17 -49 -21 -47 -42 -20 56 -56 58 59 60 61 -5
right_child=15 3 41 57 -6 6 7 31 -10 25 -12 -13 13 -15 -16 16 37 18 19 20 -22 23 29 -25 -26 26 27 32 -30 30 -32 -33 -34 -35 -36 -37 -38 38 -40 40 53 42 43 -45 45 46 -48 50 -50 -51 -52 -53 -54 -55 55 -57 -58 -59 -60 -61 -62 -63
leaf_value=0.023862701281905176 0.015029048051648928 0.012764561911926995 -0.017389138361437639 0.064256421968023822 0.028492759870255697 -0.07564540078863502 0.03039858806190775 0.02828365626145703 -0.016568189946903338 -0.0059865348044671604 -0.03744433055962286 0.13851417967158816 0.0017478822537270182 -0.040861453025529237 0.10742782510462262 0.018922776977221171 0.014815512234313722 -0.030317852630252964 -0.041324439910309978 -0.019759579486352333 0.14547653634880864 0.050894257573798153 0.14640501344203949 0.052807192032346288 0.047549396776594227 -0.075499740739663451 -0.0079571590820948276 0.0049656801127098702 0.12820984148979186 0.12525185774201933 0.037302790870589596 -0.0057419023426610004 0.0023605244114237316 0.12121606756829553 0.015985566728283211 0.066954215056187399 -0.01425521306761908 0.036947001196363925 0.14572185695171355 0.00056045661138933757 0.014225130148472327 -0.012124354877445604 0.0009246842469451483 0.065505468694196239 0.025430868770722505 -0.017344149041488982 -0.010114683807828644 -0.0023569508180731821 0.049871601139505707 -0.05884925851073021 -0.042630623127830211 0.063995979772063727 0.010564895390618046 0.069252077027371059 -0.081648224009119946 0.036151370381425442 0.0074303024782324742 -0.00061809585619998237 0.10295332797030186 0.073166178751108785 -0.031593385897576813 0.015726877706937301
leaf_weight=60 206 79 752 94 425 40 596 258 1386 6072 31 46 1716 154 42 147 297 276 67 47 43 101 50 262 48 30 30 37 50 46 93 858 295 36 2849 185 109 93 30 860 155 10035 819 69 273 276 1678 315 120 78 197 57 1444 95 46 226 53 186 47 129 64 390
leaf_count=60 206 79 752 94 425 40 596 258 1386 6072 31 46 1716 154 42 147 297 276 67 47 43 101 50 262 48 30 30 37 50 46 93 858 295 36 2849 185 109 93 30 860 155 10035 819 69 273 276 1678 315 120 78 197 57 1444 95 46 226 53 186 47 129 64 390
internal_value=0 -0.00361976 -0.00500679 0.0091489 -0.000412221 -0.00153564 0.00996711 0.0119674 -0.00373022 -0.00144814 0.0484864 0.0736171 0.00111857 -0.00176112 0.0456229 0.0177405 0.00567209 0.0209754 0.00571108 0.0204342 0.0610514 0.0243523 0.0497392 0.0214921 -0.018782 -0.00234122 0.0191436 0.0254813 0.0771472 0.0875714 0.0664082 0.00212422 0.0142496 0.0622946 0.018963 0.0404381 0.0170786 0.0290665 0.0634775 -0.00377115 0.0083476 -0.00840795 -0.0106556 0.00594279 -0.00285727 0.000119562 -0.00191398 -0.00579309 0.0121043 -0.0080382 -0.0178529 0.0261449 0.00608647 0.0351354 0.0052027 0.0147945 -0.0339597 0.0267186 0.0337415 0.0289366 0.0185248 0.025152
internal_weight=0 29607 26706 2901 11360 10935 1752 1712 9183 7797 137 106 1991 1870 121 6041 1277 4764 863 539 147 3901 395 3506 324 7660 478 448 80 189 139 1116 368 73 3244 395 210 420 123 7182 1110 15346 10923 888 4423 3671 3398 857 345 225 512 104 1720 250 392 325 99 910 724 677 548 484
internal_count=35648 29607 26706 2901 11360 10935 1752 1712 9183 7797 137 106 1991 1870 121 6041 1277 4764 863 539 147 3901 395 3506 324 7660 478 448 80 189 139 1116 368 73 3244 395 210 420 123 7182 1110 15346 10923 888 4423 3671 3398 857 345 225 512 104 1720 250 392 325 99 910 724 677 548 484
is_linear=0
shrinkage=0.2


Tree=6
num_leaves=63
num_cat=0
split_feature=25 24 22 21 26 10 16 11 25 25 13 22 11 13 13 0 0 13 25 22 10 13 13 0 9 26 21 9 10 22 0 22 22 22 11 13 25 25 11 22 9 22 13 13 22 0 11 10 22 25 25 10 22 22 22 12 25 0 22 9 13 11
split_gain=36.627 12.0421 8.7351 12.2513 12.7119 8.76154 8.20595 7.4075 6.34481 5.71569 5.07341 4.33626 6.28516 4.68765 5.91717 5.13585 4.61087 4.59701 4.08678 3.98743 5.2285 4.06554 3.81572 7.83723 6.52001 5.25784 5.01144 5.03481 4.77867 3.78681 3.743 3.72163 4.04422 4.1402 4.81244 5.61035 4.79043 4.59515 4.39519 3.66075 5.51641 4.62758 3.78512 9.627 6.47946 3.98858 4.0395 3.54362 3.53493 3.4937 3.40158 5.78183 5.77741 9.03426 4.81926 5.96843 6.03945 4.89375 4.54002 3.47444 6.69022 4.71093
threshold=0.60355338454246532 1.0000000180025095e-35 49.000000000000007 1.0000000180025095e-35 1.5000000000000002 106.00000000000001 1.0000000180025095e-35 1.0000000180025095e-35 -0.98296290636062611 -0.7865660786628722 184.50000000000003 69.000000000000014 5.5000000000000009 181.50000000000003 174.50000000000003 1.0000000180025095e-35 1.0000000180025095e-35 168.50000000000003 -0.98296290636062611 165.50000000000003 102.00000000000001 176.50000000000003 35.500000000000007 2.5000000000000004 2.5000000000000004 1.0000000180025095e-35 1.0000000180025095e-35 1.0000000180025095e-35 395.00000000000006 20.500000000000004 5.5000000000000009 309.50000000000006 274.50000000000006 226.50000000000003 3.5000000000000004 57.500000000000007 0.12940952181816107 -0.6035533845424651 7.5000000000000009 53.000000000000007 1.0000000180025095e-35 38.500000000000007 150.50000000000003 96.500000000000014 152.00000000000003 2.5000000000000004 27.000000000000004 400.00000000000006 171.50000000000003 0.12940952181816107 -0.91597560048103321 78.500000000000014 165.50000000000003 85.500000000000014 852.00000000000011 10.500000000000002 1.0000000180025095e-35 1.0000000180025095e-35 1158.0000000000002 3.5000000000000004 110.50000000000001 13.000000000000002
decision_type=2 2 2 2 2 2 2 2 2 2 2 2 2 2 2 2 2 2 2 2 2 2 2 2 2 2 2 2 2 2 2 2 2 2 2 2 2 2 2 2 2 2 2 2 2 2 2 2 2 2 2 2 2 2 2 2 2 2 2 2 2 2
left_child=1 6 3 4 -3 -6 7 18 10 39 -8 12 16 14 17 -16 -11 31 -1 20 21 -2 23 24 -21 -26 27 28 -24 -5 50 32 33 34 -13 37 -35 -36 -37 41 -41 -9 43 45 -45 -42 -47 -39 -29 -40 51 52 53 -4 55 57 -57 -52 -54 60 61 -53
right_child=19 2 30 29 5 -7 8 9 -10 11 -12 13 -14 -15 15 -17 -18 -19 -20 22 -22 -23 26 -25 25 -27 -28 48 -30 -31 -32 -33 -34 36 35 38 -38 47 49 40 42 -43 -44 44 -46 46 -48 -49 -50 -51 54 59 58 -55 -56 56 -58 -59 -60 -61 -62 -63
leaf_value=-0.026596719403165936 0.0043756282711324614 0.11260474528595109 -0.020894000083208086 -0.055486298894340348 -0.043855278090072364 0.068748777713310921 0.090344308156233566 -0.0094488510718712445 0.0050945760735202853 0.021055786669254305 -0.00090036923304582259 -0.010487838074182854 -0.09689381628535515 -0.021528712719219842 -0.025358856877161041 0.033841006360049795 -0.027489723143064318 -0.019579317777970576 0.0041747489586228233 0.082906362504670122 0.042301597849129596 0.077696326036344882 0.013293023566597874 0.046911488702161275 0.038210614985328614 -0.031942780205319009 -0.0304737239697222 -0.049318017177283763 0.076192241628746424 0.018398112537605423 0.053153784829994735 -0.0055434181998605184 0.021129435828434084 -0.0065019783465877961 -0.054540525636975729 0.047650093365756034 -0.070693839174598011 0.018359611598852046 -0.0038610367520533978 -0.038651513437873555 -0.02499583546628191 0.064892312490715184 -0.022229913037961537 0.076801065973779004 0.0012294041781088449 -0.0015125233006207336 -0.037998568629364265 -0.030020549984294032 0.010414941115012699 0.054712003870652275 0.064179621284658261 -0.033482099431990223 -0.0048697695899081522 0.12079628970887926 -0.0063843753139302128 0.040822896091390011 -0.0085587901077163759 0.0040773435381244944 0.061544354798945981 -0.0040009733476011194 -8.564457765074589e-05 -0.098455054100070688
leaf_weight=183 363 107 30 55 52 59 65 91 1547 100 39 585 43 633 74 282 360 768 3050 33 432 33 103 342 59 155 118 40 91 56 58 7644 436 152 63 227 67 217 188 350 1243 53 1218 47 1318 745 145 84 4272 52 55 220 332 45 1250 380 134 3680 47 699 223 56
leaf_count=183 363 107 30 55 52 59 65 91 1547 100 39 585 43 633 74 282 360 768 3050 33 432 33 103 342 59 155 118 40 91 56 58 7644 436 152 63 227 67 217 188 350 1243 53 1218 47 1318 745 145 84 4272 52 55 220 332 45 1250 380 134 3680 47 699 223 56
internal_value=0 -0.00289581 0.00400574 0.0358753 0.0634147 0.0159973 -0.00525314 -0.00634979 0.00830925 -0.00800209 0.0561276 -0.00559622 -0.0237717 -0.00479931 -0.0038223 0.0215354 -0.0169364 -0.00468345 0.00243297 0.0141924 0.0270853 0.0104857 0.0121446 0.0273055 0.000158726 -0.0126014 0.0102134 0.0112789 0.0427973 -0.0182113 0.0025513 -0.00350588 0.0040146 -0.000549356 0.00340861 0.0131913 -0.0261406 -0.00542237 0.0276996 -0.0135319 -0.0144257 0.0179128 -0.0126278 -0.00928429 0.00383151 -0.0176777 -0.00745688 0.00485817 0.00986083 0.00882979 0.00214087 -0.00581749 0.0134027 0.0641202 0.00453171 0.00774308 0.0279491 0.00496238 0.00336628 -0.0131013 -0.025849 -0.046665
internal_weight=0 29607 7538 329 218 111 22069 20418 1651 17185 104 11975 503 11472 10839 356 460 10483 3233 6041 828 396 5213 589 247 214 4624 4506 194 111 7209 9715 2071 1635 1416 831 219 364 467 5210 5066 144 4716 3498 1365 2133 890 301 4312 240 7151 1652 454 75 5499 4249 514 3735 379 1198 499 276
internal_count=35648 29607 7538 329 218 111 22069 20418 1651 17185 104 11975 503 11472 10839 356 460 10483 3233 6041 828 396 5213 589 247 214 4624 4506 194 111 7209 9715 2071 1635 1416 831 219 364 467 5210 5066 144 4716 3498 1365 2133 890 301 4312 240 7151 1652 454 75 5499 4249 514 3735 379 1198 499 276
is_linear=0
shrinkage=0.2


Tree=7
num_leaves=63
num_cat=0
split_feature=25 3 3 3 16 13 6 2 2 25 13 13 0 13 13 2 0 10 3 4 3 13 2 2 2 10 2 2 6 10 0 2 25 13 6 2 2 2 2 0 2 0 10 2 10 2 10 18 25 25 13 13 6 0 10 25 13 10 10 2 10 25
split_gain=23.4412 24.949 8.7963 10.5808 6.07303 5.45386 7.14631 5.44903 5.75218 4.80414 6.0351 7.55859 5.61314 5.06588 4.77706 4.76727 4.7466 5.84961 4.67578 6.46481 7.77573 7.01158 6.51305 5.41851 6.70351 6.71768 4.64551 4.50827 4.50063 4.48202 4.4405 6.89535 5.9733 4.36339 5.09454 4.35557 6.59818 5.7265 4.17558 4.08853 3.934 3.85562 6.94845 4.75524 3.75192 5.82543 4.01996 3.69963 3.69519 3.51825 5.95738 5.29912 4.80737 3.47388 3.44709 3.43474 8.8467 3.56649 5.33246 3.41315 3.37355 3.37027
threshold=0.60355338454246532 1.5000000000000002 8.5000000000000018 7.5000000000000009 1.0000000180025095e-35 150.50000000000003 6.5000000000000009 118.50000000000001 33.500000000000007 0.78656607866287243 122.50000000000001 132.50000000000003 1.0000000180025095e-35 146.50000000000003 146.50000000000003 96.500000000000014 1.5000000000000002 532.50000000000011 3.5000000000000004 2.5000000000000004 5.5000000000000009 164.50000000000003 14.500000000000002 61.500000000000007 54.500000000000007 166.00000000000003 30.500000000000004 33.500000000000007 1.5000000000000002 654.00000000000011 2.5000000000000004 106.50000000000001 0.78656607866287243 149.50000000000003 3.5000000000000004 88.500000000000014 83.500000000000014 79.500000000000014 34.500000000000007 2.5000000000000004 127.50000000000001 4.5000000000000009 798.00000000000011 10.500000000000002 860.00000000000011 98.500000000000014 171.50000000000003 1.0000000180025095e-35 0.91597560048103344 -0.7865660786628722 183.50000000000003 111.50000000000001 2.5000000000000004 2.5000000000000004 545.00000000000011 -0.91597560048103321 70.500000000000014 149.50000000000003 1.0000000180025095e-35 170.50000000000003 633.50000000000011 1.0000000180025095e-35
decision_type=2 2 2 2 2 2 2 2 2 2 2 2 2 2 2 2 2 2 2 2 2 2 2 2 2 2 2 2 2 2 2 2 2 2 2 2 2 2 2 2 2 2 2 2 2 2 2 2 2 2 2 2 2 2 2 2 2 2 2 2 2 2
left_child=2 5 3 4 16 6 9 8 54 10 47 -12 15 -14 -4 -11 17 35 27 20 -20 22 41 24 25 -24 -8 -3 -23 -19 31 -10 -32 34 60 36 37 -1 -30 48 -36 43 -43 -22 45 46 -21 -2 -27 50 51 55 -53 -46 -7 57 -57 58 -37 -51 -25 -18
right_child=1 18 14 -5 -6 7 26 -9 30 12 11 -13 13 -15 -16 -17 61 29 19 44 21 28 23 33 -26 39 -28 -29 38 -31 32 -33 -34 -35 40 49 -38 -39 -40 -41 -42 42 -44 -45 53 -47 -48 -49 -50 59 -52 52 -54 -55 -56 56 -58 -59 -60 -61 -62 -63
leaf_value=0.0024202270409077165 0.034126688534843512 0.0028717899703467054 -0.064814237472803696 0.092784851916292876 0.0080320097754508768 0.080865384195301981 0.011022564109604237 0.074706477620957057 -0.060536790373069908 0.039774463211910596 -0.076400217558107067 0.024045461364861194 0.044437973549981885 -0.029252600669860841 0.0027828237414360048 -0.0287742480815899 -0.0025797632714368874 -0.03512617383378646 0.079671651621659609 0.043168710591271524 0.012132647077692307 -0.049088959718185866 -0.050163683295249943 -0.011733119538891938 0.11460283303899424 0.033998912103372074 -0.036667328228992699 -0.03615583001544663 -0.069330781070809616 -0.011306714085406495 -0.017897708866060996 0.033036732531729195 0.06905508315965031 0.063243544482170275 0.0088704166066070848 -0.017473380759610822 0.040763134888097567 -0.065517451953800293 0.002301111530167941 0.055174903543132127 0.061476761634860724 0.020026032657039408 -0.071183778725209687 -0.031008892708964515 0.11870796276677041 0.04211610628268387 -0.040271543846072927 -0.015446151244012933 -0.038374896671461024 -0.0016494410204640334 -0.075991236200699447 0.022444400923737028 -0.022892320275366789 0.034421384271304561 0.016244310077200546 -0.0089037482440471657 -0.089670828024320526 -0.05295339848639237 0.050895340946213952 -0.039247708553033375 0.018624800001526928 0.0041058961707747706
leaf_weight=1845 290 221 138 47 2156 111 295 161 63 72 62 58 864 39 60 93 15194 362 48 32 254 178 44 749 35 73 113 255 38 2486 49 63 89 47 176 214 179 51 227 157 84 49 105 171 31 158 83 76 46 2206 65 236 155 53 47 120 99 72 58 101 182 3763
leaf_count=1845 290 221 138 47 2156 111 295 161 63 72 62 58 864 39 60 93 15194 362 48 32 254 178 44 749 35 73 113 255 38 2486 49 63 89 47 176 214 179 51 227 157 84 49 105 171 31 158 83 76 46 2206 65 236 155 53 47 120 99 72 58 101 182 3763
internal_value=0 0.0113539 -0.00231665 -0.00203379 -0.00218556 0.026418 0.0213712 0.0434026 0.0314596 0.027556 0.0110713 -0.0278515 0.0350574 0.0412553 -0.0443303 0.00113792 -0.00299528 -0.00700001 0.000387609 0.00329144 -9.66335e-05 -0.00156083 0.00311624 0.00971898 0.0315015 0.0224123 -0.00218567 -0.0180359 -0.0244922 -0.0143343 0.0133955 -0.01375 0.0381805 0.00347277 0.00111406 -0.00313255 0.00405809 0.000592789 -0.00797063 0.0339824 0.0258663 -0.0150498 -0.0421625 -0.00522548 0.0285644 0.0171912 -0.0170534 0.0238329 0.00602248 -0.00761859 -0.017406 -0.0134144 0.00447204 0.0655271 0.0616427 -0.0258364 -0.0454149 -0.0133721 -0.00289476 -0.00329549 -0.00579849 -0.00125265
internal_weight=0 6041 29607 29409 29362 2545 1962 583 422 1554 486 120 1068 903 198 165 27206 8249 3496 3020 2663 2615 2172 1593 355 320 408 476 443 2848 264 126 138 1238 1191 5401 2075 1896 265 276 260 579 154 425 357 273 115 366 119 3326 1019 954 391 84 158 563 219 344 272 2307 931 18957
internal_count=35648 6041 29607 29409 29362 2545 1962 583 422 1554 486 120 1068 903 198 165 27206 8249 3496 3020 2663 2615 2172 1593 355 320 408 476 443 2848 264 126 138 1238 1191 5401 2075 1896 265 276 260 579 154 425 357 273 115 366 119 3326 1019 954 391 84 158 563 219 344 272 2307 931 18957
is_linear=0
shrinkage=0.2


Tree=8
num_leaves=63
num_cat=0
split_feature=5 5 25 3 24 25 4 11 25 13 17 25 24 11 25 25 13 16 25 11 3 3 3 25 13 13 25 3 25 23 3 6 23 6 6 3 13 13 11 6 13 23 13 6 13 23 11 4 4 13 21 13 13 13 11 11 13 13 23 6 8 6
split_gain=111.399 47.78 37.4994 12.9978 10.2388 8.69493 8.47245 6.30104 7.04263 6.28247 5.82925 5.69123 11.6842 5.42318 5.40423 5.21386 6.4313 5.16961 5.90812 5.09149 4.73896 4.32456 9.97303 6.89091 5.03797 4.73911 4.44812 4.20537 4.52141 6.16906 4.15092 4.13129 5.81843 4.07996 3.93116 3.8406 4.10134 5.62059 4.81475 4.76588 4.15143 4.0207 3.83362 3.77285 3.74442 4.18277 3.91716 3.7114 3.61751 4.68461 3.61564 7.82113 3.58203 3.57653 3.52386 5.45139 3.51664 5.44056 4.18899 6.37731 3.4694 3.43825
threshold=1.0000000180025095e-35 1.5000000000000002 0.60355338454246532 2.5000000000000004 1.0000000180025095e-35 0.78656607866287243 1.0000000180025095e-35 1.0000000180025095e-35 -0.37940952181816096 90.500000000000014 1.0000000180025095e-35 0.37940952181816107 1.0000000180025095e-35 4.5000000000000009 -0.98296290636062611 -0.7865660786628722 150.50000000000003 1.0000000180025095e-35 -0.98296290636062611 1.0000000180025095e-35 1.5000000000000002 3.5000000000000004 1.5000000000000002 -0.12940952181816107 81.500000000000014 72.500000000000014 1.0000000180025095e-35 1.5000000000000002 0.78656607866287243 5.5000000000000009 4.5000000000000009 4.5000000000000009 4.5000000000000009 3.5000000000000004 3.5000000000000004 3.5000000000000004 113.50000000000001 71.500000000000014 45.500000000000007 6.5000000000000009 20.500000000000004 1.0000000180025095e-35 125.50000000000001 1.0000000180025095e-35 97.500000000000014 1.5000000000000002 3.5000000000000004 2.5000000000000004 2.5000000000000004 155.50000000000003 1.0000000180025095e-35 104.50000000000001 102.50000000000001 125.50000000000001 6.5000000000000009 16.500000000000004 21.500000000000004 3.5000000000000004 2.5000000000000004 1.5000000000000002 3.5000000000000004 1.5000000000000002
decision_type=2 2 2 2 2 2 2 2 2 2 2 2 2 2 2 2 2 2 2 2 2 2 2 2 2 2 2 2 2 2 2 2 2 2 2 2 2 2 2 2 2 2 2 2 2 2 2 2 2 2 2 2 2 2 2 2 2 2 2 2 2 2
left_child=3 2 4 20 15 7 13 8 43 -10 52 14 -13 30 -9 16 17 44 -19 -8 -1 22 24 50 25 26 33 28 29 -4 -5 54 -33 -17 -30 -29 37 40 39 -39 -37 -42 -38 -3 45 46 -2 -28 -44 -50 -23 -52 -7 -31 61 -56 57 -47 -59 -60 -26 -16
right_child=1 5 27 6 -6 10 19 11 9 -11 -12 12 -14 -15 31 21 -18 18 -20 -21 -22 23 -24 -25 60 -27 47 35 34 53 -32 32 -34 -35 -36 36 42 38 -40 -41 41 -43 48 -45 -46 56 -48 -49 49 -51 51 -53 -54 -55 55 -57 -58 58 59 -61 -62 -63
leaf_value=-0.018621492987689208 0.021780525403121462 0.0026100652024615557 0.0092220180025899857 -0.047281572458767657 0.01037045886460842 -0.028585700972660166 -0.064426925854805181 0.020164724737405777 0.01468709419744137 -0.1038821942878492 -0.14693688620359471 -0.04711667463850619 0.094156234463055932 -0.040574045417368754 -0.090162829216569665 -0.0090015380596630903 -0.016155251688346139 0.087475712709831746 0.011306733638048173 0.013376073910265554 0.001707199833742002 0.013934709887137839 -0.021763634343049787 -0.0010521022253983951 -0.0039127606382471248 0.029562286724336445 0.026899113527134713 -0.0075005613022336845 0.043250727147789429 0.10085434108972549 -0.021856080628224472 -0.060462106902290272 -0.152359700605676 0.015150371804123833 0.022285794236227521 0.047319136063257855 -0.019588610437392392 0.058250065595290737 -0.022344286668868292 0.01010332892004114 -0.040547804462332887 0.013652276521763549 0.010603828407259272 0.088944766070784595 0.0060630491042212844 0.030365980416536334 -0.0055813367201149426 -0.029471540909547074 -0.0036089706070282883 0.091862785346053841 0.003455645542407593 -0.10237006210919582 -0.089278087310674714 0.020618747076950966 0.028258383953780459 -0.058834189728930078 -0.0099990129415696537 -0.098338912170508816 -0.065991190075874326 0.046045247316360477 0.030479547149333798 -0.027414500040392722
leaf_weight=1212 308 40 631 303 6195 74 39 40 39 33 39 67 36 1949 80 838 1362 53 176 245 738 3494 778 2594 3062 400 460 228 958 50 1686 108 37 420 571 129 149 393 42 104 62 468 686 41 1426 36 653 52 34 52 182 33 82 40 57 58 1191 58 63 30 122 62
leaf_count=1212 308 40 631 303 6195 74 39 40 39 33 39 67 36 1949 80 838 1362 53 176 245 738 3494 778 2594 3062 400 460 228 958 50 1686 108 37 420 571 129 149 393 42 104 62 468 686 41 1426 36 653 52 34 52 182 33 82 40 57 58 1191 58 63 30 122 62
internal_value=0 0.005116 0.00653929 -0.0244328 0.00336792 -0.0404402 -0.0306703 -0.0300091 0.00585505 -0.0396572 -0.0777779 -0.0400774 0.00226026 -0.0330763 -0.0499435 0.000929564 -0.00428733 -0.000240235 0.0289354 0.00269186 -0.0109279 0.00317658 -0.000604798 0.00685538 0.00246983 0.00990132 0.00545816 0.0230867 0.0292649 0.0162088 -0.0257293 -0.0569194 -0.0839118 -0.000938102 0.0354214 0.0171639 0.0198177 0.0275326 0.0426801 0.0481751 0.0151434 0.00731189 0.0097825 0.0463103 -0.00201479 -0.00693955 0.00318813 0.021174 0.0154513 0.0541181 0.0123857 -0.0127874 -0.0604881 0.0651941 -0.0416902 -0.0156666 -0.0140025 -0.0395004 -0.0561572 -0.0298504 -0.00259496 -0.0627657
internal_weight=0 29476 28583 6172 23986 893 4222 698 153 72 195 545 103 3938 442 17791 5356 3994 229 284 1950 12435 6132 6303 5354 2170 1770 4597 2250 721 1989 402 145 1258 1529 2347 2119 1198 539 497 659 530 921 81 3765 2339 961 512 772 86 3709 215 156 90 257 115 1378 187 151 93 3184 142
internal_count=35648 29476 28583 6172 23986 893 4222 698 153 72 195 545 103 3938 442 17791 5356 3994 229 284 1950 12435 6132 6303 5354 2170 1770 4597 2250 721 1989 402 145 1258 1529 2347 2119 1198 539 497 659 530 921 81 3765 2339 961 512 772 86 3709 215 156 90 257 115 1378 187 151 93 3184 142
is_linear=0
shrinkage=0.2


Tree=9
num_leaves=63
num_cat=0
split_feature=5 5 3 24 1 22 9 7 22 7 22 26 0 9 22 13 22 3 3 22 0 3 0 26 22 3 22 3 22 13 26 0 22 26 22 12 9 0 13 13 22 22 20 26 0 3 13 13 3 26 13 1 13 22 13 3 9 0 26 22 26 22
split_gain=71.2951 30.5792 8.31856 7.91455 6.33751 6.05806 5.51832 4.26635 3.98678 3.82186 3.66973 5.54041 3.6459 4.0042 3.07453 3.72063 4.74379 5.10203 4.19337 3.27611 6.3155 4.71184 6.67922 4.87192 5.43533 5.07571 3.87876 5.23144 5.28874 3.80531 2.93303 3.40055 8.86457 4.63516 6.31497 4.42474 3.8362 3.19115 4.56453 3.15947 2.91043 2.9026 2.887 3.7289 2.87303 6.63252 5.54363 2.81985 2.7413 2.71951 4.59587 7.87255 4.45763 4.14323 4.0482 4.4579 4.98156 3.90634 3.50796 3.50635 3.46806 5.62432
threshold=1.0000000180025095e-35 1.5000000000000002 2.5000000000000004 1.0000000180025095e-35 2.5000000000000004 122.50000000000001 11.500000000000002 26.500000000000004 63.500000000000007 14.000000000000002 345.00000000000006 2.5000000000000004 1.0000000180025095e-35 2.5000000000000004 216.00000000000003 127.50000000000001 149.00000000000003 5.5000000000000009 1.0000000180025095e-35 818.00000000000011 5.5000000000000009 3.5000000000000004 4.5000000000000009 1.5000000000000002 852.00000000000011 1.5000000000000002 882.00000000000011 1.0000000180025095e-35 953.00000000000011 37.500000000000007 2.5000000000000004 2.5000000000000004 470.00000000000006 1.5000000000000002 628.00000000000011 1.0000000180025095e-35 5.5000000000000009 4.5000000000000009 113.50000000000001 61.500000000000007 198.50000000000003 266.00000000000006 1.0000000180025095e-35 1.5000000000000002 4.5000000000000009 5.5000000000000009 82.500000000000014 64.500000000000014 1.5000000000000002 1.5000000000000002 158.50000000000003 2.5000000000000004 178.50000000000003 243.00000000000003 165.50000000000003 2.5000000000000004 2.5000000000000004 1.5000000000000002 2.5000000000000004 226.50000000000003 2.5000000000000004 181.50000000000003
decision_type=2 2 2 2 2 2 2 2 2 2 2 2 2 2 2 2 2 2 2 2 2 2 2 2 2 2 2 2 2 2 2 2 2 2 2 2 2 2 2 2 2 2 2 2 2 2 2 2 2 2 2 2 2 2 2 2 2 2 2 2 2 2
left_child=2 3 8 9 10 -5 30 -8 -1 41 11 -4 -6 -14 15 16 17 -7 -18 20 -16 23 42 24 -21 26 -25 28 -28 -24 31 33 -33 34 35 -3 -35 -34 -39 -32 -41 49 -23 -44 45 -20 -47 -12 -10 54 53 52 -52 59 -2 -56 -57 -54 -55 60 61 -51
right_child=1 6 4 5 12 14 7 -9 48 -11 47 -13 13 -15 19 -17 18 -19 44 21 -22 22 29 25 -26 -27 27 -29 -30 -31 39 32 37 36 -36 -37 -38 38 -40 40 -42 -43 43 -45 -46 46 -48 -49 -50 50 51 -53 57 58 55 56 -58 -59 -60 -61 -62 -63
leaf_value=0.037779691479575467 0.0045876238717891208 -0.092710703683476295 -0.011028345575363472 0.026106451121091785 0.051739822532616414 0.016389294634474087 0.070994908511638644 -0.028479012715465886 -0.016446865274865403 0.012716211095201874 -0.044036060485488443 -0.041577205015646837 -0.047271744319250887 0.0083168742246925841 0.012646335376869808 -0.017323440193737809 -0.03176956015581988 -0.077830087749494459 0.070309382839047391 0.049349832316724268 0.10325640689942145 0.024500261703015946 0.047236175495281557 -0.024512449086430563 -0.026708219064081593 -0.055372149229009196 0.041153918475401209 0.044360224985313126 -0.034790017650179243 -0.0076425991501375169 -0.011239605020865441 0.011845064227213698 -0.025017600582960327 -0.050578430170814197 0.024742230065798357 -0.018304157934405589 -0.13916042979919549 -0.13815126924803764 -0.037085288954086797 -0.11622472736706231 -0.054878298689459738 0.00078772772187934265 0.1027846680333217 0.016941641739436557 0.051722382979212903 -0.080250636997975799 0.025786204009157855 -0.027740713225656684 -0.00068687455063982646 0.0049815134201124413 0.03983948273371108 0.099809922846880839 -0.041737959100239315 0.0084022473011698042 -0.03843664380539738 -0.0339365933042068 0.032772383717036689 0.018113313263654712 0.058802312332282371 -0.025500745241498125 -0.00089151440445905158 0.035830503257288447
leaf_weight=71 2525 62 1015 902 51 47 35 34 1170 1564 536 310 71 192 4131 380 49 45 46 41 31 304 57 83 451 46 61 205 92 446 47 192 78 48 59 66 33 33 39 41 126 13292 48 35 139 38 41 2047 709 751 201 55 67 112 197 77 107 125 109 145 1193 345
leaf_count=71 2525 62 1015 902 51 47 35 34 1170 1564 536 310 71 192 4131 380 49 45 46 41 31 304 57 83 451 46 61 205 92 446 47 192 78 48 59 66 33 33 39 41 126 13292 48 35 139 38 41 2047 709 751 201 55 67 112 197 77 107 125 109 145 1193 345
internal_value=0 0.0040928 -0.0195463 0.00523143 -0.0245362 0.0107034 -0.0323521 0.0219788 -0.00874229 0.00320733 -0.0267327 -0.0181756 0.00280025 -0.00668994 0.00866506 -0.00310869 0.0102286 -0.0296963 0.0219637 0.0101975 0.0133212 0.00324152 0.0137737 -0.00633316 -0.02037 0.00784785 0.0144422 0.0234736 -0.00451172 -0.00142373 -0.0369017 -0.0298342 -0.0166153 -0.046703 -0.0293922 -0.0543448 -0.0866674 -0.0530446 -0.0834072 -0.0570474 -0.0699394 0.0024368 0.0335264 0.0665858 0.0319369 0.00993553 -0.0252189 -0.0311222 -0.0105002 0.00608458 0.0102021 0.0289397 0.0190215 0.00704029 0.00168798 -0.0175288 0.00485613 -0.00277229 0.0332602 0.0046596 0.00657015 0.0146922
internal_weight=0 29476 6172 28583 4222 7718 893 69 1950 20865 3908 1325 314 263 6816 785 405 92 313 6031 4162 1869 890 979 492 487 441 358 153 503 824 610 342 268 187 128 81 150 72 214 167 19301 387 83 264 125 79 2583 1879 6009 3103 448 393 2655 2906 381 184 192 221 2434 2289 1096
internal_count=35648 29476 6172 28583 4222 7718 893 69 1950 20865 3908 1325 314 263 6816 785 405 92 313 6031 4162 1869 890 979 492 487 441 358 153 503 824 610 342 268 187 128 81 150 72 214 167 19301 387 83 264 125 79 2583 1879 6009 3103 448 393 2655 2906 381 184 192 221 2434 2289 1096
is_linear=0
shrinkage=0.2


Tree=10
num_leaves=63
num_cat=0
split_feature=5 5 23 8 2 4 2 2 2 2 9 12 12 16 0 2 12 4 9 23 8 2 2 23 2 8 2 23 9 0 9 7 7 23 1 2 7 0 8 12 9 1 0 2 2 12 2 2 0 2 2 2 2 1 8 2 23 7 2 9 12 0
split_gain=45.6288 19.5707 6.43685 3.93206 3.28374 3.07594 3.29333 3.01479 2.9159 3.05609 2.87259 6.78997 3.68516 2.76011 2.60895 2.59979 4.59506 2.82846 2.85846 2.42847 2.2878 2.90149 3.39528 3.7944 2.24413 2.14351 4.0699 2.14338 2.53228 3.17859 1.86877 2.68705 1.77976 2.77766 4.60203 2.22756 1.95867 8.12563 3.05769 3.00517 4.31631 5.26689 3.41952 3.37578 2.56787 2.52772 2.74385 6.26196 2.51884 5.29855 5.13252 2.70764 2.45194 2.76536 2.93746 2.42238 2.32417 3.18994 2.31058 2.37455 2.22999 2.19393
threshold=1.0000000180025095e-35 1.5000000000000002 5.5000000000000009 2.5000000000000004 30.500000000000004 1.0000000180025095e-35 166.50000000000003 148.50000000000003 148.50000000000003 146.50000000000003 2.5000000000000004 3.5000000000000004 6.5000000000000009 1.0000000180025095e-35 1.5000000000000002 106.50000000000001 4.5000000000000009 2.5000000000000004 6.5000000000000009 1.0000000180025095e-35 1.0000000180025095e-35 8.5000000000000018 149.50000000000003 1.5000000000000002 1.0000000180025095e-35 1.0000000180025095e-35 21.500000000000004 5.5000000000000009 10.500000000000002 2.5000000000000004 1.5000000000000002 1.5000000000000002 14.000000000000002 2.5000000000000004 2.5000000000000004 1.0000000180025095e-35 4.5000000000000009 5.5000000000000009 2.5000000000000004 1.0000000180025095e-35 3.5000000000000004 4.5000000000000009 2.5000000000000004 28.500000000000004 73.500000000000014 6.5000000000000009 83.500000000000014 79.500000000000014 1.5000000000000002 147.50000000000003 75.500000000000014 155.50000000000003 15.500000000000002 2.5000000000000004 2.5000000000000004 76.500000000000014 2.5000000000000004 11.000000000000002 112.50000000000001 1.0000000180025095e-35 7.5000000000000009 1.0000000180025095e-35
decision_type=2 2 2 2 2 2 2 2 2 2 2 2 2 2 2 2 2 2 2 2 2 2 2 2 2 2 2 2 2 2 2 2 2 2 2 2 2 2 2 2 2 2 2 2 2 2 2 2 2 2 2 2 2 2 2 2 2 2 2 2 2 2
left_child=5 2 32 27 -5 6 8 10 9 13 11 25 -13 24 -10 -12 -17 -18 -19 -15 21 -7 23 -23 -1 26 -4 28 -3 -30 31 -9 36 -34 -35 -36 39 52 -39 44 41 45 43 -42 -2 46 47 -41 49 58 -50 -51 53 56 -55 -52 -38 -58 -46 -60 -44 -59
right_child=1 3 7 4 -6 20 -8 30 14 -11 15 12 -14 19 -16 16 17 18 -20 -21 -22 22 -24 -25 -26 -27 -28 -29 29 -31 -32 -33 33 34 35 -37 37 38 -40 40 42 -43 60 -45 48 -47 -48 -49 50 51 55 -53 -54 54 -56 -57 57 61 59 -61 -62 -63
leaf_value=-0.033899231396970299 0.0042563654026262871 -0.037819160097954087 0.080007853511586249 -0.025600500603516898 0.065824981349887277 0.032408243711565581 -0.040787754574531668 -0.035837936478684537 -0.025730995320882955 -0.067640769481658938 0.0052712121281629784 -0.043436963078153285 0.02363132822460362 0.040005523020570928 0.02446624890778416 0.07604641737761321 0.019548675909345344 -0.061911036550170856 0.020940716612723568 -0.0063312939510625959 0.043480632194252904 0.011691811327206886 0.046935831424262789 -0.032295174540108086 -0.016447941681762168 0.0090653176608998156 0.031502881973210606 -0.0036711790355610421 0.038937624942556752 -0.039345824541080571 -0.059016582459932382 0.026720951932171985 0.016656936847056169 -0.0030202111049742377 0.014505828239701011 0.079300015801336721 0.018467505440586996 -0.014551731773554328 -0.047394348325487834 0.0033516593330890918 0.037564864456753742 0.053946307549873986 0.014720157911539604 -0.00094289597376671713 0.0052317440943209425 -0.016814621866609473 -0.0010235446110448761 -0.068379951388011742 0.07757996718088786 -0.058097228279802952 -0.019505409934581858 -0.0090583400420942602 -0.0046248141093609548 -0.035621615969821024 0.02065470657565377 0.016755158097399504 0.011171738982621707 0.0082294803654744501 0.0053603139615827997 0.056961678571644282 0.0048188408683601551 -0.02573760908124692
leaf_weight=315 5748 636 83 30 33 71 223 53 61 47 1354 79 56 55 129 54 661 36 31 255 43 118 36 234 4585 113 416 111 41 42 31 57 954 861 44 41 689 438 153 122 93 60 1287 4370 361 667 2323 81 54 64 78 152 1161 114 55 1335 679 122 62 84 3105 202
leaf_count=315 5748 636 83 30 33 71 223 53 61 47 1354 79 56 55 129 54 661 36 31 255 43 118 36 234 4585 113 416 111 41 42 31 57 954 861 44 41 689 438 153 122 93 60 1287 4370 361 667 2323 81 54 64 78 152 1161 114 55 1335 679 122 62 84 3105 202
internal_value=0 0.00327424 0.00418514 -0.0258817 0.022289 -0.015637 -0.0169655 0.0129107 -0.0159902 -0.01687 0.0143073 0.0249827 -0.015616 -0.0164119 0.00835029 0.0105739 0.0197552 0.0155797 -0.0235766 0.00188975 -0.000631663 -0.00476419 -0.0115664 -0.0175495 -0.0175698 0.0339383 0.0395708 -0.029538 -0.0335314 -0.000675687 -0.0156442 -0.00342106 0.00315278 0.00904204 0.00136274 0.0457595 0.00267983 -0.00160657 -0.0230541 0.00345239 0.00146963 -0.00476057 0.00375838 -0.000140471 0.00647673 -0.00586374 -0.00297212 -0.0252703 0.0123044 0.00264272 0.0170661 -0.0235884 0.00258784 0.00708752 -0.0173068 0.0147535 0.00952407 0.00338047 0.0138181 0.0350488 0.00772025 -0.0129475
internal_weight=0 29476 28583 893 63 6172 5670 3024 5447 5257 2883 747 135 5210 190 2136 782 728 67 310 502 459 388 352 4900 612 499 830 719 83 141 110 25559 1900 946 85 23659 3613 591 20046 12108 3253 8855 4463 7938 3193 2526 203 2190 723 1467 216 3022 1861 169 1413 1692 1003 507 146 4392 324
internal_count=35648 29476 28583 893 63 6172 5670 3024 5447 5257 2883 747 135 5210 190 2136 782 728 67 310 502 459 388 352 4900 612 499 830 719 83 141 110 25559 1900 946 85 23659 3613 591 20046 12108 3253 8855 4463 7938 3193 2526 203 2190 723 1467 216 3022 1861 169 1413 1692 1003 507 146 4392 324
is_linear=0
shrinkage=0.2


Tree=11
num_leaves=63
num_cat=0
split_feature=5 5 24 26 4 10 11 10 6 26 11 0 0 10 26 26 6 6 0 10 0 11 26 10 6 16 26 11 6 17 0 0 11 10 0 6 0 11 11 11 26 10 6 17 18 10 10 11 11 0 11 26 10 11 6 0 26 6 4 6 10 0
split_gain=29.2025 12.5252 3.61317 2.38816 2.12641 2.90897 2.0753 4.4383 2.12967 1.88847 2.85628 6.1022 4.86277 2.95999 3.71721 2.56208 2.55338 2.52764 1.96493 1.95889 5.5161 1.85435 1.84691 2.23347 1.7262 3.72439 2.31827 4.24851 2.82874 2.00412 4.35978 2.82425 2.61907 2.00211 2.95501 1.78695 3.45104 4.71099 2.5286 2.46226 3.03423 2.63701 2.51642 3.24599 1.60718 2.3794 2.55374 2.32901 1.57083 2.46781 1.56432 1.49726 4.32533 3.9227 4.77951 2.95594 2.81269 2.72256 3.48141 2.46692 2.16647 2.70005
threshold=1.0000000180025095e-35 1.5000000000000002 1.0000000180025095e-35 2.5000000000000004 1.5000000000000002 1398.0000000000002 4.5000000000000009 318.50000000000006 1.5000000000000002 2.5000000000000004 1.0000000180025095e-35 2.5000000000000004 4.5000000000000009 1003.5000000000001 1.0000000180025095e-35 1.0000000180025095e-35 7.5000000000000009 2.5000000000000004 5.5000000000000009 567.50000000000011 3.5000000000000004 9.5000000000000018 1.0000000180025095e-35 8.0000000000000018 6.5000000000000009 1.0000000180025095e-35 1.5000000000000002 16.500000000000004 1.0000000180025095e-35 1.0000000180025095e-35 4.5000000000000009 2.5000000000000004 1.0000000180025095e-35 266.50000000000006 4.5000000000000009 2.5000000000000004 4.5000000000000009 1.0000000180025095e-35 2.5000000000000004 14.500000000000002 1.0000000180025095e-35 545.00000000000011 1.5000000000000002 1.0000000180025095e-35 1.0000000180025095e-35 380.00000000000006 654.00000000000011 19.000000000000004 9.5000000000000018 3.5000000000000004 17.500000000000004 1.5000000000000002 69.500000000000014 14.500000000000002 1.5000000000000002 1.0000000180025095e-35 2.5000000000000004 2.5000000000000004 2.5000000000000004 2.5000000000000004 130.00000000000003 2.5000000000000004
decision_type=2 2 2 2 2 2 2 2 2 2 2 2 2 2 2 2 2 2 2 2 2 2 2 2 2 2 2 2 2 2 2 2 2 2 2 2 2 2 2 2 2 2 2 2 2 2 2 2 2 2 2 2 2 2 2 2 2 2 2 2 2 2
left_child=3 2 44 4 6 22 7 -1 21 10 11 -3 -13 14 19 -15 17 -11 48 20 -12 -8 23 -6 25 26 27 28 29 31 32 -4 -31 -29 -35 39 37 -37 -39 41 -41 42 43 -30 -2 47 -47 51 49 -16 -50 52 -46 54 -53 59 -56 60 -59 -55 61 -54
right_child=1 9 24 -5 5 -7 8 -9 -10 16 13 12 -14 15 18 -17 -18 -19 -20 -21 -22 -23 -24 -25 -26 -27 -28 33 35 30 -32 -33 -34 34 -36 36 -38 38 -40 40 -42 -43 -44 -45 45 46 -48 -49 50 -51 -52 53 57 55 56 -57 -58 58 -60 -61 -62 -63
leaf_value=-0.015776608714973918 0.002783242257116876 -0.041220439578357498 -0.0350742024059097 -0.019458835911302916 -0.025774109555828956 0.064020618700212056 -0.015574546189357838 0.0020212751084110994 -0.019332457043325996 -0.029213425116763721 0.048146342950277643 0.094223388917744164 -0.00065179278558873122 -0.030336887193653655 -0.080631601788963267 0.028784752234000052 0.0089903074646050622 -0.077662045260270443 0.00078669384238310163 -0.041276550934065223 -0.045386344922143357 0.009102135790245873 -0.014252274043811776 0.037803716435060877 0.0013792413863819646 0.049234626463122586 0.012011382732554312 -0.0047507158428290487 0.011726146433383796 0.098555951239541181 0.0040683663280850109 0.015383665791984006 0.029724599584573654 -0.0046130659642504221 -0.06317050954405691 0.097824749825522306 -0.0033350583468765441 -0.024190073826096278 0.021794497664276848 0.075018466500948899 -0.010786345282394905 0.0043380410428119215 -0.037562095442855797 -0.036613993398671933 0.053977882524706283 -0.025049247288265505 -0.0039112453983103724 -0.022305104334135448 0.0037655568484104042 -0.021638009716302919 -0.054735051604305834 0.021805201059026558 -0.064279001866068164 0.019805683091629386 0.0033325506680047337 0.031136804559059091 -0.029467282526263405 0.00058829659614900156 0.063405263531757031 -0.052285037321202904 -0.0080103324375290809 -0.0014862989054785834
leaf_weight=1157 17256 57 48 1498 31 31 267 1087 1639 124 61 40 47 49 104 73 41 66 32 43 43 224 161 77 1682 89 2939 251 157 48 88 587 41 67 71 30 462 55 367 34 32 422 162 86 53 294 1028 147 33 39 41 237 70 43 201 361 218 495 38 34 345 45
leaf_count=1157 17256 57 48 1498 31 31 267 1087 1639 124 61 40 47 49 104 73 41 66 32 43 43 224 161 77 1682 89 2939 251 157 48 88 587 41 67 71 30 462 55 367 34 32 422 162 86 53 294 1028 147 33 39 41 237 70 43 201 361 218 495 38 34 345 45
internal_value=0 0.00261939 0.00334811 -0.0125096 -0.0102824 0.00600637 -0.0113996 -0.00715526 -0.0158711 -0.0207054 -0.0152724 0.009644 0.042969 -0.022199 -0.0305905 0.00503918 -0.0362751 -0.0460429 -0.045479 -0.00537128 0.00947417 -0.00431675 -0.000679284 0.0195545 0.00704535 0.00862427 0.00801652 0.00411329 0.00701008 0.0168153 0.0356351 0.0115695 0.0668471 -0.0153897 -0.0347404 0.00260395 0.00882065 0.0212453 0.0158012 -0.00375895 0.0334161 -0.00672576 -0.018254 -0.00538189 0.0019805 -0.00185771 -0.00861213 0.00204668 -0.0523016 -0.0645424 -0.0286469 0.00371944 -0.00169077 0.00889227 -0.000893586 0.0235487 -0.0137328 -0.00466201 0.0050668 -0.0120266 -0.0159347 -0.0397079
internal_weight=0 29476 28583 6172 4674 300 4374 2244 2130 893 662 144 87 518 396 122 231 190 249 147 104 491 269 108 7718 6036 5947 3008 2619 812 177 635 89 389 138 1807 914 452 422 893 66 827 405 243 20865 3609 1322 2287 217 143 74 2140 1046 1094 656 438 419 993 533 77 460 115
internal_count=35648 29476 28583 6172 4674 300 4374 2244 2130 893 662 144 87 518 396 122 231 190 249 147 104 491 269 108 7718 6036 5947 3008 2619 812 177 635 89 389 138 1807 914 452 422 893 66 827 405 243 20865 3609 1322 2287 217 143 74 2140 1046 1094 656 438 419 993 533 77 460 115
is_linear=0
shrinkage=0.2


Tree=12
num_leaves=63
num_cat=0
split_feature=5 25 5 13 10 9 25 13 25 13 25 13 13 5 25 10 10 10 16 9 14 6 13 13 13 13 25 13 25 10 9 6 13 25 13 25 13 13 13 13 21 20 10 25 10 10 17 13 10 9 25 10 25 13 9 10 10 1 10 9 1 13
split_gain=18.6896 17.6736 14.0684 4.65308 4.50674 4.05767 2.72913 2.48619 2.55493 2.07564 2.00878 4.74603 5.09294 3.75256 4.57047 3.07622 5.42844 3.05867 3.00108 3.90435 2.76076 2.62002 5.58749 6.26743 4.71617 4.60059 2.54827 2.51764 2.4363 2.13726 4.47081 4.01136 4.19876 3.09271 4.39494 3.97197 4.62026 6.45029 3.91883 3.49461 2.91274 2.0066 1.89282 3.83483 2.79334 1.84688 5.30012 2.82182 3.84094 3.67449 6.13186 3.66164 3.59991 2.94955 2.78557 3.02899 2.72878 3.28583 6.3077 3.24153 3.18411 3.22433
threshold=1.0000000180025095e-35 0.60355338454246532 1.5000000000000002 102.50000000000001 940.50000000000011 4.5000000000000009 0.91597560048103344 132.50000000000003 0.91597560048103344 142.50000000000003 -0.7865660786628722 150.50000000000003 134.50000000000003 1.5000000000000002 1.0000000180025095e-35 166.00000000000003 88.000000000000014 117.50000000000001 1.0000000180025095e-35 13.500000000000002 1.0000000180025095e-35 5.5000000000000009 133.50000000000003 72.500000000000014 30.500000000000004 125.50000000000001 0.37940952181816107 194.50000000000003 -0.6035533845424651 54.000000000000007 1.0000000180025095e-35 1.0000000180025095e-35 63.500000000000007 -0.91597560048103321 54.500000000000007 -0.98296290636062611 89.500000000000014 106.50000000000001 116.50000000000001 118.50000000000001 1.0000000180025095e-35 1.0000000180025095e-35 140.50000000000003 -0.91597560048103321 171.50000000000003 225.00000000000003 1.0000000180025095e-35 15.500000000000002 85.000000000000014 3.5000000000000004 0.91597560048103344 88.000000000000014 0.78656607866287243 71.500000000000014 1.5000000000000002 1.5000000000000002 277.50000000000006 4.5000000000000009 532.50000000000011 1.5000000000000002 2.5000000000000004 127.50000000000001
decision_type=2 2 2 2 2 2 2 2 2 2 2 2 2 2 2 2 2 2 2 2 2 2 2 2 2 2 2 2 2 2 2 2 2 2 2 2 2 2 2 2 2 2 2 2 2 2 2 2 2 2 2 2 2 2 2 2 2 2 2 2 2 2
left_child=7 10 45 4 6 -5 -4 8 -1 -9 11 12 18 27 21 16 -14 -16 29 -20 -13 22 23 24 -15 -23 -19 -12 -29 33 31 40 -33 35 -35 38 41 -38 -2 -39 -31 -37 43 -32 -44 46 47 48 -3 50 51 52 54 -54 55 -49 60 59 -59 -58 61 -47
right_child=1 2 3 5 -6 -7 -8 9 -10 -11 13 20 15 14 17 -17 -18 26 19 -21 -22 25 -24 -25 -26 -27 -28 28 -30 30 42 32 -34 34 -36 36 37 39 -40 -41 -42 -43 44 -45 -46 56 -48 49 -50 -51 -52 -53 53 -55 -56 -57 57 58 -60 -61 -62 -63
leaf_value=-0.011313788407719148 0.0022614731793365781 0.008061390105755099 0.0011311647309749215 -0.022291626889173959 0.061860965216352093 -0.091413693385464803 -0.071203617707771422 0.016772385137421745 -0.030166833054634835 -0.0060896983401571717 0.0013614560402906567 -0.010184473721593604 0.019974677524130263 0.012219461671462874 -0.040513792306788872 0.0092854841190923767 0.10833365836658992 0.0004347648970048193 0.061029587451820126 0.0046409397531533619 -0.063275324893184007 -0.10956259048430295 -0.076684646322479788 0.045088572026879499 -0.081553075337368594 -0.010059656684889513 0.058708742853755561 -0.021558704245381241 0.032300486167271929 -0.025449604601067984 0.033177413882162325 -0.022367465327183408 0.039865575791870965 0.028396897932740851 -0.016641864425241293 -0.0072383673630169862 0.11578405932198431 -0.021860096694492712 -0.060090164394932803 0.050587431096324798 -0.071674143894423933 0.021114541736591733 -0.048702715863640028 -0.016403036929953558 -0.0035969604774078279 -0.0048566889780831627 0.082393674273043879 0.046428863637681519 0.10473449909261295 0.025323449738103111 0.029685807210268852 0.013661675493025946 -0.090343112134656248 -0.02567035443172222 -0.053577221990112334 -0.021660857488002099 0.038358134547403708 -0.096089282367498641 0.020131342778814603 0.01333942684272991 0.050672277063131335 -0.068112339153885842
leaf_weight=3966 252 31 54 66 31 70 34 175 310 1721 16045 1908 112 41 37 515 37 71 66 192 40 41 53 66 45 34 52 41 186 149 156 150 61 107 456 169 43 41 48 76 86 244 56 104 2844 166 54 56 35 950 277 180 43 82 31 49 228 31 47 2265 32 40
leaf_count=3966 252 31 54 66 31 70 34 175 310 1721 16045 1908 112 41 37 515 37 71 66 192 40 41 53 66 45 34 52 41 186 149 156 150 61 107 456 169 43 41 48 76 86 244 56 104 2844 166 54 56 35 950 277 180 43 82 31 49 228 31 47 2265 32 40
internal_value=0 0.00209552 0.0131281 -0.0325975 -0.00371555 -0.0578692 -0.0268164 -0.0100077 -0.0126806 -0.00397954 -7.83846e-05 -0.00270374 9.57434e-05 0.00116454 -0.0170607 0.0166077 0.0419162 0.00990445 -0.00197293 0.0190659 -0.0112746 -0.0324694 -0.0207675 -0.00127003 -0.0368476 -0.0644546 0.0250709 0.00165736 0.0225726 -0.00304949 -0.00564799 -0.024393 -0.00437592 0.0034757 -0.0080821 0.0109294 0.0206907 0.0495443 -0.00771479 0.0251998 -0.0423658 0.0095125 -0.00300232 0.0133452 -0.00446797 0.0156645 0.0206892 0.0187676 0.0593274 0.0171627 0.00636502 -0.00828318 -0.0234176 -0.0479178 -0.000898967 0.0146537 0.0124662 0.0143628 -0.0260589 0.0156275 -0.00802181 -0.0171393
internal_weight=0 29476 4852 255 119 136 88 6172 4276 1896 24624 7912 5964 16712 440 664 149 160 5300 258 1948 280 205 152 86 75 123 16272 227 5042 3606 446 211 1436 563 873 573 160 300 117 235 413 3160 260 2900 4597 1788 1734 66 1668 718 441 261 125 136 105 2809 2571 78 2493 238 206
internal_count=35648 29476 4852 255 119 136 88 6172 4276 1896 24624 7912 5964 16712 440 664 149 160 5300 258 1948 280 205 152 86 75 123 16272 227 5042 3606 446 211 1436 563 873 573 160 300 117 235 413 3160 260 2900 4597 1788 1734 66 1668 718 441 261 125 136 105 2809 2571 78 2493 238 206
is_linear=0
shrinkage=0.2


Tree=13
num_leaves=63
num_cat=0
split_feature=5 5 22 8 10 22 2 10 22 22 2 22 10 10 22 0 2 10 0 2 2 2 0 22 0 0 22 2 22 2 2 2 10 0 12 22 2 22 0 22 2 20 2 2 9 7 2 10 12 8 0 22 0 0 10 4 7 2 10 10 2 22
split_gain=11.9613 4.84533 3.5826 2.47158 2.47132 2.35141 2.1602 3.39818 2.14777 2.05543 2.78863 5.84992 7.23878 6.6668 4.37329 3.24383 2.82691 2.63722 2.60366 3.66747 2.57731 2.57096 2.38175 2.35162 2.17054 2.91552 1.91777 11.3095 2.19573 4.54091 3.77508 2.18189 1.8807 1.84288 5.64699 1.79632 4.29199 2.95603 2.46375 1.94522 2.38925 1.82347 2.47384 1.76609 1.75203 1.70779 1.62385 1.59041 3.40685 2.16869 2.12423 1.96459 3.21777 2.09452 2.04655 2.83911 1.81395 1.92783 1.58456 1.56054 3.12085 1.72611
threshold=1.0000000180025095e-35 1.5000000000000002 71.500000000000014 2.5000000000000004 25.000000000000004 95.000000000000014 159.50000000000003 85.000000000000014 171.50000000000003 165.50000000000003 114.50000000000001 33.500000000000007 82.500000000000014 88.000000000000014 32.500000000000007 2.5000000000000004 36.500000000000007 356.00000000000006 5.5000000000000009 163.50000000000003 70.500000000000014 192.50000000000003 2.5000000000000004 18.500000000000004 1.0000000180025095e-35 3.5000000000000004 41.500000000000007 73.500000000000014 171.50000000000003 128.50000000000003 89.500000000000014 130.50000000000003 114.00000000000001 3.5000000000000004 5.5000000000000009 57.500000000000007 139.50000000000003 66.500000000000014 2.5000000000000004 73.500000000000014 163.50000000000003 1.0000000180025095e-35 133.50000000000003 76.500000000000014 1.0000000180025095e-35 1.0000000180025095e-35 30.500000000000004 298.00000000000006 9.5000000000000018 1.0000000180025095e-35 1.0000000180025095e-35 1055.5000000000002 3.5000000000000004 1.0000000180025095e-35 1398.0000000000002 2.5000000000000004 2.5000000000000004 126.50000000000001 4.5000000000000009 37.500000000000007 184.50000000000003 8.5000000000000018
decision_type=2 2 2 2 2 2 2 2 2 2 2 2 2 2 2 2 2 2 2 2 2 2 2 2 2 2 2 2 2 2 2 2 2 2 2 2 2 2 2 2 2 2 2 2 2 2 2 2 2 2 2 2 2 2 2 2 2 2 2 2 2 2
left_child=2 9 4 26 58 -4 7 -6 33 10 11 13 -13 22 23 20 -14 32 21 44 -15 35 -2 59 -19 -26 27 -3 29 30 -28 -30 -18 -7 -35 36 -16 -37 41 -40 -41 45 -43 -17 -20 -39 -5 48 49 50 56 54 53 -53 -49 -56 57 -10 -1 60 61 -12
right_child=1 3 5 46 6 8 -8 -9 47 -11 14 12 16 15 18 43 17 24 19 -21 -22 -23 -24 -25 25 -27 28 -29 31 -31 -32 -33 -34 34 -36 37 -38 38 39 40 -42 42 -44 -45 -46 -47 -48 51 -50 -51 -52 52 -54 -55 55 -57 -58 -59 -60 -61 -62 -63
leaf_value=0.0076906986210657198 0.028806169250526942 0.031287402595792498 -0.035176123954631669 -0.0083165248980124808 0.094314684186662945 0.014999230787919385 0.00035070383428842172 0.021203702447875852 0.031150004542187644 0.0014068027404975046 -0.0042913386926931498 0.031157095788357347 0.013505312631294323 0.064521195357426619 0.012645641663303115 0.0642897200329961 -0.032076713273471051 -0.074233462164799369 0.021338953043042282 0.06104748870970475 -0.012737774872972119 0.041640472213427232 -0.041183317657105811 -0.048382120014805546 0.0066692799781308031 -0.045220443170953112 0.0056004612033979766 -0.13191065768231497 -0.02167740543123468 -0.055528613273054361 0.089076994287390868 0.018428910989314318 0.0029360558268096242 0.0064131924271583554 -0.09021166699628036 0.022271377711810852 -0.055936833358790773 -0.046523784715906687 -0.02344286500343255 0.0038563761997681399 0.037957375878044833 -0.025874011947049039 0.015303559691072947 0.11972311184478877 -0.018885589472483845 -0.013056810276567653 0.055975193868983877 -0.0064918830939440205 -0.0036172303477201954 0.010436699626057647 -0.026155191612944231 -0.0023132249446851864 0.0020862476808913783 -0.038726703015466532 0.0045759890113885584 0.069554931521415717 -0.02809885057645875 -0.020725046746108845 -0.049248361236908858 0.024329789869842078 0.027439574266855532 -0.061046351845665231
leaf_weight=46 37 35 135 30 35 274 87 93 76 24189 34 413 543 39 73 56 66 30 134 72 31 60 41 95 99 77 72 33 567 32 31 60 874 125 30 231 73 83 70 325 110 90 166 39 64 230 33 2394 799 86 1005 84 204 255 260 30 74 46 34 42 39 58
leaf_count=46 37 35 135 30 35 274 87 93 76 24189 34 413 543 39 73 56 66 30 134 72 31 60 41 95 99 77 72 33 567 32 31 60 874 125 30 231 73 83 70 325 110 90 166 39 64 230 33 2394 799 86 1005 84 204 255 260 30 74 46 34 42 39 58
internal_value=0 0.00167641 -0.00800614 -0.0128309 0.013501 -0.00908571 0.0246673 0.041195 -0.0084723 0.00212965 0.00610895 0.0108187 0.00742226 0.0401983 0.000718859 0.062975 0.00161854 -0.00401367 0.00430311 0.0223932 0.0303065 0.0010706 -0.00798318 -0.0231004 -0.0245083 -0.0160325 -0.0157297 -0.0479117 -0.0128578 0.0102793 0.0307245 -0.0178395 0.000477712 0.00514007 -0.0122884 -0.000606993 -0.0216456 0.00174675 -0.00266776 0.00750026 0.0124796 -0.0116921 0.00082707 0.0870466 0.00833708 -0.0219314 0.0253601 -0.00957143 -0.0138753 -0.0202437 -0.0224407 -0.00678934 -0.0177606 -0.0297039 -0.00456973 0.0112979 -0.00339422 0.0115906 -0.0165084 -0.00921734 -0.0199729 -0.0400717
internal_weight=0 29476 6172 893 295 5877 215 128 5742 28583 4394 2345 2102 243 2049 165 1689 1146 1781 270 70 1511 78 268 206 176 830 68 762 135 103 627 940 429 155 1451 146 1305 1074 505 435 569 256 95 198 313 63 5313 2086 1287 1201 3227 543 339 2684 290 196 122 80 173 131 92
internal_count=35648 29476 6172 893 295 5877 215 128 5742 28583 4394 2345 2102 243 2049 165 1689 1146 1781 270 70 1511 78 268 206 176 830 68 762 135 103 627 940 429 155 1451 146 1305 1074 505 435 569 256 95 198 313 63 5313 2086 1287 1201 3227 543 339 2684 290 196 122 80 173 131 92
is_linear=0
shrinkage=0.2


Tree=14
num_leaves=63
num_cat=0
split_feature=5 25 5 3 11 11 22 3 0 8 22 0 0 13 25 0 22 6 22 11 11 11 22 25 3 3 3 25 13 22 25 22 22 11 0 13 21 25 22 13 20 13 25 25 0 13 22 11 13 22 13 3 6 22 5 11 13 13 13 13 11 22
split_gain=7.65525 11.6405 7.56652 4.96062 4.09937 3.38814 7.01113 3.3576 6.40673 5.56964 5.7041 6.13266 4.75201 3.21918 3.07445 3.06746 4.86099 6.02185 4.88251 4.07812 3.96909 3.90382 3.58485 3.48146 3.06149 2.89116 8.62253 5.57342 2.8733 3.02728 2.83022 2.81824 2.75972 2.94471 2.73572 6.63041 3.57096 5.11127 3.65852 6.36944 5.17127 2.97367 2.85937 4.95392 8.42875 7.55402 6.31325 5.58282 4.78331 4.5644 6.49547 3.95136 7.91002 3.98744 3.61765 3.6913 3.28688 3.11792 3.65245 3.10265 3.38025 3.05514
threshold=1.0000000180025095e-35 0.60355338454246532 1.5000000000000002 2.5000000000000004 27.000000000000004 2.5000000000000004 321.00000000000006 1.0000000180025095e-35 2.5000000000000004 1.5000000000000002 43.000000000000007 1.5000000000000002 1.0000000180025095e-35 193.50000000000003 0.78656607866287243 1.0000000180025095e-35 698.00000000000011 1.5000000000000002 212.50000000000003 3.5000000000000004 13.000000000000002 23.000000000000004 289.00000000000006 -0.6035533845424651 1.5000000000000002 8.5000000000000018 7.5000000000000009 -0.6035533845424651 125.50000000000001 923.00000000000011 -0.12940952181816107 443.50000000000006 818.00000000000011 9.5000000000000018 4.5000000000000009 80.500000000000014 1.0000000180025095e-35 1.0000000180025095e-35 49.000000000000007 25.500000000000004 1.0000000180025095e-35 185.50000000000003 -0.7865660786628722 -0.12940952181816107 1.5000000000000002 3.5000000000000004 571.50000000000011 19.000000000000004 2.5000000000000004 470.00000000000006 180.50000000000003 5.5000000000000009 6.5000000000000009 259.00000000000006 1.5000000000000002 45.500000000000007 157.50000000000003 17.500000000000004 150.50000000000003 90.500000000000014 3.5000000000000004 85.500000000000014
decision_type=2 2 2 2 2 2 2 2 2 2 2 2 2 2 2 2 2 2 2 2 2 2 2 2 2 2 2 2 2 2 2 2 2 2 2 2 2 2 2 2 2 2 2 2 2 2 2 2 2 2 2 2 2 2 2 2 2 2 2 2 2 2
left_child=3 7 24 4 14 -4 -7 8 9 10 -2 15 -11 -10 -1 16 17 18 -12 31 -18 -17 -20 -22 -3 26 34 -27 29 -8 -21 -19 33 -13 36 -36 38 -38 39 -9 -41 -37 48 47 45 -45 49 -44 -40 50 51 53 -53 56 55 -48 59 -50 -59 60 -46 -47
right_child=1 2 5 -5 -6 6 28 25 13 12 11 32 -14 -15 -16 21 20 19 22 30 23 -23 -24 -25 -26 27 -28 -29 -30 -31 -32 -33 -34 -35 35 41 37 -39 42 40 -42 -43 43 44 46 61 54 -49 57 -51 -52 52 -54 -55 -56 -57 -58 58 -60 -61 -62 -63
leaf_value=0.0028432735517378294 0.061589941637856617 0.01742633015602801 -0.05013513380696101 -0.010258308396769987 0.038911354805515934 0.074655173080308099 0.031499993396786656 -0.056772768042153789 0.00048533227895386521 0.086263993140813469 0.0051506352381429817 -0.037617499109071036 -0.00041538062505424027 0.059247475235085736 -0.021391740985431118 0.0054573761751839081 -0.083563538312911995 -0.056601463045392722 -0.1102172962576151 0.075027084376728337 -0.069747302331961691 -0.055631787252976843 -0.030239190321926981 0.0052453041993654696 0.0071014235002261721 0.0091872895541398429 0.089189123057506314 -0.074535809027946598 -0.071722612472680899 -0.050582602492067967 0.0021176658132497001 0.022566709808401159 -0.012547111975458953 -0.081519374643501494 0.005719500755349047 -0.0061285306741554971 -0.019463023820879475 0.024306111057790427 0.061277603960417683 0.042895424541797539 -0.02840753234922886 -0.024642140853714634 0.011208101666597147 0.086724350577400577 -0.049488631593329571 -0.068957492866014186 0.012304539936201149 -0.0060713214717768261 -0.026105889154079298 -0.062508416175842282 0.056729118153452877 -0.010103412940945224 -0.10157354586735004 0.028938579339734916 0.077540128785920773 0.063204876681168878 -0.069919324401886238 0.0022409607157484902 -0.011537450659911576 0.02447807466954861 0.028156961003939315 -0.011639007611513656
leaf_weight=1596 35 2250 108 4222 113 35 41 36 2000 37 69 312 80 38 241 463 75 35 40 57 40 46 51 65 2347 69 44 59 39 32 34 37 130 76 2228 3519 596 130 47 267 48 385 4355 31 70 38 1136 903 219 51 72 487 41 204 38 60 31 2781 1064 103 33 1759
leaf_count=1596 35 2250 108 4222 113 35 41 36 2000 37 69 312 80 38 241 463 75 35 40 57 40 46 51 65 2347 69 44 59 39 32 34 37 130 76 2228 3519 596 130 47 267 48 385 4355 31 70 38 1136 903 219 51 72 487 41 204 38 60 31 2781 1064 103 33 1759
internal_value=0 0.00134113 0.0102948 -0.00640492 0.00193817 -0.0232392 -0.00347887 -0.00042313 -0.00595929 -0.0150955 -0.0182423 -0.0200685 0.026996 0.001581 -0.00033617 -0.0110094 -0.022086 -0.00740878 -0.0349719 0.019647 -0.0484234 -6.3452e-05 -0.0653944 -0.0233233 0.0121549 0.000562064 0.000746683 -0.0294038 -0.0278958 -0.00448142 0.0477862 -0.0159178 -0.0377669 -0.0462168 0.00055898 -0.00298605 0.00204789 -0.0116256 0.0027634 0.0229222 0.0320302 -0.00795428 0.00224016 0.0041622 -0.00100007 -0.0111624 0.00698652 0.00824056 -0.00216027 -0.00408986 -0.00122785 -0.00553425 -0.0172062 0.00844034 0.0167883 0.0148581 -0.00920372 -0.00289393 -0.00157184 -6.69068e-05 -0.0246119 -0.0128511
internal_weight=0 29476 4852 6172 1950 255 147 24624 3720 1682 1565 1530 117 2038 1837 1012 503 323 160 163 180 509 91 105 4597 20904 20776 128 112 73 91 72 518 388 20732 6132 14600 726 13874 351 315 3904 13523 9412 4154 1828 2326 5258 4111 1092 1041 969 528 441 1234 1196 237 4064 3845 206 103 1797
internal_count=35648 29476 4852 6172 1950 255 147 24624 3720 1682 1565 1530 117 2038 1837 1012 503 323 160 163 180 509 91 105 4597 20904 20776 128 112 73 91 72 518 388 20732 6132 14600 726 13874 351 315 3904 13523 9412 4154 1828 2326 5258 4111 1092 1041 969 528 441 1234 1196 237 4064 3845 206 103 1797
is_linear=0
shrinkage=0.2


end of trees

feature_importances:
Column_13=122
Column_22=96
Column_2=95
Column_0=74
Column_10=71
Column_3=58
Column_25=55
Column_6=54
Column_11=54
Column_26=48
Column_9=36
Column_23=31
Column_5=22
Column_7=21
Column_12=17
Column_4=13
Column_8=13
Column_24=10
Column_1=8
Column_16=8
Column_17=5
Column_18=5
Column_21=5
Column_20=4
Column_19=3
Column_14=2

parameters:
[boosting: gbdt]
[objective: regression]
[metric: rmse]
[tree_learner: serial]
[device_type: cpu]
[data: ]
[valid: ]
[num_iterations: 10000]
[learning_rate: 0.2]
[num_leaves: 63]
[num_threads: 0]
[deterministic: 0]
[force_col_wise: 0]
[force_row_wise: 0]
[histogram_pool_size: -1]
[max_depth: -1]
[min_data_in_leaf: 30]
[min_sum_hessian_in_leaf: 0.001]
[bagging_fraction: 1]
[pos_bagging_fraction: 1]
[neg_bagging_fraction: 1]
[bagging_freq: 0]
[bagging_seed: 21187]
[feature_fraction: 0.5]
[feature_fraction_bynode: 1]
[feature_fraction_seed: 30770]
[extra_trees: 0]
[extra_seed: 27351]
[early_stopping_round: 0]
[first_metric_only: 0]
[max_delta_step: 0]
[lambda_l1: 0]
[lambda_l2: 0]
[linear_lambda: 0]
[min_gain_to_split: 0]
[drop_rate: 0.1]
[max_drop: 50]
[skip_drop: 0.5]
[xgboost_dart_mode: 0]
[uniform_drop: 0]
[drop_seed: 3778]
[top_rate: 0.2]
[other_rate: 0.1]
[min_data_per_group: 100]
[max_cat_threshold: 32]
[cat_l2: 10]
[cat_smooth: 10]
[max_cat_to_onehot: 4]
[top_k: 20]
[monotone_constraints: ]
[monotone_constraints_method: basic]
[monotone_penalty: 0]
[feature_contri: ]
[forcedsplits_filename: ]
[refit_decay_rate: 0.9]
[cegb_tradeoff: 1]
[cegb_penalty_split: 0]
[cegb_penalty_feature_lazy: ]
[cegb_penalty_feature_coupled: ]
[path_smooth: 0]
[interaction_constraints: ]
[verbosity: -1]
[saved_feature_importance_type: 0]
[linear_tree: 0]
[max_bin: 255]
[max_bin_by_feature: ]
[min_data_in_bin: 3]
[bin_construct_sample_cnt: 200000]
[data_random_seed: 4084]
[is_enable_sparse: 1]
[enable_bundle: 1]
[use_missing: 1]
[zero_as_missing: 0]
[feature_pre_filter: 1]
[pre_partition: 0]
[two_round: 0]
[header: 0]
[label_column: ]
[weight_column: ]
[group_column: ]
[ignore_column: ]
[categorical_feature: ]
[forcedbins_filename: ]
[precise_float_parser: 0]
[parser_config_file: ]
[objective_seed: 9093]
[num_class: 1]
[is_unbalance: 0]
[scale_pos_weight: 1]
[sigmoid: 1]
[boost_from_average: 1]
[reg_sqrt: 0]
[alpha: 0.9]
[fair_c: 1]
[poisson_max_delta_step: 0.7]
[tweedie_variance_power: 1.5]
[lambdarank_truncation_level: 30]
[lambdarank_norm: 1]
[label_gain: ]
[lambdarank_position_bias_regularization: 0]
[eval_at: ]
[multi_error_top_k: 1]
[auc_mu_weights: ]
[num_machines: 1]
[local_listen_port: 12400]
[time_out: 120]
[machine_list_filename: ]
[machines: ]
[gpu_platform_id: -1]
[gpu_device_id: -1]
[gpu_use_dp: 0]
[num_gpu: 1]

end of parameters

pandas_categorical:null
