tree
version=v4
num_class=1
num_tree_per_iteration=1
label_index=0
max_feature_idx=59
objective=regression
feature_names=Column_0 Column_1 Column_2 Column_3 Column_4 Column_5 Column_6 Column_7 Column_8 Column_9 Column_10 Column_11 Column_12 Column_13 Column_14 Column_15 Column_16 Column_17 Column_18 Column_19 Column_20 Column_21 Column_22 Column_23 Column_24 Column_25 Column_26 Column_27 Column_28 Column_29 Column_30 Column_31 Column_32 Column_33 Column_34 Column_35 Column_36 Column_37 Column_38 Column_39 Column_40 Column_41 Column_42 Column_43 Column_44 Column_45 Column_46 Column_47 Column_48 Column_49 Column_50 Column_51 Column_52 Column_53 Column_54 Column_55 Column_56 Column_57 Column_58 Column_59
feature_infos=[0:6] [0:5] [0:198] [0:10] [0:5] [0:2] [1:1749] [-1:1] [0:3] [1.250066876411438:2.0263426303863525] [1.2378247976303101:2.0617098808288574] [1.2376022338867188:2.0229930877685547] [1.2018756866455078:2.0700778961181641] [1.2523728609085083:2.0519764423370361] [1.2164689302444458:2.146345853805542] [1.2404338121414185:2.0926198959350586] [1.2454766035079956:2.0378186702728271] [1.2565609216690063:2.0267488956451416] [1.2029626369476318:2.1455183029174805] [1.2229450941085815:2.1066365242004395] [1.2791143655776978:1.9986720085144043] [1.2870436906814575:2.0682165622711182] [1.2426298856735229:2.1022436618804932] [1.2526693344116211:2.0997118949890137] [1.2322431802749634:2.1557555198669434] [1.1959550380706787:2.1204080581665039] [1.1927752494812012:2.1218852996826172] [1.1891951560974121:2.0669734477996826] [1.3109246492385864:2.016660213470459] [1.1807041168212891:2.0771667957305908] [1.2232304811477661:2.1232826709747314] [1.3225752115249634:2.0014653205871582] [1.3160591125488281:1.9641255140304565] [1.258259654045105:2.1298348903656006] [1.2814652919769287:2.0502464771270752] [1.2539757490158081:2.001039981842041] [1.2721823453903198:1.9800597429275513] [1.2610287666320801:2.0506389141082764] [1.3294636011123657:2.0122232437133789] [1.2921184301376343:1.9660999774932861] [1.2191058397293091:2.0414164066314697] [1.2463963031768799:1.9607211351394653] [1.2202389240264893:2.0580713748931885] [1.2425923347473145:2.0404753684997559] [1.2090858221054077:1.9779986143112183] [1.2214491367340088:2.0037026405334473] [1.315060019493103:1.9715585708618164] [1.2196609973907471:1.9827278852462769] [1.2925291061401367:1.9517573118209839] [1.1759778261184692:2.0510973930358887] [0:1] [-1:1] [-1:5] [-6:35] [0:7] [0:7] [0:6] [0:6] [-6:1] [-1:1]
tree_sizes=1488 1477 1476 1492 1490 1480 1478 1488 1470 1472 1485 1496 1491 1499 1488 1476 1473 1504 1463 1462 1475 1465 1472 1476 1461 1461 1489 1495 1485

Tree=0
num_leaves=15
num_cat=0
split_feature=9 9 48 9 18 35 34 11 26 18 34 45 46 56
split_gain=842.986 261.065 141.951 70.6221 36.23 20.6184 18.7407 17.0383 16.195 13.2958 13.2803 11.8137 13.15 14.8057
threshold=1.6059067845344546 1.7151597738265993 1.5088426470756533 1.6632269620895388 1.7808178067207339 1.434210002422333 1.7614400386810305 1.5379760265350344 1.6269794702529909 1.6141660809516909 1.6481311321258547 1.6731422543525698 1.6743617653846743 5.5000000000000009
decision_type=2 2 2 2 2 2 2 2 2 2 2 2 2 2
left_child=2 3 5 8 -3 -1 10 -4 -2 -9 -5 12 13 -10
right_child=1 4 7 6 -6 -7 -8 9 11 -11 -12 -13 -14 -15
leaf_value=-0.027909095169961408 -0.0020903905113818901 0.012826450861028621 -0.012067636234379292 -0.0036059950458361177 0.023114991675484056 -0.01828920320776075 0.040645073851624317 -0.0068004686942780331 0.001479167154319061 0.0043263054826937226 0.0063461626048411639 -0.0042350427306952487 0.012514243919388934 0.025458505361609689
leaf_weight=678 5220 3792 1623 351 1105 3121 39 4161 6658 287 7450 804 294 65
leaf_count=678 5220 3792 1623 351 1105 3121 39 4161 6658 287 7450 804 294 65
internal_value=-1.03572e-09 0.00475769 -0.0124259 0.00232095 0.015148 -0.020006 0.00607122 -0.00768257 6.63655e-05 -0.00608253 0.00589837 0.00150586 0.00216364 0.00171101
internal_weight=0 25778 9870 20881 4897 3799 7840 6071 13041 4448 7801 7821 7017 6723
internal_count=35648 25778 9870 20881 4897 3799 7840 6071 13041 4448 7801 7821 7017 6723
is_linear=0
shrinkage=1


Tree=1
num_leaves=15
num_cat=0
split_feature=9 9 48 9 9 18 17 11 39 45 18 33 16 27
split_gain=760.795 235.611 128.111 63.7364 32.8554 17.5398 16.5406 15.3771 13.2827 12.2659 11.9994 15.2316 13.0277 12.8518
threshold=1.6059067845344546 1.7151597738265993 1.5088426470756533 1.6632269620895388 1.7787953019142153 1.4556767344474795 1.6344498395919802 1.5379760265350344 1.734651565551758 1.6167797446250918 1.6141660809516909 1.6201451420783999 1.5885605216026308 1.6012483835220339
decision_type=2 2 2 2 2 2 2 2 2 2 2 2 2 2
left_child=2 3 5 6 -3 -1 9 -4 -5 -2 -9 12 -12 -14
right_child=1 4 7 8 -6 -7 -8 10 -10 -11 11 -13 13 -15
leaf_value=-0.024951785068341437 0.0019078268115186973 0.012346022789917734 -0.011464254057478994 0.0054851490770883582 0.022594234230665981 -0.017064560087678652 0.0018039085263141666 -0.0064604444841558153 0.020760221211560844 -0.0030708274785599906 -0.00338966611328475 -0.021275878366919198 0.037013745267565054 0.0053729634354079984
leaf_weight=935 1680 3920 1623 7695 977 2864 6668 4161 145 4693 109 49 60 69
leaf_count=935 1680 3920 1623 7695 977 2864 6668 4161 145 4693 109 49 60 69
internal_value=0 0.00451981 -0.0118046 0.00220491 0.0143906 -0.0190057 6.30487e-05 -0.00729844 0.00576766 -0.00175839 -0.0057784 0.00410999 0.00933649 0.0200896
internal_weight=0 25778 9870 20881 4897 3799 13041 6071 7840 6373 4448 287 238 129
internal_count=35648 25778 9870 20881 4897 3799 13041 6071 7840 6373 4448 287 238 129
is_linear=0
shrinkage=0.05


Tree=2
num_leaves=15
num_cat=0
split_feature=9 9 48 20 18 26 35 34 10 9 45 46 19 18
split_gain=686.617 212.639 115.62 57.6132 30.4885 17.5528 17.531 14.8039 14.3315 13.5553 12.6876 16.2818 12.1944 12.1475
threshold=1.6059067845344546 1.7151597738265993 1.5088426470756533 1.6617109179496767 1.7955543994903567 1.6269794702529909 1.434210002422333 1.7614400386810305 1.4728810191154482 1.6502839326858523 1.6731422543525698 1.6677585840225222 1.7393880486488345 1.6141660809516909
decision_type=2 2 2 2 2 2 2 2 2 2 2 2 2 2
left_child=2 3 6 5 -3 9 -1 -5 -4 -2 11 -7 -6 -10
right_child=1 4 8 7 12 10 -8 -9 13 -11 -12 -13 -14 -15
leaf_value=-0.025342827591671443 -0.0019440916944559188 0.011887542686649162 -0.022803577105347202 0.005260259070621799 0.0043357381331069131 0.0015164468534023491 -0.016472361300430668 0.03654209782222384 -0.0070829350292648252 -0.022818254113574573 -0.0043435811067392407 0.010668601461831382 0.024429016214218169 0.0032591492068458558
leaf_weight=678 5009 4066 139 8020 84 6383 3121 38 5633 79 826 526 747 299
leaf_count=678 5009 4066 139 8020 84 6383 3121 38 5633 79 826 526 747 299
internal_value=0 0.00429382 -0.0112144 0.00209466 0.0136711 1.26935e-05 -0.0180555 0.00540778 -0.00693352 -0.0022682 0.00151304 0.00221322 0.0223979 -0.00656165
internal_weight=0 25778 9870 20881 4897 12823 3799 8058 6071 5088 7735 6909 831 5932
internal_count=35648 25778 9870 20881 4897 12823 3799 8058 6071 5088 7735 6909 831 5932
is_linear=0
shrinkage=0.05


Tree=3
num_leaves=15
num_cat=0
split_feature=15 29 48 17 13 34 35 18 24 11 15 28 41 26
split_gain=620.707 195.441 103.028 40.4762 38.271 20.9688 15.4181 14.5489 13.415 13.4062 13.6108 12.8586 15.6078 11.2183
threshold=1.6037390232086184 1.6995517015457156 1.5088426470756533 1.6349919438362124 1.7632287144660952 1.7544139027595522 1.6939297914505007 1.4556767344474795 1.5860629677772524 1.5379760265350344 1.6016989946365359 1.6745159029960635 1.6723977923393252 1.7971659898757937
decision_type=2 2 2 2 2 2 2 2 2 2 2 2 2 2
left_child=2 3 7 6 13 11 -2 -1 -9 -4 -11 12 -5 -3
right_child=1 4 9 5 -6 -7 -8 8 -10 10 -12 -13 -14 -15
leaf_value=-0.022621578414959306 -0.0017442928480046365 0.0089724941217762325 -0.010541279511457155 0.0029628912632653484 0.018476551963333806 0.038902848613698311 0.033043865812942386 -0.015081798594002086 -0.048694125115871428 -0.004464672899894365 -0.015807109243851879 0.0054323952758759154 -0.0027215722142913692 0.022076173146536367
leaf_weight=935 6794 4873 1618 7053 1514 41 32 2824 30 4044 283 3981 1457 169
leaf_count=935 6794 4873 1618 7053 1514 41 32 2824 30 4044 283 3981 1457 169
internal_value=0 0.00404366 -0.0107651 0.00151669 0.0115051 0.00320406 -0.00158121 -0.0172085 -0.0154351 -0.00665843 -0.00520651 0.00308689 0.00198965 0.00941171
internal_weight=0 25914 9734 19358 6556 12532 6826 3789 2854 5945 4327 12491 8510 5042
internal_count=35648 25914 9734 19358 6556 12532 6826 3789 2854 5945 4327 12491 8510 5042
is_linear=0
shrinkage=0.05


Tree=4
num_leaves=15
num_cat=0
split_feature=9 13 46 13 19 17 9 35 12 45 41 47 34 49
split_gain=561.591 175.687 89.5655 54.6959 19.5652 17.3906 16.2688 14.1476 13.1067 12.1715 11.8717 14.3438 14.6339 11.6527
threshold=1.6059067845344546 1.6752462983131411 1.4994847774505617 1.7632287144660952 1.5405111908912661 1.6339672207832339 1.7163341045379641 1.434210002422333 1.7140841484069826 1.6162089109420779 1.6465092897415163 1.6493948101997378 1.7614400386810305 1.718538284301758
decision_type=2 2 2 2 2 2 2 2 2 2 2 2 2 2
left_child=2 5 7 6 -4 9 10 -1 -5 -2 -3 -12 13 -13
right_child=1 3 4 8 -6 -7 -8 -9 -10 -11 11 12 -14 -15
leaf_value=-0.023604025005245818 0.0022457474110193355 -0.0057260299916379155 -0.010571786970142607 0.046599146762960841 -0.0049308359398614401 0.0018657005551679104 0.010209243068898912 -0.015394532374350593 0.016863090821903022 -0.0028437169225298785 0.018336953096983268 0.006383687071909879 0.039395539369434122 -0.00067262874219438894
leaf_weight=668 1569 216 2366 38 4388 9047 3234 2448 1493 4675 234 4569 32 671
leaf_count=668 1569 216 2366 38 4388 9047 3234 2448 1493 4675 234 4569 32 671
internal_value=0 0.00388326 -0.0101421 0.00886759 -0.00690692 0.000464861 0.00737462 -0.0171545 0.0176012 -0.00156483 0.00577253 0.00622362 0.00568596 0.0054801
internal_weight=0 25778 9870 10487 6754 15291 8956 3116 1531 6244 5722 5506 5272 5240
internal_count=35648 25778 9870 10487 6754 15291 8956 3116 1531 6244 5722 5506 5272 5240
is_linear=0
shrinkage=0.05


Tree=5
num_leaves=15
num_cat=0
split_feature=13 13 18 48 26 34 45 49 45 46 18 52 13 16
split_gain=502.133 186.954 54.844 52.5592 28.0432 13.4539 13.0314 12.9359 11.1847 14.3286 12.0931 12.2544 10.7771 11.2724
threshold=1.586201071739197 1.6752462983131411 1.7588618993759157 1.5088426470756533 1.6269794702529909 1.6505067944526675 1.4219112992286684 1.7148413062095644 1.6731422543525698 1.6646332144737246 1.6991206407546999 4.5000000000000009 1.8507319688796999 1.8662999272346499
decision_type=2 2 2 2 2 2 2 2 2 2 2 2 2 2
left_child=3 4 5 6 -2 7 -1 -3 9 10 11 -6 -4 -14
right_child=1 2 12 -5 8 -7 -8 -9 -10 -11 -12 -13 13 -15
leaf_value=-0.021651141246338546 -0.0024139991507580354 0.00020949603837830825 0.0152628521593666 -0.0072306155496885231 0.0011703300556030914 0.0071160426275240444 -0.014074531208685254 -0.031252218390765946 -0.0020827501001229975 0.0079854592845227841 0.014585767273621804 0.02927338480949402 0.052592567201608265 0.020809751429728102
leaf_weight=695 7287 233 1649 3968 7217 8435 3094 38 1671 1009 176 39 39 98
leaf_count=695 7287 233 1649 3968 7217 8435 3094 38 1671 1009 176 39 39 98
internal_value=0 0.00312951 0.00840106 -0.0112524 -4.93551e-05 0.00676373 -0.0154643 -0.00420211 0.00165468 0.00239455 0.0016355 0.00132138 0.0163824 0.0298574
internal_weight=0 27891 10492 7757 17399 8706 3789 271 10112 8441 7432 7256 1786 137
internal_count=35648 27891 10492 7757 17399 8706 3789 271 10112 8441 7432 7256 1786 137
is_linear=0
shrinkage=0.05


Tree=6
num_leaves=15
num_cat=0
split_feature=15 29 48 40 18 36 34 10 10 36 18 22 35 34
split_gain=460.326 146.784 75.8357 31.1344 29.8664 16.9768 16.162 11.8494 11.3945 12.8593 12.5413 11.6903 11.3771 11.3361
threshold=1.6037390232086184 1.6995517015457156 1.5088426470756533 1.6426080465316775 1.7808178067207339 1.599732041358948 1.7544139027595522 1.4728810191154482 1.7184011936187746 1.6972790956497195 1.7270032763481142 1.7188602685928347 1.434210002422333 1.6505067944526675
decision_type=2 2 2 2 2 2 2 2 2 2 2 2 2 2
left_child=2 3 12 -2 8 -5 -7 -4 13 10 11 -10 -1 -3
right_child=1 4 7 5 -6 6 -8 -9 9 -11 -12 -13 -14 -15
leaf_value=-0.020678158306114421 -0.0010290149097174149 -0.014343084783657737 -0.020174197991974924 -0.020071271585324145 0.017431796188146845 0.0030835755421297715 0.037609856838689136 -0.0054019014391251865 0.023206034675240517 0.0094124844893521339 0.0065699765737029341 0.057802335966017943 -0.013521909114683015 0.0062564186903931677
leaf_weight=676 8272 69 139 79 1108 10973 34 5806 115 3064 87 31 3113 2082
leaf_count=676 8272 69 139 79 1108 10973 34 5806 115 3064 87 31 3113 2082
internal_value=0 0.00348228 -0.00927058 0.00129234 0.00994854 0.00302446 0.00319023 -0.00574729 0.00842661 0.0102736 0.0215972 0.0305518 -0.0147987 0.00559563
internal_weight=0 25914 9734 19358 6556 11086 11007 5945 5448 3297 233 146 3789 2151
internal_count=35648 25914 9734 19358 6556 11086 11007 5945 5448 3297 233 146 3789 2151
is_linear=0
shrinkage=0.05


Tree=7
num_leaves=15
num_cat=0
split_feature=12 13 48 18 17 31 24 31 33 41 49 34 45 54
split_gain=416.049 148.442 52.7671 44.6929 19.1515 14.3959 14.3824 11.7156 18.2804 11.6579 11.3405 10.7804 10.1541 16.6782
threshold=1.5908371806144717 1.6752462983131411 1.5088426470756533 1.7588618993759157 1.6349919438362124 1.5485306382179262 1.5822191238403323 1.6670189499855044 1.6612874269485476 1.4279419779777529 1.6843128800392153 1.6846781373023989 1.6724153757095339 5.5000000000000009
decision_type=2 2 2 2 2 2 2 2 2 2 2 2 2 2
left_child=2 4 6 7 11 -6 9 8 -3 -1 -10 -2 13 -7
right_child=1 3 -4 -5 5 12 -8 -9 10 -11 -12 -13 -14 -15
leaf_value=-0.019728004528740985 -0.0018265969218942387 0.0096569116991716188 -0.0061570211206002532 0.014856198275710006 0.036259118765592575 0.0020440339547755241 -0.048636125624179842 0.0067537396046642205 4.1312320881903765e-05 -0.012549182705325113 -0.015993938674272477 0.023571602219627018 -0.0018432496918704699 0.018525425343519183
leaf_weight=694 7984 318 4542 1786 30 6880 30 7904 301 3055 174 42 1751 157
leaf_count=694 7984 318 4542 1786 30 6880 30 7904 301 3055 174 42 1751 157
internal_value=0 0.00298069 -0.00978888 0.00765192 7.35067e-05 0.00168198 -0.014154 0.00617247 0.000378799 -0.0138781 -0.00583265 -0.00169369 0.00156394 0.00241174
internal_weight=0 27327 8321 10483 16844 8818 3779 8697 793 3749 475 8026 8788 7037
internal_count=35648 27327 8321 10483 16844 8818 3779 8697 793 3749 475 8026 8788 7037
is_linear=0
shrinkage=0.05


Tree=8
num_leaves=15
num_cat=0
split_feature=15 29 15 14 40 14 10 34 15 36 49 14 11 58
split_gain=377.678 120.92 61.876 25.6993 25.5509 15.7482 15.5182 14.4906 13.2353 12.8062 11.2131 10.2765 14.3299 13.295
threshold=1.6037390232086184 1.6995517015457156 1.4979634881019595 1.7935363054275515 1.6452339887619021 1.5329453945159914 1.7903018593788149 1.7544139027595522 1.6016989946365359 1.599732041358948 1.806661903858185 1.8027439117431643 1.7734060883522036 -2.4999999999999996
decision_type=2 2 2 2 2 2 2 2 2 2 2 2 2 2
left_child=2 4 -1 6 -2 -4 -3 9 -7 -6 -8 -5 -13 -14
right_child=1 3 5 11 7 8 10 -9 -10 -11 -12 12 13 -15
leaf_value=-0.014424902052141584 -0.00079499559482807368 0.0072688586946029121 -0.0096660437483197005 0.030294555634688986 -0.018126178818614516 -0.0036291231393352458 0.014965809821739964 0.035437257281121091 -0.014768326714184044 0.0028898158268156051 0.044655638400997434 0.032107151616917982 0.01450364576676224 -0.011528522747435741
leaf_weight=2962 8937 5482 1869 139 73 4620 348 34 283 10314 35 101 395 56
leaf_count=2962 8937 5482 1869 139 73 4620 348 34 283 10314 35 101 395 56
internal_value=0 0.00315422 -0.0083972 0.00902319 0.00116656 -0.00576075 0.00794867 0.00284879 -0.00427208 0.00274212 0.017679 0.0181434 0.0150836 0.0112713
internal_weight=0 25914 9734 6556 19358 6772 5865 10421 4903 10387 383 691 552 451
internal_count=35648 25914 9734 6556 19358 6772 5865 10421 4903 10387 383 691 552 451
is_linear=0
shrinkage=0.05


Tree=9
num_leaves=15
num_cat=0
split_feature=9 9 15 44 14 34 10 49 19 17 9 12 12 39
split_gain=341.763 108.497 56.9609 31.0394 18.2887 11.149 10.7249 10.4268 10.2352 10.0727 9.63479 17.138 11.2607 16.0366
threshold=1.6059067845344546 1.7151597738265993 1.5074558854103091 1.6460066437721255 1.7935363054275515 1.7614400386810305 1.7903018593788149 1.806661903858185 1.5508382320404055 1.7848879694938662 1.6067454218864443 1.5996053814888003 1.5953208804130556 1.6254846453666689
decision_type=2 2 2 2 2 2 2 2 2 2 2 2 2 2
left_child=2 3 -1 10 6 -5 -3 9 -4 -8 11 -2 13 -12
right_child=1 4 8 5 -6 -7 7 -9 -10 -11 12 -13 -14 -15
leaf_value=-0.013006859003834035 0.033024520067305406 0.0076807393807414946 -0.0076357821603016286 0.0030611059733127726 0.017259937125349664 0.03092870689514611 0.01894633334460866 0.042422856007303514 -0.0035018953870673119 -1.5107014526923499e-05 0.00070263831976720762 -0.0031689977397521339 -0.00063092821968291509 -0.023825777796446346
leaf_weight=3526 58 3815 2422 11786 692 36 259 35 3922 96 139 75 8659 128
leaf_count=3526 58 3815 2422 11786 692 36 259 35 3922 96 139 75 8659 128
internal_value=0 0.00302935 -0.0079119 0.00145846 0.00972766 0.00314597 0.0084881 0.0163858 -0.00508012 0.0138187 -0.000743735 0.0126146 -0.000942778 -0.0110563
internal_weight=0 25778 9870 20881 4897 11822 4205 390 6344 355 9059 133 8926 267
internal_count=35648 25778 9870 20881 4897 11822 4205 390 6344 355 9059 133 8926 267
is_linear=0
shrinkage=0.05


Tree=10
num_leaves=15
num_cat=0
split_feature=12 13 47 18 17 31 31 36 37 12 39 48 11 25
split_gain=308.945 112.095 41.0288 33.2222 14.1973 13.4152 9.69459 17.8445 12.4931 13.1169 13.5563 19.2949 12.5921 12.7287
threshold=1.5908371806144717 1.6752462983131411 1.4975643754005434 1.7588618993759157 1.6349919438362124 1.5485306382179262 1.6670189499855044 1.6673664450645449 1.6692050695419314 1.6765187978744509 1.734651565551758 1.6997115015983584 1.6904816627502444 1.711567282676697
decision_type=2 2 2 2 2 2 2 2 2 2 2 2 2 2
left_child=2 4 -1 6 -2 -6 7 -3 -8 10 11 -10 -11 -14
right_child=1 3 -4 -5 5 -7 8 -9 9 12 -12 -13 13 -15
leaf_value=-0.013006986095381472 -0.0014793324417061223 0.006903555053221877 -0.0057389491843606267 0.012839134804662505 0.034805727551380797 0.0013131587612444792 0.014714144138017977 -0.0081648401916027073 0.0019925313606310555 0.011540636476421857 0.033067761510610583 -0.017910208395268353 0.0025988202917209303 0.0074085700974842426
leaf_weight=3087 8026 434 5234 1786 30 8788 381 359 789 955 30 144 2423 3182
leaf_count=3087 8026 434 5234 1786 30 8788 381 359 789 955 30 144 2423 3182
internal_value=0 0.00256853 -0.00843531 0.00662779 4.22162e-05 0.0014271 0.00535224 8.19234e-05 0.00588101 0.00543366 -1.55036e-05 -0.00107927 0.00623359 0.00532935
internal_weight=0 27327 8321 10483 16844 8818 8697 793 7904 7523 963 933 6560 5605
internal_count=35648 27327 8321 10483 16844 8818 8697 793 7904 7523 963 933 6560 5605
is_linear=0
shrinkage=0.05


Tree=11
num_leaves=15
num_cat=0
split_feature=15 14 15 22 14 15 34 45 26 45 46 28 33 59
split_gain=280.886 92.1982 46.7715 27.0624 11.9268 12.4452 11.8443 12.4428 11.5571 16.7786 12.3367 10.029 9.7042 20.2646
threshold=1.6037390232086184 1.6777096390724184 1.4979634881019595 1.7649282813072207 1.5329453945159914 1.6016989946365359 1.6701487898826601 1.7070944905281069 1.6269794702529909 1.6731422543525698 1.6621613502502444 1.6548970937728884 1.7477774620056155 1.0000000180025095e-35
decision_type=2 2 2 2 2 2 2 2 2 2 2 2 2 2
left_child=2 8 -1 6 -4 -6 7 -3 -2 10 -10 -8 -13 -14
right_child=1 3 4 -5 5 -7 11 -9 9 -11 -12 12 13 -15
leaf_value=-0.012482275077123586 -0.0014297817486146733 0.0026126450862278021 -0.0083480938924117738 0.013060157120367278 -0.00303049494581926 -0.013832079311470789 0.02831075099461219 -0.013721487480733131 0.0014622081791111521 -0.0027602649694514355 0.0064023479132675658 0.0052823619854029374 0.011855525992481814 -0.02170817626917616
leaf_weight=2962 5521 855 1869 1389 4620 283 51 135 7262 1992 1530 6090 1042 47
leaf_count=2962 5521 855 1869 1389 4620 283 51 135 7262 1992 1530 6090 1042 47
internal_value=0 0.00272017 -0.00724167 0.00660512 -0.00494949 -0.00365396 0.00551436 0.000385263 0.000430658 0.00138313 0.0023219 0.00621668 0.00605972 0.010407
internal_weight=0 25914 9734 9609 6772 4903 8220 990 16305 10784 8792 7230 7179 1089
internal_count=35648 25914 9734 9609 6772 4903 8220 990 16305 10784 8792 7230 7179 1089
is_linear=0
shrinkage=0.05


Tree=12
num_leaves=15
num_cat=0
split_feature=15 14 48 13 39 28 24 36 14 40 40 44 43 39
split_gain=253.5 83.2089 42.6764 25.9268 12.0444 12.7338 11.1445 10.0319 10.3858 9.19856 12.7695 10.0919 9.30259 9.14791
threshold=1.6037390232086184 1.6777096390724184 1.5088426470756533 1.7632287144660952 1.6604278683662417 1.6315962672233584 1.5860629677772524 1.599732041358948 1.6363407373428347 1.6426080465316775 1.6403344273567202 1.6694419980049136 1.6466963291168215 1.6654410958290102
decision_type=2 2 2 2 2 2 2 2 2 2 2 2 2 2
left_child=2 7 6 4 5 -3 -1 8 -2 10 13 -11 -12 -9
right_child=1 3 -4 -5 -6 -7 -8 9 -10 11 12 -13 -14 -15
leaf_value=-0.010784322451914078 -0.0040811500402356867 0.02163856033092508 -0.0042365431115867396 0.012254619110803135 0.0056733410400207265 -0.0043397079951562516 -0.041380339264869698 -0.00031418511525404093 -0.03010587258400714 0.0029893787649306154 -0.0049871296917808981 -0.00086676266002883712 -0.022745468423647039 0.0095416486919781222
leaf_weight=3759 590 52 5945 1525 7524 508 30 6709 41 5655 557 2424 85 244
leaf_count=3759 590 52 5945 1525 7524 508 30 6709 41 5655 557 2424 85 244
internal_value=0 0.00258416 -0.00687959 0.00627486 0.00514681 -0.00192744 -0.0110266 0.000409125 -0.00577214 0.000657969 -0.000591297 0.00183239 -0.00733831 3.16834e-05
internal_weight=0 25914 9734 9609 8084 560 3789 16305 631 15674 7595 8079 642 6953
internal_count=35648 25914 9734 9609 8084 560 3789 16305 631 15674 7595 8079 642 6953
is_linear=0
shrinkage=0.05


Tree=13
num_leaves=15
num_cat=0
split_feature=9 28 15 18 35 40 45 24 11 7 36 44 40 33
split_gain=230.189 87.6728 26.83 24.8042 11.9942 11.0826 17.7057 14.4519 13.5066 11.9725 11.6745 11.1748 10.5379 9.86463
threshold=1.5866958498954775 1.673868000507355 1.4979634881019595 1.7808178067207339 1.524902403354645 1.6426080465316775 1.6731422543525698 1.6775299310684206 1.7131278514862063 -0.12940952181816107 1.6648678779602053 1.6341288089752199 1.6377014517784121 1.7477774620056155
decision_type=2 2 2 2 2 2 2 2 2 2 2 2 2 2
left_child=2 4 -1 13 -2 12 8 9 11 -8 -11 -7 -6 -3
right_child=1 3 -4 -5 5 6 7 -9 -10 10 -12 -13 -14 -15
leaf_value=-0.011361051236822003 0.030056956320097951 0.0042370690035152181 -0.0053079966328899312 0.012850181841755024 -0.00053492638063640436 -0.0082533764946476924 -0.010686689645584951 0.0033460741856466501 0.036178489625453947 0.00599240371144858 -0.0087573561718168307 0.0030005010771209065 -0.0051439868101013052 0.0088657518794686609
leaf_weight=2962 33 8055 4793 1095 8465 230 657 602 30 298 244 5388 1453 1343
leaf_count=2962 33 8055 4793 1095 8465 230 657 602 30 298 244 5388 1453 1343
internal_value=0 0.00211855 -0.00761994 0.00572832 -5.83094e-05 -0.000115533 0.00134191 -0.00297495 0.00271845 -0.00614864 -0.00064771 0.00253977 -0.00121016 0.00489852
internal_weight=0 27893 7755 10493 17400 17367 7449 1801 5648 1199 542 5618 9918 9398
internal_count=35648 27893 7755 10493 17400 17367 7449 1801 5648 1199 542 5618 9918 9398
is_linear=0
shrinkage=0.05


Tree=14
num_leaves=15
num_cat=0
split_feature=26 14 9 34 14 18 34 29 16 20 41 14 58 6
split_gain=210.763 65.4641 48.3903 12.9148 12.5917 10.7674 9.55534 12.5513 14.9817 12.4582 9.51088 9.45574 9.38101 9.22234
threshold=1.6269794702529909 1.5329453945159914 1.7163341045379641 1.7614400386810305 1.7935363054275515 1.4732021093368532 1.6591052412986758 1.6445919871330263 1.6212096810340884 1.6503278613090517 1.6875272989273074 1.8027439117431643 -1.0000000180025095e-35 221.50000000000003
decision_type=2 2 2 2 2 2 2 2 2 2 2 2 2 2
left_child=1 5 3 6 -4 13 10 8 -8 -9 -2 -6 -10 -1
right_child=2 -3 4 -5 11 -7 7 9 12 -11 -12 -13 -14 -15
leaf_value=-0.00087718945398605134 0.00087823412316854414 -0.002297358361785479 0.0066503204053398437 0.029649710406859715 0.025657128418485328 -0.0078522999050612795 0.042396605217031071 -0.0043825184612357911 0.0050960190666232323 0.0030660936234610547 -0.0084654554065962933 0.01102941982676729 0.024744258315799988 -0.014446962636300671
leaf_weight=139 6638 10437 4065 42 138 3231 35 605 362 7783 284 554 73 1262
leaf_count=139 6638 10437 4065 42 138 3231 35 605 362 7783 284 554 73 1262
internal_value=0 -0.00449282 0.00328987 0.00196042 0.0077117 -0.00943972 0.00188672 0.00297437 0.0109255 0.00252885 0.000494876 0.0139465 0.00839331 -0.0131006
internal_weight=0 15069 20579 15822 4757 4632 15780 8858 470 8388 6922 692 435 1401
internal_count=35648 15069 20579 15822 4757 4632 15780 8858 470 8388 6922 692 435 1401
is_linear=0
shrinkage=0.05


Tree=15
num_leaves=15
num_cat=0
split_feature=12 26 46 13 12 12 44 26 12 32 19 43 26 45
split_gain=190.954 70.4396 25.9903 20.6177 17.0202 13.6946 10.23 10.5792 9.99465 12.95 9.68036 8.92147 10.2581 17.0158
threshold=1.5908371806144717 1.6755213141441347 1.4994847774505617 1.7632287144660952 1.7140841484069826 1.6526880264282229 1.5274341106414797 1.6269794702529909 1.8220725655555727 1.7724059820175173 1.7242801785469057 1.7883989214897158 1.7971659898757937 1.7247453927993777
decision_type=2 2 2 2 2 2 2 2 2 2 2 2 2 2
left_child=2 6 -1 5 -5 -3 -2 -8 9 11 -6 12 -7 -14
right_child=1 3 -4 4 10 8 7 -9 -10 -11 -12 -13 13 -15
leaf_value=-0.010257245747385122 0.01860968786405047 -0.0073845379425529628 -0.0044779186755259546 0.047351850593282334 -0.014038965869240645 0.0047170586268714312 -0.001561453705952359 0.00098610858936831421 0.027946006863013559 -0.011462660139847187 0.010598448478844774 -0.020374158897570202 0.049480942001237593 0.0070118702464289475
leaf_weight=3101 74 241 5220 31 41 8131 6740 10307 46 124 1446 35 34 77
leaf_count=3101 74 241 5220 31 41 8131 6740 10307 46 124 1446 35 34 77
internal_value=0 0.00201934 -0.00663171 0.00530724 0.0106836 0.00436787 5.93856e-05 -2.11402e-05 0.00470318 0.00457591 0.00991914 0.00481619 0.00492316 0.0200204
internal_weight=0 27327 8321 10206 1518 8688 17121 17047 8447 8401 1487 8277 8242 111
internal_count=35648 27327 8321 10206 1518 8688 17121 17047 8447 8401 1487 8277 8242 111
is_linear=0
shrinkage=0.05


Tree=16
num_leaves=15
num_cat=0
split_feature=16 32 33 11 40 28 44 24 11 45 44 17 37 49
split_gain=173.353 67.7083 17.7646 17.1536 11.1007 16.2787 13.6606 14.1852 13.4863 13.0096 11.8894 12.4986 13.7448 11.7577
threshold=1.5730480551719668 1.6783248186111452 1.7690474390983584 1.477593779563904 1.6452339887619021 1.5702089667320254 1.6727814078330996 1.6766281723976137 1.7182408571243288 1.6731422543525698 1.6857068538665774 1.6496079564094546 1.6784399747848513 1.6716412305831911
decision_type=2 2 2 2 2 2 2 2 2 2 2 2 2 2
left_child=3 4 -3 -1 -2 -6 8 10 -7 13 -8 -12 -13 -9
right_child=1 2 -4 -5 5 6 7 9 -10 -11 11 12 -14 -15
leaf_value=-0.010904623778289697 -0.00099163430594702675 0.0043295927923207127 0.010714004435888923 -0.0054329077174625692 0.037071884253236931 0.0023895030342326391 -0.0093171444962091756 3.0022967410715004e-05 0.034447550751043089 0.00058388041300063884 -0.016757773789130664 0.012848533483777846 -0.012436511548649935 0.036927438586950301
leaf_weight=1974 11231 8398 1252 5220 32 5589 782 38 33 692 73 212 72 50
leaf_count=1974 11231 8398 1252 5220 32 5589 782 38 33 692 73 212 72 50
internal_value=0 0.0017532 0.00515791 -0.00693432 5.93761e-06 0.00148537 0.00133436 -0.00230813 0.00257768 0.00288661 -0.00586555 0.00169508 0.00643824 0.0209945
internal_weight=0 28454 9650 7194 18804 7573 7541 1919 5622 780 1139 357 284 88
internal_count=35648 28454 9650 7194 18804 7573 7541 1919 5622 780 1139 357 284 88
is_linear=0
shrinkage=0.05


Tree=17
num_leaves=15
num_cat=0
split_feature=15 26 15 18 34 34 47 15 18 29 47 53 45 26
split_gain=157.066 52.2219 27.2033 17.8316 10.3455 10.2562 9.93763 9.35019 10.3036 8.84854 7.65105 11.1481 8.75062 11.4952
threshold=1.6037390232086184 1.6755213141441347 1.4979634881019595 1.7808178067207339 1.6475130915641787 1.6328106522560122 1.6603087186813357 1.6016989946365359 1.5747984051704409 1.5567013025283816 1.6149225234985354 -5.4999999999999991 1.6167797446250918 1.6281149983406069
decision_type=2 2 2 2 2 2 2 2 2 2 2 2 2 2
left_child=2 10 -1 4 5 6 -3 8 -4 -10 -2 -12 -13 -14
right_child=1 3 7 -5 -6 -7 -8 -9 9 -11 11 12 13 -15
leaf_value=-0.009411899952355026 -0.0054964048543127775 0.01653738456608897 -0.0048652561008461033 0.01080732144401942 0.0044340592668500895 -0.011553529475520297 -0.0090189458385332311 -0.012547202392573087 0.012302655282210771 -0.0014481571851403207 0.014962369195747239 0.0037265112798387152 -0.002416387311591427 0.00082061309657446152
leaf_weight=2962 563 88 3970 1109 8722 205 67 284 123 2395 131 1669 3855 9505
leaf_count=2962 563 88 3970 1109 8722 205 67 284 123 2395 131 1669 3855 9505
internal_value=0 0.0020341 -0.00541521 0.00482207 0.00409121 -0.00421515 0.00549045 -0.0036671 -0.00327839 -0.000776453 0.000227049 0.000439602 0.000313015 -0.000113417
internal_weight=0 25914 9734 10191 9082 360 155 6772 6488 2518 15723 15160 15029 13360
internal_count=35648 25914 9734 10191 9082 360 155 6772 6488 2518 15723 15160 15029 13360
is_linear=0
shrinkage=0.05


Tree=18
num_leaves=15
num_cat=0
split_feature=13 26 15 13 49 54 26 53 32 36 17 34 26 49
split_gain=142.285 54.8787 16.6395 16.1574 11.6749 10.9714 11.5611 9.90713 10.1947 13.4346 9.53872 9.05547 8.99805 15.9592
threshold=1.586201071739197 1.6755213141441347 1.4979634881019595 1.7632287144660952 1.5159488916397097 5.5000000000000009 1.6685701608657839 -1.4999999999999998 1.6790606975555422 1.7003957033157351 1.7183923125267031 1.7167078852653506 1.6238721609115603 1.6741507649421694
decision_type=2 2 2 2 2 2 2 2 2 2 2 2 2 2
left_child=2 4 -1 -3 -2 -6 7 8 -7 -10 11 -5 -9 -14
right_child=1 3 -4 10 5 6 -8 12 9 -11 -12 -13 13 -15
leaf_value=-0.0089379007857594943 -0.029730530038024439 0.0037545385402926006 -0.0041707743221068008 0.008150331785039204 -0.00021883513142273043 0.0077158402381844113 -0.0079131045668828694 -0.01294940250454011 0.03986294976332122 0.0079712899371248772 0.0083625282792022804 0.040303671788027948 0.021158986693208523 -0.010640126357183737
leaf_weight=2960 33 8683 4797 41 16942 221 122 77 72 61 1430 47 94 68
leaf_count=2960 33 8683 4797 41 16942 221 122 77 72 61 1430 47 94 68
internal_value=0 0.00166589 -0.00598987 0.00458656 -1.83221e-05 3.72085e-05 0.00610419 0.00898802 0.0142983 0.0252359 0.00934575 0.0253231 0.00112265 0.00781121
internal_weight=0 27891 7757 10201 17690 17657 715 593 354 133 1518 88 239 162
internal_count=35648 27891 7757 10201 17690 17657 715 593 354 133 1518 88 239 162
is_linear=0
shrinkage=0.05


Tree=19
num_leaves=15
num_cat=0
split_feature=12 49 9 13 16 40 12 39 44 37 44 25 22 26
split_gain=130.085 36.2459 34.1133 10.8437 10.307 10.286 10.3158 9.79795 9.01978 8.56851 8.42869 7.91922 7.70464 8.17706
threshold=1.6221212148666384 1.532288193702698 1.7163341045379641 1.8507319688796999 1.8662999272346499 1.579034745693207 1.5976012349128725 1.7364128232002261 1.8257524371147158 1.4281679391860964 1.7249036431312563 1.4456799626350405 1.5502799749374392 1.7407714128494265
decision_type=2 2 2 2 2 2 2 2 2 2 2 2 2 2
left_child=1 5 7 -4 -5 6 9 12 -6 11 -9 -1 -2 -14
right_child=2 -3 3 4 8 -7 -8 10 -10 -11 -12 -13 13 -15
leaf_value=-0.010019564527784637 0.024343015843381485 -0.0019903007909155162 0.0057158035529078013 0.041691728681325917 -0.0042426451148154833 -0.03236587120265496 0.020228595856358025 0.007625192194245756 0.025814356293099434 -0.006725411762820932 0.036048729301375503 -0.025479418895485106 0.0013001093403149592 -0.0094729468247361399
leaf_weight=303 36 9049 4618 39 48 41 34 112 52 4128 34 114 16862 178
leaf_count=303 36 9049 4618 39 48 41 34 112 52 4128 34 114 16862 178
internal_value=0 -0.00383002 0.00238193 0.00612997 0.0198898 -0.0074334 -0.00721016 0.00134667 0.011387 -0.00741542 0.0142444 -0.014246 0.00123639 0.00118757
internal_weight=0 13669 21979 4757 139 4620 4579 17222 100 4545 146 417 17076 17040
internal_count=35648 13669 21979 4757 139 4620 4579 17222 100 4545 146 417 17076 17040
is_linear=0
shrinkage=0.05


Tree=20
num_leaves=15
num_cat=0
split_feature=26 19 9 13 34 35 13 16 27 44 15 42 23 36
split_gain=118.184 37.7639 27.9391 11.1242 10.8051 9.88338 9.78645 9.30203 8.16176 8.14035 7.9582 8.06997 6.86427 6.86358
threshold=1.6269794702529909 1.5405111908912661 1.7163341045379641 1.5744729638099673 1.7614400386810305 1.434210002422333 1.8507319688796999 1.8662999272346499 1.6695090532302859 1.8257524371147158 1.4955948591232302 1.6654271483421328 1.6206337213516238 1.6036021709442141
decision_type=2 2 2 2 2 2 2 2 2 2 2 2 2 2
left_child=1 3 4 5 -2 -1 -4 -8 10 -9 -3 12 -12 -14
right_child=2 8 6 -5 -6 -7 7 9 -10 -11 11 -13 13 -15
leaf_value=-0.012012053537652197 0.0013859635417754509 -0.026301757711917163 0.0054300132189737072 -0.025010606463680547 0.02678028652887969 -0.0056089150805193923 0.039607142513761157 -0.0040305125216643011 -0.022991912786594848 0.024523638210331017 -0.0008702598667914745 0.0070693586876037166 -0.017010509820109366 -0.0035061411840893219
leaf_weight=694 15780 32 4618 82 42 4578 39 48 44 52 7365 278 99 1897
leaf_count=694 15780 32 4618 82 42 4578 39 48 44 52 7365 278 99 1897
internal_value=0 -0.00336436 0.00246356 -0.00673606 0.00145337 -0.00645182 0.00582347 0.0188953 -0.00150619 0.0108176 -0.00140844 -0.0013258 -0.00157512 -0.00417595
internal_weight=0 15069 20579 5354 15822 5272 4757 139 9715 100 9671 9639 9361 1996
internal_count=35648 15069 20579 5354 15822 5272 4757 139 9715 100 9671 9639 9361 1996
is_linear=0
shrinkage=0.05


Tree=21
num_leaves=15
num_cat=0
split_feature=12 13 49 18 40 44 43 40 19 35 16 35 40 46
split_gain=107.537 40.939 16.9242 13.8082 11.0874 9.59542 8.59611 8.1901 11.119 11.0106 8.16602 7.71198 7.44517 16.7983
threshold=1.5908371806144717 1.6752462983131411 1.4829370975494387 1.7955543994903567 1.5520757436752322 1.5274341106414797 1.5477861762046816 1.6968655586242678 1.7352949976921084 1.7272762060165407 1.6560574769973757 1.524902403354645 1.7644546031951907 1.7450338006019595
decision_type=2 2 2 2 2 2 2 2 2 2 2 2 2 2
left_child=2 5 4 10 -1 -2 -7 -5 -9 -10 -3 -8 -11 -14
right_child=1 3 -4 7 -6 6 11 8 9 12 -12 -13 13 -15
leaf_value=-0.0080361050474350368 0.018076941376067187 -0.010923320686026496 -0.0034946853208463469 0.029986160510808841 -0.03812479975242769 -0.016544485129887546 0.018347801006676861 -0.010887519092513965 0.039856841901858009 0.0017620509503187118 0.0035836936359370272 -7.5113140459841184e-05 0.041641393522529498 0.0098183748063840406
leaf_weight=2479 73 98 5811 49 31 79 57 65 31 218 9555 16635 46 421
leaf_count=2479 73 98 5811 49 31 79 57 65 31 218 9555 16635 46 421
internal_value=0 0.00151539 -0.00497668 0.00396853 -0.00840772 -1.13441e-05 -9.00779e-05 0.0101571 0.00891298 0.0107105 0.00343641 -1.22024e-05 0.00939148 0.012953
internal_weight=0 27327 8321 10483 2510 16844 16771 830 781 716 9653 16692 685 467
internal_count=35648 27327 8321 10483 2510 16844 16771 830 781 716 9653 16692 685 467
is_linear=0
shrinkage=0.05


Tree=22
num_leaves=15
num_cat=0
split_feature=15 26 30 23 46 46 12 12 10 14 22 33 18 12
split_gain=98.2103 33.5737 17.116 13.2078 13.2615 24.6581 11.4387 10.3579 10.2507 11.5717 10.2169 11.1997 10.0573 11.1647
threshold=1.6037390232086184 1.6671962141990664 1.5081650018692019 1.7715869545936587 1.7179234623908999 1.7074347734451296 1.7580410242080691 1.5604924559593203 1.7511710524559023 1.7859126329421999 1.5452680587768557 1.5590882897377016 1.6472401022911074 1.642544746398926
decision_type=2 2 2 2 2 2 2 2 2 2 2 2 2 2
left_child=2 7 -1 12 5 -5 -6 -2 9 -8 -9 -12 13 -3
right_child=1 3 -4 4 6 -7 8 10 -10 -11 11 -13 -14 -15
leaf_value=-0.0072510536995869651 -0.018702099933540699 -0.032324352804571389 -0.0028014441821552112 0.010037678218069526 -0.010593677080089875 0.053389223275913139 0.0069056374835781758 0.024109391912828539 0.00671217263931022 0.050130020119249823 -0.022140284039472283 6.8585648119494984e-05 0.0032998328909671451 -0.0024179912637919188
leaf_weight=3239 74 35 6495 121 89 45 32 44 795 30 57 13877 10427 288
leaf_count=3239 74 35 6495 121 89 45 32 44 795 30 57 13877 10427 288
internal_value=0 0.00160846 -0.00428206 0.00356727 0.00875476 0.0217896 0.00646746 -4.50737e-05 0.00823927 0.0278207 5.36972e-05 -2.22645e-05 0.00303066 -0.00565862
internal_weight=0 25914 9734 11862 1112 166 946 14052 857 62 13978 13934 10750 323
internal_count=35648 25914 9734 11862 1112 166 946 14052 857 62 13978 13934 10750 323
is_linear=0
shrinkage=0.05


Tree=23
num_leaves=15
num_cat=0
split_feature=18 26 18 18 10 12 6 30 47 49 46 34 28 40
split_gain=89.4193 35.6993 11.2765 10.6796 10.9371 9.74957 9.97811 11.707 9.0126 8.61226 11.7777 9.6544 8.83847 8.64047
threshold=1.5747984051704409 1.6755213141441347 1.7808178067207339 1.4732021093368532 1.6593350768089297 1.6526880264282229 116.00000000000001 1.6852855682373049 1.6655277013778689 1.682178318500519 1.7131973505020144 1.6714455485343935 1.6644827723503115 1.6747128367424013
decision_type=2 2 2 2 2 2 2 2 2 2 2 2 2 2
left_child=3 -2 5 -1 8 6 -3 -8 -5 10 -7 -11 -13 -14
right_child=1 2 -4 4 -6 9 7 -9 -10 11 -12 12 13 -15
leaf_value=-0.0088828452697671048 -6.4516463399862133e-05 0.013010109066963198 0.00838857758629908 -0.0040169938732812832 0.026081696090598901 0.0053168210454692284 -0.0057087684309245733 -0.036130943894386293 -0.02726372109637374 -0.0052103067895299515 0.032330128859455992 0.022962682294072931 -0.0075716054420918227 0.0030047063381562784
leaf_weight=1410 18259 50 1109 5710 30 2546 151 40 42 399 41 54 200 5607
leaf_count=1410 18259 50 1109 5710 30 2546 151 40 42 399 41 54 200 5607
internal_value=0 0.00125894 0.00362876 -0.00498116 -0.00402969 0.00304793 -0.00687451 -0.0120799 -0.00418674 0.00331822 0.00574494 0.00231536 0.00282768 0.00264045
internal_weight=0 28456 10197 7192 5782 9088 241 191 5752 8847 2587 6260 5861 5807
internal_count=35648 28456 10197 7192 5782 9088 241 191 5752 8847 2587 6260 5861 5807
is_linear=0
shrinkage=0.05


Tree=24
num_leaves=15
num_cat=0
split_feature=12 14 10 29 20 32 39 31 52 42 10 28 12 27
split_gain=82.0014 23.6262 21.8819 9.37662 11.768 9.02506 11.3928 10.0927 8.6056 8.40152 13.7138 11.6017 7.82187 8.9372
threshold=1.6221212148666384 1.5329453945159914 1.7169920206069949 1.6941009759902956 1.6826264858245852 1.6867426037788393 1.656429171562195 1.6929064989089968 1.0000000180025095e-35 1.7849106788635256 1.770092844963074 1.7802094817161562 1.7750306129455569 1.7410706877708437
decision_type=2 2 2 2 2 2 2 2 2 2 2 2 2 2
left_child=1 -1 12 4 -4 6 -5 8 -8 -7 -11 -12 13 -2
right_child=2 -3 3 5 -6 9 7 -9 -10 10 11 -13 -14 -15
leaf_value=-0.0059434574728057486 0.0010908240016947611 -0.0015521572731467771 0.016471798541182178 -0.011184831138919382 -0.0083636418344026596 0.0041054360921921667 0.051637688399322569 0.0043582599842920903 0.020957287349577608 0.028986983603781796 -0.0060653329787760226 0.012251852653681927 0.021637006555481453 -0.012170996482018382
leaf_weight=4634 16911 9035 59 34 249 3848 31 64 87 87 119 316 46 128
leaf_count=4634 16911 9035 59 34 249 3848 31 64 87 87 119 316 46 128
internal_value=0 -0.00304088 0.00189116 0.00483886 -0.0036062 0.00540604 0.0153829 0.020346 0.0290174 0.00491291 0.0108653 0.00724094 0.00104679 0.000991199
internal_weight=0 13669 21979 4894 308 4586 216 182 118 4370 522 435 17085 17039
internal_count=35648 13669 21979 4894 308 4586 216 182 118 4370 522 435 17085 17039
is_linear=0
shrinkage=0.05


Tree=25
num_leaves=15
num_cat=0
split_feature=26 14 19 39 0 12 37 47 27 46 46 53 30 30
split_gain=74.7064 23.7043 18.2679 8.14379 8.52261 8.07354 11.2395 9.13378 7.94356 8.5262 9.68781 8.18983 7.84822 7.8477
threshold=1.6269794702529909 1.5329453945159914 1.71499639749527 1.6576173901557925 2.5000000000000004 1.7670308351516726 1.7272495627403261 1.6925839781761172 1.6695090532302859 1.6661899089813235 1.6682178974151614 -3.4999999999999996 1.6393111944198611 1.6233558058738711
decision_type=2 2 2 2 2 2 2 2 2 2 2 2 2 2
left_child=1 -1 5 4 -4 -2 7 -7 9 12 -11 13 -3 -12
right_child=2 8 3 -5 -6 6 -8 -9 -10 10 11 -13 -14 -15
leaf_value=-0.0056516312099333743 0.0010373176939329363 -0.0012548146550031315 -0.030244335050092025 0.0048864780115038618 0.0046628386817044688 0.0079978592228144418 -0.0064569589753563587 0.044957157980118484 -0.022799782432225902 0.033127289809090146 0.00088759356805560548 -0.0030849754731258694 -0.0091763617590519576 0.028906936571002007
leaf_weight=4632 15616 9780 34 4787 36 32 39 35 43 32 49 159 323 51
leaf_count=4632 15616 9780 34 4787 36 32 39 35 43 32 49 159 323 51
internal_value=0 -0.00267486 0.00195867 0.0046389 -0.0122921 0.00113067 0.0148831 0.027305 -0.00135375 -0.00126503 0.00717288 0.00396616 -0.00150807 0.0151775
internal_weight=0 15069 20579 4857 70 15722 106 67 10437 10394 291 259 10103 100
internal_count=35648 15069 20579 4857 70 15722 106 67 10437 10394 291 259 10103 100
is_linear=0
shrinkage=0.05


Tree=26
num_leaves=15
num_cat=0
split_feature=40 19 18 40 18 39 31 36 6 10 53 21 35 24
split_gain=68.2777 25.3669 14.7436 11.0407 9.49918 9.37429 8.68012 15.7771 8.74492 8.28691 12.3471 16.0537 8.13135 8.25559
threshold=1.6426080465316775 1.5405111908912661 1.7588618993759157 1.6377014517784121 1.6709373593330386 1.6087158322334292 1.5485306382179262 1.599732041358948 146.50000000000003 1.6360913515090945 6.5000000000000009 1.6435173153877261 1.6616795063018801 1.650887191295624
decision_type=2 2 2 2 2 2 2 2 2 2 2 2 2 2
left_child=1 5 6 9 -5 -1 -2 8 -8 -3 11 12 13 -11
right_child=2 3 -4 4 -6 -7 7 -9 -10 10 -12 -13 -14 -15
leaf_value=-0.0048856260615092878 0.025572778617865163 -0.0010092774195626512 0.0064938122853610662 -0.0060218037075501982 0.0092279687625440691 -0.027555209301088169 -0.035126657195781411 0.0018014526959043758 -0.0074602454536311013 0.0053272023947690339 0.011751288803031621 -0.0058535558681224549 0.021528734526980453 -0.010247822672439118
leaf_weight=5281 38 9131 1785 1425 110 46 38 15894 115 748 312 561 68 96
leaf_count=5281 38 9131 1785 1425 110 46 38 15894 115 748 312 561 68 96
internal_value=0 -0.00219388 0.00218258 -0.000958496 -0.00492899 -0.00508138 0.00170415 0.00164763 -0.0143316 -0.000400169 0.00271567 0.00080181 0.00489574 0.00355564
internal_weight=0 17778 17870 12451 1535 5327 16085 16047 153 10916 1785 1473 912 844
internal_count=35648 17778 17870 12451 1535 5327 16085 16047 153 10916 1785 1473 912 844
is_linear=0
shrinkage=0.05


Tree=27
num_leaves=15
num_cat=0
split_feature=40 14 13 12 6 39 38 43 40 17 2 21 20 18
split_gain=61.6206 22.8812 13.5604 19.5328 9.26111 8.69704 14.8265 11.2386 8.65409 11.7722 12.4172 12.1441 9.54067 8.73293
threshold=1.6426080465316775 1.5161015391349795 1.7632287144660952 1.7208592891693117 953.00000000000011 1.5611740350723269 1.606982469558716 1.6809476613998415 1.6377014517784121 1.6344498395919802 15.500000000000002 1.6588786840438845 1.6474382281303408 1.7010840177536013
decision_type=2 2 2 2 2 2 2 2 2 2 2 2 2 2
left_child=1 -1 5 -4 -5 -2 7 -7 9 12 -11 -12 -3 -10
right_child=2 8 3 4 -6 6 -8 -9 13 10 11 -13 -14 -15
leaf_value=-0.0054535545338508865 0.021877727896537424 -0.0010806277244695766 0.037346940780756996 0.0061519743675960172 -0.021473320687730467 -0.0058151169445644435 0.0017537074138700714 -0.035142507945143044 -0.0052794641715796266 0.011260580479428567 0.0029276787381113485 -0.011515976199332407 -0.012626593485525759 0.018392724115401507
leaf_weight=3926 53 10572 50 1421 31 147 16126 42 1499 378 1011 170 182 40
leaf_count=3926 53 10572 50 1421 31 147 16126 42 1499 378 1011 170 182 40
internal_value=0 -0.00208418 0.00207345 0.00662026 0.00556218 0.00165622 0.00159053 -0.0123323 -0.00112922 -0.000687385 0.0033731 0.000848575 -0.00127603 -0.0046642
internal_weight=0 17778 17870 1502 1452 16368 16315 189 13852 12313 1559 1181 10754 1539
internal_count=35648 17778 17870 1502 1452 16368 16315 189 13852 12313 1559 1181 10754 1539
is_linear=0
shrinkage=0.05


Tree=28
num_leaves=15
num_cat=0
split_feature=15 26 18 54 43 29 12 27 12 15 10 18 12 58
split_gain=56.5125 20.0887 11.189 10.6471 14.4801 10.5863 10.6391 9.22931 11.0016 9.14597 9.13548 8.82844 11.0032 8.73955
threshold=1.6037390232086184 1.6671962141990664 1.4732021093368532 5.5000000000000009 1.6473029851913454 1.6520502567291262 1.5604924559593203 1.6898589730262759 1.6861958503723147 1.6016989946365359 1.6230971813201907 1.648815989494324 1.642544746398926 1.0000000180025095e-35
decision_type=2 2 2 2 2 2 2 2 2 2 2 2 2 2
left_child=2 3 -1 5 10 6 -2 8 -6 -4 -5 12 -3 -8
right_child=1 11 9 4 7 -7 13 -9 -10 -11 -12 -13 -14 -15
leaf_value=-0.0073790840284151437 -0.019707426881560915 -0.030727194765633022 -0.0022413305930923605 0.0047510016431559386 0.010465268284104856 -0.0028104281440167684 0.00050468275422368525 -0.01319757531796183 0.036556571641046073 -0.011371044642751066 -0.022110141298423213 0.0029804171340263538 -0.0019901808669154876 0.027093327910669391
leaf_weight=1403 65 37 8047 67 332 3271 10145 35 46 284 60 11491 334 31
leaf_count=1403 65 37 8047 67 332 3271 10145 35 46 284 60 11491 334 31
internal_value=0 0.00122012 -0.00324822 -5.89332e-05 0.00682568 -0.000334073 0.000456881 0.011366 0.0136404 -0.00255256 -0.0079393 0.00273532 -0.00485614 0.000585682
internal_weight=0 25914 9734 14052 540 13512 10241 413 378 8331 127 11862 371 10176
internal_count=35648 25914 9734 14052 540 13512 10241 413 378 8331 127 11862 371 10176
is_linear=0
shrinkage=0.05


end of trees

feature_importances:
Column_18=27
Column_12=24
Column_15=20
Column_26=20
Column_9=19
Column_34=19
Column_13=17
Column_40=16
Column_14=15
Column_45=13
Column_46=12
Column_10=11
Column_49=11
Column_35=10
Column_39=10
Column_44=10
Column_17=9
Column_36=9
Column_48=9
Column_11=8
Column_19=8
Column_16=7
Column_28=7
Column_29=7
Column_24=6
Column_31=6
Column_33=6
Column_47=6
Column_27=5
Column_43=5
Column_6=4
Column_20=4
Column_22=4
Column_30=4
Column_32=4
Column_37=4
Column_41=4
Column_53=4
Column_54=3
Column_58=3
Column_21=2
Column_23=2
Column_25=2
Column_42=2
Column_52=2
Column_0=1
Column_2=1
Column_7=1
Column_38=1
Column_56=1
Column_59=1

parameters:
[boosting: gbdt]
[objective: regression]
[metric: rmse]
[tree_learner: serial]
[device_type: cpu]
[data: ]
[valid: ]
[num_iterations: 10000]
[learning_rate: 0.05]
[num_leaves: 15]
[num_threads: 0]
[deterministic: 0]
[force_col_wise: 0]
[force_row_wise: 0]
[histogram_pool_size: -1]
[max_depth: -1]
[min_data_in_leaf: 30]
[min_sum_hessian_in_leaf: 0.001]
[bagging_fraction: 0.5]
[pos_bagging_fraction: 1]
[neg_bagging_fraction: 1]
[bagging_freq: 0]
[bagging_seed: 10961]
[feature_fraction: 0.8]
[feature_fraction_bynode: 1]
[feature_fraction_seed: 53]
[extra_trees: 0]
[extra_seed: 11644]
[early_stopping_round: 0]
[first_metric_only: 0]
[max_delta_step: 0]
[lambda_l1: 0]
[lambda_l2: 0]
[linear_lambda: 0]
[min_gain_to_split: 0]
[drop_rate: 0.1]
[max_drop: 50]
[skip_drop: 0.5]
[xgboost_dart_mode: 0]
[uniform_drop: 0]
[drop_seed: 30626]
[top_rate: 0.2]
[other_rate: 0.1]
[min_data_per_group: 100]
[max_cat_threshold: 32]
[cat_l2: 10]
[cat_smooth: 10]
[max_cat_to_onehot: 4]
[top_k: 20]
[monotone_constraints: ]
[monotone_constraints_method: basic]
[monotone_penalty: 0]
[feature_contri: ]
[forcedsplits_filename: ]
[refit_decay_rate: 0.9]
[cegb_tradeoff: 1]
[cegb_penalty_split: 0]
[cegb_penalty_feature_lazy: ]
[cegb_penalty_feature_coupled: ]
[path_smooth: 0]
[interaction_constraints: ]
[verbosity: -1]
[saved_feature_importance_type: 0]
[linear_tree: 0]
[max_bin: 255]
[max_bin_by_feature: ]
[min_data_in_bin: 3]
[bin_construct_sample_cnt: 200000]
[data_random_seed: 4071]
[is_enable_sparse: 1]
[enable_bundle: 1]
[use_missing: 1]
[zero_as_missing: 0]
[feature_pre_filter: 1]
[pre_partition: 0]
[two_round: 0]
[header: 0]
[label_column: ]
[weight_column: ]
[group_column: ]
[ignore_column: ]
[categorical_feature: ]
[forcedbins_filename: ]
[precise_float_parser: 0]
[parser_config_file: ]
[objective_seed: 602]
[num_class: 1]
[is_unbalance: 0]
[scale_pos_weight: 1]
[sigmoid: 1]
[boost_from_average: 1]
[reg_sqrt: 0]
[alpha: 0.9]
[fair_c: 1]
[poisson_max_delta_step: 0.7]
[tweedie_variance_power: 1.5]
[lambdarank_truncation_level: 30]
[lambdarank_norm: 1]
[label_gain: ]
[lambdarank_position_bias_regularization: 0]
[eval_at: ]
[multi_error_top_k: 1]
[auc_mu_weights: ]
[num_machines: 1]
[local_listen_port: 12400]
[time_out: 120]
[machine_list_filename: ]
[machines: ]
[gpu_platform_id: -1]
[gpu_device_id: -1]
[gpu_use_dp: 0]
[num_gpu: 1]

end of parameters

pandas_categorical:null
