tree
version=v4
num_class=1
num_tree_per_iteration=1
label_index=0
max_feature_idx=67
objective=regression
feature_names=Column_0 Column_1 Column_2 Column_3 Column_4 Column_5 Column_6 Column_7 Column_8 Column_9 Column_10 Column_11 Column_12 Column_13 Column_14 Column_15 Column_16 Column_17 Column_18 Column_19 Column_20 Column_21 Column_22 Column_23 Column_24 Column_25 Column_26 Column_27 Column_28 Column_29 Column_30 Column_31 Column_32 Column_33 Column_34 Column_35 Column_36 Column_37 Column_38 Column_39 Column_40 Column_41 Column_42 Column_43 Column_44 Column_45 Column_46 Column_47 Column_48 Column_49 Column_50 Column_51 Column_52 Column_53 Column_54 Column_55 Column_56 Column_57 Column_58 Column_59 Column_60 Column_61 Column_62 Column_63 Column_64 Column_65 Column_66 Column_67
feature_infos=[0:6] [0:5] [0:198] [0:10] [0:5] [0:2] [0:28] [0:35] [0:7] [0:24] [0:5377] [0:49] [0:60] [0:195] [0:1] [0:1] [0:1] [0:1] [0:1] [0:1] [0:1] [0:1] [1:1749] [0:6] [0:1] [-1:1] [0:3] [1.3100597858428955:2.0058996677398682] [1.2628365755081177:2.0647730827331543] [1.2805341482162476:2.0229930877685547] [1.2018756866455078:2.0717947483062744] [1.2882100343704224:2.0694220066070557] [1.2442917823791504:2.146345853805542] [1.2475330829620361:2.0637290477752686] [1.2517856359481812:2.0643689632415771] [1.2344762086868286:2.1157338619232178] [1.2029626369476318:2.1455183029174805] [1.2766153812408447:2.0863792896270752] [1.2194005250930786:2.0413470268249512] [1.2774871587753296:2.0682165622711182] [1.279865026473999:2.1022436618804932] [1.2898018360137939:2.0997118949890137] [1.2322431802749634:2.1557555198669434] [1.2883858680725098:2.1204080581665039] [1.2822954654693604:2.1218852996826172] [1.269936203956604:2.0669734477996826] [1.3109246492385864:2.016660213470459] [1.2774873971939087:2.0771667957305908] [1.2733176946640015:2.1232826709747314] [1.3225752115249634:2.0289621353149414] [1.3160591125488281:1.9937063455581665] [1.258259654045105:2.1298348903656006] [1.2814652919769287:2.0502464771270752] [1.2539757490158081:2.001039981842041] [1.2721823453903198:1.9800597429275513] [1.2610287666320801:2.0506389141082764] [1.3294636011123657:2.0122232437133789] [1.2921184301376343:1.9919161796569824] [1.2191058397293091:2.0414164066314697] [1.2463963031768799:1.9607211351394653] [1.2202389240264893:2.0580713748931885] [1.2425923347473145:2.0404753684997559] [1.2090858221054077:1.9779986143112183] [1.2214491367340088:2.0037026405334473] [1.315060019493103:1.9715585708618164] [1.2196609973907471:1.9449634552001953] [1.2925291061401367:1.9517573118209839] [1.1759778261184692:2.0510973930358887]
tree_sizes=1471 1480 1477 1474 1483 1480 1466 1486 1491 1496 1486 1479 1478 1484 1493 1468 1497 1476 1470 1481 1451 1485 1472 1460 1472 1468 1463 1468 1464 1486 1470 1453 1472 1486 1482 1463 1460 1464 1448 1483 1446 1460 1460 1471 1460 1446 1470 1446 1443 1469 1429 1449 1455

Tree=0
num_leaves=15
num_cat=0
split_feature=27 30 66 40 35 53 49 54 50 67 32 35 65 54
split_gain=823.595 262.649 107.884 63.6936 37.7979 26.5662 25.9163 16.2587 17.9569 16.0021 14.4344 13.1401 13.0671 12.7401
threshold=1.5965886712074282 1.6792889237403872 1.5054585933685305 1.7773258686065676 1.6344136595726015 1.4351859092712405 1.672360956668854 1.7575688362121584 1.7663679122924807 1.760343134403229 1.7951422333717348 1.7274898886680605 1.4917868971824648 1.7923948764801028
decision_type=2 2 2 2 2 2 2 2 2 2 2 2 2 2
left_child=2 4 5 6 -2 -1 -3 10 9 11 -8 -9 -4 -5
right_child=1 3 12 13 -6 -7 7 8 -10 -11 -12 -13 -14 -15
leaf_value=-0.028933382321762503 -0.0020531043798474647 0.0020843443057137023 -0.029368757392700319 0.017649857327648406 0.0026583271802035754 -0.017955912483584972 0.0095007988050531678 0.038957925680632492 0.0088562770876082324 0.042876699488310993 0.044259053304060492 0.013832852645795809 -0.008338239453747346 0.028545137985394094
leaf_weight=676 7631 1066 75 656 9628 2984 6846 66 332 92 30 246 4866 454
leaf_count=676 7631 1066 75 656 9628 2984 6846 66 332 92 30 246 4866 454
internal_value=5.10043e-09 0.00428573 -0.013477 0.0108285 0.000575186 -0.0199834 0.00938594 0.0104085 0.0174715 0.0245514 0.00965245 0.0191478 -0.00865746 0.0221061
internal_weight=0 27047 8601 9788 17259 3660 8678 7612 736 404 6876 312 4941 1110
internal_count=35648 27047 8601 9788 17259 3660 8678 7612 736 404 6876 312 4941 1110
is_linear=0
shrinkage=1


Tree=1
num_leaves=15
num_cat=0
split_feature=27 46 65 33 58 53 33 36 42 59 65 31 29 13
split_gain=743.295 240.05 97.8819 57.9504 28.0105 20.7047 17.5914 16.9475 15.3002 14.7382 14.3785 14.1991 13.9698 12.1581
threshold=1.5965886712074282 1.6744467020034792 1.4965887665748598 1.7513464093208315 1.6452283859252932 1.4351859092712405 1.4976224899291994 1.7963476777076723 1.7479681968688967 1.6732831597328188 1.6413583755493166 1.7762850522994997 1.7106468677520754 120.50000000000001
decision_type=2 2 2 2 2 2 2 2 2 2 2 2 2 2
left_child=2 4 5 10 -2 -1 -4 -5 9 12 -3 -12 -6 -13
right_child=1 3 6 7 8 -7 -8 -9 -10 -11 11 13 -14 -15
leaf_value=-0.027691809362114236 -0.0013900856314103928 -0.0062674204236147007 -0.016717498414338016 0.014194238626189791 0.0036897283633272587 -0.017766886026442077 -0.0077958272050007455 0.023609537085954181 0.030348619557917119 -0.0015298694317760226 0.008148603522351942 0.040203771303640681 0.034119708870390529 0.004197959541469007
leaf_weight=671 9778 171 623 1484 5049 2423 4884 705 50 1643 8028 64 38 37
leaf_count=671 9778 171 623 1484 5049 2423 4884 705 50 1643 8028 64 38 37
internal_value=0 0.00407144 -0.0128032 0.00998976 0.000322357 -0.0199193 -0.00880512 0.0172266 0.00279201 0.00258728 0.00808116 0.00838299 0.00391704 0.0270135
internal_weight=0 27047 8601 10489 16558 3094 5507 2189 6780 6730 8300 8129 5087 101
internal_count=35648 27047 8601 10489 16558 3094 5507 2189 6780 6730 8300 8129 5087 101
is_linear=0
shrinkage=0.05


Tree=2
num_leaves=15
num_cat=0
split_feature=33 32 66 33 56 36 41 36 45 57 46 29 51 59
split_gain=674.251 199.217 110.19 48.6354 29.7053 24.369 17.8636 16.448 16.2133 16.8707 14.034 13.5254 15.5414 13.1432
threshold=1.6041696071624758 1.6808605194091799 1.5084142684936526 1.7540884613990786 1.6453995108604433 1.4552601575851443 1.7844316959381106 1.7963476777076723 1.782480835914612 1.6605805754661562 1.6315360665321352 1.5303903818130495 1.5611478686332705 1.6390851736068728
decision_type=2 2 2 2 2 2 2 2 2 2 2 2 2 2
left_child=2 4 5 6 -2 -1 8 -5 9 10 -3 12 -4 -12
right_child=1 3 11 7 -6 -7 -8 -9 -10 -11 13 -13 -14 -15
leaf_value=-0.024870538030772917 -0.0011662036185680249 0.027114561647176745 -0.0098686371798462728 0.01371249357595669 0.0030490847924317154 -0.015578468529671161 0.02845052855663768 0.023165167312027744 -0.017185362119926141 0.0087497058113320519 -0.027939539965242149 -0.0057091746378150959 -0.030024076004226047 -0.00061836443517519085
leaf_weight=937 8264 40 1190 1366 8456 2857 107 694 64 6500 50 4651 104 368
leaf_count=937 8264 40 1190 1366 8456 2857 107 694 64 6500 50 4651 104 368
internal_value=0 0.00421595 -0.0112158 0.0101301 0.000965643 -0.0178733 0.00817471 0.016897 0.00786575 0.00809617 -0.00117894 -0.00696712 -0.0114885 -0.00388645
internal_weight=0 25909 9739 9189 16720 3794 7129 2060 7022 6958 458 5945 1294 418
internal_count=35648 25909 9739 9189 16720 3794 7129 2060 7022 6958 458 5945 1294 418
is_linear=0
shrinkage=0.05


Tree=3
num_leaves=15
num_cat=0
split_feature=33 30 66 40 56 34 49 52 48 54 50 60 63 30
split_gain=608.511 180.916 99.4463 47.3346 24.5212 22.1392 19.3866 17.0104 18.3512 12.9895 16.3415 14.524 12.8317 12.8027
threshold=1.6041696071624758 1.6792889237403872 1.5084142684936526 1.7773258686065676 1.647669851779938 1.4642584919929507 1.672360956668854 1.7409794330596926 1.6959516406059267 1.7575688362121584 1.7663679122924807 1.771405875682831 1.6962155699729922 1.5610096454620364
decision_type=2 2 2 2 2 2 2 2 2 2 2 2 2 2
left_child=2 4 5 6 13 -1 12 8 -6 -8 11 -11 -3 -2
right_child=1 3 -4 -5 7 -7 9 -9 -10 10 -12 -13 -14 -15
leaf_value=-0.021838573896466887 -0.02315210758206936 0.0045806445923289819 -0.0066187679640207792 0.019096112439895535 0.0031746971027205337 -0.01397727673169849 0.0083311983768044259 0.033176624523880691 -0.0098090815354573008 0.018759656940690345 0.0071014930617557953 0.049191366779533306 -0.0090734118286709079 -0.00087856643806623097
leaf_weight=1449 65 831 5945 1110 7096 2345 6876 46 283 360 332 44 217 8649
leaf_count=1449 65 831 5945 1110 7096 2345 6876 46 283 360 332 44 217 8649
internal_value=0 0.00400515 -0.010655 0.00937515 0.000754334 -0.0169797 0.00812916 0.0028657 0.00267674 0.00900695 0.0153201 0.022074 0.00175342 -0.00104471
internal_weight=0 25909 9739 9770 16139 3794 8660 7425 7379 7612 736 404 1048 8714
internal_count=35648 25909 9739 9770 16139 3794 8660 7425 7379 7612 736 404 1048 8714
is_linear=0
shrinkage=0.05


Tree=4
num_leaves=15
num_cat=0
split_feature=33 46 33 58 37 37 44 42 42 58 34 54 47 54
split_gain=549.181 162.97 90.2787 45.9429 24.2302 19.7703 18.3361 16.9385 13.8463 14.2572 13.163 11.2415 10.9645 10.1062
threshold=1.6041696071624758 1.6744467020034792 1.4976224899291994 1.772061884403229 1.7149591445922854 1.540711581707001 1.6276910305023196 1.7528494596481325 1.4680089950561526 1.4250954389572146 1.6836609840393069 1.6630856394767763 1.4566211700439455 1.5745136737823489
decision_type=2 2 2 2 2 2 2 2 2 2 2 2 2 2
left_child=2 6 8 4 -3 -4 11 -8 -1 -10 -6 13 -11 -2
right_child=1 3 5 -5 10 -7 7 -9 9 12 -12 -13 -14 -15
leaf_value=-0.021574964202463829 -0.014222200864913478 0.0056502048789174057 -0.01056689668165969 0.021206078267378792 -0.013825886386136214 -0.0049258116446820035 0.0017191456754177459 0.037071737460792065 -0.04878080864747366 0.0053709090181759435 0.011025439751843958 -0.01557971336781145 -0.014826005904093838 -0.0010194335097326688
leaf_weight=1188 149 5724 2413 678 54 4359 9785 34 30 70 4018 143 1679 5324
leaf_count=1188 149 5724 2413 678 54 4359 9785 34 30 70 4018 143 1679 5324
internal_value=0 0.00380489 -0.0101223 0.00861878 0.00774759 -0.00693584 0.000538245 0.00184156 -0.0173951 -0.0146039 0.0106959 -0.00174047 -0.0140177 -0.00137887
internal_weight=0 25909 9739 10474 9796 6772 15435 9819 2967 1779 4072 5616 1749 5473
internal_count=35648 25909 9739 10474 9796 6772 15435 9819 2967 1779 4072 5616 1749 5473
is_linear=0
shrinkage=0.05


Tree=5
num_leaves=15
num_cat=0
split_feature=27 32 33 58 35 57 49 60 32 40 42 57 46 33
split_gain=497.955 161.872 66.2303 37.3157 27.5709 20.6309 16.2848 16.7518 16.1641 12.7508 12.0198 11.2264 11.8468 10.5511
threshold=1.5965886712074282 1.6808605194091799 1.4976224899291994 1.772061884403229 1.6349536776542666 1.7066372036933901 1.7337777614593508 1.7088451981544497 1.5279007554054262 1.4574642181396487 1.51081258058548 1.6605805754661562 1.6315360665321352 1.667899549007416
decision_type=2 2 2 2 2 2 2 2 2 2 2 2 2 2
left_child=2 4 9 5 -2 6 7 11 -4 -1 -10 12 -3 -13
right_child=1 3 8 -5 -6 -7 -8 -9 10 -11 -12 13 -14 -15
leaf_value=-0.021272027018890253 -0.0016907827893901585 0.024274661446489942 -0.011236082363292953 0.020043220299155142 0.0022750348791223301 0.010057365677354553 0.028842292185610449 -0.0021908839145261378 0.024122236890937478 -0.014261926301625094 -0.0057386494827510416 0.015251688854372565 -0.0040042667997412518 0.0062085413211056088
leaf_weight=958 7743 41 1780 674 10098 4672 71 720 34 2009 3820 376 383 2269
leaf_count=958 7743 41 1780 674 10098 4672 71 720 34 2009 3820 376 383 2269
internal_value=0 0.00333244 -0.0104793 0.00871724 0.000553869 0.00782253 0.00511757 0.004673 -0.0072953 -0.0165254 -0.00547522 0.0062833 -0.00126975 0.00749407
internal_weight=0 27047 8601 9206 17841 8532 3860 3789 5634 2967 3854 3069 424 2645
internal_count=35648 27047 8601 9206 17841 8532 3860 3789 5634 2967 3854 3069 424 2645
is_linear=0
shrinkage=0.05


Tree=6
num_leaves=15
num_cat=0
split_feature=27 52 65 33 35 36 32 65 44 35 51 9 50 56
split_gain=449.405 147.709 61.2651 42.1564 17.1996 15.3004 14.5798 14.2767 16.1171 12.8111 17.6879 14.6343 12.5031 12.49
threshold=1.5965886712074282 1.671339273452759 1.4985887408256533 1.7513464093208315 1.6344136595726015 1.4727784991264345 1.6936354637145998 1.7510523796081545 1.8043994307518008 1.7186803817749026 1.7470773458480837 3.5000000000000004 1.7754439711570742 1.6388342976570132
decision_type=2 2 2 2 2 2 2 2 2 2 2 2 2 2
left_child=2 4 5 7 -2 -1 -5 12 -9 10 -8 -11 13 -3
right_child=1 3 -4 6 -6 -7 9 8 -10 11 -12 -13 -14 -15
leaf_value=-0.019545234057188263 -0.0017031911848656629 -0.017675063759088516 -0.0066788154010102262 -0.013800654148167751 0.0016082113160215258 -0.012544476449208256 0.014810240746516249 0.012161725573241711 0.046727817541942364 0.016930581418884233 0.050067311795107254 0.0082497413987605763 -0.01666867563561086 0.0060133342285041561
leaf_weight=1315 7496 56 5366 47 8223 1920 92 190 41 1158 58 836 62 8788
leaf_count=1315 7496 56 5366 47 8223 1920 92 190 41 1158 58 836 62 8788
internal_value=0 0.00316582 -0.00995534 0.00751842 2.90859e-05 -0.0153902 0.0137472 0.00602479 0.0182968 0.0143511 0.028443 0.0132911 0.00570648 0.00586334
internal_weight=0 27047 8601 11328 15719 3235 2191 9137 231 2144 150 1994 8906 8844
internal_count=35648 27047 8601 11328 15719 3235 2191 9137 231 2144 150 1994 8906 8844
is_linear=0
shrinkage=0.05


Tree=7
num_leaves=15
num_cat=0
split_feature=33 30 66 36 44 36 52 48 52 37 27 25 30 53
split_gain=407.33 124.276 68.0299 33.9482 16.0889 15.7218 15.7173 15.9866 19.5526 12.0917 11.5246 11.6174 11.4662 10.1028
threshold=1.6041696071624758 1.6792889237403872 1.5084142684936526 1.7963476777076723 1.6666852831840517 1.4552601575851443 1.7389827966690066 1.6901301145553591 1.6592229008674624 1.7391564846038821 1.6902216076850893 0.12940952181816107 1.5610096454620364 1.757526218891144
decision_type=2 2 2 2 2 2 2 2 2 2 2 2 2 2
left_child=2 6 5 4 -3 -1 7 8 12 -5 -10 -12 -2 -6
right_child=1 3 -4 9 13 -7 -8 -9 10 -11 11 -13 -14 -15
leaf_value=-0.019568881265652094 -0.021765174381899642 -0.00052280343819566862 -0.0053791538466361824 -0.0007119401571262314 0.0067344961436156918 -0.012105332001147934 0.028572368130087858 -0.0086202120795303549 0.0032915588559173955 0.01940329766428885 0.040998136888190012 0.0017784184217453003 -0.00020382579213578772 0.011773295026327272
leaf_weight=937 62 687 5945 83 7095 2857 50 467 4223 748 41 35 11261 1157
leaf_count=937 62 687 5945 83 7095 2857 50 467 4223 748 41 35 11261 1157
internal_value=0 0.00327686 -0.00871753 0.00772757 0.00682893 -0.0139486 0.000582544 0.00049556 0.000768064 0.0173942 0.00363885 0.0229364 -0.000321887 0.00744098
internal_weight=0 25909 9739 9770 8939 3794 16139 16089 15622 831 4299 76 11323 8252
internal_count=35648 25909 9739 9770 8939 3794 16139 16089 15622 831 4299 76 11323 8252
is_linear=0
shrinkage=0.05


Tree=8
num_leaves=15
num_cat=0
split_feature=33 32 33 31 56 57 32 49 50 62 60 63 53 54
split_gain=367.615 112.37 62.0441 29.7152 17.1875 15.1534 15.0968 13.0489 15.1655 14.9314 11.6171 11.1416 10.6131 11.3509
threshold=1.6041696071624758 1.6808605194091799 1.4976224899291994 1.7762850522994997 1.6453995108604433 1.7066372036933901 1.5316544175148012 1.7286573052406313 1.7138549685478213 1.7369953989982607 1.6734876632690432 1.53865522146225 1.5338906645774844 1.5945426821708681
decision_type=2 2 2 2 2 2 2 2 2 2 2 2 2 2
left_child=2 4 -1 5 11 7 -4 9 -9 -3 -6 -2 -13 -14
right_child=1 3 6 -5 10 -7 -8 8 -10 -11 -12 12 13 -15
leaf_value=-0.014310898100169401 -0.024020920407313569 0.0043329257034461733 -0.0094722380612624925 0.015229531495795796 0.0033330867072281899 0.0085467341503856886 -0.0041857462960163908 0.0040939603914629738 0.04356397163536814 -0.013046474137809128 -0.00093412956504951988 0.027494624031312538 -0.0094269219696282713 -0.00051003860267956694
leaf_weight=2967 52 3584 1863 1109 6323 4270 4909 53 45 128 2133 33 374 7805
leaf_count=2967 52 3584 1863 1109 6323 4270 4909 53 45 128 2133 33 374 7805
internal_value=0 0.00311301 -0.00828166 0.00755476 0.000671909 0.00650138 -0.00564008 0.00420909 0.0222179 0.00373364 0.00225669 -0.000949696 -0.000803604 -0.00091778
internal_weight=0 25909 9739 9189 16720 8080 6772 3810 98 3712 8456 8264 8212 8179
internal_count=35648 25909 9739 9189 16720 8080 6772 3810 98 3712 8456 8264 8212 8179
is_linear=0
shrinkage=0.05


Tree=9
num_leaves=15
num_cat=0
split_feature=27 34 31 60 50 37 31 47 37 47 34 6 38 10
split_gain=332.333 111.747 46.9969 30.0682 18.0379 12.8071 12.519 15.3469 11.8965 12.5467 11.1084 10.1431 9.96027 9.94177
threshold=1.5965886712074282 1.6836609840393069 1.4864600300788882 1.7780084609985354 1.6534948945045473 1.7149591445922854 1.7049363851547243 1.6980714797973635 1.540711581707001 1.6131649613380434 1.6279888153076174 1.0000000180025095e-35 1.6423992514610293 139.50000000000003
decision_type=2 2 2 2 2 2 2 2 2 2 2 2 2 2
left_child=2 4 -1 5 -2 -3 11 -8 -4 -10 -6 -7 -12 -9
right_child=1 3 8 -5 10 6 7 13 9 -11 12 -13 -14 -15
leaf_value=-0.014507097232438745 -0.00079721027639737701 0.0045194800910479714 -0.0085535469380642066 0.017224678129610354 0.012064538837716699 0.0052852687478065494 -0.0044069818872590309 0.0048981229130221514 -0.0036295564068633494 -0.022072615419563495 -0.0039063614459759156 0.022638871231975485 0.0027743609270694833 0.010419298337109891
leaf_weight=2397 11430 4563 2963 685 292 125 253 1305 3146 95 623 258 5340 2173
leaf_count=2397 11430 4563 2963 685 292 125 253 1305 3146 95 623 258 5340 2173
internal_value=0 0.00272241 -0.008561 0.00713961 0.000384063 0.00634345 0.00836648 0.00748277 -0.00626364 -0.00417016 0.00254265 0.0169752 0.00207638 0.00834767
internal_weight=0 27047 8601 9362 17685 8677 4114 3731 6204 3241 6255 383 5963 3478
internal_count=35648 27047 8601 9362 17685 8677 4114 3731 6204 3241 6255 383 5963 3478
is_linear=0
shrinkage=0.05


Tree=10
num_leaves=15
num_cat=0
split_feature=33 30 66 36 52 48 56 55 52 53 67 27 13 67
split_gain=301.015 93.2993 51.4105 26.6006 13.8392 15.4058 15.4826 13.0281 12.1772 11.7022 10.8976 10.853 10.6905 11.4416
threshold=1.6041696071624758 1.6792889237403872 1.5007047653198244 1.7963476777076723 1.7409794330596926 1.6901301145553591 1.647669851779938 1.6946010589599612 1.6666703820228579 1.4351859092712405 1.5195523500442507 1.4831443428993227 22.500000000000004 1.7858319282531741
decision_type=2 2 2 2 2 2 2 2 2 2 2 2 2 2
left_child=2 4 9 8 5 6 10 -7 -3 -1 -2 -4 -5 -14
right_child=1 3 11 12 -6 7 -8 -9 -10 -11 -12 -13 13 -15
leaf_value=-0.018411194186830807 -0.029417016424916009 0.00021791348019148616 -0.018321007329409254 0.00015307910812711255 0.027574592939716702 -0.0028851079934975135 0.0024280662993457916 -0.020866973333212795 0.006479522279961643 -0.011018714629825217 -0.00062932912593486831 -0.004529498560332532 0.011129335890132222 0.023666048753821389
leaf_weight=667 33 859 146 103 47 320 6955 147 8080 2712 8637 6214 366 362
leaf_count=667 33 859 146 103 47 320 6955 147 8080 2712 8637 6214 366 362
internal_value=0 0.00281694 -0.00749401 0.00667328 0.000482449 0.000403321 0.000670779 -0.00854535 0.00587781 -0.012478 -0.000738902 -0.0048461 0.0152301 0.0173633
internal_weight=0 25909 9739 9770 16139 16092 15625 467 8939 3379 8670 6360 831 728
internal_count=35648 25909 9739 9770 16139 16092 15625 467 8939 3379 8670 6360 831 728
is_linear=0
shrinkage=0.05


Tree=11
num_leaves=15
num_cat=0
split_feature=28 52 67 31 35 35 37 30 62 66 28 22 30 39
split_gain=273.528 106.484 27.6164 27.0741 16.1467 15.0802 13.53 13.4144 12.6788 11.3054 9.34496 9.30172 9.96323 10.5911
threshold=1.5717406868934634 1.671339273452759 1.4856047630310061 1.7640089392662051 1.7065548896789553 1.6344136595726015 1.725685238838196 1.8218889236450198 1.6712779998779299 1.6678854227066042 1.7401519417762759 896.50000000000011 1.5947719216346743 1.5923877954483034
decision_type=2 2 2 2 2 2 2 2 2 2 2 2 2 2
left_child=2 5 -1 7 -5 -2 -6 -3 9 11 -8 12 -7 -14
right_child=1 3 -4 4 6 8 10 -9 -10 -11 -12 -13 13 -15
leaf_value=-0.012859072144405605 -0.0017079736171390332 0.004859868811485933 -0.0063959231298743218 0.044801834024287557 -0.018088299643836524 -0.028141330977280939 0.038438926366242493 0.032529578679664571 -0.0029071261227130892 0.0085753146261452872 0.011519808016983527 0.0055917576605112908 0.025466731606527817 0.00054352430550327934
leaf_weight=2645 9029 9777 4406 37 38 30 33 44 1500 626 1400 1141 43 4899
leaf_count=2645 9029 9777 4406 37 38 30 33 44 1500 626 1400 1141 43 4899
internal_value=0 0.0021748 -0.00882041 0.00594163 0.0121794 -0.000296507 0.0113588 0.00498383 0.0012503 0.00217568 0.0121397 0.00152033 0.000585993 0.000760379
internal_weight=0 28597 7051 11329 1508 17268 1471 9821 8239 6739 1433 6113 4972 4942
internal_count=35648 28597 7051 11329 1508 17268 1471 9821 8239 6739 1433 6113 4972 4942
is_linear=0
shrinkage=0.05


Tree=12
num_leaves=15
num_cat=0
split_feature=30 67 57 44 60 31 49 46 60 56 34 64 36 37
split_gain=247.694 64.3661 62.5323 18.1121 17.169 15.9434 11.6992 14.7181 10.1032 10.9198 11.0025 12.9141 10.8906 11.8815
threshold=1.617524325847626 1.5358936786651614 1.7066372036933901 1.6659693121910097 1.7780084609985354 1.4677997827529909 1.7356915473937991 1.7205588817596438 1.7075756788253786 1.6961452364921572 1.6748768091201784 1.7028475999832156 1.6476446986198428 1.7149591445922854
decision_type=2 2 2 2 2 2 2 2 2 2 2 2 2 2
left_child=1 5 3 -2 -4 -1 7 8 12 10 11 -10 -5 -14
right_child=2 -3 4 6 -6 -7 -8 -9 9 -11 -12 -13 13 -15
leaf_value=-0.014464646603116494 0.00033890687195293145 -0.0028489966782169682 0.0066776863954853723 -0.0048939372943682478 0.015215171314497523 -0.0082379106916899477 0.025821877220424557 -0.015578891560435296 0.026898674424304519 0.0035957373670741188 -0.013143390128599074 -0.010829711643358072 0.0042377272408433584 0.012158907101781087
leaf_weight=1503 10669 7932 4917 293 669 3253 59 100 43 469 266 48 4903 524
leaf_count=1503 10669 7932 4917 293 669 3253 59 100 43 469 266 48 4903 524
internal_value=0 -0.0056066 0.00309828 0.00161871 0.00770017 -0.0102057 0.00365512 0.00345834 0.00374916 -0.00142 -0.00800931 0.00699799 0.00449562 0.00500255
internal_weight=0 12688 22960 17374 5586 4756 6705 6646 6546 826 357 91 5720 5427
internal_count=35648 12688 22960 17374 5586 4756 6705 6646 6546 826 357 91 5720 5427
is_linear=0
shrinkage=0.05


Tree=13
num_leaves=15
num_cat=0
split_feature=28 52 40 42 35 62 66 32 42 33 56 47 44 27
split_gain=224.743 87.2737 24.2007 23.4001 12.3215 11.6456 10.1765 10.0424 14.8541 12.7788 12.1903 11.5839 12.4431 12.0643
threshold=1.5717406868934634 1.671339273452759 1.7635202407836916 1.4680089950561526 1.6344136595726015 1.6712779998779299 1.6678854227066042 1.6808605194091799 1.7038123011589053 1.618549704551697 1.6366403698921206 1.6435514092445376 1.6300702691078188 1.6531680226325991
decision_type=2 2 2 2 2 2 2 2 2 2 2 2 2 2
left_child=3 4 7 -1 -2 6 -6 8 9 -3 -11 13 -13 -12
right_child=1 2 -4 -5 5 -7 -8 -9 -10 10 11 12 -14 -15
leaf_value=-0.014170337441480822 -0.0015418191038023424 0.026285685678677902 0.011278978123549442 -0.0066516439451423069 0.0013973036236755105 -0.0028522126853466035 0.008090809258385399 0.0055436947573584069 -0.020357194817107585 -0.029535809506972634 0.0049030981378032357 -0.024363975773255032 0.0021500501132545322 0.032530583275689022
leaf_weight=1260 9029 56 1508 5791 6113 1500 626 6792 72 30 106 45 2657 63
leaf_count=1260 9029 56 1508 5791 6113 1500 626 6792 72 30 106 45 2657 63
internal_value=0 0.00197134 0.00538151 -0.00799522 -0.000265974 0.00113221 0.00201908 0.00447596 0.00208176 0.00262813 0.00217145 0.00250277 0.00170848 0.0152021
internal_weight=0 28597 11329 7051 17268 8239 6739 9821 3029 2957 2901 2871 2702 169
internal_count=35648 28597 11329 7051 17268 8239 6739 9821 3029 2957 2901 2871 2702 169
is_linear=0
shrinkage=0.05


Tree=14
num_leaves=15
num_cat=0
split_feature=33 44 33 36 36 63 52 56 41 13 32 56 42 22
split_gain=204.069 64.0708 36.0466 22.1143 14.4277 10.8282 9.88324 12.6346 11.9374 9.71313 9.03986 10.991 13.3104 13.0076
threshold=1.6041696071624758 1.6659693121910097 1.4976224899291994 1.7963476777076723 1.6476446986198428 1.53865522146225 1.6478729844093325 1.6377099156379702 1.6655155420303347 22.500000000000004 1.5279007554054262 1.6092913150787356 1.576390326023102 40.500000000000007
decision_type=2 2 2 2 2 2 2 2 2 2 2 2 2 2
left_child=2 5 -1 4 -3 -2 7 8 -6 -5 -4 13 -13 -12
right_child=1 3 10 9 6 -7 -8 -9 -10 -11 11 12 -14 -15
leaf_value=-0.010765961942711504 -0.021572894911313881 -0.0058952457656988207 -0.0072431887025580736 -0.0015305921326852542 0.031039684524341506 7.6740273749377049e-05 0.0050295078191894826 -0.0065232175817336764 -0.0011378048998968943 0.014874015025958254 0.018520580802876978 -0.023572243544533179 -0.0054761512631199064 -0.0021163723939848825
leaf_weight=2967 58 331 1757 103 49 13716 10468 386 70 728 78 111 1202 3624
leaf_count=2967 58 331 1757 103 49 13716 10468 386 70 728 78 111 1202 3624
internal_value=0 0.00231938 -0.00617033 0.0049684 0.00438968 -1.44227e-05 0.00469992 -0.00213201 0.0121117 0.0128407 -0.00415686 -0.00307557 -0.00700598 -0.00168156
internal_weight=0 25909 9739 12135 11304 13774 10973 505 119 831 6772 5015 1313 3702
internal_count=35648 25909 9739 12135 11304 13774 10973 505 119 831 6772 5015 1313 3702
is_linear=0
shrinkage=0.05


Tree=15
num_leaves=15
num_cat=0
split_feature=30 32 57 60 38 63 43 60 49 27 60 55 36 58
split_gain=185.011 48.5677 47.2929 13.8634 13.6011 11.1529 11.052 10.8575 14.8946 11.9259 10.3306 14.6425 12.536 10.3098
threshold=1.617524325847626 1.524331331253052 1.7066372036933901 1.7780084609985354 1.6612806320190432 1.4228206872940066 1.7677276730537417 1.7075756788253786 1.7286573052406313 1.6791313290596011 1.6728585958480837 1.6785644888877871 1.655839264392853 1.7036085128784182
decision_type=2 2 2 2 2 2 2 2 2 2 2 2 2 2
left_child=1 5 4 -4 10 -1 7 -6 9 13 11 -2 -13 -9
right_child=2 -3 3 -5 6 -7 -8 8 -10 -11 -12 12 -14 -15
leaf_value=-0.015001788655522985 0.00032848728855103737 -0.0026091732675000423 0.0057609501331347575 0.013432646823437226 0.0035340478884532678 -0.0080352717691654259 0.028562146176894506 0.036028877871506146 0.023068526000888261 -0.0058606376332603644 -0.005074755318584279 0.02695307177932639 0.0036487171565797055 -0.0024114628599302191
leaf_weight=681 8712 8333 4917 669 6638 3674 42 33 54 757 859 95 147 37
leaf_count=681 8712 8333 4917 669 6638 3674 42 33 54 757 859 95 147 37
internal_value=0 -0.00484553 0.0026777 0.00667974 0.00139099 -0.00912464 0.00298473 0.00284186 -0.00237352 -0.00403479 0.000162995 0.000665477 0.0127971 0.0157104
internal_weight=0 12688 22960 5586 17374 4355 7561 7519 881 827 9813 8954 242 70
internal_count=35648 12688 22960 5586 17374 4355 7561 7519 881 827 9813 8954 242 70
is_linear=0
shrinkage=0.05


Tree=16
num_leaves=15
num_cat=0
split_feature=29 38 31 40 53 42 53 38 56 50 47 61 53 44
split_gain=167.934 62.1954 21.5617 20.4885 18.3319 10.3882 9.74727 10.7741 9.5599 11.3795 9.35184 14.7415 13.0358 9.42812
threshold=1.5851292014122011 1.6612806320190432 1.4864600300788882 1.7635202407836916 1.5250125527381899 1.5265749692916872 1.6941670179367068 1.6550994515419009 1.6750407218933108 1.6609854102134707 1.6455472707748415 1.6460214853286745 1.643464267253876 1.6659693121910097
decision_type=2 2 2 2 2 2 2 2 2 2 2 2 2 2
left_child=2 4 -1 10 -2 -6 8 -8 -7 -10 12 -12 -3 -13
right_child=1 3 -4 -5 5 6 7 -9 9 -11 11 13 -14 -15
leaf_value=-0.01044977375702108 0.032183200606079987 -0.0012276044115424158 -0.0047447877641604791 0.0097607812753891972 -0.025050958503730771 -0.00035788352640117962 0.0025283079437848901 0.02866025334697659 -0.02986136047312847 -0.0049103419674407268 -0.006391945123672485 0.00032040439481989655 0.019448736498943357 0.0043327391864782802
leaf_weight=2397 43 120 5359 1526 43 14076 119 59 52 377 375 1743 209 9150
leaf_count=2397 43 120 5359 1526 43 14076 119 59 52 377 375 1743 209 9150
internal_value=0 0.00180967 -0.00650792 0.00431445 -0.000415942 -0.000511132 -0.000439265 0.01119 -0.000581976 -0.00793471 0.00359779 0.00335517 0.0119072 0.00369072
internal_weight=0 27892 7756 13123 14769 14726 14683 178 14505 429 11597 11268 329 10893
internal_count=35648 27892 7756 13123 14769 14726 14683 178 14505 429 11597 11268 329 10893
is_linear=0
shrinkage=0.05


Tree=17
num_leaves=15
num_cat=0
split_feature=44 32 42 66 52 47 38 67 22 63 29 55 47 13
split_gain=153.277 48.9709 32.3811 13.3649 12.4992 14.1973 13.7139 11.9929 9.95461 9.55288 9.37977 12.9495 9.34026 9.31197
threshold=1.6270967721939089 1.524331331253052 1.7267665863037112 1.6425061225891116 1.6592229008674624 1.6435514092445376 1.6503518223762514 1.7794687151908877 99.500000000000014 1.4228206872940066 1.6705841422080996 1.6785644888877871 1.4624152779579165 115.50000000000001
decision_type=2 2 2 2 2 2 2 2 2 2 2 2 2 2
left_child=1 9 4 -4 -2 8 10 -5 -6 12 11 13 -1 -7
right_child=2 -3 3 7 5 6 -8 -9 -10 -11 -12 -13 -14 -15
leaf_value=-0.011397677006317363 0.00020413251534480144 -0.0020139561179184804 0.029384198022576483 0.0051829806214772102 0.034040559733167608 0.0021969863250523411 0.0031246039884394272 0.012348602923842194 0.0094409006967642387 -0.0072934869418775474 -0.01743828683862822 0.016773145880412173 -0.028373863238920556 -0.012172527288618897
leaf_weight=587 6840 10717 65 3127 47 227 8804 718 329 3674 114 81 94 224
leaf_count=587 6840 10717 65 3127 47 227 8804 718 329 3674 114 81 94 224
internal_value=0 -0.00383077 0.00280606 0.00690114 0.00184531 0.00298776 0.00260865 0.00652106 0.0125159 -0.00830169 -0.00442302 -0.00163403 -0.0137409 -0.00493998
internal_weight=0 15072 20576 3910 16666 9826 9450 3845 376 4355 646 532 681 451
internal_count=35648 15072 20576 3910 16666 9826 9450 3845 376 4355 646 532 681 451
is_linear=0
shrinkage=0.05


Tree=18
num_leaves=15
num_cat=0
split_feature=33 36 31 60 67 52 47 44 23 32 11 57 34 57
split_gain=139.465 44.1294 25.01 11.7812 11.2265 14.9686 14.7241 15.198 12.1138 14.4578 12.1052 11.0484 11.4284 10.14
threshold=1.6041696071624758 1.6970341205596926 1.4864600300788882 1.7780084609985354 1.683522164821625 1.671339273452759 1.6505131125450136 1.6652119755744936 3.5000000000000004 1.7100580334663393 13.000000000000002 1.7329233884811404 1.762369751930237 1.5988485813140871
decision_type=2 2 2 2 2 2 2 2 2 2 2 2 2 2
left_child=2 11 -1 4 6 -6 -3 -8 -9 -10 -11 12 13 -2
right_child=1 3 -4 -5 5 -7 7 8 9 10 -12 -13 -14 -15
leaf_value=-0.0095366936093056343 -0.0055767619526085931 0.039391207771423541 -0.0036536207306634761 0.011532927393798055 -0.0099701729382282687 0.0041773688193739444 -0.016118962684127151 0.0060966823281536639 0.029288049460682156 0.016967301149951649 -0.014567749053239824 0.013373418811422129 -0.029323547706007959 0.00080410559792150761
leaf_weight=2396 645 39 7343 679 194 5155 61 710 146 94 45 169 32 17940
leaf_count=2396 645 39 7343 679 194 5155 61 710 146 94 45 169 32 17940
internal_value=0 0.00191742 -0.00510098 0.00526857 0.0046085 0.00366426 0.00922108 0.00810684 0.00959204 0.0182998 0.00675811 0.000646779 0.00053125 0.000582655
internal_weight=0 25909 9739 7123 6444 5349 1095 1056 995 285 139 18786 18617 18585
internal_count=35648 25909 9739 7123 6444 5349 1095 1056 995 285 139 18786 18617 18585
is_linear=0
shrinkage=0.05


Tree=19
num_leaves=15
num_cat=0
split_feature=28 38 33 36 65 65 59 30 53 30 30 64 47 65
split_gain=127.099 49.4841 16.4154 15.3578 10.5074 14.1333 12.0364 10.0021 9.86786 15.8819 9.55653 8.76747 8.60824 13.7054
threshold=1.5717406868934634 1.6612806320190432 1.7513464093208315 1.4552601575851443 1.6505944728851321 1.6927456855773928 1.7122287750244143 1.8218889236450198 1.5250125527381899 1.5855017304420473 1.8088353276252749 1.755571782588959 1.6486096382141116 1.6363922953605654
decision_type=2 2 2 2 2 2 2 2 2 2 2 2 2 2
left_child=3 8 12 -1 -4 -6 -7 10 9 -2 -8 -12 -3 -14
right_child=1 2 4 -5 5 6 7 -9 -10 -11 11 -13 13 -15
leaf_value=-0.01181366467609425 -0.0054423063620924958 0.0098099765010586353 0.034080840043119481 -0.0050738813459914947 -0.0058191250058773321 0.021056057043330519 0.0065843438397078001 0.014707478303513863 -0.00052479091225860212 0.038841231385382209 -0.026323633017235028 0.0023619079510016103 -0.011866209264844656 0.0028807005117262026
leaf_weight=982 40 438 37 6069 190 173 1347 361 15391 41 43 70 160 10306
leaf_count=982 40 438 37 6069 190 173 1347 361 15391 41 43 70 160 10306
internal_value=0 0.00148248 0.0037407 -0.00601254 0.0076587 0.00721108 0.00845267 0.00725531 -0.000433186 0.0169728 0.00541269 -0.00855383 0.00294265 0.00265526
internal_weight=0 28597 13125 7051 2221 2184 1994 1821 15472 81 1460 113 10904 10466
internal_count=35648 28597 13125 7051 2221 2184 1994 1821 15472 81 1460 113 10904 10466
is_linear=0
shrinkage=0.05


Tree=20
num_leaves=15
num_cat=0
split_feature=44 32 57 27 25 67 46 48 22 66 22 47 32 49
split_gain=116.206 37.1057 25.6918 9.87303 10.1232 9.26432 12.0036 12.5571 19.1258 10.9966 10.9405 9.94142 9.46524 8.71851
threshold=1.6270967721939089 1.524331331253052 1.7066372036933901 1.6474003791809084 -0.6035533845424651 1.7858319282531741 1.7805051803588869 1.831459164619446 79.000000000000014 1.7818660140037539 432.50000000000006 1.8633150458335879 1.787429213523865 1.7337777614593508
decision_type=2 2 2 2 2 2 2 2 2 2 2 2 2 2
left_child=1 -1 13 -3 -5 -4 7 8 12 -8 -10 -11 -7 -2
right_child=2 3 5 4 -6 6 9 -9 10 11 -12 -13 -14 -15
leaf_value=-0.00722727757734252 0.001277373643978964 -0.0015496032386939497 0.0046202329137069627 0.0021139058311070713 -0.021775365804037283 0.0083009073898817117 0.030579403594623661 -0.021246257983148099 -0.012433388224821918 0.0035321450974534901 0.016910055739448426 0.024500236305822102 0.042697919090795851 0.017827740819193423
leaf_weight=4355 14917 10526 4960 70 121 36 107 44 98 152 47 90 45 80
leaf_count=4355 14917 10526 4960 70 121 36 107 44 98 152 47 90 45 80
internal_value=0 -0.00333551 0.00244327 -0.00175403 -0.0130201 0.00534002 0.0111076 0.0031915 0.00794929 0.0172318 -0.00292207 0.0113302 0.0274104 0.00136566
internal_weight=0 15072 20576 10717 191 5579 619 270 226 349 145 242 81 14997
internal_count=35648 15072 20576 10717 191 5579 619 270 226 349 145 242 81 14997
is_linear=0
shrinkage=0.05


Tree=21
num_leaves=15
num_cat=0
split_feature=30 37 37 51 31 36 30 28 57 41 22 36 40 23
split_gain=106.161 28.3403 27.8594 14.2131 11.446 9.9665 9.69477 9.64141 9.16798 12.8989 11.8143 10.4917 9.12587 10.9227
threshold=1.617524325847626 1.5379936099052431 1.7149591445922854 1.6357750892639162 1.5744193196296694 1.4678776860237124 1.7665178775787356 1.6733050942420962 1.7384181618690493 1.726377606391907 123.50000000000001 1.7399827837944033 1.7290321588516238 2.5000000000000004
decision_type=2 2 2 2 2 2 2 2 2 2 2 2 2 2
left_child=1 4 6 -4 5 -1 8 -5 9 12 -11 -12 -2 -14
right_child=2 -3 3 7 -6 -7 -8 -9 -10 10 11 -13 13 -15
leaf_value=-0.010169317927437756 0.00096694453465357452 -0.0017054411511625478 -0.028919070611397424 -0.021750927297398449 -0.028043167366356148 -0.0050138693707855097 0.016202824246489778 0.0057855951680243047 0.010469151458402319 0.013211304780894093 -0.018107385044797846 0.00035151804194730874 0.022974993868802602 0.0017100893245596026
leaf_weight=1235 17100 7501 30 32 61 3891 106 4797 254 56 218 119 104 144
leaf_count=1235 17100 7501 30 32 61 3891 106 4797 254 56 218 119 104 144
internal_value=0 -0.00367049 0.00202836 0.00538998 -0.00651219 -0.00625596 0.00112598 0.00560312 0.00103717 0.000902128 -0.00805533 -0.0115893 0.00110505 0.0106276
internal_weight=0 12688 22960 4859 5187 5126 18101 4829 17995 17741 393 337 17348 248
internal_count=35648 12688 22960 4859 5187 5126 18101 4829 17995 17741 393 337 17348 248
is_linear=0
shrinkage=0.05


Tree=22
num_leaves=15
num_cat=0
split_feature=51 66 37 58 34 66 58 37 66 53 31 57 6 62
split_gain=96.2553 27.4515 24.6041 11.4287 11.3802 10.6717 10.1645 11.4172 11.4084 13.5571 9.94519 10.9749 10.1802 9.50218
threshold=1.6253937482833865 1.5007047653198244 1.7149591445922854 1.772061884403229 1.6818630099296572 1.71230685710907 1.6075300574302676 1.6220881938934328 1.6168937087059023 1.6509000658988955 1.7049363851547243 1.6635101437568667 1.0000000180025095e-35 1.6588825583457949
decision_type=2 2 2 2 2 2 2 2 2 2 2 2 2 2
left_child=1 -1 3 6 -4 -3 7 -2 9 -8 12 -12 -6 -14
right_child=2 5 4 -5 10 -7 8 -9 -10 -11 11 -13 13 -15
leaf_value=-0.0072211960651409682 0.003469521802370595 -0.0019284887606926119 -0.014979185136979906 0.031982972522576654 0.0015532091435954327 -0.030408312515778975 -0.0054337677884508271 0.029437947679649704 0.00110827795930387 -0.041973722626765575 -0.02437958144582808 0.005009408591996267 -0.0076424516861637445 0.022276316858504133
leaf_weight=3385 118 10110 69 30 127 33 165 66 16868 30 32 4355 30 230
leaf_count=3385 118 10110 69 30 127 33 165 66 16868 30 32 4355 30 230
internal_value=0 -0.00332231 0.00203184 0.00114895 0.00518146 -0.00202115 0.00109532 0.0127843 0.00096927 -0.0110553 0.00547285 0.00479504 0.0131564 0.0188242
internal_weight=0 13528 22120 17277 4843 10143 17247 184 17063 195 4774 4387 387 260
internal_count=35648 13528 22120 17277 4843 10143 17247 184 17063 195 4774 4387 387 260
is_linear=0
shrinkage=0.05


Tree=23
num_leaves=15
num_cat=0
split_feature=37 44 67 60 58 50 36 63 36 40 13 63 22 48
split_gain=87.9133 37.5319 11.4199 12.6469 18.4168 11.569 10.1609 10.0348 9.40663 9.12236 9.28144 9.40877 8.93343 8.67822
threshold=1.5621383190155032 1.6687228679656985 1.7794687151908877 1.7382724881172182 1.7605675458908083 1.723961412906647 1.4552601575851443 1.4952830672264101 1.6471477150917055 1.5543751120567324 33.500000000000007 1.572457551956177 600.50000000000011 1.7530926465988161
decision_type=2 2 2 2 2 2 2 2 2 2 2 2 2 2
left_child=6 7 8 -4 5 -5 -1 -2 12 10 11 -9 -3 -7
right_child=1 2 3 4 -6 13 -8 9 -10 -11 -12 -13 -14 -15
leaf_value=-0.0099606562520097378 -0.019180128382784982 -0.012360227970754381 0.04050028511593419 -0.028545378148555758 0.01217843038593292 0.021214009615543643 -0.0044303960106065144 0.0075517575171860779 0.0031804312608674414 -0.00038184966326474073 0.0034827941532344802 0.042571910689858827 0.0093578249507118016 -0.0072350407413278644
leaf_weight=978 70 182 31 44 581 38 5510 44 10570 17107 304 34 64 91
leaf_count=978 70 182 31 44 581 38 5510 44 10570 17107 304 34 64 91
internal_value=0 0.00117123 0.00337811 0.00920118 0.00791434 -0.00640609 -0.00526403 -0.000286828 0.00295548 -0.000211208 0.00743061 0.022817 -0.00671 0.0011453
internal_weight=0 29160 11601 785 754 173 6488 17559 10816 17489 382 78 246 129
internal_count=35648 29160 11601 785 754 173 6488 17559 10816 17489 382 78 246 129
is_linear=0
shrinkage=0.05


Tree=24
num_leaves=15
num_cat=0
split_feature=30 67 34 67 55 66 37 46 63 52 49 62 41 62
split_gain=80.7614 21.7197 21.1207 10.2621 10.833 9.07505 15.9023 14.6982 14.0833 12.7598 11.1057 8.48941 13.972 9.13764
threshold=1.617524325847626 1.5358936786651614 1.6836609840393069 1.7794687151908877 1.6174196004867556 1.6242923736572268 1.611562252044678 1.6330327391624453 1.6398769021034243 1.6392468810081484 1.63103723526001 1.7564916014671328 1.7844316959381106 1.7605071663856509
decision_type=2 2 2 2 2 2 2 2 2 2 2 2 2 2
left_child=1 -1 -2 4 -4 6 8 10 -3 -9 -8 12 -6 -13
right_child=2 5 3 -5 11 -7 7 9 -10 -11 -12 13 -14 -15
leaf_value=-0.0058730222282835651 0.00051277555247956105 -0.0019872235266095236 -0.026890139679114022 0.0091289044062602461 0.0032904320962463549 -0.0036794957126784892 0.006339607194157733 -0.022405693761391357 0.026150070565442246 0.013509266228518552 0.029210006829612611 -0.016095983229864105 0.016578063217858815 0.00030505380625424198
leaf_weight=4756 13615 3786 30 770 7775 3157 772 79 45 36 57 104 203 463
leaf_count=4756 13615 3786 30 770 7775 3157 772 79 45 36 57 104 203 463
internal_value=0 -0.00320143 0.00176915 0.0035996 0.00310309 -0.00159955 -0.000224386 0.00558838 -0.00165671 -0.0111627 0.00791212 0.00320839 0.00362854 -0.00270325
internal_weight=0 12688 22960 9345 8575 7932 4775 944 3831 115 829 8545 7978 567
internal_count=35648 12688 22960 9345 8575 7932 4775 944 3831 115 829 8545 7978 567
is_linear=0
shrinkage=0.05


Tree=25
num_leaves=15
num_cat=0
split_feature=44 37 37 2 27 31 25 55 30 55 65 41 22 42
split_gain=73.5656 24.1226 17.2535 10.0637 9.81892 9.3209 9.08138 8.81427 8.08696 8.73897 8.80536 8.08598 13.845 11.5648
threshold=1.6270967721939089 1.5379936099052431 1.7149591445922854 154.50000000000003 1.6474003791809084 1.5744193196296694 -0.6035533845424651 1.5843515992164614 1.7665178775787356 1.7281475663185122 1.6891677379608157 1.726377606391907 105.50000000000001 1.7207579612731936
decision_type=2 2 2 2 2 2 2 2 2 2 2 2 2 2
left_child=1 5 8 -4 -3 7 -6 -1 11 10 -10 -2 -13 -14
right_child=2 4 3 -5 6 -7 -8 -9 9 -11 -12 12 13 -15
leaf_value=-0.0053817829777904622 0.0012499978417530534 -0.00097923273356746916 0.0049786035655975782 -0.0075121935323148427 0.0019069308840802737 -0.023662395624146945 -0.020719748340577875 0.014390133752634652 0.007105640954140461 -0.0043016451459966208 0.043106013728039606 0.01446354467670123 -0.020826322744216988 -0.0030122016394591852
leaf_weight=5080 15127 9675 4689 167 70 69 121 57 33 38 35 75 136 276
leaf_count=5080 15127 9675 4689 167 70 69 121 57 33 38 35 75 136 276
internal_value=0 -0.0026539 0.00194399 0.00454904 -0.00120086 -0.00540759 -0.0124272 -0.00516239 0.00113928 0.0149032 0.0256352 0.00104584 -0.00529565 -0.00889259
internal_weight=0 15072 20576 4856 9866 5206 191 5137 15720 106 68 15614 487 412
internal_count=35648 15072 20576 4856 9866 5206 191 5137 15720 106 68 15614 487 412
is_linear=0
shrinkage=0.05


Tree=26
num_leaves=15
num_cat=0
split_feature=58 37 36 6 46 57 2 25 36 36 67 58 29 33
split_gain=67.2352 25.8772 12.2157 7.39357 9.5106 8.41762 7.83664 7.37993 7.25555 6.94647 6.86202 19.5086 11.5883 11.0562
threshold=1.6452283859252932 1.5460604429244997 1.7604408860206606 6.5000000000000009 1.7371538281440737 1.7788919210433962 154.50000000000003 0.91597560048103344 1.4552601575851443 1.6167407631874087 1.756722688674927 1.7605675458908083 1.7930602431297304 1.7568315267562868
decision_type=2 2 2 2 2 2 2 2 2 2 2 2 2 2
left_child=1 8 -2 6 -5 -6 10 -8 -1 -10 13 12 -12 -4
right_child=2 -3 3 4 5 -7 7 -9 9 -11 11 -13 -14 -15
leaf_value=-0.0088658899607058032 0.0017972053466493926 -0.00085964092314748581 0.0056318944837175202 0.013621112355031073 -0.018571027524569916 0.0057819331759227481 -0.020029806779051314 0.010031204553587096 -0.0039416205539913683 -0.026625260491581527 -0.0012176965391207599 0.0097612192390914097 -0.028247456664506062 0.01858638207137164
leaf_weight=969 15392 12869 335 64 94 57 49 35 4597 34 167 610 52 324
leaf_count=969 15392 12869 335 64 94 57 49 35 4597 34 167 610 52 324
internal_value=0 -0.00209425 0.00225151 0.00616456 -0.00253188 -0.00937819 0.00735396 -0.00750439 -0.00493142 -0.00410816 0.00819274 0.0051654 -0.00763572 0.012001
internal_weight=0 18469 17179 1787 215 151 1572 84 5600 4631 1488 829 219 659
internal_count=35648 18469 17179 1787 215 151 1572 84 5600 4631 1488 829 219 659
is_linear=0
shrinkage=0.05


Tree=27
num_leaves=15
num_cat=0
split_feature=51 33 28 38 59 23 54 42 50 66 22 9 2 64
split_gain=61.251 17.3894 15.9497 9.54578 9.18717 8.5562 11.8186 9.19083 13.619 13.9127 18.644 13.4116 13.2263 14.0006
threshold=1.6253937482833865 1.4976224899291994 1.716291129589081 1.540945887565613 1.7763105630874636 5.5000000000000009 1.5945426821708681 1.6380107402801516 1.6861951947212221 1.7017233371734621 621.00000000000011 5.5000000000000009 107.50000000000001 1.6935074925422671
decision_type=2 2 2 2 2 2 2 2 2 2 2 2 2 2
left_child=1 3 4 -1 5 6 -2 11 -9 10 -10 -7 13 -12
right_child=2 -3 -4 -5 -6 7 -8 8 9 -11 12 -13 -14 -15
leaf_value=-0.0057111874115809303 -0.027587140935498317 -0.0017006810043601311 0.0041013646173439664 -0.030933553803908199 -0.025871643365826459 0.036645412341588073 0.00070450381749260908 -0.0052595349477897509 0.045195222239602699 0.0011815291189398811 0.016002084569384654 0.0034807397238910201 0.030427125947816033 -0.0092610590823806165
leaf_weight=2926 37 10564 5012 38 32 54 15854 311 44 422 120 70 63 101
leaf_count=2926 37 10564 5012 38 32 54 15854 311 44 422 120 70 63 101
internal_value=0 -0.00265024 0.00162081 -0.00603455 0.000894106 0.000944264 0.000638631 0.00504285 0.00353749 0.00718532 0.0149097 0.0179234 0.0102176 0.00445648
internal_weight=0 13528 22120 2964 17108 17076 15891 1185 1061 750 328 124 284 221
internal_count=35648 13528 22120 2964 17108 17076 15891 1185 1061 750 328 124 284 221
is_linear=0
shrinkage=0.05


Tree=28
num_leaves=15
num_cat=0
split_feature=58 66 42 53 50 32 65 35 65 50 55 54 55 29
split_gain=55.7859 22.0107 15.1909 10.7258 12.9338 11.6055 11.1153 10.2424 9.91603 8.47159 10.3775 11.0969 13.273 10.5531
threshold=1.6452283859252932 1.5007047653198244 1.5844423770904543 1.757526218891144 1.7127072215080263 1.7951422333717348 1.6927456855773928 1.5551517605781557 1.7101777195930483 1.6633743643760683 1.661965072154999 1.6892259120941164 1.6966046094894411 1.6337545514106753
decision_type=2 2 2 2 2 2 2 2 2 2 2 2 2 2
left_child=1 2 7 5 -5 -2 -6 -1 -8 -3 13 -12 -13 -11
right_child=3 9 -4 4 6 -7 8 -9 -10 10 11 12 -14 -15
leaf_value=-0.0054979234868890179 0.0014959191813403573 -0.0013207813084414868 -0.040389312491301566 0.030772507429122926 -0.013106844643774776 0.016498803794025803 0.025646495877108613 0.022925466159358622 0.0051096132039340761 0.04112514089637747 -0.0050136044717692804 0.042458305464436616 -0.0015377463586628438 0.0091314643102346875
leaf_weight=3326 15244 14526 31 50 81 130 61 32 1613 30 271 30 40 183
leaf_count=3326 15244 14526 31 50 81 130 61 32 1613 30 271 30 40 183
internal_value=0 -0.00190762 -0.0055487 0.00205087 0.00569707 0.00162278 0.00498267 -0.00522706 0.00585797 -0.00108934 0.004979 -0.000429465 0.0173177 0.0136376
internal_weight=0 18469 3389 17179 1805 15374 1755 3358 1674 15080 554 341 70 213
internal_count=35648 18469 3389 17179 1805 15374 1755 3358 1674 15080 554 341 70 213
is_linear=0
shrinkage=0.05


Tree=29
num_leaves=15
num_cat=0
split_feature=30 52 31 62 64 67 30 49 49 58 64 54 15 36
split_gain=51.0484 20.5825 10.682 9.81151 12.3504 9.72236 9.40668 8.73394 10.803 8.99414 11.6626 11.7247 15.8426 9.88272
threshold=1.5855017304420473 1.671339273452759 1.6200167536735537 1.6738603711128237 1.666101396083832 1.4856047630310061 1.6950393319129946 1.6506851911544802 1.6479067802429201 1.772061884403229 1.7698541283607485 1.8022385835647585 1.0000000180025095e-35 1.7825005054473879
decision_type=2 2 2 2 2 2 2 2 2 2 2 2 2 2
left_child=2 3 5 4 -2 -1 -6 8 -3 -9 13 12 -12 -11
right_child=1 7 -4 -5 6 -7 -8 9 -10 10 11 -13 -14 -15
leaf_value=-0.0058300784707949263 -0.00015888319013899796 0.0075140505176732103 -0.019823227220214904 -0.0041932145174017506 0.00646168314962812 -0.0020824769211556927 -0.0135855590624194 0.0021198050654069218 0.039875780497536518 0.0046349174064548261 -0.015812779185470454 0.0098715911871975169 0.024526266963609183 0.022684956655535684
leaf_weight=2642 14111 118 100 1360 1041 5017 62 10487 33 130 129 206 30 182
leaf_count=2642 14111 118 100 1360 1041 5017 62 10487 33 130 129 206 30 182
internal_value=0 0.000997998 -0.00358721 -0.000124319 0.000239405 -0.00337523 0.00533482 0.00264195 0.0145865 0.00248039 0.00806601 0.0019986 -0.00820164 0.0151641
internal_weight=0 27889 7759 16574 15214 7659 1103 11315 151 11164 677 365 159 312
internal_count=35648 27889 7759 16574 15214 7659 1103 11315 151 11164 677 365 159 312
is_linear=0
shrinkage=0.05


Tree=30
num_leaves=15
num_cat=0
split_feature=33 44 53 43 39 55 45 40 33 42 62 28 25 58
split_gain=46.6231 16.5344 9.81442 8.53427 15.3591 9.59612 12.6248 8.82487 8.476 8.16359 8.05075 7.9732 7.81483 7.81204
threshold=1.6041696071624758 1.6659693121910097 1.4351859092712405 1.6759428381919863 1.6834252476692202 1.7027981877326968 1.6939496397972109 1.6744101643562319 1.6020854711532595 1.6428596973419192 1.7137496471405032 1.4289755225181582 0.37940952181816107 1.6723208427429201
decision_type=2 2 2 2 2 2 2 2 2 2 2 2 2 2
left_child=2 3 11 10 -5 7 -7 -6 -4 13 -2 -1 -13 -3
right_child=1 9 8 4 5 6 -8 -9 -10 -11 -12 12 -14 -15
leaf_value=-0.0044224197019098535 0.00010004419550052402 -0.0016750224493443967 -0.0022317389906354262 -0.013779896145132076 0.011964994724150059 0.032817680492997173 -0.0074011165183037525 -0.013348881786591131 -0.011038693463337338 0.0026280847241107554 0.021284678330024086 -0.021702448081696173 -0.0039910009649303775 -0.0236689243465662
leaf_weight=432 13199 160 8754 299 54 50 32 95 282 11921 45 174 97 54
leaf_count=432 13199 160 8754 299 54 50 32 95 282 11921 45 174 97 54
internal_value=0 0.00110863 -0.00294932 -7.69479e-05 -0.00629844 0.00338534 0.0171225 -0.00417473 -0.00250659 0.00245433 0.000172025 -0.00863988 -0.0153629 -0.00722489
internal_weight=0 25909 9739 13774 530 231 82 149 9036 12135 13244 703 271 214
internal_count=35648 25909 9739 13774 530 231 82 149 9036 12135 13244 703 271 214
is_linear=0
shrinkage=0.05


Tree=31
num_leaves=15
num_cat=0
split_feature=35 32 33 45 65 65 61 42 37 51 47 45 61 64
split_gain=42.7951 15.0992 10.1274 9.35689 9.12519 11.8799 11.5044 10.254 11.7526 12.6604 10.4236 10.2392 8.65285 7.63114
threshold=1.6344136595726015 1.524331331253052 1.7513464093208315 1.6677829623222353 1.6505944728851321 1.6927456855773928 1.7244694232940676 1.7662441134452822 1.7690220475196841 1.7492468953132632 1.7275114655494692 1.7372376918792727 1.6892949342727663 1.7083460688591006
decision_type=2 2 2 2 2 2 2 2 2 2 2 2 2 2
left_child=1 -1 -2 -3 -4 12 7 8 9 10 -7 -11 -6 -8
right_child=2 3 4 -5 5 6 13 -9 -10 11 -12 -13 -14 -15
leaf_value=-0.0044144235955778273 0.0011718894299995312 -0.0008743749180031078 0.030088342960391729 -0.021181361841266618 0.0027461264282464984 -0.0041786731924952532 -0.015850857736465211 0.033927555389150425 -0.0081267887142611982 0.052510714977979656 0.023115872829908232 0.013689736197843697 -0.018604931301113382 0.0043795186598711922
leaf_weight=4357 17223 11791 35 57 98 82 48 54 67 35 61 33 92 1615
leaf_count=4357 17223 11791 35 57 98 82 48 54 67 35 61 33 92 1615
internal_value=0 -0.00189761 0.00158158 -0.000972071 0.00476004 0.00435432 0.00549209 0.0139899 0.0101171 0.0159102 0.00746445 0.0336711 -0.00759228 0.0037956
internal_weight=0 16205 19443 11848 2220 2185 1995 332 278 211 143 68 190 1663
internal_count=35648 16205 19443 11848 2220 2185 1995 332 278 211 143 68 190 1663
is_linear=0
shrinkage=0.05


Tree=32
num_leaves=15
num_cat=0
split_feature=30 42 66 59 33 49 39 57 62 28 24 36 57 41
split_gain=39.0473 11.6316 12.6992 11.4683 10.3606 9.40044 8.4198 11.1253 8.39825 8.09072 10.0113 7.55523 14.6945 13.8417
threshold=1.617524325847626 1.7267665863037112 1.6425061225891116 1.4947042465209963 1.6700879931449892 1.6524652242660525 1.5633726716041567 1.5426803827285769 1.530717194080353 1.6410037875175478 1.0000000180025095e-35 1.726144075393677 1.7345278859138491 1.759775757789612
decision_type=2 2 2 2 2 2 2 2 2 2 2 2 2 2
left_child=3 8 -3 6 5 -5 7 -1 -2 10 -7 12 -10 -13
right_child=1 2 -4 4 -6 9 -8 -9 11 -11 -12 13 -14 -15
leaf_value=-0.004998115858401651 0.025922070866958663 0.025630185374846827 0.003343722391657874 -0.0012918469617807585 0.020885465562773441 -0.01715288664225811 -0.025873997807502748 0.01575612866065719 0.00063364818311421954 -0.034106866046282894 0.014238631282303786 -0.0030484211044849298 0.0097323229622382386 -0.03733572498444588
leaf_weight=2982 33 65 3845 9386 52 81 47 66 17948 37 37 583 455 31
leaf_count=2982 33 65 3845 9386 52 81 47 66 17948 37 37 583 455 31
internal_value=0 0.00123015 0.00371421 -0.00222606 -0.00137222 -0.00149353 -0.00487255 -0.00454871 0.0007203 -0.0137065 -0.00730978 0.000676568 0.000858606 -0.00477954
internal_weight=0 22960 3910 12688 9593 9541 3095 3048 19050 155 118 19017 18403 614
internal_count=35648 22960 3910 12688 9593 9541 3095 3048 19050 155 118 19017 18403 614
is_linear=0
shrinkage=0.05


Tree=33
num_leaves=15
num_cat=0
split_feature=58 37 30 60 2 57 55 49 30 51 34 22 25 26
split_gain=36.3268 14.0634 8.27835 8.0949 9.87762 9.52533 10.6618 13.0378 10.0212 10.7736 9.50493 10.7796 10.3719 9.22035
threshold=1.6452283859252932 1.5460604429244997 1.8218889236450198 1.6316235065460207 2.5000000000000004 1.6717314124107363 1.6625440716743471 1.6547546386718752 1.6221092343330386 1.6551474928855898 1.6229546666145327 355.00000000000006 -0.7865660786628722 2.5000000000000004
decision_type=2 2 2 2 2 2 2 2 2 2 2 2 2 2
left_child=1 -1 -2 4 -3 6 8 -8 10 -10 12 -12 13 -5
right_child=2 3 -4 5 -6 -7 7 -9 9 -11 11 -13 -14 -15
leaf_value=-0.003630941885257406 0.0014822705103736398 0.0091475259636525658 0.0086309864702185692 0.012250652124306986 -0.00012357635066602928 0.006718754185298422 0.0027143384613420654 -0.020317663121465091 -0.0021924818244524955 0.0071230494356511733 -0.029252273799488096 -0.0085259911503070742 -0.0084494909789211269 -0.010329225128953113
leaf_weight=5600 16764 297 415 154 8793 257 92 185 1982 368 82 267 328 64
leaf_count=5600 16764 297 415 154 8793 257 92 185 1982 368 82 267 328 64
internal_value=0 -0.00153937 0.00165496 -0.000629215 0.000179341 -0.00257411 -0.00325221 -0.012668 -0.00244846 -0.000733709 -0.00695087 -0.0133958 -0.00283132 0.0056217
internal_weight=0 18469 17179 12869 9090 3779 3522 277 3245 2350 895 349 546 218
internal_count=35648 18469 17179 12869 9090 3779 3522 277 3245 2350 895 349 546 218
is_linear=0
shrinkage=0.05


Tree=34
num_leaves=15
num_cat=0
split_feature=52 37 56 47 44 17 56 43 55 39 28 2 47 31
split_gain=33.1896 15.0329 9.35866 9.66226 9.0129 10.8822 21.554 10.6983 10.551 9.50036 8.38911 8.2303 10.8257 7.83099
threshold=1.6592229008674624 1.540711581707001 1.628252446651459 1.6435514092445376 1.6659693121910097 1.0000000180025095e-35 1.6897553801536562 1.6759428381919863 1.6712847352027895 1.6250995993614199 1.6423473358154299 107.50000000000001 1.6326768398284914 1.6968340873718264
decision_type=2 2 2 2 2 2 2 2 2 2 2 2 2 2
left_child=1 -1 -2 10 5 7 8 9 -7 -5 11 -4 -13 -3
right_child=2 13 3 4 -6 6 -8 -9 -10 -11 -12 12 -14 -15
leaf_value=-0.0035249088739717155 -0.018686814958398992 -0.00036608979562743833 -0.0082174162617174255 0.024691831092867586 0.0023316688767172334 0.0083658388170392024 0.035123375633306669 -0.0099517402392337913 -0.010397319194415342 -0.0012609723033269848 0.013512559403915781 -0.00016973578498106112 0.030205364999446 -0.011881506990566351
leaf_weight=5355 55 16149 118 36 10832 215 57 383 115 1721 331 88 44 149
leaf_count=5355 55 16149 118 36 10832 215 57 383 115 1721 331 88 44 149
internal_value=0 -0.00122654 0.00189769 0.00197891 0.00170439 -0.000984467 0.00673126 -0.00237979 0.00182716 -0.000729213 0.00829105 0.00137778 0.0099553 -0.000471366
internal_weight=0 21653 13995 13940 13359 2527 387 2140 330 1757 581 250 132 16298
internal_count=35648 21653 13995 13940 13359 2527 387 2140 330 1757 581 250 132 16298
is_linear=0
shrinkage=0.05


Tree=35
num_leaves=15
num_cat=0
split_feature=44 29 27 53 32 50 22 67 25 65 59 25 32 28
split_gain=30.2569 10.3588 9.41296 8.57621 12.8037 11.3519 8.12098 12.238 7.93872 7.85366 10.3256 9.26702 8.98668 7.73131
threshold=1.6270967721939089 1.4772815108299258 1.6474003791809084 1.757526218891144 1.7951422333717348 1.7127072215080263 134.00000000000003 1.7356719970703127 -0.6035533845424651 1.6927456855773928 1.719078600406647 0.60355338454246532 1.7197253704071047 1.6512826085090639
decision_type=2 2 2 2 2 2 2 2 2 2 2 2 2 2
left_child=1 -1 13 4 -2 -5 -6 -8 -4 -7 11 -11 -12 -3
right_child=3 2 8 5 6 9 7 -9 -10 10 12 -13 -14 -15
leaf_value=-0.005078512907458475 0.00081863500517763757 -0.0011756015201124098 0.0011903527166162219 0.027554763405798724 0.0040207085891195869 -0.010885419570949189 0.050987059279577807 0.0082058341841080365 -0.019965003413525376 0.0052429327049425675 0.023876940878108145 0.031461038151039532 0.0027310038585671454 0.009259821081327068
leaf_weight=1974 18629 12727 70 52 67 86 32 35 121 70 52 65 1488 180
leaf_count=1974 18629 12727 70 52 67 86 32 35 121 70 52 65 1488 180
internal_value=0 -0.001702 -0.00119313 0.00124672 0.00092941 0.00453062 0.0163297 0.0286387 -0.0122117 0.00385074 0.00460735 0.0178665 0.00344502 -0.00103007
internal_weight=0 15072 13098 20576 18763 1813 134 67 191 1761 1675 135 1540 12907
internal_count=35648 15072 13098 20576 18763 1813 134 67 191 1761 1675 135 1540 12907
is_linear=0
shrinkage=0.05


Tree=36
num_leaves=15
num_cat=0
split_feature=58 67 58 28 32 44 50 54 13 10 47 25 48 25
split_gain=27.9183 11.1703 11.0762 7.11941 8.68307 9.7304 8.553 13.7431 7.93033 11.8613 7.48559 16.8314 9.60473 11.258
threshold=1.6452283859252932 1.4856047630310061 1.5546240806579592 1.7906051874160769 1.7951422333717348 1.8275229930877688 1.7454618215560915 1.7234140038490298 98.500000000000014 132.50000000000003 1.7871198654174807 0.91597560048103344 1.7479422092437746 0.12940952181816107
decision_type=2 2 2 2 2 2 2 2 2 2 2 2 2 2
left_child=1 2 -1 4 5 10 7 -6 -8 -10 12 -12 -2 -14
right_child=3 -3 -4 -5 6 -7 8 -9 9 -11 11 -13 13 -15
leaf_value=-0.0039833797055225774 0.0013942093567799756 -0.00084344869472881127 -0.033577369945123794 0.006035499373222084 0.0011393276043236255 -0.021392327511663704 -0.0057989528611972095 0.042795510147698224 0.038207178551590809 -0.0045156611828133467 0.031206168476058078 -0.014297284777726857 -0.011692636655551373 -0.00022780432911232525
leaf_weight=2643 14967 15794 32 807 36 48 89 44 33 32 59 31 303 730
leaf_count=2643 14967 15794 32 807 36 48 89 44 33 32 59 31 303 730
internal_value=0 -0.0013495 -0.0043374 0.00145084 0.00122486 0.0010862 0.0107874 0.0240502 0.00389759 0.0171744 0.00115326 0.0155328 0.00107237 -0.00359067
internal_weight=0 18469 2675 17179 16372 16138 234 80 154 65 16090 90 16000 1033
internal_count=35648 18469 2675 17179 16372 16138 234 80 154 65 16090 90 16000 1033
is_linear=0
shrinkage=0.05


Tree=37
num_leaves=15
num_cat=0
split_feature=39 30 48 50 41 37 55 47 38 51 12 66 42 53
split_gain=25.718 10.2272 13.2395 10.7222 10.1681 10.7469 8.5113 11.1217 11.1003 7.66831 9.59415 8.95419 7.40524 7.33345
threshold=1.6081773638725283 1.6792889237403872 1.6901301145553591 1.7197209596633913 1.5953467488288882 1.5916634798049929 1.6946010589599612 1.7119423151016238 1.6672151088714602 1.5851292610168459 5.5000000000000009 1.6101257205009463 1.6897795200347903 1.4351859092712405
decision_type=2 2 2 2 2 2 2 2 2 2 2 2 2 2
left_child=13 2 3 4 5 -2 8 12 -4 -7 -11 -12 -8 -1
right_child=1 -3 6 -5 -6 9 7 -9 -10 10 11 -13 -14 -15
leaf_value=-0.0070689308880404998 -0.0051536418354282019 0.0021132589710708485 -0.016405888376067636 0.02343055246770382 1.9234656639558265e-05 -0.002016481911497457 -0.011951531039980742 0.0077972709493977681 0.0032264067618935199 0.025620199292076425 0.025798068308850397 -0.0043956841737644312 -0.035727953707629982 -0.0017763992216233229
leaf_weight=704 117 9759 108 50 14900 70 65 35 216 136 37 73 66 9312
leaf_count=704 117 9759 108 50 14900 70 65 35 216 136 37 73 66 9312
internal_value=0 0.000839511 5.6389e-05 0.000314112 0.000238731 0.00779183 -0.00803453 -0.0172409 -0.00331769 0.0125849 0.0167398 0.0057604 -0.0239305 -0.0021484
internal_weight=0 25632 15873 15383 15333 433 490 166 324 316 246 110 131 10016
internal_count=35648 25632 15873 15383 15333 433 490 166 324 316 246 110 131 10016
is_linear=0
shrinkage=0.05


Tree=38
num_leaves=15
num_cat=0
split_feature=52 37 54 28 47 38 45 52 31 52 43 43 48 13
split_gain=23.794 10.6464 8.03881 9.8673 8.80727 10.9292 8.81665 9.02897 8.27344 8.10635 13.9616 8.32447 7.51452 15.8856
threshold=1.6592229008674624 1.5379936099052431 1.6216522455215456 1.6360671520233157 1.6435514092445376 1.6503518223762514 1.6518371701240542 1.6604460477828982 1.655042886734009 1.6597846746444704 1.6571557521820071 1.6704429984092715 1.6421524286270144 81.500000000000014
decision_type=2 2 2 2 2 2 2 2 2 2 2 2 2 2
left_child=1 -1 3 -2 6 -6 7 -4 -8 10 -7 -12 13 -11
right_child=2 -3 4 -5 5 9 8 -9 -10 12 11 -13 -14 -15
leaf_value=-0.0030071475967839161 0.0053761871562649811 -0.00041412172217329245 -0.017652719318866732 -0.033450408611032705 -0.0047753940026886571 -0.011231929304138306 0.043074953772367974 0.0071494845245536932 0.011077655241664115 -0.032776379425610812 0.048846946073075138 0.012711098527207094 0.0017730873321654423 0.0033749242452904582
leaf_weight=5214 30 16439 40 36 674 31 31 444 58 49 30 34 12458 80
leaf_count=5214 30 16439 40 36 674 31 31 444 58 49 30 34 12458 80
internal_value=0 -0.00103852 0.00160679 -0.015802 0.00168928 0.00142886 0.00775932 0.00509972 0.0222228 0.00175859 0.0163094 0.0296498 0.00164877 -0.010357
internal_weight=0 21653 13995 66 13929 13356 573 484 89 12682 95 64 12587 129
internal_count=35648 21653 13995 66 13929 13356 573 484 89 12682 95 64 12587 129
is_linear=0
shrinkage=0.05


Tree=39
num_leaves=15
num_cat=0
split_feature=28 62 42 47 36 8 39 53 52 52 43 54 38 38
split_gain=21.5281 10.0615 8.33363 9.46744 13.4541 8.78555 7.62585 13.9791 11.9874 9.49183 12.166 10.0191 9.01775 11.9071
threshold=1.6360671520233157 1.7092124223709109 1.4680089950561526 1.4566211700439455 1.4883420467376711 3.5000000000000004 1.6355780959129336 1.5974380373954775 1.6165589690208437 1.64498507976532 1.6156606674194338 1.6625031232833865 1.6191395521163943 1.6298032402992251
decision_type=2 2 2 2 2 2 2 2 2 2 2 2 2 2
left_child=1 2 -1 4 -4 -5 12 8 -8 10 -9 -12 -2 -14
right_child=6 -3 3 5 -6 -7 7 9 -10 -11 11 -13 13 -15
leaf_value=-0.0052951169674744529 -0.0047798927596142127 0.020848222193764709 0.0013280207827939825 -0.0013106348749052559 0.042452961727976801 0.0088695549358462182 -0.00080316623277736435 0.02323508554034763 -0.043420994372078872 0.0013381053835697075 -0.0017933131144217504 -0.013819991169286143 0.014139564985398676 0.0031836235520471996
leaf_weight=1264 215 51 59 14853 30 215 33 45 33 15832 1613 194 348 863
leaf_count=1264 215 51 59 14853 30 215 33 45 33 15832 1613 194 348 863
internal_value=0 -0.00132575 -0.00139462 -0.00106934 0.0151904 -0.00116538 0.00113881 0.00085619 -0.0221121 0.000941912 -0.00244499 -0.0030845 0.00465663 0.00633199
internal_weight=0 16472 16421 15157 89 15068 19176 17750 66 17684 1852 1807 1426 1211
internal_count=35648 16472 16421 15157 89 15068 19176 17750 66 17684 1852 1807 1426 1211
is_linear=0
shrinkage=0.05


Tree=40
num_leaves=15
num_cat=0
split_feature=38 44 58 32 30 59 66 13 44 0 64 39 61 50
split_gain=19.9855 10.4157 10.5948 9.71774 8.00049 11.5381 13.2628 10.2733 9.05579 7.94879 10.393 9.78346 10.1956 9.84081
threshold=1.6612806320190432 1.6417834758758547 1.6201629638671877 1.524331331253052 1.6551222205162051 1.6691005229949953 1.6656123399734499 56.500000000000007 1.686221241950989 5.5000000000000009 1.7083460688591006 1.6479492187500002 1.6821799874305727 1.6870127916336062
decision_type=2 2 2 2 2 2 2 2 2 2 2 2 2 2
left_child=3 2 -2 -1 5 6 -3 -7 -9 10 11 -4 13 -13
right_child=1 4 9 -5 -6 7 -8 8 -10 -11 -12 12 -14 -15
leaf_value=-0.0030209001048829799 -0.015722267739474775 -0.0023469314897051809 0.02463189705895881 -0.00039430416109161726 0.0015904166783453338 0.0078824187404122857 0.021654934522466383 -0.011410099247070118 -0.037607260354054282 0.031315855427899143 0.0348480361700058 0.0021682359012109892 -0.023713359530224947 0.03222558661814659
leaf_weight=4369 40 347 60 18152 11933 58 69 214 39 44 35 224 33 31
leaf_count=4369 40 347 60 18152 11933 58 69 214 39 44 35 224 33 31
internal_value=0 0.00155068 0.00888381 -0.000903855 0.00128017 -0.00381219 0.00163415 -0.0110973 -0.0154484 0.0111888 0.00887659 0.00626451 0.00243798 0.00582227
internal_weight=0 13127 467 22521 12660 727 416 311 253 427 383 348 288 255
internal_count=35648 13127 467 22521 12660 727 416 311 253 427 383 348 288 255
is_linear=0
shrinkage=0.05


Tree=41
num_leaves=15
num_cat=0
split_feature=30 34 32 32 59 47 9 48 40 51 55 31 12 65
split_gain=18.3448 12.3334 8.6613 9.98201 12.2951 9.04533 9.37376 8.15694 8.59666 7.90084 7.70963 8.05405 10.1602 7.63809
threshold=1.5855017304420473 1.6223266124725344 1.6759939789772036 1.6728230714797976 1.7010535001754763 1.6617149710655215 8.0000000000000018 1.6845912933349612 1.667964041233063 1.6685675382614138 1.5512008070945742 1.5720261931419375 7.5000000000000009 1.5741033554077151
decision_type=2 2 2 2 2 2 2 2 2 2 2 2 2 2
left_child=1 -1 3 10 5 -5 7 8 -7 -10 11 -2 13 -13
right_child=2 -3 -4 4 -6 6 -8 -9 9 -11 -12 12 -14 -15
leaf_value=-0.0019381319090144922 0.00029439830016029085 -0.020870291862379889 0.0017730328054051622 0.0074028216615444472 -0.035326370405299325 -0.028781786298548634 -0.021741539384333458 0.0093001574987456922 0.012532922742413542 -0.010713863170655199 2.8657246468668032e-05 0.011801632949047619 -0.0055376332998275761 0.043187483045316881
leaf_weight=7672 118 87 10041 119 35 44 98 84 51 129 17062 36 30 42
leaf_count=7672 118 87 10041 119 35 44 98 84 51 129 17062 36 30 42
internal_value=0 -0.00215041 0.000598267 -6.26378e-05 -0.00663259 -0.00471968 -0.00827282 -0.00398732 -0.00897012 -0.00412727 0.000150179 0.00932453 0.0191908 0.0287017
internal_weight=0 7759 27889 17848 560 525 406 308 224 180 17288 226 108 78
internal_count=35648 7759 27889 17848 560 525 406 308 224 180 17288 226 108 78
is_linear=0
shrinkage=0.05


Tree=42
num_leaves=15
num_cat=0
split_feature=28 53 30 36 28 34 53 67 32 43 60 34 30 27
split_gain=16.918 9.51874 11.4812 8.90623 16.0655 9.92405 8.51377 11.2376 14.5107 11.9695 11.8621 14.8922 8.63525 8.51487
threshold=1.5717406868934634 1.5250125527381899 1.5855017304420473 1.6970341205596926 1.6309984326362612 1.762369751930237 1.6515942215919497 1.683522164821625 1.6959216594696047 1.6978369355201723 1.6734876632690432 1.6679984927177431 1.6792889237403872 1.6791313290596011
decision_type=2 2 2 2 2 2 2 2 2 2 2 2 2 2
left_child=-1 2 -2 5 -5 -3 -6 8 10 13 11 -8 -10 -9
right_child=1 3 -4 4 6 -7 7 9 12 -11 -12 -13 -14 -15
leaf_value=-0.0021936238648660759 -0.0026346357539296151 3.0476766825158148e-05 0.033810931650247976 0.036827590632619277 -0.011401393311489531 -0.023218463539429333 0.034650029623231222 0.016390448520806702 -0.011251762919127942 0.0020777708245107523 0.030457224242389204 0.00092202150908699877 0.0053052576140515395 -0.0063350481786793728
leaf_weight=7051 40 21341 47 33 119 46 43 44 90 5275 100 137 630 652
leaf_count=7051 40 21341 47 33 119 46 43 44 90 5275 100 137 630 652
internal_value=0 0.000540869 0.0170543 0.000490478 0.00202178 -1.9528e-05 0.00185978 0.00208616 0.00699164 0.00126461 0.01665 0.00897927 0.00323563 -0.00489838
internal_weight=0 28597 87 28510 7123 21387 7090 6971 1000 5971 280 180 720 696
internal_count=35648 28597 87 28510 7123 21387 7090 6971 1000 5971 280 180 720 696
is_linear=0
shrinkage=0.05


Tree=43
num_leaves=15
num_cat=0
split_feature=51 56 2 23 42 59 12 58 30 57 30 31 63 60
split_gain=15.8725 8.65218 11.0694 12.8932 13.5873 10.8428 9.61137 8.23606 8.19619 8.17106 8.00407 12.4402 11.8297 12.1219
threshold=1.6253937482833865 1.628799617290497 50.500000000000007 2.5000000000000004 1.6125959157943728 1.6116880774497988 3.5000000000000004 1.6075300574302676 1.6476529836654665 1.6355739235877993 1.5824978947639468 1.6194306015968325 1.6167190670967104 1.6092655062675478
decision_type=2 2 2 2 2 2 2 2 2 2 2 2 2 2
left_child=1 10 -3 4 6 -5 -4 8 -2 -6 11 -1 13 -12
right_child=7 2 3 5 9 -7 -8 -9 -10 -11 12 -13 -14 -15
leaf_value=-0.0019228659086070116 0.015951426385287907 0.0011242422821833367 -0.0067658016267113201 -0.041026139756043752 -0.016364022743444416 -0.013601278282672637 0.025224430185853172 0.00073528166918815114 -0.011460909653793682 0.0053610322798495411 -0.0003909228203070034 -0.030988725888970739 -0.0014802501902381816 0.0071301818460536501
leaf_weight=7280 157 351 39 42 149 254 59 21930 33 61 1078 37 3113 1065
leaf_count=7280 157 351 39 42 149 254 59 21930 33 61 1078 37 3113 1065
internal_value=0 -0.00134912 -0.00593723 -0.0100408 -0.00287935 -0.0174926 0.0124936 0.000825085 0.0111903 -0.0100534 -0.00100062 -0.00206984 0.000487863 0.00334682
internal_weight=0 13528 955 604 308 296 98 22120 190 210 12573 7317 5256 2143
internal_count=35648 13528 955 604 308 296 98 22120 190 210 12573 7317 5256 2143
is_linear=0
shrinkage=0.05


Tree=44
num_leaves=15
num_cat=0
split_feature=52 53 28 25 56 50 47 41 28 28 10 47 29 52
split_gain=14.8733 7.82591 8.11258 7.74565 7.69017 11.2752 10.1846 9.353 8.69713 8.2095 10.2409 10.7552 10.2757 7.77985
threshold=1.6592229008674624 1.4351859092712405 1.4289755225181582 0.37940952181816107 1.6331995725631716 1.6285480260849001 1.6435514092445376 1.6403050422668459 1.659378230571747 1.6423473358154299 532.50000000000011 1.6326768398284914 1.6294495463371279 1.6597846746444704
decision_type=2 2 2 2 2 2 2 2 2 2 2 2 2 2
left_child=1 2 -1 -4 5 -2 9 8 -8 10 11 -6 -12 -9
right_child=4 -3 3 -5 6 -7 7 13 -10 -11 12 -13 -14 -15
leaf_value=-0.0017387954906250042 0.010479481404106464 -0.00064669300783597465 -0.019002052512951197 -0.0014050703054082764 -0.0015405501549442611 -0.027227205593477594 -0.0024377696804310147 0.014453757698224349 -0.030173365854554709 0.013154021347224161 0.0056635756873422202 0.025576367490647137 -0.030740343034267426 0.0011009505518912418
leaf_weight=432 31 20948 176 97 102 55 76 110 45 323 36 57 42 13118
leaf_count=432 31 20948 176 97 102 55 76 110 45 323 36 57 42 13118
internal_value=0 -0.000821075 -0.00600257 -0.0127496 0.00127036 -0.0136353 0.00136253 0.00108541 -0.0127527 0.00796832 0.000900891 0.00818061 -0.0139385 0.00121199
internal_weight=0 21653 705 273 13995 86 13909 13349 121 560 237 159 78 13228
internal_count=35648 21653 705 273 13995 86 13909 13349 121 560 237 159 78 13228
is_linear=0
shrinkage=0.05


Tree=45
num_leaves=15
num_cat=0
split_feature=38 44 44 39 66 62 0 25 53 55 30 59 65 13
split_gain=13.8538 9.71886 9.16053 8.90257 7.90408 7.36607 8.85955 7.27549 7.13274 7.2862 6.92786 10.4328 12.052 9.19048
threshold=1.6612806320190432 1.6417834758758547 1.6247310042381289 1.6596365571022036 1.6458530426025393 1.6875287890434267 5.5000000000000009 0.37940952181816107 1.4351859092712405 1.476993262767792 1.6551222205162051 1.6691005229949953 1.6570926904678347 56.500000000000007
decision_type=2 2 2 2 2 2 2 2 2 2 2 2 2 2
left_child=8 2 3 4 -2 6 -4 -5 9 -1 11 12 -3 -13
right_child=1 10 5 7 -6 -7 -8 -9 -10 -11 -12 13 -14 -15
leaf_value=-0.0046308377208533116 -0.0094841148828466743 -0.0041716879620426256 0.0070080793961202455 -0.0013606926862229692 0.023504410473548849 0.033598505858427441 0.034272372087135038 -0.03287711386879285 -0.0005925724228919416 -0.029813556745648385 0.0013184633222523225 0.007315329019108723 0.01430803126266857 -0.014751758548640923
leaf_weight=675 30 289 241 47 46 39 34 30 21816 30 11933 58 127 253
leaf_count=675 30 289 241 47 46 39 34 30 21816 30 11933 58 127 253
internal_value=0 0.00129106 0.00837465 -0.00165743 0.0104826 0.0132629 0.0103789 -0.0136398 -0.000752532 -0.00570244 0.00102976 -0.00370895 0.00146996 -0.0106364
internal_weight=0 13127 467 153 76 314 275 77 22521 705 12660 727 416 311
internal_count=35648 13127 467 153 76 314 275 77 22521 705 12660 727 416 311
is_linear=0
shrinkage=0.05


Tree=46
num_leaves=15
num_cat=0
split_feature=44 36 13 67 35 67 35 44 47 22 52 11 55 55
split_gain=12.7384 8.49001 8.5804 9.09724 7.65552 7.049 12.9868 7.57648 17.7711 16.5334 10.1997 30.3923 11.2119 11.779
threshold=1.6659693121910097 1.6471477150917055 83.500000000000014 1.6716423034667971 1.6520915627479555 1.4189131259918215 1.4973117113113406 1.6611126065254214 1.6510969400405886 571.50000000000011 1.6768322587013247 1.0000000180025095e-35 1.6761857867240908 1.6733929514884951
decision_type=2 2 2 2 2 2 2 2 2 2 2 2 2 2
left_child=5 2 4 -4 -2 6 -1 10 9 -9 -7 -12 13 -13
right_child=1 -3 3 -5 -6 7 -8 8 -10 -11 11 12 -14 -15
leaf_value=-0.0038963955554543669 -0.017648637304572681 0.0015338079241645579 -0.0049641419734273648 -0.028335305170385516 0.0081289329229533181 -0.00055860810023922343 -0.032566876913465208 -0.0068870792354820132 -0.007433299397108563 0.029162894075979356 0.024199789910610902 0.003489252211015632 -0.0050859172303904382 0.030532482678585868
leaf_weight=663 38 11837 105 69 119 20897 42 59 853 69 166 281 403 47
leaf_count=663 38 11837 105 69 119 20897 42 59 853 69 166 281 403 47
internal_value=0 0.00131295 -0.00658512 -0.014232 0.00188978 -0.000680409 -0.00560442 -0.000527986 -0.0048264 0.0125461 -0.000334504 0.00488634 0.000500522 0.00736435
internal_weight=0 12168 331 174 157 23480 705 22775 981 128 21794 897 731 328
internal_count=35648 12168 331 174 157 23480 705 22775 981 128 21794 897 731 328
is_linear=0
shrinkage=0.05


Tree=47
num_leaves=15
num_cat=0
split_feature=37 33 41 3 45 35 43 23 64 40 6 54 46 49
split_gain=12.0594 7.07094 9.45624 9.95185 9.5854 8.9683 11.0057 11.231 11.8416 8.41718 7.71727 10.5524 14.4604 9.54895
threshold=1.551490902900696 1.7513464093208315 1.7844316959381106 4.5000000000000009 1.782480835914612 1.7215719819068911 1.7463646531105044 2.5000000000000004 1.7238143682479861 1.7243766188621523 6.5000000000000009 1.7250908613204958 1.7167270183563235 1.7395896911621096
decision_type=2 2 2 2 2 2 2 2 2 2 2 2 2 2
left_child=-1 2 4 -4 -2 6 7 -3 9 -9 11 12 -7 -13
right_child=1 5 3 -5 -6 10 -8 8 -10 -11 -12 13 -14 -15
leaf_value=-0.0020599747809316084 0.00017941817971469049 0.025628968776652106 0.0043973155622370544 0.039286121179259594 -0.020907179834493611 -0.00038777737588178919 0.032982239967175558 0.0034372936211982553 0.025001421979358118 -0.02687472467159116 -0.0049485679763994865 -0.0085722422999033234 0.033260552415540864 0.0037131696139980383
leaf_weight=5924 27356 54 60 31 54 61 51 49 31 43 329 179 67 1359
leaf_count=5924 27356 54 60 31 54 61 51 49 31 43 329 179 67 1359
internal_value=0 0.000410553 0.000191298 0.0162825 0.000137876 0.00312299 0.0125172 0.00662047 -0.00172473 -0.0107303 0.00204937 0.00343131 0.017225 0.00228333
internal_weight=0 29724 27501 91 27410 2223 228 177 123 92 1995 1666 128 1538
internal_count=35648 29724 27501 91 27410 2223 228 177 123 92 1995 1666 128 1538
is_linear=0
shrinkage=0.05


Tree=48
num_leaves=15
num_cat=0
split_feature=44 30 64 64 64 60 25 2 45 31 62 66 13 62
split_gain=11.0674 7.79102 10.6999 6.01519 7.02583 13.5746 7.44813 13.4788 10.7307 8.54208 9.76685 7.08226 8.33958 6.61652
threshold=1.6270967721939089 1.6649350523948672 1.6361498236656191 1.8048719167709353 1.7698541283607485 1.7861188650131228 -0.12940952181816107 79.500000000000014 1.7621122002601626 1.8128327727317812 1.7929965853691103 1.7434972524642947 169.50000000000003 1.8077525496482851
decision_type=2 2 2 2 2 2 2 2 2 2 2 2 2 2
left_child=1 -1 -3 4 5 -2 7 -7 -8 10 -10 -6 -13 -5
right_child=3 2 -4 13 11 6 8 -9 9 -11 -12 12 -14 -15
leaf_value=-0.00092169745947475736 0.00067781694031315734 0.0049924518401716278 -0.024107219996940661 0.027520256311643523 -0.024584076291778022 0.01730117444434048 0.045869378167985669 -0.024995616174513294 -0.010614060981823331 0.035594820616145932 0.023728848047353129 -0.0065081675268984481 0.016330298663967329 0.0035450321012016001
leaf_weight=14938 19826 51 83 43 45 48 31 31 47 30 37 305 46 87
leaf_count=14938 19826 51 83 43 45 48 31 31 47 30 37 305 46 87
internal_value=0 -0.00102937 -0.013032 0.000754014 0.000685846 0.000816104 0.0130558 0.0007037 0.0197855 0.0126926 0.00451317 -0.00590929 -0.00351509 0.0114753
internal_weight=0 15072 134 20576 20446 20050 224 79 145 114 84 396 351 130
internal_count=35648 15072 134 20576 20446 20050 224 79 145 114 84 396 351 130
is_linear=0
shrinkage=0.05


Tree=49
num_leaves=15
num_cat=0
split_feature=58 66 57 53 54 29 3 49 53 65 36 61 58 64
split_gain=10.4966 7.86901 13.6942 12.3027 10.3602 9.19787 8.92296 8.82491 7.52489 6.94192 11.3133 8.59342 6.77187 10.0933
threshold=1.6452283859252932 1.6492164731025698 1.5635985136032107 1.5985978841781618 1.6010282039642336 1.7180517911911013 5.5000000000000009 1.6196394562721255 1.5822100043296816 1.6408709287643435 1.6532112360000613 1.6380882263183596 1.772061884403229 1.7698541283607485
decision_type=2 2 2 2 2 2 2 2 2 2 2 2 2 2
left_child=-1 2 -2 6 -4 9 8 -5 -3 10 -6 -12 -9 -14
right_child=1 3 4 7 5 -7 -8 12 -10 -11 11 -13 13 -15
leaf_value=-0.0008274748922257897 0.034877280550343649 0.010542960211548002 -0.020390119306329224 0.01232576393231284 0.0051473194919526583 0.030896597163331124 -0.030611933986298169 0.0002877915970235078 -0.018256607869019111 0.0055584799931711077 -0.031449396877239154 -0.0051547845390662221 0.011971806957212923 -0.00024721966585643143
leaf_weight=18469 35 43 45 160 330 31 52 14251 48 1241 36 227 314 366
leaf_count=18469 35 43 45 160 330 31 52 14251 48 1241 36 227 314 366
internal_value=0 0.000889611 0.00388448 0.000507241 0.00331655 0.00388856 -0.0140894 0.000645557 -0.00464802 0.00343205 -0.00101804 -0.00875405 0.000520393 0.0053951
internal_weight=0 17179 1945 15234 1910 1865 143 15091 91 1834 593 263 14931 680
internal_count=35648 17179 1945 15234 1910 1865 143 15091 91 1834 593 263 14931 680
is_linear=0
shrinkage=0.05


Tree=50
num_leaves=15
num_cat=0
split_feature=37 33 64 62 33 64 58 42 31 55 47 64 6 13
split_gain=9.96681 6.50251 6.20001 6.23143 6.44042 5.64364 14.6915 7.47679 9.34063 8.45502 7.12614 6.89462 7.85659 6.55911
threshold=1.551490902900696 1.5845288038253786 1.8048719167709353 1.8077525496482851 1.8353481888771059 1.7698541283607485 1.772061884403229 1.7888914942741396 1.7236236929893496 1.7482464313507082 1.7806818485260012 1.7429714798927309 1.5000000000000002 99.500000000000014
decision_type=2 2 2 2 2 2 2 2 2 2 2 2 2 2
left_child=1 -1 5 -4 -5 6 -2 8 -8 -10 -11 -9 13 -13
right_child=2 -3 3 4 -6 -7 7 11 9 10 -12 12 -14 -15
leaf_value=-0.0016646766423247595 0.00028792341435798086 -0.015061916777378191 0.026290734664847454 -0.013612711966476022 0.014268346320626872 -0.0055888093625377847 0.027205759917776431 0.03799319870769978 -0.026043119191402394 0.016282192564697245 -0.013269474294365331 0.0080203764790365874 -0.003162680364524325 0.035328586370871766
leaf_weight=5832 28876 92 45 34 53 398 31 35 31 51 34 43 48 45
leaf_count=5832 28876 92 45 34 53 398 31 35 31 51 34 43 48 45
internal_value=0 -0.00187274 0.000373237 0.0111854 0.0033723 0.000325007 0.00040563 0.011094 0.00282498 -0.00369058 0.00446153 0.0182024 0.0131092 0.0219848
internal_weight=0 5924 29724 132 87 29592 29194 318 147 116 85 171 136 88
internal_count=35648 5924 29724 132 87 29592 29194 318 147 116 85 171 136 88
is_linear=0
shrinkage=0.05


Tree=51
num_leaves=15
num_cat=0
split_feature=38 47 13 31 52 50 41 48 67 11 57 66 63 51
split_gain=9.1354 9.32728 9.59355 10.5827 8.89275 8.71463 8.4593 8.99815 9.14082 8.82515 14.3342 8.51064 9.07659 9.76295
threshold=1.6612806320190432 1.6486096382141116 63.500000000000007 1.6437964439392092 1.6455153226852419 1.6621196269989016 1.6542447209358218 1.6459193229675295 1.6904833316802981 3.5000000000000004 1.6582721471786501 1.6414924263954165 1.6727228164672854 1.6590604186058047
decision_type=2 2 2 2 2 2 2 2 2 2 2 2 2 2
left_child=-1 2 -2 -4 -3 6 -6 -8 9 -9 -11 -12 13 -13
right_child=1 4 3 -5 5 -7 7 8 -10 10 11 12 -14 -15
leaf_value=-0.00061109004298691915 -0.0025043989794040229 -0.0072014921052745116 0.033315297809463962 0.0088627773945276836 -0.0072682823919292018 0.00063653818323129068 -0.018631838966393845 0.0053002091080422142 -0.0054981330102219167 0.0058199360587035016 0.0029811769475539527 0.063884840424983741 0.012237161665390699 0.029519136922974743
leaf_weight=22521 142 338 54 245 112 11403 32 379 103 157 30 31 39 62
leaf_count=22521 142 338 54 245 112 11403 32 379 103 157 30 31 39 62
internal_value=0 0.0010484 0.00819678 0.013279 0.000799904 0.00101892 0.00563305 0.00736769 0.00840637 0.0104582 0.0165863 0.0270204 0.0324838 0.0409744
internal_weight=0 13127 441 299 12686 12348 945 833 801 698 319 162 132 93
internal_count=35648 13127 441 299 12686 12348 945 833 801 698 319 162 132 93
is_linear=0
shrinkage=0.05


Tree=52
num_leaves=15
num_cat=0
split_feature=60 67 42 53 29 54 53 35 30 3 64 67 29 47
split_gain=8.78602 11.142 9.07641 7.67727 6.91812 8.07083 7.61556 6.80469 8.34288 8.77453 6.52721 7.16822 5.72779 10.0905
threshold=1.590987026691437 1.59267795085907 1.6380107402801516 1.6153787374496462 1.5226222276687624 1.5481657385826113 1.5528956055641177 1.6321145296096804 1.6019358038902285 1.0000000180025095e-35 1.8048719167709353 1.8266746401786806 1.855758845806122 1.8633150458335879
decision_type=2 2 2 2 2 2 2 2 2 2 2 2 2 2
left_child=2 7 3 -1 6 -6 -3 8 9 -2 12 -12 13 -7
right_child=1 4 -4 -5 5 10 -8 -9 -10 -11 11 -13 -14 -15
leaf_value=-0.0017224468880525313 -0.013778684770359713 -0.0029891342323805606 -0.028633641187221778 0.012521143086875478 0.011929709571819977 0.0002093214213055402 -0.034207876225312552 -0.011113553820177913 0.034915926307439803 0.014130886158020032 0.025813916121394588 0.0019085182065639316 0.012735156898110452 -0.022977303022994323
leaf_weight=6504 34 56 31 96 149 28245 30 32 38 164 52 79 91 47
leaf_count=6504 34 56 31 96 149 28245 30 32 38 164 52 79 91 47
internal_value=0 0.000375242 -0.00164205 -0.00151527 0.000280644 0.00032313 -0.0138794 0.010523 0.0134568 0.00933833 0.00026248 0.0113977 0.000211086 0.000170803
internal_weight=0 29017 6631 6600 28749 28663 86 268 236 198 28514 131 28383 28292
internal_count=35648 29017 6631 6600 28749 28663 86 268 236 198 28514 131 28383 28292
is_linear=0
shrinkage=0.05


end of trees

feature_importances:
Column_30=32
Column_33=28
Column_36=26
Column_47=24
Column_32=23
Column_37=23
Column_44=23
Column_52=23
Column_53=23
Column_66=22
Column_58=21
Column_67=21
Column_42=20
Column_31=19
Column_28=18
Column_57=18
Column_55=17
Column_65=17
Column_50=16
Column_60=16
Column_64=16
Column_54=15
Column_35=14
Column_38=14
Column_49=14
Column_56=14
Column_62=14
Column_13=13
Column_25=13
Column_27=13
Column_22=12
Column_34=12
Column_29=11
Column_51=11
Column_40=10
Column_41=10
Column_48=10
Column_59=10
Column_63=10
Column_46=9
Column_39=8
Column_43=8
Column_2=7
Column_45=7
Column_6=5
Column_23=5
Column_61=5
Column_3=3
Column_9=3
Column_10=3
Column_11=3
Column_12=3
Column_0=2
Column_8=1
Column_15=1
Column_17=1
Column_24=1
Column_26=1

parameters:
[boosting: gbdt]
[objective: regression]
[metric: rmse]
[tree_learner: serial]
[device_type: cpu]
[data: ]
[valid: ]
[num_iterations: 10000]
[learning_rate: 0.05]
[num_leaves: 15]
[num_threads: 0]
[deterministic: 0]
[force_col_wise: 0]
[force_row_wise: 0]
[histogram_pool_size: -1]
[max_depth: -1]
[min_data_in_leaf: 30]
[min_sum_hessian_in_leaf: 0.001]
[bagging_fraction: 0.5]
[pos_bagging_fraction: 1]
[neg_bagging_fraction: 1]
[bagging_freq: 0]
[bagging_seed: 10961]
[feature_fraction: 0.8]
[feature_fraction_bynode: 1]
[feature_fraction_seed: 53]
[extra_trees: 0]
[extra_seed: 11644]
[early_stopping_round: 0]
[first_metric_only: 0]
[max_delta_step: 0]
[lambda_l1: 0]
[lambda_l2: 0]
[linear_lambda: 0]
[min_gain_to_split: 0]
[drop_rate: 0.1]
[max_drop: 50]
[skip_drop: 0.5]
[xgboost_dart_mode: 0]
[uniform_drop: 0]
[drop_seed: 30626]
[top_rate: 0.2]
[other_rate: 0.1]
[min_data_per_group: 100]
[max_cat_threshold: 32]
[cat_l2: 10]
[cat_smooth: 10]
[max_cat_to_onehot: 4]
[top_k: 20]
[monotone_constraints: ]
[monotone_constraints_method: basic]
[monotone_penalty: 0]
[feature_contri: ]
[forcedsplits_filename: ]
[refit_decay_rate: 0.9]
[cegb_tradeoff: 1]
[cegb_penalty_split: 0]
[cegb_penalty_feature_lazy: ]
[cegb_penalty_feature_coupled: ]
[path_smooth: 0]
[interaction_constraints: ]
[verbosity: -1]
[saved_feature_importance_type: 0]
[linear_tree: 0]
[max_bin: 255]
[max_bin_by_feature: ]
[min_data_in_bin: 3]
[bin_construct_sample_cnt: 200000]
[data_random_seed: 4071]
[is_enable_sparse: 1]
[enable_bundle: 1]
[use_missing: 1]
[zero_as_missing: 0]
[feature_pre_filter: 1]
[pre_partition: 0]
[two_round: 0]
[header: 0]
[label_column: ]
[weight_column: ]
[group_column: ]
[ignore_column: ]
[categorical_feature: ]
[forcedbins_filename: ]
[precise_float_parser: 0]
[parser_config_file: ]
[objective_seed: 602]
[num_class: 1]
[is_unbalance: 0]
[scale_pos_weight: 1]
[sigmoid: 1]
[boost_from_average: 1]
[reg_sqrt: 0]
[alpha: 0.9]
[fair_c: 1]
[poisson_max_delta_step: 0.7]
[tweedie_variance_power: 1.5]
[lambdarank_truncation_level: 30]
[lambdarank_norm: 1]
[label_gain: ]
[lambdarank_position_bias_regularization: 0]
[eval_at: ]
[multi_error_top_k: 1]
[auc_mu_weights: ]
[num_machines: 1]
[local_listen_port: 12400]
[time_out: 120]
[machine_list_filename: ]
[machines: ]
[gpu_platform_id: -1]
[gpu_device_id: -1]
[gpu_use_dp: 0]
[num_gpu: 1]

end of parameters

pandas_categorical:null
